1280 128 512 -768 1024 1152 1024 -896 1152 -640 -1408 -2048 -128 -512 2560 512 -896 -768 512 -256 512 2304 -1024 1280 1408 -384 -1408 -128 -256 -640 -2304 640 -128 -512 -1024 -1664 128 -128 1408 0 2176 384 1664 -768 896 0 -1024 -1536 -1280 896 1408 -512 -1024 256 -256 -1792 -2048 1152 0 640 -2048 -640 2688 1792 -640 -640 1920 -128 -1664 -2816 1152 128 -256 256 768 -896 -1280 -768 384 -512 -768 1024 1280 1536 128 -512 896 1536 2816 -2432 384 -1664 256 -640 1024 -384 -1152 256 2432 640 -2176 -512 1280 1536 -128 1920 384 -768 -128 128 512 -768 640 -1024 -1152 0 1664 1408 -768 -640 -1024 -1280 512 -128 384 1152 640 -896 0 256 -1536 -1536 512 128 1024 -128 2304 384 1920 1536 1664 2176 1920 384 -1280 -2176 -512 -768 0 -896 -2176 384 -512 0 -640 -256 1152 -384 384 256 640 -1664 1280 -640 -256 128 -256 -640 1152 768 1920 1664 -384 -384 -1664 -1024 -640 256 -1792 1408 -2560 -2048 256 -2560 0 -640 1408 0 128 -2048 -1408 -1024 0 2176 2560 -2944 -1024 512 -1408 256 -1152 256 -1920 1536 -1920 2432 2176 256 3072 -512 -2304 768 2560 128 2688 -640 384 512 1024 -896 1280 -896 -512 -384 -256 0 -768 -512 896 -1024 2688 -384 640 -1536 384 256 -128 640 -384 -128 -128 -768 0 -1152 768 -1152 1152 -384 1280 1792 896 768 1408 1280 2176 -384 2176 128 2048 -1408 -1792 896 512 512 896 768 1536 -384 896 512 -384 -384 -1664 -1792 896 -512 -1920 256 0 384 -768 384 1024 128 -1408 -1408 1280 128 0 640 1024 384 -896 1920 1536 768 256 -384 2048 -256 -2944 -640 -256 0 1408 1152 512 -256 -128 -768 128 -384 -128 1280 -1152 -896 1280 1536 -1024 -1152 1280 -384 1920 -2432 640 128 -2304 -512 -384 1920 2176 -1536 0 1408 -1152 768 1664 1152 896 1024 1280 256 3072 896 -1280 -256 896 896 1024 256 128 384 1664 640 -896 -640 1920 -1920 384 -1792 0 -384 512 -896 512 0 128 -1536 2688 256 128 -896 128 1152 1280 -384 -1152 -256 -1408 -896 -128 -640 0 640 -1536 128 1920 -384 -128 2816 -1536 128 -1920 2432 0 512 -640 -2048 640 256 0 -128 1024 2048 -896 -640 2304 -512 896 -384 -768 768 512 -384 -1664 640 384 384 -384 1792 -896 384 640 -2176 -256 -2688 128 -128 1408 256 -384 384 0 -384 -1920 -128 1024 1536 1920 768 128 384 -128 1664 512 -128 -1024 128 2944 512 -512 1024 1536 -1152 -1408 -128 0 -256 -1024 -768 -1280 256 0 256 1664 256 -512 1536 256 512 -256 -1280 2560 1152 0 -512 -1408 2304 -512 -1536 768 -384 -768 1280 1792 -2048 128 -640 -640 2048 1792 384 1280 896 -384 -768 640 -512 -768 0 -256 0 512 -2304 768 -1408 640 -2176 -1152 -1408 896 -128 