-18 10 34 40 -76 14 86 2 68 32 -16 -32 116 114 20 -26 82 46 -26 92 76 -42 -14 24 78 60 -32 70 26 20 126 82 52 70 66 -16 -124 64 -62 18 78 110 -10 26 114 46 52 -36 -124 -20 -76 22 -74 -12 14 -56 -104 -14 42 38 6 10 -114 -22 -64 86 10 86 -20 -36 -6 -66 14 72 -24 -96 -14 -112 -30 -12 106 -14 -54 -8 66 32 44 -16 -8 54 -6 2 -66 88 -40 100 112 -116 -64 60 8 -52 -122 -40 42 -56 -6 72 124 36 -20 78 -90 4 -38 26 -28 -10 46 -60 -58 114 -28 52 -24 90 104 4 10 -114 82 76 124 -56 -18 66 6 56 122 82 126 78 54 -16 -4 12 40 -20 78 -52 -64 -20 92 -126 12 114 -78 30 -120 96 32 -14 118 10 -86 34 -118 -22 -26 -68 -40 24 58 6 4 126 10 -28 72 -30 -106 34 -46 64 68 -42 -4 -44 -94 38 4 60 34 36 40 76 -124 -26 36 62 -8 18 124 104 -26 -56 -64 50 -52 -26 -2 -18 -24 -98 -20 -46 -86 -40 8 -54 28 -114 64 -20 76 126 -28 18 -34 -46 -50 -18 -50 -84 -22 -12 32 44 38 16 -36 126 48 -10 -14 -22 28 -108 44 -8 -92 -20 46 12 -38 10 98 30 40 -116 -82 4 -28 -24 114 -50 44 -24 28 -22 -24 102 122 -48 -122 32 56 12 22 58 6 52 -26 14 -76 58 -10 -18 -124 -10 -74 -30 -24 -24 -126 50 86 -90 46 18 24 68 -124 2 42 -4 -4 124 24 52 -18 84 -38 124 18 104 -124 -74 -10 58 2 -78 -18 22 -8 4 106 -42 32 -70 124 52 -58 26 108 112 70 -30 20 -48 -12 -56 26 -30 -58 -22 -34 -124 22 -18 -70 6 -22 28 18 -16 2 -12 18 64 -20 14 -46 58 -34 -18 22 -36 -24 32 -64 -104 -2 -44 66 14 -124 62 64 38 108 26 0 58 94 -12 12 114 8 112 -10 -30 12 4 -4 -26 -118 -68 66 -116 12 -50 44 30 -116 0 -30 44 32 124 26 0 -74 -38 76 78 -36 52 24 -62 -34 52 -118 42 -106 -70 78 -46 -20 26 -110 6 -98 52 -28 62 -102 28 -6 22 -6 12 -16 -80 -8 -66 14 74 20 32 46 4 38 -48 -122 -74 -56 10 -40 104 -4 26 34 56 10 96 12 0 90 94 -76 108 56 18 -40 26 -44 86 124 -80 80 16 122 -102 42 -48 0 34 -126 -110 -116 34 12 44 -8 -42 2 108 30 48 -114 68 -56 84 28 32 110 -128 6 26 68 10 
-18 84 -4 -4 10 18 -124 -20 108 68 -120 -44 46 -10 -56 28 36 -122 18 58 30 26 96 18 12 -124 24 78 72 -2 -34 24 -2 32 0 -126 -4 68 28 -18 36 18 40 12 36 -34 22 16 -18 52 -126 48 34 -40 58 -44 -16 -46 -36 120 -60 8 -6 -6 -32 104 -8 -36 10 -12 56 20 4 -34 -22 -12 -126 -56 20 16 -58 -12 40 120 -16 44 -50 16 18 -12 -4 6 -18 22 4 56 -10 -12 -46 -12 36 -44 -124 -32 6 76 12 -36 -122 98 -2 20 -4 2 28 -12 -60 126 -16 62 42 4 -10 -44 -6 -42 6 74 68 40 -28 -68 -100 -64 -18 42 12 122 -42 -26 -42 22 -52 6 16 22 -12 94 -8 32 -124 -126 -126 -40 22 -6 -78 8 -24 -88 -60 -126 -58 -50 -14 12 20 -14 52 118 -52 20 -126 36 6 -16 14 -28 112 -4 -2 40 58 -4 2 44 -60 14 12 38 106 -56 -36 20 62 -124 10 -4 6 0 12 -58 -92 74 28 122 26 -20 48 24 -2 4 -36 -10 70 48 -74 20 -124 26 36 74 -98 76 -122 -22 -54 34 -108 46 -48 -76 96 32 36 -88 10 -72 -98 -32 70 48 -98 -8 12 40 52 -122 16 -4 2 -34 -26 22 -74 -10 54 -8 -48 -62 44 -110 2 32 6 -124 32 -124 -36 36 30 -52 -8 26 -52 -20 -114 54 -60 98 8 26 62 124 120 16 28 66 118 -22 -122 -12 -12 50 28 -92 -28 14 -28 -72 -10 4 6 -18 92 60 26 64 48 -16 66 36 -8 -2 -16 0 -46 -4 -110 -2 -12 -4 32 20 -16 -10 -12 -114 -20 34 22 -6 -16 -18 -92 -34 -8 24 42 -68 26 -30 10 -4 8 -68 -8 -84 28 122 94 8 -60 -26 56 -20 28 44 6 -8 -54 -42 122 80 -20 50 50 -122 114 -40 112 -70 56 28 -4 -6 -20 -96 6 40 -64 -126 16 -28 -14 16 -28 122 -92 -118 4 -50 8 52 -82 -126 16 18 8 -12 22 12 10 -48 72 -54 34 26 22 -90 -4 10 16 -10 16 -18 -2 30 120 -28 0 -24 -10 104 16 4 4 -40 -16 -2 120 -62 6 -16 -52 2 -118 30 -2 34 38 14 -12 -18 62 -2 46 -40 2 -88 -24 -44 -74 14 14 28 82 24 94 -4 -78 -4 22 106 -24 -2 24 26 44 -38 94 -30 10 48 -32 6 34 -100 4 38 26 -126 18 20 20 34 2 16 12 -46 -60 0 -64 -32 54 28 28 -54 -100 -8 58 -2 -106 114 -126 -36 -124 -64 -24 0 -52 66 
-42 -16 40 -82 -46 -116 -102 120 24 -20 -72 -22 -76 -122 -66 -36 -92 54 34 -54 -38 -30 102 40 -12 18 -2 4 -44 -70 -14 -24 64 10 -18 -56 -40 24 8 120 -98 2 0 14 60 -62 52 -22 28 32 -12 2 76 22 112 14 -16 -18 8 36 22 6 20 60 -6 -10 -16 8 -34 -48 44 62 36 10 4 8 8 38 -50 0 -122 28 -44 34 114 -20 -8 -120 40 112 -72 10 -2 -2 -36 76 12 28 16 26 -70 -10 -70 -66 2 116 44 -78 -112 -50 38 -12 122 4 26 22 4 -18 -10 -6 20 2 -120 -50 -4 -114 16 -40 -20 -8 -30 58 50 -36 -94 -82 -2 62 -26 86 -44 -118 62 8 -124 6 58 -24 -26 -48 94 22 24 -50 -16 -36 -122 -2 2 6 6 -4 8 94 22 -16 96 2 8 -12 44 114 -78 104 16 50 -74 0 104 -86 -34 4 10 -36 30 52 -26 -14 -8 22 44 38 -30 8 26 14 124 22 52 22 8 18 98 30 2 10 86 8 12 6 -8 -66 -62 -12 -30 70 -126 -54 106 -10 -2 110 -22 8 94 -126 76 -22 106 -22 44 -32 -104 0 -36 18 -58 14 -44 44 42 -42 20 -26 92 -68 2 72 -6 -96 -6 -24 0 26 120 4 -40 -62 8 -10 -116 20 -118 16 42 122 -98 -48 -102 74 12 60 -64 -8 54 44 22 44 40 54 -48 6 -52 -64 10 36 -10 -74 104 -30 -32 22 -34 2 92 40 -58 38 70 14 -32 18 58 62 48 -10 20 -48 62 -16 60 -54 2 12 -18 -22 46 62 34 62 94 88 12 24 -2 8 -8 -12 6 -14 -24 -22 -66 0 2 14 -8 -44 -22 50 -92 24 8 70 22 28 -24 -126 -124 -12 -8 56 30 -6 82 12 8 48 8 20 14 56 94 122 78 4 -36 -2 -48 -6 -4 -18 8 -36 46 14 -54 -8 70 -6 44 64 -42 -46 -46 12 -20 28 -86 96 -76 116 22 -74 -34 -10 -14 50 -60 116 -90 -58 -16 -8 -62 50 -8 -46 -28 -78 32 -14 -4 36 -106 -126 -2 14 -12 16 -102 -126 48 124 62 -10 36 6 16 78 52 -14 74 30 -20 6 76 -28 108 -48 -22 -14 44 -126 20 0 -16 114 -12 96 20 16 -116 -2 -12 28 -2 -12 40 20 62 -18 -24 126 24 -122 122 -34 64 84 -54 76 66 8 -46 -90 -16 -52 2 26 -38 -124 -20 -22 84 -44 108 84 4 -76 124 24 16 58 60 78 -78 -126 8 24 36 -6 4 28 38 -64 72 -114 -12 -46 -88 34 
90 -34 -6 48 46 -52 34 -8 52 20 -64 42 -28 24 30 -26 -8 -68 -6 38 88 -122 6 -12 -112 12 -46 -66 60 76 32 38 -68 20 -18 -18 86 -14 22 14 32 6 34 -94 -8 96 -36 0 -28 -66 22 -24 12 46 30 0 -68 32 -12 -56 -60 -90 -18 -116 24 30 70 -26 34 0 32 -8 38 126 -66 -38 22 -26 -70 8 112 62 118 -20 -32 88 6 -128 -74 4 -2 -80 -10 38 0 -14 78 -112 -58 -62 -120 -38 8 14 -114 -64 -38 -50 36 -34 -122 82 -60 -22 -38 122 62 -68 -60 30 -40 22 114 48 36 18 14 118 32 66 104 -98 -38 10 58 52 -24 10 -12 42 48 48 52 66 0 20 -2 70 -10 6 -44 92 -16 40 12 -10 28 -68 0 -36 -16 20 38 -108 -126 74 16 -28 16 52 -56 -52 16 0 -22 68 48 -46 32 16 22 26 0 -12 56 2 -100 -16 2 40 0 -12 14 4 26 32 -38 58 -30 -30 40 14 -32 -12 36 -8 14 18 -50 -76 -32 122 46 -12 20 -124 10 -72 -124 -24 24 -4 -48 58 18 16 0 -50 -22 12 -58 50 34 6 14 122 48 48 16 -20 112 28 -40 28 98 2 0 -80 46 118 -18 14 12 46 28 -34 90 -84 6 16 44 64 52 68 -20 -36 24 102 -88 24 124 -8 60 64 -66 -14 -6 4 -52 -8 -6 52 6 40 12 -36 -40 -30 -24 -8 94 6 -2 18 -16 6 46 2 4 10 -4 -8 -42 -64 20 96 72 -126 -122 0 -122 -86 92 -12 62 40 -68 -38 -18 -74 10 22 46 -4 -6 36 -22 42 -32 120 -26 8 116 90 80 56 106 -126 -26 42 -86 26 -42 -80 -48 36 54 104 46 -114 124 -68 -2 -40 -48 24 -30 88 0 22 0 -26 -2 -6 -60 64 -4 70 -4 -80 16 -4 32 -6 -42 18 22 18 -48 48 20 -104 36 38 12 12 4 -26 -58 -124 28 -126 -42 -26 -100 -78 44 -28 30 -28 16 24 -16 -116 24 12 -48 -54 -58 -50 92 74 -124 20 68 10 10 4 98 -8 30 -124 -36 -114 -72 26 -42 -2 44 -10 -34 34 -58 20 -28 -24 -80 -90 34 -52 -12 -6 -36 22 -8 -34 52 -22 6 -124 102 -6 -124 -14 6 -28 42 -82 -18 -48 -54 34 0 -30 116 -60 -24 -44 -124 102 -18 36 28 -24 -2 68 34 14 48 -90 14 16 38 42 -28 108 30 -14 -54 -120 -34 18 -40 52 -124 -58 42 44 -126 22 54 -70 122 42 -26 -88 14 -26 52 66 -122 4 
46 -46 -78 52 -22 2 6 110 -4 -56 -110 -48 78 38 24 24 -122 42 -18 92 64 -32 80 40 -54 12 124 -118 12 90 46 66 -50 -32 -34 124 -126 -44 0 -126 6 50 38 -76 -42 -16 10 -16 -10 -86 78 -56 22 120 -74 4 -102 24 -112 6 -4 -68 124 80 -10 -18 38 44 106 18 90 -62 -54 28 -62 24 126 -98 126 70 120 4 100 -114 -120 48 -10 -24 -68 -38 84 -48 50 20 -16 34 4 -8 44 -124 60 -48 32 66 48 -66 30 126 52 48 -2 10 -106 -40 24 54 18 -50 -40 2 56 20 -128 -22 -28 -110 110 0 14 54 46 52 -32 -12 -52 -44 -80 -120 16 114 -6 -124 122 2 114 -62 -106 22 48 106 120 -120 -4 -30 56 18 -80 74 24 26 12 -2 -126 36 -84 118 8 -124 38 -50 126 -12 76 10 -14 120 0 -14 -82 -38 58 -88 118 124 -28 42 6 -20 -16 -48 -74 108 18 -6 -38 -120 50 -50 -34 22 -32 46 -52 -118 46 0 -22 -30 14 98 -8 46 -28 -2 50 -48 120 -66 -34 24 14 -20 -76 -50 10 8 34 -36 -84 34 -2 122 84 66 -78 -40 92 24 80 -22 26 0 -88 24 122 -48 14 -58 -68 110 -42 -64 -8 -24 62 6 -82 62 12 -126 -28 40 18 76 -48 114 16 114 24 22 96 112 -18 -82 118 -64 78 -122 -50 18 -48 20 -66 104 46 22 -32 36 64 68 126 -22 32 26 -4 -100 80 -46 12 -22 50 -36 -70 24 -98 -18 98 122 -92 92 -36 -128 2 16 -6 122 42 -124 126 18 -16 -74 14 0 84 10 -50 10 -42 -94 46 82 4 26 116 -6 32 -22 -8 90 -52 -18 -52 -12 92 92 -42 60 118 58 -80 -82 -38 -52 -24 0 -76 126 10 54 -120 -36 -10 60 86 16 -56 -30 -74 -92 -114 46 48 -122 -96 86 -92 56 -76 -12 -122 88 116 -10 -122 -4 -52 92 56 -94 -20 -124 -94 -44 -118 -10 10 24 24 -30 -84 54 -68 26 -78 -36 -108 22 26 102 -126 8 26 -20 -8 -76 64 12 -42 -42 54 -64 -48 78 -36 -30 -8 82 -82 4 -50 12 -26 14 -58 -10 122 -80 -14 -44 -64 96 -76 122 -54 2 -12 -128 -62 -26 66 -100 -60 -84 0 -38 -38 -90 86 26 -36 -56 -40 -126 -20 -64 78 94 -2 34 -118 -72 -118 -20 -102 42 -52 -110 106 84 -54 -128 122 -6 -6 4 -40 -16 -68 2 -126 -26 -80 118 -28 -68 -108 96 -16 20 -62 -2 -22 52 -124 -98 122 -126 -6 -14 -24 28 
24 -76 68 -14 2 14 -102 124 24 -82 20 -58 -124 12 -100 44 50 38 -6 -124 -126 -124 16 -2 104 42 10 2 32 78 -116 8 -74 104 122 20 126 -48 58 70 122 8 28 -96 4 -44 90 -126 124 -48 16 -38 34 -124 82 -80 4 -66 8 38 2 -18 110 -44 -18 16 -20 -28 -40 8 -62 -68 -60 20 6 -10 44 -70 -56 -50 -124 -122 -20 100 -44 118 8 -16 76 64 2 4 4 120 106 84 10 34 118 118 -14 110 60 -30 -30 58 -124 108 -42 18 20 -18 102 106 -62 -104 -28 -2 90 -126 78 -54 -6 -16 -56 14 -118 20 -92 -64 -78 -64 18 -4 68 -10 76 34 -118 58 -118 38 -54 -58 18 -104 -56 36 -78 -82 66 68 56 60 -110 84 -82 92 -4 26 -74 26 26 -10 38 52 8 122 32 -4 88 36 56 78 60 18 -124 26 -28 -88 -118 124 112 52 6 -52 -64 -44 -124 126 14 -126 -88 2 52 26 -124 -2 6 126 122 -12 -92 -112 -90 16 -90 88 -58 -66 -52 -118 16 -36 2 44 80 -6 42 38 30 4 30 16 -36 -68 56 70 64 2 -16 34 -58 88 -4 -36 -82 108 10 -18 106 -96 26 -32 46 36 60 20 -120 -82 -14 -124 14 16 60 4 -112 44 44 -102 84 -18 -32 -32 -122 26 -124 -40 -68 -76 6 -52 122 -40 114 -18 62 78 54 -30 122 -2 -62 -12 66 -10 -44 -110 120 -94 14 20 -36 -36 -112 -110 -86 120 50 64 -2 -18 -30 -48 56 50 -28 6 -10 -60 42 110 124 -12 -34 -92 62 112 60 66 58 -52 -44 8 -14 -52 72 -64 -100 70 22 54 34 -58 -50 -60 -88 84 -72 50 44 92 -40 6 60 -62 84 54 12 20 14 122 92 68 20 -10 44 -124 30 66 -36 56 10 -18 24 20 104 22 -40 -74 104 84 100 18 -100 -44 -124 90 86 114 -16 22 -66 -118 -58 -28 -12 -68 -32 38 -22 -70 82 78 2 28 -126 -12 122 -100 -8 -62 16 80 -74 36 74 -34 4 14 -46 32 -74 -120 -58 -62 -78 -30 -52 -20 -70 58 88 88 28 -20 -40 -74 -122 36 -40 -50 -36 26 -8 60 58 70 24 4 14 24 -2 -110 4 -38 -4 4 124 46 102 108 24 -94 66 74 4 46 -54 -122 -24 -34 66 26 -46 62 -44 40 8 38 -74 46 -52 106 36 -120 -48 24 80 -56 -80 -42 -14 -42 -30 -86 44 80 -66 122 124 126 90 68 76 -44 88 -68 -38 14 -28 2 22 -28 94 22 -20 -16 -84 4 50 -36 
-4 -74 -52 -50 -116 -84 -48 118 -32 -122 2 18 -118 110 18 126 36 74 -14 -44 56 -126 -46 16 122 10 6 28 120 -2 -30 26 -74 64 -58 -24 108 2 102 -116 28 -10 -2 24 -70 0 -112 12 -46 -74 104 80 -24 -54 -122 40 -112 98 6 110 106 22 -30 -126 48 -34 20 14 124 -30 -22 52 -84 56 -14 38 24 -92 8 -76 2 50 -104 -82 -18 -4 -40 110 -48 0 -28 -108 8 126 16 42 -26 -76 -100 122 -12 -8 96 -58 -84 -86 -68 -78 54 16 -50 -70 -32 -114 32 -118 18 82 -48 -58 24 40 -126 46 32 98 4 0 -6 26 -36 96 114 -26 98 -42 -24 -114 28 36 -40 -16 -32 -76 -126 -32 -64 12 -24 -24 76 34 66 6 -64 -46 -86 -122 120 -16 98 -120 4 34 -4 26 38 -74 76 0 -78 -54 8 -68 -54 -12 -66 104 26 -98 -62 120 90 -64 -86 -58 -66 -70 126 82 -70 32 4 -18 14 -16 -20 82 -90 122 74 120 42 -32 36 6 38 -12 -50 -126 -48 -126 120 44 -118 122 80 -52 14 10 50 -128 76 -14 -8 78 30 14 -30 -18 90 -118 30 -28 -102 -120 20 102 -78 22 -54 24 34 -44 -124 -62 -104 -116 -82 -126 -4 -120 80 122 -32 -76 -22 68 64 -14 -120 -24 -106 44 22 -116 -116 -50 -84 2 -38 -54 -78 0 -8 -24 -14 -88 58 126 -100 122 -92 -50 -82 22 44 -42 -114 -32 -70 -34 108 -20 -96 116 -74 50 -106 56 -94 8 -74 -86 -24 100 -2 110 126 -54 -2 126 56 -54 -70 56 26 -20 18 -62 -20 -122 -66 44 58 4 -80 -46 -122 -92 -16 52 16 -34 16 98 -64 -126 -24 -126 -102 -28 -50 100 48 -62 4 22 56 22 -72 -98 46 52 78 38 -80 -122 -12 10 56 36 8 -64 94 88 -72 -86 -84 114 44 12 -48 40 -12 16 -56 40 -10 114 -104 52 14 -32 -74 -50 -38 -26 50 124 -4 66 74 -90 4 -24 -4 -126 -112 -36 -86 -50 16 -4 -34 -16 84 -126 112 68 126 -126 100 -50 38 122 -4 -126 -40 -46 -64 86 -34 -72 84 24 112 -54 116 -56 -36 126 -88 -62 -118 124 46 124 -32 -96 -42 -26 -52 84 -4 -42 -116 -126 -16 58 -88 -36 60 -12 -62 -28 22 102 -38 54 22 40 60 -60 -32 124 -38 46 98 -70 -124 104 -62 26 -10 22 -50 126 -26 -42 -40 -18 12 100 14 -38 110 -50 -80 84 16 50 -126 -32 -42 -72 -22 -124 2 14 -124 -28 -22 30 108 124 94 2 -70 -94 124 -28 
18 4 20 -44 116 122 -80 -40 44 30 -62 44 64 -34 -14 -90 -46 64 112 26 -10 60 -34 124 82 -6 -10 4 32 28 4 -12 6 -16 36 -46 -28 -114 -50 -8 102 -76 -2 78 -40 8 74 -58 -84 84 26 0 50 20 -56 2 120 -126 22 -100 10 -22 -22 -60 -16 36 -76 70 -86 24 90 4 20 -88 -66 -122 -24 56 -86 28 -122 -26 22 -8 40 -60 -22 -2 10 -4 126 122 42 -106 -4 122 90 32 14 -88 14 54 10 54 -34 -2 -2 -12 -24 -12 14 18 18 54 -36 48 12 -78 -56 28 -94 50 -24 -120 0 -10 14 116 4 24 -56 -124 22 -40 -68 -86 -16 16 4 18 12 28 10 86 -126 -6 -14 44 4 -96 -2 -30 42 60 32 48 -68 -48 32 14 46 30 22 64 -44 86 -44 8 30 -30 52 50 6 22 32 2 -28 18 -4 44 44 -102 124 -58 82 -64 -72 -66 30 20 2 22 56 -124 12 36 -46 80 -124 18 20 -92 18 -32 -88 110 26 -64 6 -120 68 -20 -12 120 38 2 -16 -48 10 46 -42 -32 -92 -110 36 -8 -20 -92 -54 -42 30 50 30 30 120 -56 -48 60 86 -112 -116 18 -8 28 42 70 80 58 106 -122 34 66 -20 -6 -26 -124 38 -42 18 18 -76 22 -4 -120 20 110 44 14 18 -2 -56 4 72 -122 80 -126 38 -2 -54 34 40 -8 -96 -38 98 38 24 2 2 -20 -12 -26 82 -118 2 -110 118 16 24 -92 120 30 -26 58 -30 28 -94 -70 14 104 -46 -60 18 -50 4 -124 -12 96 42 -56 62 -126 10 -124 8 -12 -2 -8 10 -6 -10 56 94 108 24 4 -22 48 -108 -60 42 36 38 -100 42 122 -48 8 -8 -36 104 -6 -14 -42 -50 116 6 -48 -102 -124 22 -50 -44 44 -50 48 -6 -54 48 6 0 26 120 28 -82 24 14 -118 6 -18 74 26 -6 -50 52 60 70 -36 -22 -12 -6 -126 -80 4 20 10 -30 44 -16 44 -6 32 -40 84 106 -4 -40 10 116 4 -126 -60 -4 124 -80 20 -64 118 -106 40 16 -36 22 4 52 16 -28 -48 46 120 102 68 114 58 -14 28 34 -66 6 4 -4 28 -6 -40 28 126 -6 0 -8 -52 18 34 -12 -8 18 58 42 -34 20 68 44 56 98 -64 12 -16 12 126 16 16 78 -126 -108 8 -66 -12 124 -24 32 -106 -2 82 -14 76 40 -74 38 122 -10 98 2 -126 22 -8 -34 78 16 -2 28 0 10 -68 -12 36 14 -14 -28 12 -26 -34 0 16 
74 -6 -92 122 -36 52 -78 26 -28 8 -110 -56 -122 -26 42 2 -52 -2 16 -52 88 124 6 -8 -116 -44 -80 42 68 -18 -6 10 26 4 8 4 122 -42 -8 -6 -8 70 -48 -96 -6 20 -24 -88 -90 -42 22 -4 14 -4 -50 -2 -40 54 -34 14 10 -104 14 -8 22 14 -4 20 -12 -26 62 -36 -24 8 -22 14 52 12 -14 -14 20 44 52 -60 -32 52 -12 -126 -34 -12 10 -114 44 -90 -14 -12 -24 -100 -32 62 -18 22 -26 -22 -106 -4 30 126 0 112 110 4 -56 -8 -12 36 10 -44 -26 20 -124 16 -64 -14 44 -100 90 32 30 18 -16 90 -6 0 -54 -36 -40 -26 -28 34 28 -8 14 -34 56 38 -6 6 22 -10 68 24 26 -10 -60 28 40 -40 12 -12 80 8 -22 -46 -68 46 0 -112 -34 0 76 80 -2 40 18 8 -18 6 -48 96 20 -126 36 12 -30 -16 94 -4 -124 2 -34 32 56 22 32 98 -10 -14 10 48 42 40 24 -28 -94 -2 62 74 -114 -4 -24 -14 -16 14 14 -36 -2 -52 4 14 -116 26 26 42 36 0 30 -50 -70 30 -18 -56 -2 -36 -48 -30 80 30 4 46 18 16 -2 -8 116 -64 -80 -30 -22 62 -34 8 8 -16 -22 -20 -22 -126 74 38 -120 54 -4 56 10 12 -42 -10 -122 14 4 -8 -80 8 -68 -2 -12 24 22 -10 -24 -124 78 20 42 18 -112 -42 26 -36 -42 -20 8 -16 6 -126 52 -10 -14 -36 72 -8 44 16 -42 98 114 -42 52 64 -122 62 -20 -8 16 -18 -28 -8 86 60 44 -4 -44 46 2 16 -24 -42 -30 54 46 36 28 -18 -2 22 92 -122 -76 -56 100 -18 -10 -16 30 22 -16 -18 50 74 18 -70 -10 -44 20 34 -40 -32 -2 6 -48 20 -40 38 -10 4 62 -28 -6 16 -56 2 12 6 -8 -36 -28 32 -90 -94 26 48 42 56 -56 46 -16 -18 20 -102 38 126 -116 -12 -88 -48 -2 -34 -122 6 30 26 -20 12 10 64 -90 58 -12 28 76 -56 62 86 -40 -126 16 24 -32 38 -36 36 30 110 42 -30 -2 2 -16 14 -24 20 -12 116 30 -84 -18 -118 64 0 2 42 -64 -126 -96 -16 54 -6 -4 2 92 -24 -122 -56 12 30 -34 96 -24 6 30 30 50 -22 40 -124 -44 14 -12 122 -30 38 -30 -46 4 40 -12 -124 38 92 32 18 -10 -34 -12 118 74 72 -68 -118 30 10 -24 60 2 -14 -36 -60 -124 -16 38 74 68 -16 110 -124 70 48 -16 2 122 -28 
-24 30 -126 72 62 -28 16 74 -44 2 0 38 118 -40 52 34 78 34 -124 -6 -12 42 -72 -112 34 42 102 -14 24 -98 32 18 90 110 -28 84 -6 124 4 38 -16 124 88 -94 -34 84 -28 -28 -52 42 -34 -24 88 4 122 -40 -110 -34 -70 48 -96 -124 78 122 -120 -52 118 6 64 -30 66 0 -74 -42 -94 48 84 42 38 14 14 78 -16 48 -52 44 -48 30 78 58 -46 78 -10 78 44 -114 -2 -124 54 -80 44 -120 12 -124 88 -72 -4 54 -2 -24 -10 -56 -40 -54 84 66 -26 70 40 2 -6 -70 16 16 56 6 36 -26 18 -48 20 14 30 -40 94 102 -106 46 14 36 46 68 8 -118 14 42 -24 124 -74 120 32 -4 -20 -52 -16 -38 4 16 -38 114 -122 74 -30 -8 -42 60 50 -126 -4 6 2 -38 -10 -2 -36 118 8 22 70 -126 -28 34 -42 -74 -110 -38 40 -14 -4 -68 -38 12 124 -114 36 22 2 -78 14 106 -106 48 2 72 80 0 6 -66 -8 122 -8 42 -66 -90 -80 -22 4 -4 0 34 70 8 112 122 102 -16 24 70 -22 14 -98 -74 -82 8 -124 118 6 66 -28 114 76 6 116 44 14 40 -66 98 8 -20 -8 46 24 -14 116 -26 -64 -4 78 -10 60 -122 102 -72 28 -48 -90 30 16 -46 78 -6 24 -108 0 -124 122 0 126 34 -120 -58 -118 -34 64 0 -32 -40 16 32 -102 4 -24 122 20 44 -90 -4 -14 -126 112 34 -24 -10 36 22 94 108 -36 -122 18 -124 18 64 78 126 58 -124 -60 92 -38 10 102 16 34 -98 10 -48 -20 0 -88 12 -78 38 -4 12 72 -2 -128 124 122 38 -114 -60 -86 -10 28 -72 44 82 124 -30 74 84 -58 -54 -76 22 -68 54 -62 60 120 6 6 -2 -72 -26 -22 124 -78 -2 -96 -20 2 -72 2 126 -56 58 -54 -12 -38 122 -90 -10 2 60 98 -42 82 -74 -24 -32 8 -44 -22 -14 30 32 -8 18 24 -128 -112 24 22 -16 -16 26 -28 18 -42 -126 42 24 102 -122 44 82 4 -6 0 76 102 -4 -98 120 -124 -52 56 116 -122 -36 0 -18 126 24 -20 66 -100 -98 -72 58 -6 124 52 38 -38 -40 -18 6 58 100 32 -42 -128 -16 -108 -24 50 110 -98 50 84 24 62 -86 4 -8 -40 -106 100 122 12 14 -66 2 0 -92 -12 -6 62 4 -28 68 2 -122 -58 16 34 -50 -58 28 -112 100 -48 -32 -10 44 36 56 68 22 20 -36 60 38 36 -110 22 -12 
-20 42 -20 14 36 90 102 -30 34 92 -10 38 -18 -120 80 -62 -86 -44 -26 -84 -42 -14 -104 -4 -46 46 -108 -10 36 4 -126 22 -36 -6 2 82 -120 -24 48 80 12 58 -36 30 -8 -14 90 -92 -126 8 32 118 -48 -126 12 2 126 26 22 -54 -28 16 -74 2 2 36 16 -2 -2 -74 -38 88 44 -12 10 10 18 42 -10 82 -82 42 -52 -42 124 -10 -74 -6 -46 88 2 16 -22 34 -42 96 114 -112 2 -36 -8 48 62 -34 86 124 116 18 74 18 4 42 48 -42 -30 52 -42 -24 -54 16 -68 -46 6 -4 122 24 94 8 80 114 -6 36 120 114 20 72 40 26 -62 -44 -124 8 -114 16 6 74 106 -120 122 -16 -38 -20 32 -46 46 80 -12 -14 -32 -14 -8 26 14 -4 -70 -82 88 -94 16 10 -126 -108 34 -26 28 20 -4 16 84 10 122 -46 -8 -2 -34 32 20 74 62 -52 -50 -16 22 28 110 -22 -60 -32 -20 -74 -30 -10 -126 -16 -12 -64 -122 -2 -44 -6 122 0 -70 -26 14 -48 -28 26 -28 -38 12 26 18 -10 -2 -24 -22 -22 -48 18 34 50 26 -8 -4 32 108 86 16 10 -106 124 64 4 -100 -60 26 -40 44 -40 -40 -28 -6 -4 46 -8 70 10 -24 118 -42 26 2 -26 10 -12 -88 14 0 28 18 34 66 30 -68 2 -124 122 -38 118 -24 -92 -24 12 -120 56 -126 50 -32 -2 -68 30 22 -10 -126 -46 -30 6 -104 -62 -44 82 -118 -20 6 26 10 -24 42 24 42 8 10 -126 54 -22 -14 -12 -8 12 -90 60 6 2 -12 10 -62 -20 -68 -2 58 -2 4 80 8 -22 58 2 14 -12 -12 -116 124 -44 112 4 8 -110 14 10 2 70 54 -44 -8 -20 -8 116 12 20 -28 -32 22 2 8 66 -56 -4 10 86 2 -44 14 10 58 -86 -86 -22 -16 -22 104 12 -124 68 6 62 -36 -40 -8 -24 0 -64 -38 -32 -42 10 8 28 -14 -126 -38 -30 -62 -4 46 28 -124 20 18 22 78 -10 -26 -22 4 26 -64 0 14 -68 -56 -6 -126 14 -56 -126 -30 52 26 -86 -20 6 -126 -56 26 28 -42 -12 46 60 -32 0 120 -124 -20 -16 -34 46 -24 20 0 -40 -24 -54 66 -128 -24 -64 -24 118 46 44 -30 14 12 -16 -110 -20 20 6 22 12 12 -30 -18 -16 -10 -48 20 10 0 -80 -124 62 -60 -120 -30 -24 106 -6 34 2 -84 66 20 22 26 36 2 2 -74 -16 122 -12 -2 -14 48 30 78 2 -18 44 
-50 -62 62 -50 -96 56 -30 -20 44 -84 -58 -84 46 -34 -88 -74 70 60 10 28 -88 126 6 -62 -40 88 -10 24 -10 -36 0 -120 -10 12 -48 -16 -20 -76 -106 104 -14 4 -124 -8 38 44 78 18 30 52 -12 10 -8 14 -8 -30 96 -66 -24 50 66 76 -4 -78 -64 -30 -36 -38 -40 32 64 42 124 14 -16 52 48 32 -92 6 108 -60 -60 20 50 -122 -16 -122 124 84 -22 112 86 50 18 -14 102 88 46 -124 -116 16 -8 24 118 54 22 -126 -52 -52 126 26 94 20 -80 -16 -22 16 -16 -42 10 -78 -8 -16 -42 114 26 36 78 0 -56 120 10 24 -98 0 -76 70 14 -40 48 4 56 -12 14 26 46 20 48 -12 52 -2 58 -34 8 2 -82 122 70 32 126 -26 44 32 34 116 -16 40 12 -16 18 46 90 76 -12 36 -52 16 50 -60 18 -56 -72 12 0 -56 -118 48 0 -26 -20 -42 -4 -36 24 -14 -12 -88 -26 -126 42 -38 40 22 12 58 6 -50 -62 -126 52 48 40 36 -38 32 -108 82 38 -22 -114 -98 -18 126 58 -106 108 30 48 -4 72 4 -84 12 -60 -28 32 -64 26 -4 -10 -4 -72 -34 64 -38 -36 -22 -10 -18 6 68 -12 -44 84 32 26 126 -34 -4 -108 -34 -74 30 56 12 -40 -30 -10 18 102 -8 -56 66 -36 12 68 0 36 -24 18 20 28 36 78 30 36 -90 -8 14 -36 16 18 28 84 104 10 -20 18 -126 -60 -6 80 -4 88 8 126 -100 -18 46 -124 -62 36 14 -74 -20 4 6 60 20 -44 104 0 -46 -10 -34 58 50 62 26 -72 8 -90 32 24 18 -20 -84 -72 -30 122 46 -32 100 -26 -28 6 -118 -40 32 -68 114 26 -126 -14 -70 14 122 66 16 60 0 56 -30 -48 38 -82 0 -110 84 -40 -52 -36 76 28 34 -36 98 98 -92 -82 82 18 -56 -40 -10 -38 26 18 94 32 -126 72 38 -46 -98 56 70 -126 40 -90 30 18 4 -8 30 -118 -40 24 -76 -128 -36 -74 -10 -126 -126 66 38 52 -84 -58 -44 38 0 -38 -38 -84 -8 -40 26 14 -70 10 -46 26 -112 28 98 -14 64 28 -14 82 126 124 26 -76 64 34 -126 -100 82 -120 -116 16 8 -42 -64 110 88 28 80 -108 8 -36 -80 44 -10 52 126 -116 -72 -74 -2 36 -112 56 -126 24 -112 -44 32 -68 54 50 84 36 52 44 -122 -80 -10 -14 -100 74 68 -32 -120 -118 -14 88 -126 -16 -14 0 126 106 -14 -42 18 -124 -28 
-106 -126 34 62 42 46 -36 -28 20 34 -2 -54 18 -76 -34 32 -112 8 -18 -124 -10 18 56 -2 -54 72 -30 -2 -72 -50 122 -6 122 -20 6 -76 36 -4 26 -10 -6 2 -4 52 38 -106 98 -34 114 36 36 -44 -16 94 -30 -16 36 -60 -44 -8 -30 22 -118 -14 30 -48 26 58 54 78 74 0 54 10 10 0 -24 96 -8 -10 -14 -110 60 64 122 -6 -16 -4 0 52 22 20 0 4 -50 34 84 -64 38 -2 12 12 -28 -4 -26 28 30 -12 -40 74 -14 102 0 94 2 72 -78 10 -86 6 2 -120 24 -72 -102 -76 -124 54 12 -58 -2 -74 -20 -36 78 32 92 -14 -58 -16 44 -70 0 18 62 36 112 18 -78 14 -22 38 -28 14 -2 -28 -20 90 -38 -122 -16 6 42 36 50 -128 76 126 -30 -88 -40 -6 -14 -88 58 -46 -62 4 22 -48 124 2 48 -38 -96 -118 -12 10 52 28 20 86 -22 32 -124 -6 -86 -36 10 -8 26 0 -32 16 -32 -54 -126 20 24 -30 20 82 -82 56 -12 76 14 90 -16 42 -24 70 14 -40 48 -110 18 -12 -66 100 -90 26 8 -42 32 -28 48 -84 30 -8 116 -122 -20 -18 -126 8 -38 16 4 30 38 8 -12 -6 24 -4 98 -26 96 16 22 110 28 -12 72 14 48 -52 2 -120 48 34 18 -24 -34 106 -50 24 52 2 -62 -52 6 2 -10 -126 -44 -90 -78 8 76 42 14 -24 20 -62 94 -122 122 -84 -12 26 -122 18 -16 46 66 74 22 98 16 -38 16 -120 -62 -100 -8 12 -52 116 -16 62 14 0 26 14 -110 -92 -126 -56 -96 -72 42 -76 -124 -66 112 -52 64 28 48 -122 48 62 -30 10 26 2 -10 12 -22 102 -16 -2 28 -10 124 52 -42 -20 4 122 4 -62 -78 76 -46 92 94 -10 80 -22 90 -36 50 -38 4 -40 82 -8 2 -16 124 42 34 -126 12 -96 18 -16 122 -98 -126 2 4 18 -30 -126 0 2 -120 -126 78 32 78 -58 -42 22 82 -8 54 -32 -86 -68 -82 6 60 -68 18 34 -80 -46 -100 -24 -30 -110 16 -102 -88 -96 32 -64 124 -50 30 -14 -108 30 32 114 60 86 -114 122 -10 16 10 -38 -54 8 116 -6 10 -56 120 -26 0 -46 74 124 -74 -102 -24 -56 -74 -16 104 8 -72 -54 50 -56 10 76 42 -86 18 6 70 -44 -122 -48 18 46 -70 -124 4 32 -58 -22 40 6 -102 30 -16 10 -58 0 -6 120 -48 54 24 86 -20 -10 18 -84 -20 0 -14 -38 
0 54 86 -18 36 -28 -42 114 18 -38 116 18 -46 -70 -10 98 36 92 58 64 -18 -106 14 4 106 12 -10 -4 52 -18 -60 -54 54 46 60 -58 78 -124 -120 -32 -40 126 20 126 -74 4 60 -78 74 28 12 26 -48 36 8 -50 118 -124 120 -4 50 102 -22 44 -16 -44 -76 -24 -46 -10 116 -60 -56 30 -10 -64 -10 -24 102 -14 116 4 6 2 64 68 16 -2 118 -62 -26 26 52 -14 -10 28 -112 56 -82 -98 8 -12 -14 -58 -16 -22 64 90 -24 30 -32 -2 56 122 -34 36 16 58 124 -72 -106 94 -116 116 54 -42 -44 28 -22 -22 -16 126 -60 0 -124 40 62 -18 -34 46 -14 -20 42 -114 122 22 86 -2 82 -60 46 -42 -8 -8 52 4 -38 -54 -24 30 52 42 -6 52 60 -32 -96 16 10 -40 -96 -48 14 -58 -28 46 -42 -82 2 -40 44 -52 -58 -30 28 -18 124 58 -124 -42 -42 -76 14 26 76 -34 78 -2 -6 10 -24 24 -12 20 -82 -8 4 126 -94 -124 -4 68 88 -28 52 62 48 122 -6 66 64 -22 8 -16 -26 -8 -10 26 44 124 -14 -18 64 -16 -118 -54 -34 48 -2 102 110 92 124 46 -62 88 -76 8 90 -122 -36 114 -44 -16 4 32 -16 62 100 38 24 -22 32 10 14 -40 -102 12 36 48 -64 52 -10 -124 -12 34 42 16 100 6 74 124 -80 54 54 -10 -16 -48 46 18 -122 -14 -22 40 -6 126 4 -76 48 -126 -6 -96 92 -42 30 10 14 -124 100 -22 -44 -126 -116 4 -62 -8 72 108 -60 -42 -12 22 -62 -96 -16 14 52 26 50 -28 -54 126 18 -54 -12 -42 -38 -36 -126 32 52 -32 28 54 -32 -74 56 88 -18 -8 -62 70 16 -6 58 -20 -48 -72 -68 32 126 2 -22 -20 -48 14 -24 26 44 110 2 -120 64 26 2 -2 18 -2 110 120 -30 56 62 -28 -4 -58 -10 -24 -6 -26 -24 122 80 124 -22 120 -12 8 -72 -22 28 44 70 60 -78 -82 2 -36 -52 60 124 48 74 -4 -36 -26 -50 14 -88 36 60 -42 26 -50 4 -26 14 -26 -126 82 -32 -96 106 -72 100 -40 74 -122 -112 54 -122 28 18 10 28 -12 76 -38 -112 112 -118 34 40 116 66 -12 -112 30 118 18 24 14 8 32 16 58 -32 80 76 24 -102 -124 -62 32 56 -104 48 124 12 -124 -8 36 18 -60 -24 70 122 122 28 120 38 34 -8 26 -56 18 68 120 124 10 -74 -126 -50 20 114 -40 54 24 -18 8 -92 -80 
66 106 -28 -128 126 74 126 126 -128 120 -50 126 -126 122 76 122 104 126 4 -126 -38 126 126 120 126 -30 126 126 56 24 -40 50 126 116 -126 122 126 42 -26 -30 126 126 126 126 -126 126 -126 -2 -114 -48 126 -128 -94 126 126 126 -100 124 -70 -122 -120 20 120 68 126 126 -86 126 126 -70 126 126 126 0 124 -112 62 28 -126 -58 -124 -128 -78 32 -82 126 36 126 -126 84 -128 -128 126 126 6 -128 -124 -122 126 126 126 110 -90 126 68 -126 126 126 -10 126 126 -30 -128 -126 120 -108 46 -40 126 -90 -128 -42 86 -20 -118 -128 126 -78 -100 124 126 -54 -122 126 126 102 -104 -128 -102 104 52 -104 78 -126 126 126 -118 88 6 54 126 126 56 -128 120 -128 126 122 -104 -128 -72 -106 -42 28 -120 126 -48 -112 126 -128 126 -128 126 46 90 126 122 -128 -116 106 -58 126 -32 92 -26 124 86 126 -126 -126 -126 -16 28 126 126 118 92 126 -128 -128 -124 72 -126 -128 112 -122 90 126 -106 126 -104 -128 126 -128 126 126 126 -126 118 126 126 124 126 -104 -124 98 -64 -124 -12 106 -124 -120 126 -126 -126 -124 80 126 -54 -60 24 -84 -30 126 88 -106 126 126 126 126 -8 -128 118 126 -66 -124 -52 126 -58 72 126 -128 126 122 -124 126 -128 122 122 -126 106 -58 -72 -128 -6 -76 0 -128 14 -128 124 120 -128 126 126 -114 126 -124 114 -126 18 -128 -126 82 124 -98 126 -126 -126 126 -128 -64 -76 -44 126 114 126 106 30 104 74 126 -78 126 126 -124 -128 -128 126 -126 110 -54 -92 -114 -38 126 126 100 -12 -128 126 -126 126 -54 -100 126 54 98 126 60 118 120 -128 -128 40 -126 122 126 -72 124 -128 -126 -16 118 124 -14 -18 68 126 66 -126 -126 70 48 126 100 -18 112 -4 4 76 126 -122 -126 126 -128 126 44 -80 126 126 126 60 -80 -68 124 -36 92 70 126 -104 -128 -40 -128 126 126 126 -70 126 74 14 126 16 -72 -64 126 126 -86 -4 -60 126 124 -110 -108 -126 126 100 126 124 4 126 -120 126 126 26 18 126 -72 -102 126 -124 126 -128 74 126 126 126 -128 -6 -106 -124 126 -120 -128 -88 -128 10 -124 -114 126 48 122 78 126 120 98 -126 -84 50 -128 126 126 40 -128 126 126 34 114 -62 -92 -22 64 126 126 118 90 -2 126 126 126 120 -112 126 126 -102 122 -62 126 -88 126 -126 126 -126 122 -114 -126 -120 126 126 126 126 126 126 102 126 126 102 126 -90 -18 126 108 
-40 -8 -14 26 -14 -8 -2 86 28 56 -126 -6 -124 0 22 -60 -92 20 -34 -40 18 122 44 42 46 -8 10 -18 34 -60 -2 -2 30 -14 8 -34 -44 -26 -42 -22 36 -22 2 -32 -2 -108 -42 -40 2 -108 40 -14 22 -2 14 20 -58 66 -14 10 -18 -48 -34 12 6 6 18 -2 -66 -42 -50 8 124 -106 -16 -80 2 32 -122 -12 -14 16 -22 -6 -42 -118 -62 14 -78 -56 0 -102 62 -32 -68 -60 10 -22 -36 100 34 32 -34 4 14 -20 -14 124 -48 -62 -126 46 -12 -24 -22 26 8 8 -94 4 -78 -50 -118 34 8 -80 6 -6 -32 62 36 -72 -44 -22 10 -12 -38 -60 -54 -6 24 -46 42 10 126 0 -8 8 2 28 -16 -42 -6 -46 12 36 -46 0 12 -2 56 -6 -30 10 -62 14 10 6 -82 40 62 22 -50 6 30 -20 -82 42 24 10 16 -102 -34 10 74 26 -98 -26 -128 68 20 38 96 66 26 56 4 34 42 -118 -4 20 66 50 -20 -20 2 126 -44 2 -18 64 -124 4 8 -30 62 -24 4 4 -124 -114 -40 -18 -24 12 -26 94 -24 66 4 -34 28 -32 24 -10 6 6 -20 8 80 -16 32 -16 -58 -28 -2 30 -74 -44 -64 32 -46 -74 -8 -42 28 -68 32 -38 10 -62 -12 -54 -50 10 -98 -4 122 36 -10 44 -38 -88 54 0 -30 -24 38 -12 -50 -46 -8 10 58 10 -50 -50 2 -38 46 -12 -122 -24 12 -124 62 -12 14 30 -90 2 -70 -4 14 30 120 56 -46 76 -124 -84 -42 8 50 -14 2 20 24 -36 26 -54 -6 18 12 -16 -94 -14 -46 -54 42 0 0 28 -8 2 46 62 4 -60 4 -12 18 -6 14 -12 -56 -96 -56 -14 -12 -36 -20 -56 -14 0 -24 26 32 46 -12 20 -58 40 48 10 116 48 -10 -12 -28 -22 36 30 -26 -14 14 -24 0 -118 -36 -32 40 40 -52 -18 78 44 28 -12 -52 -26 -12 -34 -126 -48 46 -80 122 8 -116 4 4 -4 10 30 -8 6 -30 -6 -124 -92 8 -38 -122 124 -4 -6 14 -6 72 -10 30 -88 2 -76 24 6 42 -12 24 -8 -12 36 118 -108 44 -110 -84 -34 -40 46 -22 16 -124 74 48 -44 -14 -52 38 -38 -24 -32 -42 2 20 -10 108 -70 58 -18 96 -46 10 -32 2 72 -2 46 24 76 52 10 10 0 16 -58 -6 2 12 -12 -14 -16 66 46 -68 20 -50 122 -44 10 -22 20 20 -14 -46 -124 50 -60 -62 114 -30 26 46 -22 -34 -36 10 -26 -18 -18 
70 -28 -50 -56 -6 104 -44 32 -12 106 -16 80 -116 58 -20 -122 66 -56 54 -80 126 -126 64 4 60 -90 78 84 24 8 124 -32 -110 58 36 16 -2 54 64 -54 -110 8 -116 -76 -20 14 -108 126 -52 94 54 48 32 28 -94 18 -26 84 -82 -32 -48 124 -112 -118 96 34 54 -104 -122 -126 76 -94 122 26 32 50 8 -2 14 58 -26 18 -40 -60 56 -62 20 -56 -6 -46 -82 -90 56 -120 -72 58 116 114 -120 -50 30 -4 -28 -12 118 18 110 104 -36 -32 -28 98 -42 52 -38 124 -60 114 62 -38 -24 62 -20 78 104 2 90 -86 30 -64 -56 104 68 52 86 -20 40 -10 110 0 72 8 -88 -62 126 12 -18 110 -38 -14 24 106 72 90 -124 20 2 -124 4 -78 -8 42 14 56 96 -60 -10 -46 -40 -34 -2 44 48 -30 -22 -90 120 72 -24 -24 62 -122 44 -84 -32 18 60 -48 122 98 -46 28 -60 24 -54 -12 120 -90 66 -26 98 74 -90 -96 116 48 -86 -124 46 114 -14 -120 90 -22 -102 58 -4 -120 -56 20 -124 -14 52 -112 78 -96 36 -82 -50 -110 46 28 40 -60 2 -104 126 58 -52 -6 92 -56 -16 -26 -122 70 -52 -38 62 -110 -116 -86 -38 116 90 -74 36 -60 106 -38 -90 -18 74 76 126 -26 124 52 62 -4 90 -70 -70 36 -52 58 -62 -38 -40 -122 -116 -110 22 30 38 -68 106 -28 -2 32 -42 112 108 -42 64 -42 -54 -126 -6 -94 -26 66 -88 122 -6 -54 -98 -76 40 -22 -46 -122 48 60 90 -42 -20 -32 6 -34 50 -84 -94 90 -18 124 -110 100 -122 -20 -2 46 -42 -36 116 8 48 -6 56 -34 112 -118 -74 -30 -66 -14 20 92 -18 74 -46 -102 14 114 -2 10 90 58 118 -12 -12 -106 -42 -58 36 -92 124 26 68 -46 -72 52 -42 -82 26 118 118 14 -78 -122 44 -10 54 -6 -12 -6 16 -56 -82 28 60 122 84 -10 -80 -6 12 30 -94 116 126 118 -46 28 16 -48 -42 -120 0 0 -76 -94 116 116 118 -30 120 2 74 8 20 -60 -12 32 -20 42 -84 106 0 72 -32 78 -38 120 -20 -120 -28 54 -22 118 -64 124 -64 120 -114 -114 -38 -22 120 14 -80 -78 -46 126 -56 -38 100 0 82 -2 82 24 106 -20 124 -2 20 24 -6 -32 82 76 -14 -36 22 120 60 -10 -62 -80 18 -14 -42 -20 14 98 -22 0 88 -128 -40 -6 68 -26 -26 -22 -48 6 -26 116 122 -122 -32 56 16 -90 -34 -2 62 28 44 118 
-52 12 22 -4 -58 38 -52 -120 -34 12 -12 -10 18 6 -26 86 -122 -104 36 10 0 -24 -124 -24 78 106 -120 -24 -32 14 -40 12 -26 -48 2 -58 -48 44 24 -116 6 10 48 30 4 16 -22 -8 28 -2 -122 40 -126 -126 6 4 6 6 90 -4 -74 24 -56 16 -10 32 -14 22 42 8 -22 20 -34 -34 -34 6 8 -12 2 18 -2 -4 46 16 2 28 -12 80 28 -124 24 30 8 4 -30 10 8 12 108 -60 -28 112 126 14 8 -102 38 4 122 -72 34 16 -14 24 -22 0 -32 -6 38 -6 -20 98 -52 20 -14 -32 -24 46 6 -22 12 -8 -40 -26 62 -2 44 -126 58 -116 -12 -56 -68 30 -34 -10 -112 -6 20 4 -126 54 -112 12 10 -62 -36 -22 22 8 44 2 -124 -14 12 -20 -80 0 -22 8 -116 -126 -40 -122 12 -126 2 32 -118 72 32 -12 40 -40 12 36 -12 24 80 -2 60 2 -8 14 6 -88 -30 8 -16 -12 -32 -4 -76 -76 -48 18 -28 -2 98 42 30 -24 16 16 0 -32 -126 18 2 -28 22 98 -108 20 -36 -4 -126 26 -52 4 -30 -116 112 36 28 26 -8 -44 38 22 -126 90 -10 52 76 4 40 8 8 -82 -20 -20 0 -12 -46 30 24 46 12 122 54 52 2 -4 32 -128 14 62 -32 34 86 98 -8 38 -96 -16 -64 -28 -30 0 6 -14 -16 -126 -112 -108 20 98 -128 6 22 24 -22 0 -56 28 124 -4 -28 -38 -36 -14 8 10 -8 44 24 -16 4 64 -16 54 -6 44 -14 4 62 28 12 -62 -36 26 -8 -18 114 8 -2 -46 18 122 -14 16 46 46 2 -2 2 32 10 78 40 34 88 40 -16 -32 78 -122 72 88 -12 6 124 26 88 72 -10 -30 36 -30 126 22 -46 46 -18 -38 110 48 -14 22 96 -66 18 -112 4 8 -2 -114 26 4 54 4 -10 6 42 4 12 -104 72 -22 4 82 34 8 18 -20 -22 10 -18 8 54 16 -64 12 40 -44 -78 22 -10 -16 30 -26 2 24 -14 -18 -10 18 -14 -20 114 34 14 66 96 18 0 54 -26 -2 76 -24 20 -22 -10 0 -122 22 44 86 34 -28 -2 -34 -10 -26 -28 -124 6 -8 -20 -92 -44 -42 50 -20 0 -64 16 -4 48 90 -70 122 -8 -16 -46 -16 4 -28 14 34 -10 38 -12 8 26 -38 -10 50 -10 -78 26 46 0 -10 20 -34 16 52 58 36 -4 -16 -18 0 -20 -28 6 0 42 52 -4 -120 26 -32 -64 118 28 18 -30 28 
-32 88 -20 30 84 98 124 -50 10 -80 -8 56 54 -86 -92 8 -122 -46 66 -78 28 14 -24 14 -106 42 20 110 118 42 20 18 50 0 -12 -12 -122 118 -24 -20 76 -32 -22 -44 -84 -120 -36 42 8 -52 58 54 22 70 68 -90 48 -10 -28 92 -126 -58 -80 -86 -10 -38 52 -42 -48 -2 -54 32 16 90 -70 -38 -40 114 -28 -78 22 -24 22 -80 8 -40 64 -110 -2 26 100 4 32 -116 -12 94 8 22 -38 106 -6 -10 8 88 30 2 18 -116 18 48 -6 68 8 -14 -106 62 6 -90 34 -32 98 -32 68 -68 68 -10 18 24 -12 106 -6 -42 72 12 -60 -12 64 -26 -80 116 10 8 -8 78 66 -34 88 50 42 -116 60 94 2 -122 -52 74 -114 82 40 -30 -22 58 86 -90 4 118 20 30 34 -86 48 -62 88 -46 -14 88 26 -120 126 36 -20 36 118 76 -6 -76 -84 118 -52 -48 -88 -96 20 -62 -34 74 124 82 -54 12 -74 108 96 30 114 -36 48 -24 -84 68 -44 -24 2 -50 60 -114 -116 -16 10 -52 40 126 8 -40 28 34 -90 -76 120 -8 -68 -66 -52 2 24 -96 4 -104 -118 -2 12 -18 4 -26 108 -62 6 52 86 66 102 24 -18 6 -38 34 -96 -36 -52 -24 102 44 -60 -2 -42 -26 40 -116 -52 36 84 36 50 88 -78 -122 -84 126 40 70 -20 96 -22 0 -110 42 -14 22 42 -124 86 56 -34 -116 -120 -54 -2 54 -36 120 58 38 -16 44 72 -12 16 -10 60 18 -62 -126 -106 -124 -24 32 30 -52 70 -20 -24 18 -16 -18 96 28 16 -52 -10 38 -38 8 24 20 -126 20 4 -106 -72 -66 -38 -52 -4 -70 62 -4 52 -86 80 -124 -118 -2 74 14 -44 10 108 120 -44 82 -40 -72 -124 36 -34 42 26 -42 -4 18 12 -96 20 78 0 -30 -22 -102 -34 20 -6 56 16 -8 -124 -6 6 122 32 -46 -24 -44 -16 66 -10 42 44 32 34 8 82 22 102 -114 -116 46 76 48 6 -46 116 -42 -52 -56 56 -52 -14 24 2 82 26 -6 0 84 -122 74 -72 -10 -12 -22 46 -32 -78 4 -4 -80 -52 -40 10 -34 86 -28 -48 44 6 98 38 10 -16 10 4 -74 -40 14 -128 -26 54 8 -90 24 -122 -40 4 88 42 -62 -22 22 0 -22 -46 -14 126 -76 12 -30 -8 126 -104 16 -96 -124 -30 -98 -14 110 -16 -24 -32 100 -108 -14 -52 -86 -76 38 -72 -94 -8 42 44 90 112 -14 114 -54 -22 88 -126 -86 80 62 
-60 -6 -20 -6 6 -16 -2 -44 10 -32 14 -16 126 48 -30 100 -68 8 4 -32 -84 -28 10 -68 14 20 2 68 90 16 36 -8 20 -56 18 -40 20 20 -30 -16 38 -14 0 16 -28 -4 26 -8 64 78 4 -26 36 8 36 38 78 -98 124 16 80 -68 -48 -124 -126 82 -18 -14 -16 26 60 -48 40 52 -92 4 -70 16 56 -68 32 -64 -12 122 -46 46 4 -10 114 64 -84 -106 2 0 -44 76 2 32 -12 -24 4 8 46 -122 30 10 52 -36 -4 10 38 -14 108 26 16 -46 -78 -46 48 -74 50 10 -32 -14 4 16 -56 76 16 -26 -72 14 32 0 22 12 -16 -2 -60 -94 -30 20 -78 -66 -62 36 14 -28 -32 -10 -38 -28 24 32 50 28 22 -2 44 14 38 -6 88 10 18 -68 -58 44 26 26 -52 -28 -2 18 60 -62 10 38 52 -100 -14 -20 -72 46 68 40 10 100 50 -118 124 -46 22 112 28 2 12 60 56 20 -80 -28 -26 108 -4 14 -4 8 -70 -92 22 -12 30 38 14 -34 -72 116 6 54 -44 70 38 -32 10 36 -36 -14 6 -88 -10 120 62 72 8 70 -78 -76 58 -104 -70 -4 122 -2 14 0 16 -42 0 -20 -12 -6 4 -6 -30 -8 -20 -22 -4 6 108 -10 -8 -8 -28 6 124 -30 12 -20 20 4 0 -120 -42 72 16 -2 -128 -16 4 -32 -66 -16 112 0 90 42 34 -118 88 26 -2 -42 -16 86 -52 -18 28 -124 -112 -12 78 -40 0 -108 -4 6 -6 122 -58 -80 4 8 18 96 52 36 -22 -68 30 44 -98 74 -48 -18 40 -22 4 20 -60 32 54 40 120 28 -64 10 -120 -34 32 0 64 44 26 16 -46 -8 4 -126 -12 60 4 8 -20 36 28 30 -8 50 -26 18 -76 8 -112 -56 -44 78 44 -10 86 -10 118 74 -10 92 2 -122 112 22 28 -68 0 -46 -126 18 88 -42 -26 18 -66 -66 78 76 56 -26 -64 56 -16 -44 -56 -8 24 42 40 -58 62 -16 -40 -16 -76 -14 32 -24 26 12 -6 -50 96 58 -70 -46 44 8 -118 10 -8 -100 -68 8 -18 -122 -26 -4 -6 -42 44 -44 -68 66 -122 18 42 -42 -4 30 -42 42 46 -2 -6 -78 10 114 -36 0 124 -38 -2 -84 -26 -32 40 66 56 -20 34 -30 -124 -116 84 -98 -122 10 46 -66 -22 -6 -80 -24 54 -4 -80 -36 14 24 -22 -2 -2 26 -62 -26 32 62 78 -52 28 -20 28 -50 62 -76 12 24 -54 -12 -44 34 28 -124 -14 70 
-122 56 122 -122 -2 46 124 0 -124 -68 116 60 88 96 -106 68 -98 -72 -78 4 -128 126 104 78 -120 -74 110 -8 -14 -82 -120 -12 -52 78 -122 102 118 124 -18 -50 40 -126 70 96 -110 124 -36 8 30 120 -4 52 48 112 0 62 4 -44 -32 -48 -72 100 126 -48 118 -44 -124 -60 -8 -54 -90 66 126 20 126 -94 126 64 -78 48 -126 -126 -44 -10 108 92 -104 -66 -126 -42 -126 48 -40 126 -126 -94 124 96 48 102 32 108 -26 -126 -126 -60 100 124 60 110 124 -84 120 124 62 -120 -124 -118 28 -126 -126 126 126 60 -106 8 -126 6 -96 -74 -72 -128 18 -4 -124 -76 126 -14 102 42 -124 -26 -48 -106 52 -30 -124 -16 -18 126 -26 122 22 22 46 122 126 12 -126 16 -86 6 28 12 108 -124 -28 24 92 -24 102 -76 -114 112 20 -26 -114 -50 -58 124 -10 112 124 -124 -6 -6 116 116 -122 -48 -36 -126 -66 120 -22 -36 -126 -124 38 120 -124 78 16 124 48 -100 -82 -128 122 124 -128 96 52 -116 126 -24 78 120 28 74 -56 22 -14 -74 14 -10 46 70 -64 26 -8 -128 10 -84 -52 58 -126 -122 -116 40 20 -44 94 92 82 118 -22 70 -120 124 -18 -18 122 116 18 114 32 98 -84 -98 124 -16 20 -68 66 104 88 -40 0 26 -108 -90 124 124 114 62 -90 72 -92 -62 2 110 32 98 -28 12 82 -76 4 -124 124 48 126 -126 122 126 -2 -58 34 -126 92 -116 124 30 92 94 102 -126 -48 54 126 126 -122 -50 46 -54 -2 120 6 -48 42 -126 58 100 122 -124 -14 102 96 86 -52 -80 -70 -84 -12 98 -124 124 126 22 22 118 -70 126 -64 124 -112 -62 -110 -62 -4 54 112 120 34 -66 16 -40 -124 -14 -94 22 58 88 126 -44 120 88 -104 90 56 124 -126 -44 -114 -124 108 38 126 114 -62 32 -120 -124 4 2 42 34 78 120 -68 -118 114 -126 126 -68 122 -32 -70 -52 -64 -102 -30 -112 -42 42 126 -14 14 14 -128 126 42 -46 124 -116 -120 14 -10 82 22 12 -30 10 88 104 12 10 -48 -64 16 -90 74 -124 106 12 -46 -120 108 -10 126 -126 58 -102 26 126 -30 -114 46 112 -122 -30 124 22 44 54 -106 96 38 -114 -16 18 48 -12 -62 4 -54 -118 122 52 -46 124 30 26 -98 -126 -116 -126 -40 126 20 10 110 -2 -14 -62 94 -122 24 -116 80 2 -46 126 36 126 -36 -116 -16 -128 -120 -62 50 -60 -126 -14 126 -30 -42 -62 18 -50 
-70 -70 64 -32 -2 126 -92 76 -42 -74 58 -84 -54 80 -128 122 16 -4 2 -72 -124 -50 24 6 36 4 -4 -14 -56 56 -18 58 48 -2 88 -16 -4 0 -14 12 -18 108 20 -14 66 -64 -72 -40 122 -106 -40 -58 4 -74 -16 -28 -30 -26 24 -68 -66 56 -12 -16 110 -78 24 -118 -32 92 -12 -40 -6 -22 66 -30 -40 14 48 -126 -126 -126 10 12 66 48 32 4 24 -2 -18 -2 -2 76 124 -4 18 78 116 -10 -38 14 -60 114 -104 58 -126 32 -84 76 -30 -78 12 20 -6 -96 104 36 4 -82 44 -110 -22 50 -12 -6 -16 64 -124 -64 46 -24 -82 54 20 -40 122 48 -124 10 -78 -14 -34 62 52 90 -66 -28 -26 -58 -22 -8 -8 124 58 -114 6 96 38 -98 -56 32 -16 12 -4 -90 122 94 -30 36 6 -12 -10 -48 124 -10 28 8 -12 24 -120 12 68 82 8 -68 -34 82 -60 64 34 -62 6 -34 -18 10 -126 -2 54 22 98 -46 78 2 6 30 90 -36 24 20 -30 48 -6 28 -10 84 10 12 -18 98 -18 2 -14 -48 12 34 2 -36 -40 22 8 -10 -38 16 -56 10 -126 -82 14 -108 76 -36 20 -20 4 -48 -10 74 -118 -26 122 -16 -50 28 18 4 -110 -44 64 -2 38 32 12 -10 -102 26 -16 -34 -12 94 -28 -46 -16 -24 104 22 -4 22 10 124 28 38 12 -22 124 -124 -72 38 38 16 -36 -44 -62 -4 -90 -78 -18 120 104 78 -14 122 58 -126 -42 -50 -20 -90 -8 -48 -14 72 82 86 -26 22 -4 56 -26 102 90 34 64 -22 -48 2 122 -70 -74 22 0 52 66 4 -74 -126 -116 2 -40 32 24 120 108 18 24 -20 -14 -66 -34 -12 -34 60 -8 64 -64 -54 78 78 -30 -38 -36 40 10 -48 -8 26 -30 12 32 -34 38 86 -22 68 34 -106 -126 14 70 32 14 -24 -74 -58 0 -126 -84 -32 -74 8 -112 -66 82 34 -10 16 -126 12 -2 -108 -64 -52 16 -12 0 -16 -124 -42 -2 20 12 0 10 -24 -6 42 0 -36 14 -48 72 -4 30 -4 -34 -2 94 -4 24 0 32 34 50 -112 -28 -30 48 -2 24 -48 -34 22 -98 -46 28 -8 -24 -32 118 6 28 -46 -34 -124 -58 -126 46 -44 48 -34 -12 88 -28 32 -30 18 -100 48 -24 -62 0 76 -24 32 -4 -102 20 20 16 -24 14 -12 32 -94 -52 -22 8 -12 88 10 -94 84 100 30 4 -4 38 -58 -2 -12 -16 6 -26 -62 -48 -12 0 32 -16 20 -22 36 
84 -18 122 54 66 -116 -28 8 46 44 -12 30 42 56 -122 22 -28 -36 12 -48 -18 -6 52 -2 64 -18 -72 50 34 26 -32 -22 -66 -2 40 32 12 -100 -24 72 56 16 22 48 124 -52 6 44 116 26 -26 38 20 16 -104 -12 -122 -18 12 126 116 -116 20 12 -114 -100 -34 -68 -6 48 -16 114 -26 -54 10 -4 -18 -28 -4 36 -124 -22 -40 -44 48 14 -110 36 122 -24 126 -44 22 -18 -40 -36 8 38 -44 -106 -6 14 -112 26 -72 -60 0 44 -78 -64 0 68 124 124 0 -16 -28 28 -60 -128 -54 -118 -22 -96 -36 14 -52 30 30 20 -90 -8 -74 110 18 4 90 -78 18 54 -10 -52 26 -68 -48 38 116 -34 6 -20 -10 -6 -8 -114 0 -20 -16 -22 -44 68 50 32 66 12 76 6 96 -124 56 70 -90 -34 10 -102 -16 18 -44 26 96 -30 120 16 -4 -100 76 -126 -66 22 2 -102 50 -56 -74 -66 46 14 16 10 122 -26 -116 20 -76 -126 -34 -72 -18 34 32 -44 -34 -72 20 124 4 -6 -118 118 -36 -4 4 -16 16 -60 18 -102 -32 -70 66 -116 -2 -70 -70 -34 32 -10 -118 -50 -48 30 68 -52 -44 -8 -52 48 46 -26 -86 40 40 120 -26 8 -20 -24 -36 -38 8 -124 32 2 -2 -66 -8 -22 120 42 18 -18 84 20 108 -128 92 60 32 116 -12 84 -86 -46 118 52 -32 42 104 -106 34 -124 22 124 -32 -104 58 -18 -122 -4 -10 36 -82 -126 26 28 -46 34 -6 0 18 28 56 -42 36 -18 14 92 92 54 2 28 -18 84 20 -12 -80 -26 12 56 0 -14 120 -70 -18 -84 -20 -60 -16 -26 28 22 22 6 76 80 102 90 38 -122 -48 42 -8 96 36 -6 14 -78 -28 -2 12 -122 -30 -94 66 -32 -98 -22 8 38 -4 -54 64 4 -52 118 48 -2 -36 -54 50 30 -100 2 -22 -126 -124 -54 48 12 -80 -18 -26 -76 -36 -114 4 42 36 -38 22 -6 28 -10 86 44 82 24 -118 16 74 -56 -6 14 6 44 -14 -34 -28 -34 -20 122 -108 10 -90 -4 -126 8 -98 -62 -124 46 122 -54 114 12 -28 18 6 -20 -54 122 28 -48 34 -54 12 16 22 8 46 -20 72 12 6 38 22 78 126 76 48 -52 2 96 6 2 -4 -20 -34 -70 118 -6 -68 -58 28 -12 -116 -54 92 -46 -38 -66 20 -44 -66 -12 38 8 16 36 8 -28 -118 38 112 8 -12 96 -46 -10 8 -52 2 78 4 -38 40 -8 -28 -86 -34 -4 -4 -118 
-76 -54 96 -74 -18 28 -20 4 28 72 64 102 124 -74 -64 104 -28 -32 2 -38 -92 -126 30 14 -14 -42 -32 -38 -62 -80 32 -50 -18 8 82 -36 -120 -48 10 -86 118 -74 -52 52 -86 -14 18 -54 -62 112 46 6 -2 -22 42 10 62 -24 24 20 26 42 48 68 14 72 -70 20 -56 -16 -90 -2 72 44 56 -10 10 30 48 18 -64 -64 52 0 -16 -48 -56 40 14 -6 -48 34 -28 -38 -120 -20 -32 48 -14 120 40 22 22 -32 46 -2 30 -108 -80 6 46 62 -8 -22 -78 -80 -76 42 -28 -72 -128 -14 4 -126 42 -2 -62 -6 -64 -6 -60 44 48 50 -38 26 68 30 -52 6 -8 -24 28 -98 36 80 -30 6 -76 0 2 18 -30 -56 -50 -86 6 -70 24 -34 -10 20 -26 34 -6 26 -86 60 46 -98 -10 38 44 -28 -50 38 -116 -38 -82 2 -12 10 -52 -20 34 -52 -52 126 126 -44 -54 -112 -20 50 120 28 12 98 -10 114 -34 -84 28 -8 -78 -22 4 118 -16 -2 -74 -110 76 -42 -32 90 -32 100 -24 116 -100 48 28 -114 46 14 24 -4 -62 -4 -30 -38 8 -32 -8 34 -40 -10 -42 10 102 -8 38 -76 126 46 -22 -32 124 -124 -96 -48 -32 -128 66 -68 -40 -124 -126 -4 122 -38 102 -38 -10 -32 4 16 -14 0 -6 54 -96 -124 -38 -4 -38 -28 -76 20 -16 124 -8 18 -14 -36 24 -102 6 -44 -82 62 72 -52 -60 122 -50 -120 10 16 -80 -50 -30 -34 24 -36 60 -68 126 38 120 -128 -108 -22 0 92 6 58 -58 36 32 70 -34 -74 60 -74 -94 -28 -126 -56 -46 -24 78 -72 -48 -2 -38 66 -36 -62 96 -18 -6 40 16 6 6 108 -30 -16 -42 -12 -36 -124 -10 60 -110 -16 0 -64 58 -44 8 14 -10 -4 -108 -14 -4 40 -24 22 34 -4 -30 -26 106 14 30 -104 30 -6 -8 -8 -50 -94 -34 -48 -4 -90 -8 8 22 12 124 46 126 2 66 0 -26 -44 10 -22 -22 -8 4 -64 -50 24 14 116 32 -46 -112 -108 -38 46 -16 14 -6 26 30 34 -16 -16 10 6 -94 -6 -8 -40 4 -86 24 -18 62 90 10 22 116 -8 -54 22 126 28 -12 -58 -26 106 -108 -42 44 78 -16 -30 -58 -72 16 58 -48 -40 -32 -10 92 120 2 -82 -34 -68 24 8 -20 -66 18 -76 12 -76 -120 58 -28 -40 42 -2 20 -14 74 10 2 126 -48 16 -38 60 -16 -68 -12 126 116 -4 -120 68 42 -14 76 114 -8 -98 44 -44 26 -40 
-64 -16 10 -80 30 48 86 22 10 -122 60 26 46 50 32 94 86 -46 -4 60 -6 -128 20 -10 38 16 14 4 88 78 -32 124 118 -18 -42 10 -124 -16 20 44 46 -6 -60 20 -38 122 -102 12 26 92 20 44 -28 -2 -34 6 -16 14 -34 -26 -26 36 34 -78 2 16 -10 -12 -18 -52 28 36 94 48 -22 62 12 -12 -62 64 82 -68 12 2 26 -26 -94 -2 10 2 -18 46 0 -54 -14 -88 -14 42 58 -24 -122 28 26 -48 -114 -2 28 64 20 18 64 -34 118 46 28 -6 40 40 46 -12 10 0 68 -26 -28 -34 -84 22 32 -80 8 -92 -22 -10 -98 32 56 28 -14 36 40 56 0 -20 126 54 -12 30 -32 -18 -20 46 72 -20 6 -6 92 -58 0 -6 -28 -84 30 -122 4 20 -32 16 -16 62 -58 -30 46 36 -2 14 -12 -50 4 -32 -10 -62 10 -2 -32 -40 -62 -2 28 38 34 -22 34 -14 -16 -28 -36 30 -48 -22 -12 84 20 -8 -78 -12 14 -24 -24 -86 -12 68 -82 -4 24 -126 46 100 -32 16 -122 86 24 -2 -50 108 -6 18 -52 -64 104 2 28 16 -44 52 92 -6 -64 54 -28 52 -66 -20 0 -28 6 -76 28 6 -38 8 46 10 -30 -12 -100 -128 80 -28 -10 -20 -26 -16 -8 -20 16 50 100 -32 -10 28 -110 60 20 -68 22 22 -44 -94 -68 10 2 -2 46 -48 -16 -30 -16 -22 4 -14 -12 6 16 -110 -4 -36 64 -22 14 26 108 12 48 -46 68 126 -120 32 -26 124 38 12 16 0 -44 -50 -44 -6 -96 84 24 -28 0 18 2 -20 30 -4 -38 32 48 -36 64 -40 -28 -126 36 0 -112 14 -80 -58 30 -34 4 48 82 -22 -8 34 -48 54 54 4 -48 124 -22 18 58 0 78 -82 78 -38 54 38 -96 -8 -20 52 -84 -32 42 -28 2 28 84 -94 22 24 40 -40 -44 -44 38 -48 72 -124 -92 -128 60 -52 -22 58 -22 30 36 -4 18 6 16 -94 10 -18 -76 -6 116 38 60 124 -126 -72 -116 58 -114 44 18 -10 0 -122 42 -124 -26 10 -76 90 -36 0 4 32 -28 -98 -40 -52 -68 32 58 74 22 38 0 -42 26 30 -96 -28 46 -126 12 -4 22 14 -26 -10 -2 -110 -112 22 48 -104 -36 -20 48 46 -62 -2 -44 82 -66 -42 30 86 -56 94 -2 -122 18 -12 -124 42 16 -40 40 -48 6 -6 -62 34 -8 30 120 -16 112 6 0 68 0 62 -48 76 6 8 -48 -80 26 64 -68 -104 122 -32 
-34 16 60 -118 -44 -42 38 78 -92 102 12 -8 64 18 26 36 118 -68 -116 -28 -4 6 -28 -120 12 -118 -66 -114 64 30 76 14 -28 -22 -60 30 104 -30 -126 -126 8 -12 -84 42 22 -44 20 12 8 46 88 72 80 -50 52 -8 78 16 -124 120 -124 -122 30 120 -126 -60 -18 10 -124 28 60 -12 18 34 50 -94 0 34 -34 -32 68 -22 -68 72 0 -60 -50 -28 -114 -104 -92 30 -18 -46 8 -100 -106 104 0 122 96 -72 -100 -40 38 -64 24 28 -114 102 -20 26 116 -2 -84 2 8 -80 -54 76 -90 124 -114 -114 -64 -4 -12 64 -44 -40 -34 -126 -44 14 -14 -96 -30 -16 20 -110 -34 -22 -64 -122 -126 -14 -36 -8 -70 -22 -126 2 -10 -60 50 106 62 4 92 38 46 16 10 14 32 -120 -2 24 116 -124 -110 86 -24 114 -28 120 76 28 122 -86 -68 10 120 -128 -12 -122 18 72 -52 114 -62 -12 -120 -126 36 30 -82 -94 118 -96 106 102 -68 -108 -60 -126 34 98 116 4 -38 -34 56 -34 -18 -54 -10 14 -14 32 -114 70 54 -94 114 -120 62 -4 -28 32 -44 -122 42 70 -122 -80 10 -86 -128 82 -122 42 30 -20 -4 8 60 20 -122 -124 26 -2 -54 -20 -42 -48 46 -26 64 -124 -28 -42 -42 24 6 -118 -90 20 36 -2 -30 -12 46 -96 -40 126 54 44 -124 120 72 -34 -18 20 98 74 -62 -108 -28 10 -56 12 -114 -128 30 -92 -4 86 84 -56 24 12 8 64 98 88 -98 -52 -4 -18 -38 -52 -112 20 -52 -44 -42 84 0 62 -96 124 -38 -20 -124 -98 -24 102 -4 72 84 66 -126 34 -102 10 78 -54 14 -46 -44 -14 28 -4 -68 112 -108 -60 -72 2 -116 58 68 -72 -92 118 16 32 10 -4 -76 78 56 -16 -128 -44 -70 108 48 52 -112 -126 -32 46 78 8 20 -16 120 -66 40 4 22 -14 -124 16 -100 -30 10 40 34 72 118 126 90 42 16 -24 -120 -28 80 -14 48 114 -106 114 82 -124 -8 -10 -126 -22 48 -42 -92 -28 10 122 104 -18 12 4 -100 16 -126 60 -116 54 48 62 -126 -18 98 -26 -50 -10 6 -74 -54 80 88 -50 76 32 -124 24 -40 -76 102 20 -36 104 42 124 108 12 -100 -2 112 34 32 28 60 124 -4 -42 46 -126 36 -102 -112 120 126 10 -120 -34 -116 46 -6 22 122 84 -24 -42 -34 38 -30 126 14 -72 -124 30 50 -110 64 122 56 70 14 -30 88 -124 10 -36 -70 26 -14 -128 -40 -108 -42 120 
-118 -66 44 44 -18 -118 54 -24 66 -22 78 24 66 -46 32 14 82 2 -18 -24 -66 -96 38 -56 -32 22 -32 -50 52 126 14 32 -116 114 -22 116 -72 -40 36 0 -60 22 10 24 -18 126 -128 22 50 66 -2 -62 -52 0 52 84 -2 -78 -10 24 94 18 22 -72 -6 -14 44 -2 16 64 96 34 60 76 -118 14 20 -40 -32 -108 82 -54 30 10 14 84 94 -50 -50 -42 28 -10 10 32 74 64 110 120 74 -64 -116 -38 86 22 124 -12 -26 10 -12 -72 6 44 -8 40 74 14 48 -52 -42 -30 -94 36 18 -62 120 8 108 112 14 104 90 -66 38 82 32 102 -12 66 -40 36 -10 54 84 120 -58 -20 -118 76 -70 22 -8 -14 8 10 14 16 10 0 -16 32 126 22 24 -126 44 -14 6 8 -84 44 -34 -102 36 -22 -32 -4 34 -60 -4 12 24 22 6 -26 90 68 2 -18 -28 -42 40 54 -68 68 -10 -10 -12 30 -36 -18 64 24 -32 8 -40 -88 18 16 -16 -96 -40 116 -70 14 -16 -126 82 8 0 28 26 52 -16 10 -48 -110 16 24 42 26 -58 16 -24 28 -46 54 -34 10 -8 -80 102 62 -64 20 44 -12 -80 14 8 64 42 20 -86 -6 90 12 86 -102 66 2 -18 126 -26 36 -46 -32 -68 46 -28 -78 122 52 -56 -14 36 2 4 -44 -32 4 -120 -10 14 56 54 8 -64 -52 -10 -10 -18 16 -20 -20 12 -104 -8 6 122 8 -30 -24 -88 14 52 74 -32 124 -126 54 -56 30 82 -12 6 -34 -46 36 -54 -60 -88 26 92 -24 20 -2 10 114 -24 -36 -16 -18 -38 -58 56 44 46 -94 -42 56 -44 22 -74 -30 16 -16 -14 -18 124 -54 54 -18 -76 -42 24 2 -16 -16 2 58 102 34 -26 32 -12 98 30 -12 -122 50 4 6 -58 -2 -76 -16 8 -32 58 4 18 0 -22 -14 4 -6 18 -88 -102 -96 26 -118 -66 -34 -22 -88 24 -10 24 28 26 120 106 -124 -36 -24 -22 -12 -8 58 40 104 -124 -12 -32 6 122 82 78 44 38 -76 -78 -40 -30 20 -80 -114 -20 8 -62 -22 -12 40 16 36 0 -82 42 -98 2 -84 -50 54 14 -8 -88 12 -18 -118 -124 62 -46 18 34 -24 -30 0 -126 -10 -120 94 32 54 70 40 -72 -32 -78 76 -84 -8 48 -26 -4 118 -26 10 32 -36 -128 -10 -12 38 46 34 72 -12 16 28 34 12 -64 -10 108 -12 6 72 -18 94 16 -44 118 44 -4 16 -6 46 32 34 32 10 
14 -34 -4 16 50 16 -126 40 -124 20 -14 6 26 100 -30 -24 -4 -122 56 -34 -24 -68 -34 20 32 -118 -6 -120 -124 -36 44 -22 8 -122 6 4 -14 126 -16 -78 4 -8 -24 26 54 -38 4 -10 2 -24 -84 -46 -116 -70 -22 8 -14 30 118 -54 -44 20 -128 106 70 -38 8 76 -32 -4 -18 -36 -2 114 -24 6 -46 22 10 -60 34 16 -44 -122 -20 -26 8 -10 2 -4 -28 -14 -32 -12 -26 4 -56 -18 36 -60 -86 26 6 -88 22 6 28 -92 32 116 2 12 -2 -14 106 -2 74 -100 -12 4 18 38 -32 -16 -30 -6 10 -64 -100 36 -68 -14 64 62 24 -52 18 -48 22 -40 8 -48 -48 -42 -96 28 -14 -126 16 -98 -114 -124 -126 88 8 -4 74 -10 -34 66 86 126 -18 20 10 -4 50 22 0 -110 -118 44 14 -20 6 0 0 30 -46 72 0 -28 -58 12 14 -76 -120 42 82 58 8 26 16 14 -24 20 2 -18 -6 14 50 -126 -24 -28 -118 -110 10 -6 98 -12 70 -10 -14 94 -14 124 -32 12 -122 34 -4 40 92 -92 -122 -46 -124 18 68 52 86 58 18 0 114 -126 2 -68 112 38 -4 -22 28 22 62 20 6 -74 -8 28 34 32 120 -28 2 4 -24 62 92 0 -50 110 -38 6 8 68 126 -126 -74 2 -66 -36 96 44 -86 -12 -106 32 20 -6 96 -18 -94 -68 -42 44 10 112 60 118 -114 22 -6 -10 -6 44 60 10 44 2 -4 52 6 40 -126 -120 -6 -2 10 18 44 -22 -98 22 -10 -58 40 30 -72 50 -46 50 -48 -4 60 -10 -4 110 -6 116 -6 -44 36 20 88 16 -22 6 -20 14 20 -12 -16 -4 -54 32 -34 -4 -24 126 10 -26 -30 -2 4 18 48 -72 -8 -2 -32 60 -118 26 26 -118 -122 -120 62 -62 -94 0 26 -32 10 -16 34 -12 12 -46 -10 -94 -6 22 82 8 -62 -38 74 -80 8 46 -12 -42 14 -126 -26 6 -52 -8 -6 6 -126 118 -4 8 64 2 -16 -14 8 70 -58 24 50 -54 4 -40 -126 -16 58 10 -10 -110 -36 24 124 122 48 -26 108 -14 32 24 -46 -14 -122 22 6 -40 30 -126 8 -6 -32 -42 -54 -12 -28 -124 24 -78 -54 -50 72 6 -124 14 -90 18 30 24 34 -28 14 -6 -4 70 120 -40 -28 108 -24 22 10 46 46 -2 -82 -118 122 -80 -24 38 -36 18 -6 -4 66 16 -54 14 84 -124 -124 28 88 -16 34 14 32 -80 -92 -60 -122 -4 -124 -2 26 -80 -36 -34 
-32 24 82 -28 40 74 86 -12 44 -92 8 20 -56 14 -42 24 22 -80 -30 56 -70 -126 -18 -10 2 60 -4 -76 14 122 20 -2 82 -24 0 8 -12 -14 8 36 -2 0 -12 52 6 116 126 10 26 -64 24 32 24 28 26 20 60 -10 44 12 -82 74 46 -24 -8 -8 -10 10 10 -6 16 20 0 72 -80 -22 4 -14 -58 -22 64 -64 46 2 -36 18 -32 -112 -2 -6 -4 -18 8 2 -8 -50 -30 114 -10 -36 -120 22 48 -2 -26 -50 -22 -108 34 2 58 52 44 -20 -14 -86 18 58 0 -8 -36 -68 74 -16 -34 60 -60 54 20 -8 -4 -126 10 20 -22 98 -6 68 -4 2 16 114 0 42 2 114 -6 34 24 10 -70 72 14 14 -8 -6 68 68 -20 -4 -18 -44 10 -122 60 60 -40 4 -8 2 -70 -70 22 -14 62 52 26 -58 -2 -2 -20 38 46 -2 -38 12 -118 10 -48 4 18 -32 -68 -28 16 -38 -44 84 -6 34 -26 -54 -14 24 16 56 -30 -56 -28 -62 -28 102 100 -12 20 -126 54 -28 -120 -18 -18 22 -8 8 28 40 -46 -32 -12 42 22 18 28 -20 -14 124 -14 2 -30 28 0 -62 -68 66 38 90 10 4 30 56 -6 40 74 -52 14 26 -10 -120 8 -12 86 -114 -74 -16 -4 -38 78 112 14 -24 114 22 -54 76 -24 -10 -10 4 10 -88 38 64 -4 18 82 -8 44 36 -10 6 44 -8 -28 10 12 -64 -22 -30 58 -8 -26 14 -24 -6 20 -92 32 2 -122 66 -78 124 50 16 -16 -44 -14 42 -68 -70 -2 -6 66 -12 10 42 2 24 32 76 12 56 68 -14 16 20 -38 -126 -4 18 -96 32 -10 -54 -42 2 74 80 52 -104 106 20 -16 -26 -12 -4 26 124 -16 -10 10 -18 56 10 -66 18 12 12 -86 -2 46 12 30 -10 -2 10 10 28 22 16 -24 -76 32 -68 -6 -18 38 -78 96 -112 -52 -128 54 0 -56 -24 -2 0 4 8 26 -74 -4 -124 -2 -14 -20 38 -36 78 32 124 -124 -18 14 48 -12 20 90 22 14 -118 36 -114 -48 30 -116 120 28 -122 -26 4 14 -44 18 -40 -30 -46 12 44 -4 46 -30 -24 4 10 26 -60 42 -126 -60 10 -76 66 20 -10 22 56 -124 -38 -2 -50 54 -4 -62 8 -24 -28 -72 64 4 4 14 14 -32 -84 22 -68 30 -124 124 10 -22 34 12 22 32 6 -22 -98 26 14 14 -10 -122 -34 58 42 -114 -66 -14 -2 104 24 -66 70 -42 -16 -16 -40 -96 -18 
-16 22 36 64 36 -42 8 6 10 -30 -52 20 2 -2 8 -26 -24 -116 -8 48 14 124 6 -26 -30 40 -52 -74 4 58 -8 26 -40 -6 -2 -32 122 12 20 46 68 2 66 -34 54 92 0 32 10 -40 26 -2 -2 18 26 -30 -32 -38 26 -44 -92 4 -6 -120 -40 10 -8 -28 -20 30 44 6 44 122 -68 -28 -38 -30 -66 24 34 -14 94 34 -22 84 32 -92 -84 0 -22 24 -42 58 -4 -50 -38 12 -50 -38 -126 -2 -30 -24 -6 -50 -40 -44 8 58 -68 22 -8 -6 -36 18 -16 -10 0 2 -42 18 126 6 8 50 -18 110 30 -30 -10 -70 -34 26 22 70 16 36 -8 20 8 44 24 98 88 100 4 2 -18 18 -76 88 -20 32 40 0 38 16 -30 -4 -108 -28 22 72 -32 68 18 58 -22 24 -110 -86 28 4 -28 44 26 -56 10 -30 -12 -10 -12 -20 6 4 -116 28 -40 -30 40 2 10 30 2 -16 0 92 -6 -14 -20 -40 -34 -4 26 18 -22 4 8 -66 -24 118 124 -40 -2 -126 50 2 -128 -44 -6 -28 -28 42 68 28 -22 -58 16 -12 -94 50 44 -8 38 126 -12 10 -50 -18 76 -42 -28 56 118 42 40 -6 56 94 2 4 52 34 -10 -4 108 -118 0 14 92 -66 6 -8 -10 -10 52 120 -120 28 118 -8 74 98 -50 38 -18 -6 -50 -50 58 -10 -22 -18 14 -42 12 8 0 2 42 2 6 6 -16 -96 -28 -10 8 50 -22 6 -4 -24 42 44 42 -122 -124 20 -122 -28 66 -24 28 50 -22 -2 -110 -54 22 54 70 0 -18 48 16 94 -18 126 -14 8 124 94 8 26 8 -126 44 50 -124 2 -16 -84 -40 2 60 62 38 -124 126 32 -30 -14 -76 -8 -24 -16 0 -34 8 -18 28 -20 -32 0 -6 8 -62 -114 20 0 28 -2 -28 24 34 -8 -14 50 46 -104 6 34 28 -34 22 -44 -4 -126 20 -128 -24 -10 -90 -22 -16 20 18 -18 18 62 14 -102 -30 -22 -40 48 -66 12 72 100 -112 -30 124 70 20 14 116 -46 8 -100 -24 -120 -60 34 14 32 -8 -42 -52 -6 -20 44 -46 86 -92 -28 42 -6 20 -10 32 -56 2 -34 76 -42 44 -126 8 24 -42 68 -8 -14 54 -120 2 -68 -56 -58 18 -28 78 28 12 -68 -126 112 -10 -18 6 -52 -38 -42 26 12 14 -124 -60 -10 28 10 -28 60 -46 -38 -26 -118 30 20 -50 -14 -80 -62 58 110 -122 -22 18 -46 122 20 -96 -122 -36 -46 -4 26 -92 -8 
-52 -126 36 82 100 32 84 28 66 122 -34 12 -44 -102 74 -6 -124 -56 4 -128 46 -8 -82 66 -64 18 -52 40 -66 -36 126 8 126 -14 -8 36 22 -16 20 122 -52 18 -20 54 126 -98 88 -86 48 84 58 68 22 2 8 80 -14 110 74 124 -28 24 -120 -30 6 102 -16 8 34 -126 84 38 46 -34 -4 2 -16 80 6 -14 -126 -50 0 -116 114 -40 -60 -32 -4 88 -16 -14 24 -60 24 16 110 -126 -8 -26 20 -56 54 28 58 116 -40 44 -84 24 20 40 -98 -2 10 28 -20 26 -58 -12 -8 -116 -36 -54 4 -70 -72 82 -30 28 36 -14 120 58 2 62 86 -110 120 -20 22 20 22 -46 32 70 112 -28 12 26 -36 -10 18 -68 14 -118 -44 54 -68 -110 66 -4 36 62 -40 -94 112 60 -10 26 -94 -120 24 -92 34 56 -30 4 44 -32 -56 -2 22 -2 -60 -106 20 26 50 6 -86 18 -50 4 -34 -18 -110 -14 6 -24 2 30 -40 -34 20 -80 -126 40 -30 44 60 60 -72 16 28 38 -40 30 -24 -24 -12 48 -44 -18 64 -92 -98 -48 92 18 -22 94 -18 0 16 2 122 30 -36 -80 68 122 48 -36 -124 12 -22 -12 -52 8 72 -8 -36 -46 24 -8 28 32 12 126 -12 38 48 26 126 -44 -46 -6 -30 -116 6 124 -14 -20 -52 58 -116 -52 38 118 -16 -92 32 -36 -120 126 -62 -20 -108 38 -90 2 14 -22 -50 -120 96 -128 98 -48 26 54 -46 18 104 18 62 16 62 78 4 -54 -8 -94 62 -86 30 -22 -14 80 -56 100 0 20 26 -16 -86 22 -40 -26 -62 -14 -50 -8 -76 -94 54 -16 44 34 8 -124 114 -96 98 36 -32 -50 -26 -20 -38 122 -114 -42 8 0 26 34 0 28 -78 92 8 -72 10 74 -120 0 14 56 -94 -74 120 -102 46 -100 22 -50 84 -48 28 10 -126 106 18 -128 -16 -90 2 -32 126 -36 -62 -28 12 0 34 6 -10 -100 -110 -66 -122 20 -24 -20 -96 82 -4 -28 110 -26 -22 -18 -32 -30 4 -40 40 30 -54 -74 -128 -36 -44 -118 -34 -78 -56 -112 52 -44 -14 78 -6 30 -100 40 28 82 -14 20 -46 70 -2 14 -4 -6 60 16 98 -26 -6 -70 -124 -68 14 28 -10 126 52 -10 -34 -62 62 -76 24 -16 56 4 24 -54 -6 6 -56 -54 -22 -40 46 -54 36 -100 88 122 -58 -60 26 -26 -26 0 122 -10 -48 44 42 24 30 26 6 122 -38 30 120 50 38 -4 24 -104 -36 -22 4 42 
20 4 16 -28 -32 68 -28 44 -46 -60 -128 -38 102 10 76 -28 12 62 18 -46 16 126 2 -62 -120 -24 12 -2 58 28 2 34 -34 38 -18 60 64 6 -26 -14 -124 46 -46 78 -24 -56 6 -12 -16 110 -14 -46 48 22 -22 -12 72 4 -46 -26 50 -8 42 -26 -24 -22 -2 0 44 14 32 -44 -128 20 14 46 36 -32 22 4 -54 24 -22 -10 -8 -8 24 -42 10 22 6 40 94 -122 16 -16 -24 -38 14 -52 -98 -10 10 -18 6 26 26 126 30 98 76 -40 4 -2 -12 18 -8 -18 36 40 -106 62 46 8 38 -20 -2 16 12 0 22 10 34 -28 -74 -82 -22 -14 -20 14 6 12 -16 -30 -126 0 -16 0 -2 -2 112 56 10 20 -18 -24 40 -74 -6 -22 62 -12 -12 -44 106 32 -40 -10 40 2 26 56 8 50 20 -24 114 10 -12 24 -24 -96 8 10 -10 28 -54 2 24 -42 -56 8 -2 12 -6 62 20 -34 -28 78 6 34 -78 -68 24 48 2 -110 -44 -46 4 -52 30 -4 -6 38 6 86 24 26 -124 12 66 80 52 0 80 -62 -32 -56 0 -30 34 -8 -30 -32 -2 44 54 32 -48 44 -2 -40 124 -48 -48 -32 30 -62 24 -22 -10 120 -40 14 16 124 38 42 -124 74 -40 4 12 -2 40 -22 -128 -22 6 -58 24 94 -22 -32 24 36 -12 22 -10 -126 48 34 -38 10 -14 -26 6 18 -36 -32 56 28 -20 104 -48 30 -18 82 40 -24 104 10 0 38 -58 -50 24 -26 -116 -126 44 -50 -34 -26 -18 16 26 4 -14 10 -56 24 12 2 30 -70 40 46 -36 28 -4 -72 24 2 -16 -122 -26 42 -38 10 30 44 -40 14 6 78 40 84 -8 26 16 -82 18 46 -20 -60 -12 -14 -68 -6 28 -30 18 -2 30 -12 68 44 -24 16 38 -78 72 -12 -28 50 8 -54 16 36 18 -38 -44 40 -40 -82 4 -88 44 112 6 16 -30 0 -6 38 -126 8 44 16 -60 0 4 22 -24 48 22 4 120 54 86 52 -42 -124 -24 24 -36 20 -42 96 -4 122 38 8 -52 18 -40 34 -24 36 -22 16 -106 -128 22 -2 126 34 54 44 -16 -66 -62 -50 8 12 -22 122 -24 14 10 24 12 16 -30 78 -44 -50 -20 -42 -44 -38 44 -58 -26 -16 -38 118 -50 -2 12 -16 14 -14 2 14 16 38 6 26 24 28 -14 -24 22 18 -18 -126 -64 -2 4 24 -4 14 -28 -124 -126 40 66 -8 -34 0 88 -126 120 46 12 2 -118 -32 
14 24 -36 -34 12 32 34 -36 -14 -54 -14 -2 -46 -122 -76 -20 -82 -40 -2 -6 -126 22 78 18 -2 14 -124 -44 44 2 24 36 -68 6 22 -14 -28 54 -20 -40 -26 38 20 -46 48 -60 -52 -72 122 8 46 52 -86 -120 -46 14 10 -42 24 0 30 -20 -30 -46 -38 -72 -20 32 18 -72 -54 -24 0 -82 24 -78 -22 110 -58 -124 -74 -86 18 72 -122 12 24 -18 68 100 -58 44 -36 18 22 -74 36 60 -18 44 -6 60 126 -68 -96 102 -126 -24 116 0 4 -54 86 118 4 -68 38 14 36 44 -30 -116 -34 0 -118 -52 -106 12 -66 -28 -18 40 -8 -36 18 -34 26 -14 12 4 -124 90 -60 -22 24 0 0 56 26 -22 -28 30 54 24 14 76 -20 36 34 24 -12 -12 38 -12 86 -20 66 96 -16 -2 -126 22 18 -116 30 -102 -114 -16 102 30 22 -18 4 -36 -56 -2 4 -46 24 -10 -94 14 26 -4 58 8 50 -2 -24 12 -50 22 -124 94 24 10 112 22 -14 -56 -14 26 54 2 6 -12 -80 -54 4 -16 -24 -4 80 22 4 -62 -32 42 40 -58 6 122 22 -112 6 -14 -124 66 -10 90 -120 -128 -50 -26 4 -20 -28 -62 -62 -12 126 -22 48 -36 50 -2 126 -30 64 124 -38 -26 -20 4 -94 68 16 80 20 20 -24 -26 -24 -28 -92 -34 -114 -78 22 120 -24 -28 -36 -40 -6 -126 122 14 40 28 -64 84 2 8 124 -24 -26 110 88 12 -30 4 50 -22 -42 24 -2 -96 16 -50 -12 52 30 -48 -6 0 82 76 36 -26 -26 10 40 4 -14 -24 42 58 90 2 40 4 2 114 -28 -54 -118 18 -16 20 -38 46 -74 66 -34 16 122 -76 16 14 28 120 38 28 110 -4 12 -36 -10 6 -120 -126 -52 0 90 22 -126 -50 -14 -10 20 -64 16 46 -4 84 -68 8 68 8 0 -10 -58 -110 50 -126 52 10 -112 6 18 -40 -6 -8 -32 34 -56 -8 16 38 -30 18 -30 -2 -16 120 -116 -24 112 20 -40 -26 4 -42 -12 -30 -38 30 -38 8 -96 28 106 -38 -120 -80 -20 -126 60 -40 8 -26 34 -80 0 8 -38 24 -6 118 2 10 -86 -126 8 -20 -24 8 112 -6 118 18 -14 72 -16 96 0 -104 -16 34 -38 -12 -26 60 -2 20 -14 26 20 38 66 -8 -16 24 72 12 -10 -34 -124 -24 2 -124 -128 -84 -40 -38 -16 -10 30 -20 92 -14 38 -10 10 34 -40 -42 -40 -60 -28 4 22 -116 -12 -10 -4 -100 -52 -30 2 -100 
-124 114 24 -128 68 -128 -112 -16 16 -102 -28 -84 -64 -36 -6 124 -120 -6 -12 120 -120 -52 64 84 24 32 -106 -48 -62 -126 -52 14 -86 14 38 -90 -24 64 -18 14 22 -18 28 38 16 -76 88 -94 -96 48 -34 -58 -38 56 18 -54 98 -126 -28 40 90 48 -72 36 60 10 -88 -100 -124 -66 4 0 -70 14 52 -92 60 -24 -28 -74 -110 -92 56 32 120 78 78 -24 -90 56 -76 -82 -76 -14 -6 66 10 20 6 -122 48 -118 -12 -122 -126 -70 -94 2 -14 -12 78 -68 124 50 -32 -112 60 -70 54 10 -56 108 -82 -42 -126 -26 -126 4 24 8 18 60 -72 -60 58 4 80 -6 64 24 -70 -72 32 60 88 46 -36 46 122 -126 14 90 14 -80 -90 8 -124 52 -90 28 32 -4 -8 28 -10 -48 34 122 48 64 -52 20 -12 82 4 -2 -28 -92 40 66 94 -4 -20 54 12 -32 -6 58 -106 -24 26 -60 -124 -20 44 -64 -18 86 -60 30 -126 -44 -20 -122 -118 -24 120 -52 116 62 14 -52 -100 -32 -78 -46 -22 66 -34 -54 2 -106 8 8 48 -124 52 -120 -36 -2 100 -48 100 -36 -48 -14 -126 -40 74 36 -18 76 -72 -92 -60 -36 6 66 -56 74 -48 -108 -94 -16 -26 -18 118 -30 -54 44 -48 110 -86 10 8 22 -70 -58 16 106 -56 -38 -116 28 -20 16 20 96 122 86 88 122 24 -4 -8 -104 -18 50 16 -80 20 18 12 8 116 -112 102 2 -64 -64 2 -40 -62 68 -94 66 -76 -124 28 4 -54 124 -74 28 -114 -122 42 124 48 64 124 12 50 -80 -124 42 -30 46 -26 8 92 -10 -40 -34 -18 20 -124 34 -46 -94 -68 -46 2 116 54 66 8 94 -70 44 14 100 -64 42 -34 68 56 126 -108 34 18 62 -20 32 34 22 -66 50 26 -28 120 -56 -60 68 72 -126 30 34 2 60 -18 18 84 -126 116 10 18 54 -94 -50 -36 112 124 122 -22 18 -116 -28 30 72 40 -126 116 2 -12 -72 -14 -116 94 8 -58 -54 -76 -122 -96 76 -124 34 66 -80 -72 -72 120 24 90 -14 42 6 -30 -36 72 -20 82 -124 -2 30 -10 50 0 -60 4 24 88 -128 -2 18 28 -24 -34 18 -126 74 -32 -86 -12 -28 0 -46 90 -20 -98 104 -84 -48 116 36 -16 44 -12 -50 -38 12 -30 -42 -62 -126 -26 -40 -74 54 -74 28 -8 40 -8 -126 -30 52 -8 72 -122 -68 68 40 52 -18 -36 -6 -48 -120 46 -40 -70 80 -10 -22 54 6 120 124 -40 -16 
86 6 -68 18 -126 -46 56 -44 110 38 20 54 118 -26 76 -22 4 2 70 16 58 -128 64 -96 -42 -32 24 54 -14 -10 26 58 16 80 26 30 4 14 20 -12 60 -12 -28 -110 44 52 -38 -60 -8 24 14 -78 -14 -10 -10 -12 -14 -30 -98 16 -112 2 -2 56 -54 76 98 -86 -114 -2 52 -86 88 -46 -122 50 -24 -66 -36 30 38 42 -26 16 -54 -78 -92 -34 42 24 -38 -126 -16 -124 -24 -120 -8 -66 -80 86 26 -76 18 -38 62 4 -40 -24 36 -52 -42 2 -26 38 102 112 -6 -40 10 -56 26 60 24 -16 24 14 100 -42 -2 -12 -28 -80 34 34 8 124 6 26 12 44 44 28 -34 -54 -18 -48 -68 -22 -42 100 16 -8 -6 -48 -28 -58 -34 -52 118 12 6 70 44 32 -36 70 0 -118 -4 126 -4 -50 6 -32 -28 -76 16 -10 -2 -116 14 -84 -34 0 -64 -16 38 -22 -20 72 4 58 116 -24 22 26 14 -66 116 32 10 12 10 46 10 102 24 -124 -20 126 -8 -16 2 -116 -40 4 4 -38 -10 -12 -68 -6 62 114 -28 50 16 70 48 76 -116 -104 -2 -20 -94 24 72 82 -114 74 40 2 118 34 -64 -104 26 8 26 32 -34 52 16 34 -18 -14 -18 8 2 -10 18 -12 -38 -126 -36 -64 -18 -12 50 4 -52 2 36 -78 24 -124 0 36 72 30 -108 -36 40 -20 0 -20 -54 -16 22 -36 -104 52 122 124 8 98 -62 22 90 -122 -32 -16 34 -46 28 -50 20 44 74 -88 -26 -124 20 38 70 116 44 -112 12 32 90 38 14 120 50 -24 -48 56 -66 14 -16 108 48 -48 0 62 40 20 -126 34 -10 6 28 -124 -20 -90 40 48 32 -24 -30 -50 -12 50 14 -114 -48 -32 124 76 4 -4 40 -30 -74 24 106 -36 20 76 -62 34 -26 -16 18 -34 6 50 0 -56 126 -20 4 -22 -116 44 -30 -16 68 -40 108 10 38 -42 -8 18 -6 -34 -10 34 -80 66 40 -50 66 14 68 120 -16 8 -36 20 18 -122 0 30 66 -126 -14 54 16 -4 -8 -38 -36 0 -52 100 -64 -64 42 -94 -106 -2 0 -14 16 -104 -48 124 -114 24 -36 54 24 126 26 0 -30 16 46 -88 -14 -62 -6 0 -108 -40 42 18 96 42 -124 12 42 70 -74 -26 -108 -64 50 -112 102 124 22 44 -72 24 34 -126 46 -72 -38 -46 38 62 -36 -108 -40 72 -24 -126 -16 -28 -120 28 10 -22 -38 78 28 30 88 -12 12 38 16 72 14 60 18 -24 
72 -68 62 -128 -54 -22 -46 -8 8 -38 -4 -122 -54 -76 56 22 -2 62 0 86 72 -118 -22 -120 30 10 30 0 -14 -34 -74 -118 74 -14 116 -30 114 -86 -112 56 120 4 10 120 24 -124 -34 -90 18 40 -20 -8 74 -74 90 -58 -90 72 -46 -38 26 -106 48 74 -58 64 122 -94 118 -80 -10 -48 -126 94 0 -40 -6 2 116 8 22 84 -44 80 12 124 -108 -110 118 106 68 98 4 -120 114 68 -44 58 6 -94 -122 -18 -36 18 20 76 -112 -126 -112 -116 -122 92 64 82 -96 -52 -24 -12 -112 16 -64 -56 24 4 -10 114 122 -34 -24 98 16 122 -66 24 -44 -62 -122 -76 -116 24 -92 16 58 -4 -46 -42 4 -52 48 -32 114 50 54 -6 -28 44 -116 -120 -88 10 8 10 -4 118 -60 -92 -50 48 116 34 28 48 32 -38 66 28 -40 -2 2 -96 22 -78 -34 64 120 -16 0 -34 10 -88 -48 74 50 -62 98 58 -42 -114 -34 122 -74 -8 30 -90 72 60 -10 -66 -70 -122 -14 -116 28 38 6 32 -96 78 20 -24 68 -6 -68 72 12 -16 98 44 -24 -42 10 -46 -8 -48 -126 30 -50 122 92 84 26 58 96 -18 -44 -26 4 -2 -30 -34 48 20 -2 -62 44 16 124 122 -90 42 -88 90 122 46 26 24 -20 34 34 40 -44 44 106 118 48 42 112 -46 74 -2 118 116 -26 30 68 70 20 -4 30 56 -124 -84 -10 -6 44 -116 -50 46 -46 -126 -46 34 30 -104 -26 10 -114 -60 -54 48 22 86 40 14 -70 -60 22 -122 106 34 -58 -8 -16 102 -72 -80 100 36 10 42 -26 -12 24 62 -120 -90 -62 -64 -90 -14 66 42 54 114 38 38 44 -36 -94 -58 118 62 16 -90 -52 10 -24 -120 -116 -8 -14 -34 58 96 -38 124 90 -82 70 68 -36 -52 124 120 -68 100 -106 60 36 -112 -124 12 -6 64 -54 -56 -36 -6 106 108 -46 -118 92 -66 14 120 -124 54 -120 6 58 106 -2 -26 12 82 -92 116 26 56 -128 -84 124 -128 -48 -24 122 -116 -16 40 -90 -8 40 122 52 116 -26 -118 38 28 -18 -102 6 10 66 -126 32 78 -16 80 -40 -86 -26 124 78 82 124 76 -108 -36 -28 52 -98 -126 116 20 -56 -14 -124 98 28 88 18 -26 -38 -120 -58 -100 82 72 -120 -8 6 44 34 -96 -18 -74 106 -104 -80 -2 -24 114 18 124 -94 -78 76 -122 -120 96 -98 10 -58 56 -60 0 -20 -82 -114 -124 -54 0 20 -114 54 -40 -14 18 -92 22 
-54 66 -60 4 22 62 -4 38 -14 -98 48 14 2 6 -78 12 -82 -24 12 116 -50 4 -2 70 18 -26 32 -4 -36 -128 -102 4 34 18 32 34 -90 -20 34 12 66 2 46 -12 42 -54 116 -80 -114 -62 -108 98 108 -30 34 0 -124 -34 -44 -14 32 48 8 0 -64 34 -18 16 -8 -24 -60 -2 -38 -44 46 6 52 -38 -56 114 16 -76 6 120 -128 68 42 30 -2 -60 -26 -86 20 -34 14 28 66 -80 -102 26 0 86 98 -68 88 -16 -82 -18 116 -26 32 -54 -46 70 44 -18 0 -100 60 -24 74 -52 90 -2 56 12 -100 -10 74 -84 -6 42 124 16 76 -10 -10 116 -62 70 104 -44 76 38 34 42 98 -80 16 -10 34 16 -10 -44 38 -72 -76 40 -30 52 -106 48 114 -118 4 118 -26 40 52 22 86 86 32 -68 48 54 6 16 -6 -20 122 44 -60 -26 -10 -122 36 44 -16 -48 64 -66 -96 -20 -66 26 -14 38 22 -38 104 94 -38 126 -10 8 -86 72 -8 120 -34 -28 0 -36 16 24 -102 -26 16 -18 64 30 40 -4 -22 126 60 12 40 12 10 -20 0 -100 36 8 -66 -12 -14 20 -120 -124 -10 20 -20 120 62 -92 28 -28 68 -36 32 32 -4 0 108 -10 -72 -42 -22 32 -70 -82 40 -66 -64 2 14 66 22 -54 -108 -24 22 -28 18 120 -18 30 -40 -10 -64 42 6 14 12 -64 24 -110 6 -26 -98 26 -120 4 -108 24 -44 8 24 58 -128 2 -64 118 34 -122 68 20 -34 -2 68 20 -28 -6 4 8 42 38 38 -22 80 20 -56 -8 26 -70 46 12 98 -12 -56 -24 -36 -80 -20 10 -44 -82 0 14 90 8 46 0 14 -24 -50 20 -70 -72 74 -34 -52 -30 88 126 -4 32 -84 62 -88 18 30 42 -4 -38 56 -14 124 104 -16 16 8 2 -36 90 -42 10 -52 10 -26 -4 -20 98 -42 126 6 8 -24 -46 -42 -8 20 26 -24 126 28 -32 70 36 98 -44 -74 -28 -38 -62 -26 -122 32 -86 -124 -50 -90 -50 90 -32 -6 8 -32 -120 0 0 -38 -72 68 64 4 62 4 36 -106 -76 -8 -20 82 50 8 -28 -36 20 -44 -22 32 -60 -96 -66 -10 30 14 6 -14 0 -116 26 70 -94 108 24 10 28 54 -14 98 -112 126 -46 112 -16 -18 46 -68 60 68 -80 -8 -40 2 60 -40 -48 -66 -18 -56 -126 32 12 -88 26 -126 26 -24 56 104 -46 -20 -28 -40 -82 8 94 28 102 24 8 12 40 108 18 22 36 
0 68 36 16 -30 -42 -102 10 -22 16 0 -124 2 -54 -6 60 -8 -40 16 -24 52 -26 40 -26 0 -74 -30 44 30 -68 124 -74 -114 -116 -8 -92 24 38 14 86 12 -28 26 42 2 -34 -96 -104 -122 48 -22 -12 -6 40 -50 -72 -52 56 -36 2 -38 24 -84 124 90 -12 -14 52 28 -4 -4 8 32 -6 32 -32 -4 126 -88 114 -12 -124 -66 12 78 -18 4 8 34 104 2 -26 -38 -14 -126 36 -66 -86 118 -34 -12 22 -42 -86 -90 -12 -26 -22 40 -10 12 -128 -42 0 2 -124 -12 -14 -126 118 -58 -30 30 -24 -54 -44 84 0 -128 28 -6 -58 -30 34 50 50 -48 22 120 8 66 -10 6 -100 -12 -52 -58 34 -116 34 2 56 -42 26 124 -30 4 54 68 -32 -86 64 18 -4 102 -120 -20 -34 -26 118 20 0 -2 -6 -62 -118 22 -6 48 40 32 -30 4 -124 -62 0 50 22 42 16 -6 -20 72 -22 -20 18 -2 -18 8 34 -86 -42 -124 36 -12 52 0 -8 30 -36 0 118 -102 14 -126 34 -24 -40 4 -4 8 -2 10 -16 -26 -32 30 -80 -68 72 26 12 90 -46 -88 34 78 -34 -14 -2 82 -64 -94 102 -122 108 -118 -52 10 32 32 -24 -8 12 12 -22 78 -30 26 44 8 98 -8 24 -26 98 122 84 -18 104 -52 34 -108 62 2 -82 20 -10 -66 40 -52 -42 122 40 48 -122 -126 126 -24 14 42 12 -4 38 -98 -4 -78 -116 -92 -76 -38 -28 -58 -126 -110 -6 36 4 10 -44 -14 26 120 60 14 72 -50 20 -2 122 -6 44 -124 6 -42 36 54 -116 122 -104 -56 -20 114 -12 -126 -116 40 -20 10 10 22 -98 -12 -78 -34 22 -26 -12 -12 -84 106 -16 50 -30 -18 -28 -120 36 -12 66 38 124 -24 10 -32 60 -114 -82 14 -34 126 -36 -18 34 16 -106 74 22 42 34 46 -38 -126 -72 46 122 58 -54 -100 34 10 -24 122 -22 -56 28 -80 -18 6 -76 -118 -72 -46 126 40 -6 -122 -110 122 -88 8 12 0 26 -36 16 22 30 -24 66 -82 20 -34 -30 -26 0 0 42 -24 56 4 0 -82 -92 40 38 -42 -2 28 -110 44 118 44 -54 -28 0 -118 -18 124 64 -72 -106 -22 -126 124 64 124 -24 -10 54 -22 118 -66 26 -18 -26 -44 26 -108 -104 34 -4 56 38 108 -114 40 4 -26 -50 44 -2 2 82 -34 2 -8 16 -20 -6 -60 0 -88 22 -72 16 -116 10 36 -70 28 80 -88 32 -78 10 40 -6 -128 -58 8 -52 
-16 44 38 26 -10 40 12 -124 6 -62 34 -8 8 -110 -26 54 -60 -98 -8 6 -50 28 -122 40 -8 40 -126 6 0 50 -80 16 -16 -6 -26 -34 -106 42 14 122 -26 -34 20 20 8 -38 16 -30 0 28 -78 -18 -120 -126 14 38 18 14 24 118 6 16 -40 52 28 66 -12 -74 28 -12 38 -34 24 56 -32 54 -36 -24 26 58 -54 -30 -44 -106 4 -38 26 -14 14 -82 -18 34 10 -2 -42 46 -4 28 110 14 6 26 120 -24 2 -22 -6 -8 92 -94 6 -6 -54 62 -46 -14 -14 0 -22 18 -26 52 -48 -28 -60 56 -48 54 -6 46 -24 24 122 -40 84 -6 42 -32 12 -74 18 4 -82 -18 106 -14 -72 2 -12 -12 -64 -52 -92 8 14 -22 44 26 -22 -2 12 62 -12 14 74 18 -18 32 20 8 -124 -46 -72 -122 76 -56 98 16 60 18 -42 -10 -20 2 8 -64 -4 44 72 -12 2 -64 -2 -12 12 -70 24 -14 -34 -18 -76 52 -86 -110 112 22 -16 -12 112 40 78 -40 -14 0 14 -50 -52 -2 6 16 -36 -20 -94 -38 94 78 -128 -18 14 2 -42 20 -102 -24 72 2 -66 -10 -32 20 -60 28 72 -20 68 -16 16 2 6 -14 -40 10 -68 4 -114 -16 64 -2 -2 106 -42 20 -22 26 40 -120 48 -18 66 8 -2 -118 -10 18 -24 22 -110 -30 24 42 -6 -14 6 -126 -124 -14 -12 70 -60 2 -70 -8 -18 -28 -62 -54 -76 30 22 -54 -2 -16 48 -2 -46 -14 46 -14 -22 108 -14 48 -12 76 -26 26 -32 58 -126 -40 22 36 10 -18 -4 12 46 -48 -8 64 40 18 12 -10 -44 6 12 -26 20 -22 32 -14 -44 48 -24 4 -8 18 -12 -4 -58 46 120 18 78 -6 0 40 20 -26 124 42 -98 42 6 26 82 -22 -28 -16 -28 48 -10 -76 -18 -8 24 -120 36 -46 44 -36 -10 28 78 2 -30 126 40 6 58 58 20 52 24 -4 0 -20 -6 2 -20 12 62 -28 -4 -60 98 -20 -36 -84 -18 44 -2 -12 14 -20 -74 -4 -20 62 88 -94 -40 10 -18 16 6 34 -16 -36 26 -46 -16 6 22 -52 -124 20 -10 26 -6 -54 50 -32 6 10 6 80 -14 38 -8 -80 4 10 52 2 60 -36 2 4 -12 42 34 122 2 -94 -78 -8 26 -42 74 14 60 24 -48 -10 20 -14 -48 50 -56 -12 4 -28 -38 16 -26 -20 -18 -8 -96 -2 -38 -58 0 -22 48 18 -6 -34 40 46 -10 -124 4 8 -38 10 34 4 -26 0 
86 -12 -34 -88 120 -112 122 -88 -22 -106 -4 -14 -48 -42 -44 62 38 12 -52 4 30 -122 -70 -126 42 -42 -20 124 -44 -14 -106 -16 -98 -66 -32 -32 10 2 38 -122 -68 -32 -120 -40 -6 22 20 -82 -38 -80 36 -78 18 8 -36 -98 16 78 -126 -124 -84 -60 -82 -52 34 52 -18 -60 24 -4 -16 -58 52 -36 120 32 22 4 -114 -66 -126 -8 -122 126 -16 -122 -46 -120 104 -38 -116 18 -124 -126 56 -82 50 -18 38 -124 30 -52 56 -4 104 -124 56 -126 -112 -104 122 20 -4 -12 -122 94 126 4 18 -6 124 -98 -4 -34 80 -118 36 -24 -16 -38 -64 110 6 -8 -58 -122 10 -72 -44 -66 -26 -2 60 122 124 -36 -110 26 18 84 70 -88 -26 120 -112 72 -4 2 -100 8 -2 -2 -6 24 -8 42 102 -36 116 96 34 -16 80 4 -46 30 -36 -58 -120 -124 -64 -120 -128 -54 126 -12 20 22 -48 -100 124 110 42 48 0 70 78 4 -60 -72 38 -110 56 -100 -56 20 18 2 44 -50 -38 -108 -20 -124 -122 22 -26 -20 32 -20 -104 26 -114 -116 -110 66 -4 -56 -112 -16 -64 -122 -34 -46 -96 122 -16 -48 122 32 -90 -102 126 -56 8 -74 -54 36 24 50 -82 124 -124 52 -16 54 -10 -44 14 -90 70 -126 -92 70 38 124 120 110 12 -122 -106 -60 -28 -32 32 -114 -46 -24 -28 -76 -34 -116 -96 42 78 52 -16 -126 -76 -50 122 14 52 -96 -30 56 -120 66 -36 -90 -6 -46 8 -40 -128 -30 62 2 54 112 46 -124 -60 4 -12 -34 -70 -60 -4 56 18 126 12 -18 -126 -58 -42 -34 -76 58 -120 40 -124 106 110 12 60 -78 -126 46 -66 -12 74 -100 84 16 116 -126 22 8 -108 -44 -124 -12 -28 -16 -110 -14 -36 -76 -30 120 -26 24 -126 -102 -116 42 126 68 -24 -102 88 16 -20 50 22 -108 22 -126 -38 -24 50 52 -128 8 52 -34 48 58 -68 94 -52 18 96 -124 -34 10 -102 -32 22 82 -44 68 20 -90 120 14 -88 28 68 30 -58 16 80 10 66 -122 8 -16 86 50 30 -40 36 12 -28 -20 -68 8 -126 4 -94 78 72 8 -34 -88 -8 78 26 104 -104 28 -40 -64 -26 -10 -94 -12 28 -126 78 72 -52 2 116 -108 -120 -110 -112 -118 64 122 6 -118 28 -106 -122 -66 -2 -124 -126 -118 22 -18 -90 26 -12 -126 -126 -122 42 6 18 82 -6 -86 74 8 16 -10 34 -64 -10 10 -70 -50 64 20 56 -118 -78 -114 -72 -54 -2 60 124 -4 16 0 
42 122 20 0 126 78 120 126 -66 122 114 126 126 126 80 126 118 124 -28 96 4 -126 126 104 126 -98 126 88 126 -126 118 -58 114 124 -126 34 -128 80 -52 -40 126 126 126 -12 -22 110 32 40 -78 -90 126 -116 -86 126 126 126 -68 126 -128 -128 -78 -104 80 126 8 126 -128 122 126 -106 -8 126 126 -80 116 -120 -18 -120 -76 -42 -128 4 -88 -106 -108 126 -22 126 34 20 34 -128 126 126 56 -126 34 -58 126 126 116 90 -128 126 -48 -96 84 126 -124 126 126 -124 -102 -64 116 -38 -14 -42 126 -82 -90 -32 -68 100 106 -126 82 8 -74 -86 116 84 -126 126 126 -66 -86 -126 114 124 -94 -66 68 -128 124 126 -128 -10 84 -126 122 122 16 -126 126 -126 126 -2 -52 -112 -50 18 12 58 -104 -82 -78 -120 96 -126 126 -126 124 -34 120 126 126 -128 -126 86 62 126 54 98 -38 126 58 126 -126 -118 -126 118 126 126 122 8 -42 126 -124 -126 12 74 -126 -128 126 -124 88 126 -128 126 -42 -126 126 -128 126 126 124 -106 126 126 126 120 126 -94 -104 92 -80 -124 30 126 -120 -84 124 126 -126 -112 -16 126 -62 124 100 -126 -118 30 -124 -126 100 56 84 126 126 -126 68 126 -80 -4 -22 126 -72 -120 126 -56 100 14 -112 126 -126 124 126 -108 -6 88 -2 -112 120 -6 -126 -72 112 -128 36 126 -128 112 94 -128 114 -126 106 124 -68 -128 -112 90 -126 60 -8 -88 -100 126 -68 -76 14 -124 126 124 126 -94 30 126 126 126 -126 92 112 -62 -26 4 70 -128 122 -126 -126 110 90 126 98 60 12 -106 126 -126 126 -112 -106 124 -118 36 126 114 60 126 -128 -128 20 -122 126 126 -70 104 -90 -128 -122 126 126 112 -112 -128 100 -6 54 -102 -34 126 126 106 78 126 58 -20 124 94 -62 -128 124 -126 112 44 -88 126 116 122 -4 70 -46 108 -2 -44 122 126 26 -120 -86 -128 126 48 126 60 126 112 86 126 14 4 -84 124 126 -56 76 94 126 124 102 -126 -90 126 56 94 126 -106 126 28 126 -2 126 50 44 -108 -26 126 84 126 -114 26 30 126 126 -126 42 -126 -126 118 -98 -128 -126 -126 124 -106 -14 126 2 32 98 -126 -48 2 6 14 24 -128 104 126 70 -112 124 122 126 126 58 -126 -92 -74 126 42 126 42 -122 126 126 126 -20 -128 98 124 -78 126 -122 126 -128 122 126 98 -128 126 110 -128 -126 124 126 120 126 126 94 126 126 126 60 106 -98 -128 126 126 
-80 82 -104 -90 118 -74 120 102 22 86 2 4 126 -6 -26 -50 -104 -4 -4 112 -62 72 68 18 -44 -28 10 46 -40 62 -126 18 84 -2 -40 6 -122 36 42 -6 -66 34 82 -124 -80 -34 -28 -8 -72 104 122 40 -46 78 36 -56 -126 22 -22 120 106 0 -46 -54 18 120 64 106 0 -6 24 -12 10 2 -74 0 -102 122 42 48 -102 -6 -78 2 120 4 -16 -34 94 -10 14 -124 40 50 14 -124 -64 -24 -80 -66 -18 74 92 -82 22 50 68 -16 62 32 74 -8 -128 36 12 -6 -44 48 10 62 14 90 -120 64 -22 -124 2 122 -56 -86 -88 6 24 -30 44 68 110 -32 -48 36 -30 -10 46 -4 -50 -94 -80 36 66 -42 40 68 32 86 -6 106 -32 74 76 8 124 -12 16 124 -128 70 126 -58 -22 20 -88 -40 -52 120 8 -2 -122 -62 -40 -66 -108 14 -32 8 -114 -56 -4 44 12 -58 8 -4 16 -28 -96 -32 42 -48 12 72 -72 -2 40 114 -44 54 104 24 -12 56 42 20 2 34 16 42 -80 -126 -68 20 -20 -8 18 -52 108 -20 18 -12 62 66 74 6 90 -54 66 50 94 -90 -6 -120 18 -26 42 -18 -70 -118 -58 -30 102 66 8 12 6 -38 -62 12 40 38 96 -126 52 -60 126 30 70 -16 28 -64 -42 52 30 6 -22 -46 -36 2 -34 4 -20 2 -40 -4 74 38 -12 68 40 58 -64 -26 22 42 -50 -26 118 42 -110 -32 -60 -14 32 0 114 -12 100 -114 46 -44 -6 22 2 -100 -56 28 -122 72 124 -72 10 -74 70 90 -104 10 56 44 -34 72 62 52 -38 -56 -50 -6 64 -112 86 -26 54 18 52 14 -88 -112 122 -30 108 -54 90 -38 34 -124 -70 -82 88 18 26 22 18 -6 -52 72 -16 56 14 -10 -104 -38 -24 -8 -64 -24 78 92 -32 -26 -10 92 -126 34 -114 -20 -126 124 90 24 26 58 14 -12 48 -124 -16 114 28 -12 30 -32 14 -44 -118 116 42 -34 8 42 124 26 -30 122 -94 94 32 -46 70 10 74 86 -4 -34 24 2 122 62 -30 -26 6 4 94 -76 -76 124 -52 118 8 20 10 8 6 -14 10 -68 -52 -126 -80 24 68 120 30 44 114 66 0 22 -64 44 20 6 -80 -116 32 -26 -14 106 -60 32 -8 38 88 14 -42 34 22 -62 -20 54 46 20 -92 86 16 -94 -20 -50 42 78 -16 40 -42 -32 -120 38 20 -18 -76 4 30 -58 10 -120 -24 58 84 72 14 -18 -4 -34 -124 -20 10 20 
-2 -26 -40 -20 34 48 60 38 -114 26 10 22 66 42 -40 -90 6 -46 -78 -68 26 12 30 -94 28 78 124 0 -98 -118 -10 -54 -28 -36 -18 10 -34 -24 -16 -36 20 38 -36 -30 -30 48 30 40 -28 -64 6 70 -56 -28 64 -70 -34 -12 44 72 92 -30 44 -2 -92 -32 -10 26 -4 -8 -16 20 -10 -10 16 36 20 96 -94 -46 -68 16 -88 -20 -10 -14 6 -26 -102 20 -96 -96 -56 0 56 -12 -12 -58 32 82 -30 -122 22 -106 30 -8 40 116 -28 12 16 82 -18 32 52 40 46 -30 16 80 -126 30 -36 -4 -8 -90 46 30 -50 -20 -58 116 94 -28 4 68 22 118 100 -14 -18 118 -4 58 106 -2 20 42 -56 34 8 -56 -6 -94 -28 52 62 4 56 80 -126 110 24 32 -28 -34 48 -18 -50 -124 36 -30 36 -20 22 36 88 22 16 18 36 10 -18 -124 50 54 50 -4 -34 -46 -124 -24 80 -114 -58 6 84 -66 26 -80 -118 -94 80 86 -22 -68 2 114 122 102 114 0 -88 20 -92 -32 -44 -46 104 -106 -60 12 36 -44 -52 -10 -36 -10 -20 -122 110 32 4 82 -38 122 -48 -10 20 96 12 20 96 14 -12 -30 -80 116 0 -68 40 -30 0 -2 40 -58 -40 -112 70 12 -102 -124 -4 -42 56 38 86 -14 0 -70 82 -10 14 -64 -54 -84 -18 44 122 66 -6 6 -112 -22 16 -2 10 46 20 -98 -76 0 10 14 20 74 -54 40 -12 28 22 20 -18 0 78 14 64 112 -78 -84 -36 -44 -28 -56 38 -40 -20 -38 -34 46 52 46 -38 10 4 52 4 50 -20 -32 30 36 -46 110 -114 48 60 -54 -124 56 -38 54 8 38 26 62 -48 -6 12 32 -84 -32 84 30 -12 -72 34 114 -6 -34 -48 104 44 8 -30 -102 -122 54 -54 118 -122 22 -112 10 -72 24 -4 10 16 -46 46 0 66 46 -12 6 90 -60 106 32 -4 -38 28 -60 86 -114 -68 10 -10 8 88 -26 -32 -124 -124 24 8 -70 12 -6 -8 -20 -4 -4 90 -52 32 62 14 -76 -36 -4 -34 -100 38 12 66 6 34 -2 44 12 -4 96 -2 -12 -76 -30 -8 4 -104 -120 28 86 -50 76 -74 -16 -56 -102 32 -120 74 -86 42 10 -126 -70 -94 -38 -26 2 52 20 -8 -44 124 -56 56 40 90 32 -100 120 -8 -18 -8 8 -112 -124 6 -22 0 66 14 18 -16 -28 18 32 80 -14 116 -52 -122 26 -40 86 28 16 -50 -4 114 12 -124 26 -42 68 22 -124 20 82 
50 -110 12 28 -2 112 -28 10 12 58 -18 -22 8 -10 52 32 64 20 -38 -42 -70 56 50 10 10 -40 -60 -18 52 22 -2 -56 26 8 -40 -10 60 74 38 -12 -54 0 32 44 24 -10 -12 -48 -122 76 28 -18 -40 -12 8 -50 10 -58 22 -38 28 -6 -50 44 -14 76 -58 -52 4 -122 -56 32 14 -64 28 -40 -36 -60 46 -72 -44 26 72 6 -88 -14 14 32 22 -72 -8 40 -12 4 -92 20 -40 120 4 36 -6 -110 -16 40 104 -42 94 2 68 58 -4 8 34 -48 92 34 -126 -12 0 54 -16 -16 -54 -4 -98 8 -24 66 110 12 -40 -78 -6 -18 44 -10 -10 -36 -98 -64 -44 12 112 -6 32 116 52 22 -126 -12 -40 -32 -14 -40 -124 44 30 -18 46 100 126 32 24 -48 66 -84 22 -8 -22 110 10 22 6 6 -8 84 44 -6 4 10 -118 -52 76 22 112 18 -4 -38 64 0 -54 18 -50 -4 -126 -34 22 -72 -24 -18 56 -20 -8 4 -32 4 40 -20 16 -20 70 114 42 -6 98 -112 4 70 -4 118 -16 -74 -66 -34 74 56 6 20 -38 46 116 -12 44 18 -20 6 44 -2 -12 96 -122 82 -42 -120 34 -98 -14 -34 -84 54 -126 16 -52 -26 16 -12 -72 6 -120 10 -52 38 10 4 50 -44 76 -66 0 -50 -8 -26 -42 -64 -6 46 -58 -28 -2 0 -110 34 10 -4 -36 78 118 72 -36 -26 22 -16 -18 12 -106 -36 -6 -24 -106 -78 28 28 32 70 44 -24 -12 -94 -70 -90 84 8 -70 24 106 -42 36 12 6 74 4 6 126 2 84 22 -124 10 -88 86 56 14 52 24 -118 60 22 24 -14 60 -12 -128 -18 30 -4 -2 72 -26 -74 -86 -26 26 -16 38 4 8 120 22 -18 -30 60 -28 -44 -94 -44 -4 22 32 46 16 -60 -26 44 -8 30 -12 30 12 -8 -38 48 -34 -120 -62 34 -124 -12 -16 -12 10 -40 -58 120 -18 -26 86 -86 122 -2 -114 -124 -126 -46 60 22 12 -120 58 -56 94 -34 22 116 -18 -4 12 -126 14 -82 34 38 32 64 -28 48 2 -22 -18 -42 -114 54 -46 106 122 -12 -6 -16 18 -68 84 -28 -34 2 -4 -2 4 -50 -16 -40 -36 -116 32 14 -120 74 122 36 -96 -24 -12 -20 40 -30 18 50 108 -114 46 -80 -48 -26 -2 -8 -42 -60 70 12 -8 -92 2 116 28 26 52 116 -36 -16 2 118 24 -48 16 40 2 92 -2 -100 20 -32 -116 -74 10 -24 -40 24 -8 2 12 -90 46 12 -32 
4 44 -90 0 -20 -84 -116 -6 -34 -126 24 -16 -54 78 86 28 122 2 -52 -124 0 112 -40 -70 18 -58 -102 -18 -82 -126 6 -16 82 -12 0 44 -126 22 34 -124 -64 14 18 26 -4 -112 -2 -38 -6 30 -62 -70 14 -88 -114 -42 -40 -28 -42 -14 58 26 -122 26 20 -74 -10 32 -24 -42 84 4 -4 38 6 26 -26 -34 8 6 -20 -94 -28 74 -126 -34 -34 -66 -26 -16 20 24 -2 14 6 22 -52 -22 12 88 50 40 -122 -62 80 24 18 110 -24 -22 22 6 -76 12 66 -48 -70 20 50 -44 -30 46 -82 -26 -48 96 68 30 0 -16 -26 -8 -58 48 -62 -12 32 110 -36 -36 68 40 52 -22 50 52 44 -2 24 -20 86 -74 -8 -24 6 54 -12 34 -16 22 -40 -22 -76 32 78 -26 -8 -68 -22 24 6 -30 12 -4 10 -102 -28 16 -112 -8 -126 -56 -92 -50 0 100 -4 -4 -60 -6 100 -64 -30 10 -110 2 -24 10 -12 18 -64 -14 -120 44 -122 52 -76 -14 84 -8 48 26 -4 -40 -84 -60 30 -40 50 14 -26 58 18 -52 110 -40 60 48 -102 -52 -6 -50 48 -50 8 26 2 -28 42 -12 -36 -4 -12 -42 18 68 10 30 74 -2 -2 36 72 26 -124 -24 8 -120 40 -88 50 -64 -24 22 -60 74 -4 32 64 -64 48 -26 -10 -82 -4 -24 -78 -98 26 60 -100 58 54 -38 -120 -24 32 20 40 -40 -10 -8 20 -16 -110 2 -116 104 -4 54 34 -2 48 0 -20 66 8 120 118 12 14 0 -122 86 -22 -20 -46 8 -42 -64 20 -44 -18 18 44 24 18 -50 28 122 60 20 -20 -18 -28 16 -36 74 -4 -96 12 36 -4 -30 -54 -50 8 -44 124 -56 -118 -54 92 4 46 34 30 -54 10 -22 2 118 -14 -94 0 -58 40 -24 0 -68 74 22 -10 -8 -76 14 18 42 0 6 76 2 -72 -16 10 -20 -18 122 -8 -34 -88 -60 -70 10 26 54 0 74 -14 20 -120 78 2 12 28 20 92 0 48 -128 36 32 -124 36 -72 44 10 16 60 -30 -18 -124 -46 8 -12 -82 46 18 -46 106 0 74 -40 12 72 -46 24 4 34 10 -20 -36 -78 -122 -6 -16 42 -66 -20 34 58 68 82 12 -2 -38 28 124 72 116 -52 -38 36 102 54 -38 -4 -14 18 44 24 18 -18 -4 50 -6 20 34 -20 -40 -26 -36 -72 -80 -82 126 -48 -20 -42 -48 -58 24 52 4 4 32 -70 80 -30 20 -24 60 -60 76 0 -42 2 -56 -24 24 6 -28 
-46 112 114 -94 42 -4 -122 -60 20 0 -24 24 -50 6 -66 38 -40 -2 -28 116 -112 -46 -34 26 -50 -14 -70 -48 -26 -122 8 82 116 10 -8 -84 -96 50 10 -16 -18 -16 -40 -34 -18 -4 44 18 30 -8 -54 -28 30 -2 -10 8 -28 -66 42 -6 -20 0 -74 -18 28 -60 -2 -42 38 16 -56 -40 32 34 -6 -26 -122 -40 -82 16 -42 -50 0 56 -28 -36 -10 -60 18 10 42 28 -10 12 64 -58 12 28 -2 -92 62 -14 -18 -60 -118 38 -20 -32 -4 26 16 56 124 -12 28 -42 -32 8 54 18 -26 28 58 -26 -98 -54 -70 -44 32 22 -84 -126 -56 0 58 -24 26 20 62 -126 -12 6 -30 -2 2 -10 -8 -20 48 -22 -76 -104 0 104 32 24 -18 46 -18 -36 -36 50 -12 -90 80 -60 -18 -52 12 6 -28 10 -112 -40 -36 72 40 -14 -66 22 8 -36 36 96 -52 2 -8 -2 10 -22 -8 -8 14 36 -30 -108 32 -32 -28 -72 -26 -126 -30 14 -88 66 -36 -12 44 64 -2 50 -34 44 26 -124 10 84 8 10 6 56 -28 -44 54 -28 -36 -60 -98 16 20 2 68 -30 74 -30 94 -52 50 12 -48 72 -54 18 -4 26 16 28 -22 64 62 30 -6 6 4 -14 -8 -118 2 -18 32 46 -32 26 24 14 78 -2 6 42 -62 -70 -104 -26 -8 6 -42 -6 34 12 32 -16 54 -18 118 6 30 112 18 -30 52 2 -18 44 -32 -120 64 20 -6 -10 -2 -36 -24 16 -34 50 44 -108 34 -24 -60 52 -92 -2 8 0 20 -24 -126 12 34 90 28 -12 24 -8 6 -2 52 -42 -2 58 -94 44 32 0 -100 46 26 -82 -30 -4 112 -2 -12 4 92 74 -124 -58 18 74 42 -4 -58 -32 90 124 -18 -36 -34 -28 -64 -22 -36 -78 -44 68 100 26 82 50 32 2 -4 24 48 -44 54 -34 -12 -118 36 -32 50 8 12 -6 48 -52 -52 -128 48 56 -10 76 18 60 -40 10 -48 -110 76 38 72 -78 84 78 2 -120 24 -30 -44 -52 -114 -6 -104 -26 30 58 -32 -124 -26 -98 30 -114 4 32 -16 42 40 38 68 -92 40 -78 -84 18 -20 118 -26 -96 54 -60 -28 -12 -40 -22 18 2 18 22 -50 60 46 24 20 30 -42 -76 -86 2 -26 -56 -2 -68 -66 52 -74 -84 82 -36 -40 64 58 -68 0 -120 32 -22 -26 32 -28 -42 40 -100 -26 -20 42 -84 -16 18 76 -58 -42 -34 34 -32 -66 -46 12 4 -48 74 -60 14 -122 -86 4 44 -94 16 
-12 -66 -6 -34 -14 -26 78 -122 -38 122 26 50 -38 -116 -26 94 6 -72 48 -44 -94 -44 10 -8 24 10 -126 -42 0 28 46 34 -18 -28 -40 90 86 58 52 118 -40 -54 -20 -10 4 -16 -2 -62 12 -10 46 60 -120 -118 36 -12 12 -10 22 -22 -38 34 -28 18 22 38 26 -44 18 26 -6 4 36 -2 -58 0 -4 110 -4 56 -30 42 -58 -48 -104 -54 24 18 -2 42 -48 26 28 -54 -12 -36 -26 98 -10 -36 -22 34 -106 42 24 8 14 -56 46 44 -54 10 -56 28 -74 -46 -2 10 2 -22 -102 -6 -98 20 -66 -2 -88 -26 28 -18 -4 22 -18 48 6 4 -38 70 -6 16 126 10 -34 38 -74 2 -74 10 -6 40 -106 -72 8 -26 2 -104 -32 6 66 -58 50 80 -120 -14 70 -58 124 8 -88 10 -126 -62 26 18 18 -82 -50 26 118 42 -24 -2 -14 26 44 -46 54 18 22 -34 -22 -8 28 -8 -26 -114 28 -8 12 -10 -54 66 124 -120 18 -22 16 -48 14 -58 -12 58 -122 20 -42 30 -126 30 -20 32 -52 -112 118 -12 -10 80 -24 -16 38 68 -44 120 -24 -58 96 -4 -86 22 18 -76 -44 84 -110 -20 -38 -92 44 -98 -32 -80 -30 28 -14 -24 -118 -40 46 22 8 34 -30 2 34 34 -18 -106 -6 114 -12 -92 -12 112 8 -18 8 -68 -60 -122 -64 30 32 -46 -42 -10 -122 122 6 -6 -22 -6 -8 -2 -4 30 -80 34 -30 -40 -32 -46 16 28 -10 26 -14 -82 -110 -122 -36 -42 16 -30 12 124 -50 -24 30 20 -114 -12 -40 -26 -6 -10 -12 18 12 -10 0 2 116 34 60 26 -6 22 -2 10 -18 58 50 -2 2 -32 24 16 14 -80 -30 -26 80 70 10 -34 22 22 8 -114 -44 -38 -6 58 -14 -104 -72 -42 -56 22 -4 -22 44 2 28 -20 -32 -18 20 -58 32 -58 -30 -18 64 22 28 -4 -10 98 56 -28 42 -10 70 14 18 18 36 -16 -82 48 -8 2 -2 -8 6 -66 84 -16 46 120 -70 70 12 -18 0 -80 -24 -42 18 0 -42 38 32 20 -56 -20 -2 52 4 52 -6 -8 -42 -38 -10 -54 -126 66 32 -6 30 2 -6 -118 -18 10 -58 76 26 -30 -60 -96 16 16 -42 2 34 68 -38 108 42 -38 8 112 -38 -40 6 -40 -66 -10 118 -6 16 -42 14 34 18 -50 -24 -4 22 52 122 0 -92 20 60 -38 -6 12 -122 -22 72 -10 -24 60 86 98 6 -16 -20 6 50 76 10 26 -52 116 30 22 -104 -24 
72 98 -104 124 126 -66 90 -126 62 126 -60 122 38 -64 34 -126 -116 -126 4 -114 28 126 -62 -42 126 26 126 6 -106 -30 -120 108 4 -48 90 -108 -126 -8 -22 24 118 -120 126 -86 126 84 -60 124 30 124 -78 -86 -42 80 -54 116 -106 108 114 124 -90 -52 -124 -126 124 -52 -18 58 -122 -78 -126 24 18 -126 -14 82 -114 118 -50 42 -94 -96 126 20 -110 -120 -26 84 -122 -110 16 -126 -124 -42 126 64 80 -78 92 -120 102 34 -110 -2 54 66 16 88 124 6 126 -50 -74 50 58 -18 98 40 -14 112 94 84 122 -126 -84 126 122 -116 -112 -126 2 6 -6 118 126 126 120 -102 8 -80 -126 -102 -106 62 -126 -102 26 -18 110 76 -124 -128 -126 124 124 126 -90 126 -100 -66 -98 24 -6 -42 -94 -28 118 -102 122 68 2 -126 100 -124 104 -60 126 -122 62 126 -74 4 20 88 114 20 -6 -128 126 124 46 32 120 98 -124 -104 124 -118 120 104 102 -122 -16 96 -8 56 -56 26 122 124 34 126 126 36 -32 32 -80 -114 -126 -122 -40 10 -124 -126 -122 -16 -118 -84 122 -24 112 124 100 86 116 30 66 -114 62 -88 50 -128 66 122 126 -86 96 126 -126 126 126 118 -100 -52 56 122 30 124 74 18 -30 -30 126 -6 -118 36 126 -120 24 -50 26 -118 40 -116 -16 -46 -126 -84 74 -32 -62 -126 -64 -116 -4 10 16 116 -38 112 126 124 -126 54 -12 122 26 120 12 -126 12 126 -126 -4 108 -110 88 4 -66 -20 56 -128 -58 -12 42 -108 100 -22 -126 -114 44 -22 86 126 106 -74 122 70 112 68 70 -122 -62 112 -116 24 126 114 10 20 -58 124 48 -96 118 6 -122 96 -80 -60 -36 -44 -124 -110 0 12 94 122 8 -32 -60 -38 -66 72 -86 -120 -18 -46 126 2 52 -124 108 84 78 126 114 -124 -96 8 -38 -126 -60 -32 126 -60 -36 56 -16 -14 -32 -122 0 74 -124 -100 114 -28 -94 126 -126 36 20 98 96 -124 -120 30 120 -120 -20 -60 -76 102 -124 -124 118 72 40 120 -12 -56 -44 -24 -20 122 8 24 126 -78 114 -4 -44 126 -116 -2 -126 -124 -128 50 66 110 -10 110 116 -100 -122 30 126 -124 84 -80 126 126 -4 104 124 -126 90 116 -106 36 98 -8 -118 -120 -84 66 -60 -126 124 0 -14 -48 -56 124 54 -84 -114 -126 38 0 34 -128 -40 70 -54 46 -80 52 108 -8 -108 -122 8 -122 118 -126 -6 -28 126 -38 -122 -40 -126 -84 -126 -116 -36 112 8 114 
-2 -28 -42 8 -44 -26 -122 112 -40 -92 -106 -34 -116 -104 -10 46 116 24 -40 -48 -8 -122 104 -28 -28 -124 4 124 -80 -32 -88 70 -58 -40 -22 116 62 -118 -16 126 -70 46 38 -46 -6 38 -10 58 48 -50 -128 116 -32 -24 -48 2 -4 -28 -124 124 -96 -54 26 -82 -72 44 -4 -44 4 -14 2 -18 4 8 2 14 50 28 24 50 20 48 88 122 -6 68 -122 26 -6 14 -108 44 6 -18 -8 66 126 -2 72 -116 -118 -2 18 22 -18 76 -20 12 -20 50 -32 -8 40 50 -26 60 -80 94 36 -20 -84 -68 64 2 44 106 38 76 44 90 -122 -24 76 -84 -118 118 -44 -82 -64 118 -10 30 52 124 68 -18 -6 -80 -82 78 -42 -88 120 -86 0 38 -124 -54 -90 -20 -126 -32 -124 92 12 -28 -102 -10 94 -4 -44 88 -126 34 30 10 -76 -20 42 -122 -116 34 126 -38 -24 -24 -102 48 -72 -42 -120 12 -2 -60 22 -80 36 -44 -74 -6 -6 -126 -4 28 46 -114 20 -20 -80 38 -84 -48 -62 -114 32 -70 -18 -16 -102 -30 -2 -80 -64 124 -124 -24 116 2 -56 26 -26 -96 6 50 -122 -122 -18 122 -74 -26 114 -66 122 4 -4 30 56 -80 -56 -28 44 -26 -48 -16 -8 -4 110 -102 -88 20 18 -126 38 -118 -8 -90 -42 -116 -16 -50 -54 64 -110 -60 114 -84 -122 4 12 -4 -94 -54 -16 122 30 -42 -8 -120 58 -86 -6 -32 46 -30 58 -36 16 -4 56 -122 10 -46 -22 2 -116 -122 -6 66 34 -64 -64 48 100 32 42 -38 -72 -20 124 -40 4 14 -10 -48 4 -34 -26 -66 48 94 98 38 -14 -44 -126 -26 12 -16 14 -32 -60 56 0 -2 124 -14 -18 -54 36 84 -42 44 124 -62 50 -26 -52 102 -2 50 -60 -82 108 78 46 126 -26 -90 116 70 -128 4 14 36 50 10 -16 42 -14 88 -102 126 10 34 -100 -30 84 48 -80 -126 -24 -126 -2 -10 -120 -126 -10 -40 -8 -28 2 16 -92 12 -2 82 -42 -64 -54 22 -126 -22 98 -26 -74 56 42 10 -126 -6 -120 -2 6 -124 36 124 -86 -18 -72 -6 -18 -40 -10 24 72 -4 14 86 18 30 36 12 42 20 86 110 122 -14 -22 -86 -40 62 -122 30 -10 20 4 40 -6 76 38 100 2 10 54 0 122 -56 -80 40 -84 -50 -124 -32 66 -18 -16 -126 88 -34 -106 20 -2 -28 42 -84 -24 76 -48 60 2 -44 20 -124 126 -22 -64 -8 -126 34 4 -64 -46 102 -50 -80 -116 106 12 -42 18 -38 
126 14 -120 126 118 -108 116 124 -4 72 -128 -126 22 66 126 126 -32 -122 -8 -26 50 118 -108 82 -126 -122 -126 0 24 -30 24 -102 14 -78 126 -96 -68 126 116 -44 28 -126 -118 -126 -126 -126 78 -20 -114 118 48 -66 92 98 80 -42 -124 -4 58 -120 -26 -124 -126 122 -124 -108 120 10 108 -126 -54 24 32 -126 126 -126 -68 -124 126 -28 -128 122 126 -82 -126 -64 -118 -104 -126 -126 -12 -126 -126 -124 -118 -128 12 -124 -26 126 -124 56 -66 -124 124 -120 -22 -126 44 -126 124 -66 -128 -84 8 126 -122 -118 -38 100 126 -46 -128 114 -2 8 126 -116 -120 68 56 -128 -126 -56 70 98 122 28 -128 -122 122 -20 -24 84 124 -74 -120 -118 36 126 -44 -128 -88 -76 30 -128 62 122 -30 12 -122 -40 -44 -116 -126 -48 36 -54 -128 -126 -42 -126 -8 -50 -6 2 124 106 -88 124 -124 -50 120 -92 -60 126 -126 -32 -126 -46 102 -18 126 -50 114 88 122 126 -18 126 14 -76 -32 24 126 -34 -66 20 110 122 -54 -126 -42 -108 20 -92 126 -104 68 -126 62 100 -66 -126 -110 -54 -122 116 -36 -84 -112 126 58 -94 126 -90 124 -100 -28 -118 94 -64 -58 -38 -26 10 -38 -84 120 124 -38 92 2 -122 124 118 -54 -126 62 -30 124 -124 -32 114 -124 -6 -108 -36 126 -12 -68 -30 32 -124 122 80 -120 -90 -120 -128 -76 126 32 -106 -56 -126 -122 66 -122 -116 46 -20 -84 -10 -126 -124 -20 -112 -54 -124 126 -30 -112 -112 80 -124 124 12 126 120 -128 126 -126 44 110 42 -38 -116 -68 -16 -60 -126 -36 50 68 126 -4 -100 -126 -34 -40 126 -24 -24 -96 24 114 -128 126 -124 -126 8 -82 -126 126 -122 -40 126 -66 -8 -120 -124 -126 120 -94 122 -100 118 124 -98 66 -94 -82 -124 126 -128 126 122 82 10 0 36 -128 10 -64 10 -128 -118 -122 -18 -124 -122 126 126 -42 -128 26 6 -38 -124 -42 126 -124 18 -124 -16 -128 66 126 -124 -60 126 42 -122 40 -66 126 126 -18 -124 -124 124 -2 56 126 -98 124 74 -54 122 122 -126 -32 -126 86 -126 -34 -38 -16 -4 -48 102 -126 124 126 -108 -126 -50 -26 -124 126 96 -126 126 126 -52 122 -24 -50 -66 118 -128 -12 4 -40 -112 70 72 28 -124 -42 -72 -126 -116 -108 -30 -104 118 -26 -92 120 116 44 -72 -62 -30 -28 50 -124 126 8 -122 126 -58 -42 126 -124 -46 -126 126 104 -66 -14 -82 -78 -128 -38 -128 120 126 126 -122 108 -24 -24 -126 20 -82 -82 22 -4 12 
110 8 50 -34 54 -28 -54 122 -124 -52 74 -124 -124 0 -38 -122 36 40 68 72 88 4 -14 -48 84 -124 86 4 -96 -126 72 118 -22 -38 -22 118 -56 -114 -42 66 -80 -60 116 54 -48 126 20 92 10 -48 44 70 120 -24 114 -100 64 34 122 42 10 42 -52 -126 -72 58 6 126 48 -20 30 -34 22 -40 10 50 -10 18 -18 14 -68 114 12 4 50 80 -74 18 76 38 -72 66 24 72 -34 -40 20 12 58 -124 58 22 104 -126 18 6 24 124 16 112 -4 86 14 -16 14 -6 -122 60 -124 -116 -126 72 -52 76 100 -38 32 72 4 -88 -94 120 20 44 -66 122 -112 -34 -122 -36 74 110 -38 88 -56 -60 -74 -16 -38 12 92 42 32 66 8 -30 16 12 46 36 -108 -100 0 18 102 2 -38 66 -126 -44 112 -96 -72 -14 86 98 -12 4 -74 8 62 108 124 38 -70 -36 66 -122 -120 10 -28 108 90 -76 12 -4 -10 -30 -50 28 -128 -12 -8 40 -6 86 -20 -82 -86 -64 -36 48 -96 -12 -124 36 64 -2 26 -122 -6 30 66 76 72 106 64 -22 -30 -56 -66 -38 54 -124 -108 104 54 122 8 -2 -54 -26 -18 -52 -28 -4 122 106 16 -2 -16 -120 -94 28 -6 -46 28 -42 78 106 -52 -52 34 -16 68 54 -92 -18 -36 90 28 54 4 -8 88 -36 26 58 -30 18 38 -42 -90 32 38 -88 110 34 6 -122 -128 -64 -10 -2 12 114 -90 -104 90 64 -50 20 -12 -30 -122 -56 30 64 86 28 -62 -14 -8 122 30 -120 -30 60 120 44 -10 -124 -122 18 -102 -8 122 -6 -98 -32 -46 -18 106 -32 124 96 72 54 -94 24 82 54 54 0 -78 -100 42 -64 20 76 4 38 70 68 16 -52 40 92 -30 8 36 108 -22 -4 122 54 60 20 18 -122 -12 22 -42 70 -10 112 62 36 52 46 28 90 14 14 16 -78 106 94 110 112 -68 -124 -10 26 22 -102 -126 -14 86 88 60 -82 -72 -122 16 -6 -116 124 66 28 -94 -6 14 -18 6 24 0 -2 26 -44 -124 -20 58 22 -6 122 -28 -40 -56 -38 18 -10 18 -26 110 14 4 18 16 6 68 -84 -6 16 76 -64 -126 -26 -124 16 6 90 -14 -120 26 -122 94 20 14 52 118 34 4 40 -58 24 100 -96 62 22 -106 52 -124 16 20 2 -20 -10 120 -112 -40 -70 -6 10 -62 -60 54 26 12 68 26 14 124 72 -74 -20 12 -56 70 58 -102 114 62 108 -76 50 126 86 120 40 72 -34 
34 -16 -84 124 -54 6 -30 -10 4 32 -28 20 54 -86 16 0 -44 -62 126 28 100 30 84 122 -30 -4 28 -88 -66 -8 36 38 -100 36 28 8 -36 -46 -70 -36 62 32 18 -66 2 56 -22 -18 -100 42 32 116 60 30 74 -60 -64 2 18 -6 10 -56 -40 -18 -8 -66 -126 -68 -124 -10 -126 26 -16 50 52 60 -22 20 80 54 -128 66 -42 12 -10 52 48 32 -28 22 122 0 26 60 -40 -68 28 -54 -18 12 18 4 60 108 30 92 -8 0 -16 -12 12 26 -72 12 -16 26 -2 30 80 42 -24 20 22 -66 6 -44 80 -56 56 32 -76 -16 70 -34 16 -14 -42 -56 -12 -24 46 0 14 6 -64 36 -56 -18 16 -12 -38 2 24 20 -4 -60 -20 -60 -68 8 70 18 12 -20 -62 32 -42 -42 44 18 -62 42 -4 -18 0 -2 16 -16 -16 62 2 36 76 -124 68 36 18 44 8 90 -64 -2 32 44 14 -50 -10 124 -122 -6 -76 -2 66 126 -48 120 -32 -100 -10 -68 122 -54 -12 -86 0 -10 -10 -28 -48 66 -24 -32 -36 -10 30 -6 -2 50 -12 120 -124 -22 94 12 42 4 104 -38 12 -72 -114 46 -122 6 26 20 -18 50 -32 -92 -18 30 80 -28 56 30 -124 46 32 46 20 48 24 -38 -20 -70 34 2 0 -4 94 -24 36 -62 120 110 -18 -4 -30 14 18 -10 42 -30 88 26 -38 -12 -86 2 34 -54 10 -124 6 -126 -10 10 42 -112 10 -54 -64 24 -60 -2 -40 -12 4 30 14 -32 -2 24 54 44 14 -38 -30 -4 124 -96 30 -128 28 -60 -10 104 2 36 -70 -48 -120 -104 -18 26 48 -48 -4 76 26 -38 -8 -24 10 120 -64 112 18 -16 -96 -96 -48 -62 120 -68 -8 44 22 -126 -30 6 -4 -8 -46 26 -64 48 40 -80 -118 -24 -102 30 72 26 26 -78 -126 28 -4 12 16 82 18 12 -118 -56 122 16 68 -16 -76 54 50 14 8 -12 10 -14 -40 36 -36 -8 64 -8 -6 20 102 -18 -70 26 -14 -122 -24 -34 68 126 16 62 -34 16 16 -8 54 -10 -46 -42 -6 26 -16 -126 -86 68 -34 -14 -42 -74 -12 80 50 0 -70 110 24 42 52 26 16 2 112 8 -36 30 -14 -8 -14 4 -32 -40 4 64 100 -26 20 22 14 -114 -20 10 -10 -78 -114 -122 60 92 124 -68 4 26 26 64 -30 -46 -104 48 2 122 -56 -68 24 -52 -52 -60 -54 122 -62 22 -28 42 -8 6 76 -8 122 10 -4 -56 -2 52 -14 -28 
-10 -52 16 -18 8 120 36 -118 64 -14 -126 -6 -120 -38 18 126 54 -2 72 36 -62 126 -98 -16 -126 8 56 30 26 34 -64 72 -118 -26 -108 66 -34 6 6 22 -126 124 70 -10 54 36 72 68 -14 -12 54 12 -124 -14 122 54 28 74 30 30 84 82 -72 -20 24 96 46 34 66 40 -124 -40 -126 -64 -120 -22 12 46 124 68 98 -10 56 10 6 -124 126 34 122 90 36 78 -124 16 96 38 -66 48 -110 -124 6 84 72 76 -86 24 12 126 2 56 -102 -56 -4 40 18 -80 -34 124 96 -22 54 -100 126 46 58 -26 -24 -124 -28 -34 4 64 68 114 30 -4 70 34 24 -70 38 36 -4 58 -124 126 -56 124 122 -128 12 18 50 28 -50 -14 -18 52 36 -32 -8 14 -28 110 12 -28 44 -18 -102 10 -62 -36 -34 8 -34 58 30 -40 28 -72 20 -126 -38 -50 -116 -74 -126 18 -128 -84 -98 -4 -20 -76 6 -58 36 -124 -16 126 -22 -8 -4 -56 30 -26 0 10 112 -58 -22 -28 -124 -30 -68 -128 -64 28 -14 46 -124 126 62 -56 -64 42 -20 14 20 -124 -62 -14 -26 0 62 32 -32 28 -6 28 18 -46 -110 6 -50 -2 -90 -62 -46 0 46 -54 88 -78 -18 34 -24 44 -68 -4 32 70 -124 110 -30 58 72 54 118 -114 106 14 58 -124 30 -72 34 -48 -70 12 -2 -46 -124 16 -12 -22 4 12 126 30 124 88 116 20 -4 -122 8 10 -36 78 34 -10 -2 42 -46 -44 122 48 -126 -112 -126 -102 78 -6 88 114 44 -52 -6 2 122 -124 -12 -72 -20 -54 -6 -126 66 32 -20 114 -66 -128 38 -24 -126 70 -54 -2 -124 122 28 -12 -124 -28 72 -94 8 18 108 -12 -64 38 -8 -66 -6 126 -126 -110 60 6 26 64 -124 122 -90 -118 -32 30 -28 -46 118 10 38 -12 68 12 -56 -126 -104 28 -32 -6 110 36 68 104 -56 2 110 -42 -76 102 -126 -10 48 78 104 110 -120 14 -66 22 28 -56 50 -44 -28 46 -126 -126 36 32 -90 70 72 -122 56 -38 -52 -116 -60 -52 28 -74 -70 -100 -16 66 36 -86 -26 -10 118 -86 -40 116 -126 116 124 20 -8 114 126 -34 -26 32 34 112 -122 124 -62 74 40 -34 -22 6 -22 60 -28 -100 -124 8 -70 -124 -22 -72 -124 -118 52 -100 -90 -122 -50 -62 16 -122 16 -122 -18 42 28 122 -122 56 124 -90 28 26 -60 -56 118 74 2 126 -36 -124 126 52 -76 -126 12 48 -76 -126 -4 -24 24 48 52 22 
26 -38 -32 22 -36 -46 84 -26 28 -8 4 16 38 -38 24 0 -116 -126 36 -8 32 6 -76 -24 34 62 -118 -34 -78 -44 -64 -18 6 -64 40 30 -78 30 44 122 12 56 2 -2 44 114 -4 0 10 6 -126 0 -120 -122 -34 -8 -32 -34 38 -62 0 -2 -72 20 24 -28 14 6 -34 -10 18 32 18 -52 20 2 -38 -112 14 -24 -84 -16 -16 -98 4 10 22 60 -18 -120 -28 0 -2 10 18 -4 8 -6 36 80 -36 46 50 50 6 -86 -6 -34 98 14 4 8 8 38 30 -6 8 8 2 -30 52 40 -124 -12 6 -2 12 -36 -22 -6 14 -60 -124 -18 4 68 -36 -128 18 -126 52 -128 12 -2 -124 -56 30 -28 28 122 -126 -50 -98 56 -10 -22 -54 -46 32 18 10 -32 18 6 22 24 72 18 -42 -28 -44 -110 -66 -124 -2 72 18 24 28 80 -28 -2 50 -26 -4 12 -56 2 110 42 -4 40 22 40 14 -58 -6 8 96 -28 0 14 120 -80 -58 -4 26 0 112 44 -124 0 44 32 80 32 -48 12 -22 -14 12 90 -124 0 50 50 -126 -2 34 -40 32 46 -124 -36 82 2 2 -18 28 -26 -110 -86 32 -10 84 52 8 -126 -26 -4 -24 -8 -126 12 -78 8 -2 22 48 116 -4 42 -16 -4 28 -124 62 4 0 -2 22 122 22 2 -126 40 -124 -40 -68 8 0 20 32 -126 -126 -16 -12 72 -54 24 -74 14 -10 22 -8 70 -100 -4 26 -28 -14 40 -18 6 36 -24 10 -24 -4 -50 36 -10 -18 10 -18 -30 6 -12 -78 -64 -16 18 -4 10 8 -32 16 -40 -18 112 -28 -42 10 28 42 -18 16 -2 -4 28 46 -2 2 6 84 -58 68 18 4 -70 110 2 -98 18 84 -8 -20 18 20 -46 122 50 -118 14 -38 -70 94 -122 -14 -38 36 -108 62 66 24 6 18 -122 14 -10 -14 -34 24 -16 48 18 -18 -68 42 -46 2 88 -8 -10 -20 -68 -32 6 -10 10 46 -6 -74 36 18 34 100 -36 34 -58 60 -52 -10 30 42 -22 12 36 24 -2 124 58 -48 44 46 0 -22 32 14 24 -68 -4 -4 -22 -56 -10 -116 16 46 66 0 -14 -8 -38 -18 -16 -34 20 8 4 10 -28 -16 -32 -16 22 32 -84 42 46 48 20 -22 -108 8 -42 -58 18 38 -50 104 14 22 76 -22 -22 30 -4 4 -48 -68 -4 -60 -10 12 20 2 -10 20 -14 124 44 -32 106 -26 62 -34 -40 -24 4 86 -2 -16 -126 -64 6 -124 -52 10 10 -18 20 
