10368 -16256 10368 1792 -7040 -5504 7424 -4736 -3456 0 10496 9984 11264 8448 -3968 -3328 -16000 12288 3840 -2048 1024 11008 -6912 -7296 -7424 256 896 -5760 -4736 3200 -13952 1792 -6784 -1152 -6016 -4352 -2176 1920 -9344 -4096 -2432 0 -6272 -4096 -9344 10496 9088 -12928 -3712 -3200 3840 -6912 4096 2560 13824 -13440 -1408 -2816 -4992 14976 9984 13568 11776 6272 -3200 -2176 1152 -4224 -8448 -4736 -9984 9728 16000 -11008 -1024 8320 20608 4352 -512 7424 11008 -512 2048 2304 7808 -10240 -8064 -2688 12288 -8192 896 7680 -1280 2816 4992 5760 -256 -6400 1664 -3200 2432 -3840 12160 -12544 15488 -3584 6400 4992 -2816 9088 -5504 8320 5760 4608 2688 3456 12672 128 0 2432 5248 5632 -14208 9984 5760 5888 384 -2688 2816 14464 -640 -5504 128 5248 -256 -384 -5632 -14208 -9344 -10112 -12672 768 2048 -2176 2816 -8704 3968 -256 1152 15616 640 6528 -8064 128 1536 15360 4736 -5376 -19584 -1536 -18944 7424 14208 3328 1792 -11392 -2432 -3200 -3840 -512 4224 2560 2560 -4608 8320 13056 2560 -6656 256 -2816 -768 5120 2048 128 -8704 12544 9472 512 -9088 0 7424 7168 -896 6528 7936 7168 3584 -2176 10112 -7552 14208 3328 2816 -8704 4224 -6272 3200 -384 9344 6016 -5376 7296 -5120 -13312 -2432 -13696 -5504 -8192 -896 -11264 -9600 11776 4992 -10624 17024 3072 -2688 -7808 -256 -4608 15616 384 9984 7040 15104 11008 1792 -13312 -9088 -16000 -16384 1024 6912 3840 16128 4224 -3584 -6656 2432 -2944 1024 11008 896 6656 -10880 1280 -2560 -11904 256 -2432 -14464 12288 2304 3584 -1408 1024 5120 -8704 5504 7808 -6272 896 -5120 -7552 5504 -11008 3840 13952 3584 -9600 768 -7552 5760 1152 8448 -5632 6400 -6272 -5504 -1792 -1024 640 1024 -8448 6016 2048 6656 -1792 4736 -1664 768 16384 7040 5120 -768 11648 -6016 6144 -2304 14208 -1920 -13184 -9344 -13312 -5760 1664 6912 -3584 -9856 9216 -8192 -3712 -7552 -6656 -640 -4096 -12160 -5504 -5120 -4480 -2944 -7424 -6272 -11264 7808 1024 4992 5760 1152 10496 7168 -19840 -6912 5760 1024 8576 768 7040 -1664 4864 6656 -6656 -2560 -2304 5120 6400 4736 2304 14720 7808 -1024 -7680 13312 15104 -9600 2432 -768 9984 3968 -8192 7296 -4224 9728 -5120 256 -6656 9472 2048 9728 -4352 2560 10368 -11392 768 5248 3584 -2176 -768 -768 9216 -3072 -8832 896 4864 256 3584 -16768 -8576 896 9088 -8320 16768 768 7936 -10240 -7680 -13312 -8704 12288 -1664 -2432 -2816 3200 -12928 -13440 -20864 8832 6272 -4992 -4608 6272 2176 -1024 -4224 1280 13568 5632 -8832 -384 -11776 12032 1920 1920 2688 11392 13312 896 16384 -5504 5376 -4480 1920 -6784 -2688 1536 -11008 8704 4096 896 1024 -2176 384 7040 -896 -5376 -896 -896 640 10752 -9216 -2048 -1408 -4480 -14336 8192 1280 8320 -13824 14464 -640 512 11264 10752 -11392 1792 -16896 -384 12032 -6144 3584 -8448 12672 15104 -7808 8960 12288 11520 -4480 -2176 5888 -384 -10752 5248 1920 3456 1024 -128 6016 -1536 11520 -6272 4352 -7552 3584 5760 2944 -2944 2176 3968 6528 -5504 0 -1664 8704 -10624 2048 14592 -8192 -12416 3072 8832 -9600 5120 -4992 12416 1920 -3456 -7552 -3968 -6528 3456 12672 3456 -3584 3456 6912 3712 9344 -10496 -11904 5376 1920 8064 1408 2560 -5632 -4352 5504 -4480 9344 -9088 2944 -3072 8576 14592 -5888 -5376 -2560 -9216 -4608 14848 10496 -6016 2560 -5504 1024 7936 6144 4864 640 12288 -8064 4736 5376 -2944 19968 2816 -3072 -4608 5376 2944 8064 12416 -4608 -5376 -896 11648 -5248 5120 -6912 -8832 -4480 11776 1920 4992 -4480 384 -15872 6400 -3712 3456 10752 11264 -14592 4736 1152 1920 -14080 1664 7936 11776 -4992 -640 -9600 10240 -4864 1152 -13440 12160 5504 4608 -9216 2176 -4736 6912 -4736 -5120 -5632 9088 640 -6528 2432 -3840 -8320 8192 6656 9600 6656 -3456 3456 640 -9088 10368 2176 -10240 13312 9216 -20608 -2304 3584 9344 -1920 5120 9984 -6912 2176 -3072 1024 1024 0 15104 6272 9088 7808 -4992 13696 -10752 -4096 1536 9088 512 -4992 -21120 256 384 -2048 896 11648 -4480 4096 -3072 10112 5248 -6016 9216 896 -5504 -11776 -14336 -2304 -128 -9984 17536 12032 512 2816 -2944 -10240 -2688 0 256 -3072 -10368 -3456 -1280 1792 -2816 -8320 5248 -3072 -7936 -768 -14336 17792 -4224 -9216 2432 3968 2944 -8576 9344 3968 -9216 -1280 -6144 -14592 9728 -2304 -5888 -384 7808 -4224 11008 8576 12928 4224 -1920 -1280 -9856 -384 -3840 -4992 -10368 13056 7936 -6016 -5888 -8448 1920 13056 12672 -13568 -5760 4736 256 17920 6400 -6912 -8448 -256 3584 10240 -2944 4352 -3072 -5376 -3584 9088 -256 9344 -4224 2944 10752 6272 -1920 2176 -6400 2816 -11008 10496 -10240 -512 -1664 2688 384 -5632 15872 -1024 13056 4224 -1024 -15872 9600 -8704 7808 9216 9088 3200 6272 10880 -3712 4480 -8832 11904 -5120 17408 2048 -14464 15232 1664 5632 3456 5760 -3456 -8576 640 5120 9344 -640 1792 -5888 5248 11136 -8832 7936 2432 -3840 -11904 -3456 6656 1536 1536 -6272 1536 -4992 4352 -6400 -5888 -6912 4992 -7296 -11008 11264 1024 -8832 -11392 9344 2688 128 -7168 6784 3584 -3840 7680 -1792 -11264 3840 8320 -13184 -512 9856 6528 3072 4352 6400 0 1280 -2688 8064 384 5888 -14208 -3968 9216 -3840 -19584 7552 1024 7808 7040 -17792 3968 -12288 -1664 7808 -2944 5760 -3712 -7936 11264 4224 7040 -4992 -640 -3456 -14592 -3584 -256 6144 -11008 -4224 -2432 3584 -10880 -3584 1792 512 -2048 -12800 4736 -3712 5632 -8192 1920 20224 -12800 