-38 66 64 28 52 116 36 -16 -12 -36 70 28 -78 6 24 -78 66 124 -122 52 110 -42 -82 42 -30 -66 -12 2 100 22 20 20 28 -78 -6 -20 34 -16 -120 -110 54 -56 -46 -18 -38 106 58 112 -6 -76 20 0 -120 -54 72 42 28 -74 52 -18 -58 70 52 24 -108 52 114 -22 58 64 24 -120 116 36 -118 -10 -8 12 38 -62 122 24 38 38 88 18 -124 44 -126 12 -32 52 -18 54 34 36 94 112 82 106 -24 62 -6 -8 -8 -4 16 8 2 -24 -24 -8 4 28 60 -78 36 -88 -50 -6 84 42 -18 72 10 -24 96 64 -96 -64 -22 42 -54 34 32 6 -20 30 -90 -96 -28 106 -32 -50 56 126 -104 -44 -120 -66 60 80 -24 -46 28 28 110 -58 104 -12 32 -88 120 64 -92 -16 38 14 90 -48 46 -26 4 -68 86 4 -10 -84 84 100 -70 -48 -32 -116 -58 42 122 88 -2 68 16 32 30 14 -2 -6 70 36 108 38 12 40 12 48 -98 60 16 -26 28 -88 -112 0 -16 -112 -118 -12 -120 18 -62 -84 80 -44 -14 -6 -52 -126 -44 4 -36 80 0 -28 -56 56 -72 2 126 -26 54 50 -20 -12 -52 -20 26 -116 -76 -20 36 126 118 6 -88 30 -86 122 -46 -54 48 -56 -30 56 -60 124 78 82 -88 -68 124 -122 52 -40 -62 28 26 4 88 -122 -62 -44 122 66 44 6 8 16 84 -84 32 94 -18 -58 44 114 -20 38 -6 66 28 122 -14 82 -20 -44 -2 -112 -102 -94 64 -30 -68 42 -10 -64 68 32 -10 -24 -76 -34 124 -50 -112 50 30 -124 32 -126 -56 -66 34 120 -44 52 108 90 -16 -120 8 4 2 64 84 18 26 28 62 30 -64 -62 -24 -24 -76 -10 68 -60 114 -112 88 120 36 -106 -2 -26 -2 62 126 -60 4 -22 104 -62 10 38 -14 -42 -42 -118 -2 116 20 -10 58 -38 78 -32 38 122 -64 8 4 -92 -12 24 42 -44 48 24 72 78 36 4 0 22 -26 8 -84 -28 -10 -2 74 -24 -8 54 -96 18 -10 -20 58 -2 78 70 -70 98 -84 44 -52 -62 -86 -54 56 -20 -126 34 -32 2 -76 -2 -70 126 -42 -46 -94 70 -56 -78 -32 -40 -16 -6 8 -50 -10 -30 -36 -74 104 -12 -36 -116 10 32 -50 -26 -76 -8 -10 -118 -10 -56 72 -120 2 30 -18 -74 34 76 42 -58 58 -6 66 -52 -2 -96 82 -58 126 -94 114 40 -42 82 -8 0 108 -28 -126 -40 -46 34 -48 24 94 -60 66 14 118 -98 32 56 
74 -74 -6 -6 -2 -120 -6 -84 -126 12 56 -76 8 108 -124 -94 70 -100 74 16 -4 -36 48 18 -12 -94 46 18 -40 8 -16 -28 -44 -2 106 -124 -36 -64 100 -108 66 -50 -72 124 -12 4 -32 8 -124 34 52 14 -4 24 72 32 -60 -100 48 -58 -6 -50 82 32 -20 -46 16 -10 60 -102 62 62 52 -78 30 62 8 26 -124 106 112 100 4 -16 -10 -44 -90 112 -90 6 86 -40 -6 -120 10 -20 -12 38 -120 -68 2 28 42 14 96 -2 -94 18 110 64 76 32 -20 -50 18 -16 46 -74 48 -10 -50 -4 22 -26 -24 30 -80 -120 -48 66 -80 4 -76 48 90 8 -10 18 110 -102 -50 22 -8 -2 76 36 -64 -68 24 -40 28 32 -32 108 -54 -16 56 -112 80 -38 -20 -14 -72 -16 20 14 -46 54 -120 100 10 -8 -62 44 -18 24 58 18 28 122 6 52 -20 -60 -78 56 -44 -86 -10 0 -14 62 -32 -28 120 36 -14 80 22 -30 40 -26 54 -96 -18 94 -2 42 -118 -124 -36 74 30 -124 20 -28 36 12 112 84 -50 74 -122 82 90 -14 48 -120 -2 -8 -76 -26 70 10 -72 30 0 -24 46 2 -22 -64 -106 -122 22 122 -66 16 56 -90 -18 -22 -28 -64 6 -46 38 28 32 -118 38 -32 4 86 4 -124 -122 68 24 -24 12 102 -26 52 -44 6 104 -126 -120 2 126 24 54 102 -8 -12 104 -48 24 -78 -14 0 -128 60 78 28 -42 56 92 24 -42 -112 -24 16 -66 88 72 -34 6 122 40 8 16 -112 -116 108 -8 94 126 -32 36 48 -14 48 66 16 -58 -36 -36 122 -100 -34 -124 -86 24 30 -96 66 -108 -30 -18 42 -20 4 74 -66 -20 18 116 36 122 56 22 -92 -38 50 -82 -80 86 -34 -60 82 -20 72 -18 -96 110 -58 6 -40 22 -86 -38 -4 -58 4 120 -2 -80 0 -6 16 80 22 6 -48 20 -22 36 -12 30 -92 -12 -4 36 68 -44 -60 112 -106 30 10 -30 -30 34 74 -12 24 74 40 22 106 44 -32 -32 38 -40 58 -34 -6 28 -22 42 -24 44 52 -20 -70 28 48 28 52 -98 -32 46 62 -82 -58 -122 -2 -20 0 72 8 60 -124 -6 -26 14 -128 -60 -48 56 -2 -26 32 110 2 -20 -98 -112 -8 -10 24 118 -74 92 -124 -120 -124 -50 -74 -72 126 -2 114 -102 102 62 -80 -24 -2 -6 52 8 -104 -94 20 124 60 36 54 -30 -90 8 -22 20 -4 26 -18 -42 46 46 -78 20 -68 40 12 70 70 -122 -6 
4 -108 -12 -38 28 -6 -68 -84 -76 -94 50 20 36 -44 22 -8 -6 100 -12 -10 -38 -74 108 -26 14 -54 112 -62 -52 50 110 -124 -120 -12 -4 26 40 118 18 -64 20 -94 72 -12 126 8 -16 24 -26 104 -12 2 42 2 -98 -64 -10 -22 44 -42 54 44 120 38 24 56 -112 -76 -36 82 -30 -68 -26 114 100 -78 -44 114 72 -32 62 -16 98 -18 -70 80 -28 -58 -68 38 -58 10 -20 -10 -118 0 44 78 90 110 64 0 44 -56 64 -62 -32 26 -4 62 -60 14 -120 -80 116 48 8 -56 -16 2 6 22 8 60 -66 120 64 -30 102 -4 -98 -10 30 118 18 66 14 6 -122 -48 -48 -8 56 -6 124 -100 72 -86 -16 16 94 -30 -6 -14 -122 -104 -44 68 -68 44 18 20 -100 52 26 30 84 -110 124 -28 32 -34 94 -62 72 16 102 -76 96 -32 -6 -58 112 -112 124 34 -122 94 48 -4 -52 26 82 -20 50 -62 -36 36 46 -122 60 8 -4 8 86 60 -24 24 120 42 60 30 -78 26 6 -14 78 16 -66 36 -126 -26 6 -90 58 62 -76 -118 -14 32 6 -40 30 20 -18 76 -106 118 94 50 -24 -20 -36 -22 -18 -54 8 -2 56 -54 -24 -108 74 106 26 -72 -6 10 14 56 -18 116 -6 104 2 124 -4 112 -50 -118 6 0 -14 76 -90 114 -26 124 -62 14 124 74 34 56 24 24 104 16 8 -12 -96 60 124 -62 4 -64 -38 112 -2 -122 110 6 44 36 22 90 -104 -74 68 -28 44 112 -22 -78 18 -96 124 -36 -112 124 74 -20 -56 -30 -124 -68 44 36 -90 -126 60 -84 -48 -84 -52 68 98 -2 60 94 -26 48 56 -14 -86 -36 -96 -12 120 -124 -116 42 -70 -6 -28 124 -50 -20 -74 -20 48 -78 -52 8 -22 112 44 -28 56 30 104 -116 -122 16 -26 -10 74 58 56 16 -40 66 44 94 52 -14 50 -56 16 110 4 86 -10 -24 54 -20 12 40 -44 64 -116 20 120 -70 -36 -4 -122 66 -50 -56 126 -54 38 16 -68 -60 -74 -28 -62 78 -42 -26 26 54 -112 -116 32 24 -6 -74 66 -64 -32 4 -14 114 32 -88 -56 76 2 58 68 114 124 -56 30 64 14 82 -124 -118 -2 -106 6 -50 -54 30 114 -26 18 -96 -16 -10 14 94 46 98 -48 -44 -72 112 -2 -42 16 -50 -104 98 -12 78 22 52 -24 -28 18 24 0 74 -74 -46 114 12 28 10 -84 -114 70 76 -84 122 -66 80 20 -12 -126 -64 56 -8 46 -60 120 -32 
26 -62 122 112 -8 6 32 18 -30 70 122 -54 -40 -6 -28 -50 -26 18 112 -52 2 24 -64 -26 -4 -26 78 84 12 -110 106 122 122 54 4 -22 -14 -106 88 126 -126 -56 -32 8 -44 -68 -32 2 -10 10 42 -58 122 -18 110 32 38 34 -48 60 102 20 -30 -82 0 -2 122 -30 42 -112 -94 -40 -60 -72 -58 26 14 110 -26 -66 64 -10 -60 -6 -106 -88 -12 108 18 -104 28 -118 46 28 54 -74 -2 20 98 -16 18 -74 -54 64 -4 -6 68 -38 -58 -6 20 -54 -54 -12 40 -58 42 -80 -6 -78 -16 48 -98 26 -56 34 -54 -62 -86 42 22 8 -18 -50 24 -86 -126 -10 -120 32 -30 -106 -68 -88 104 -62 122 124 0 -54 -52 0 122 42 -32 66 -2 -50 -10 -34 82 46 28 -30 0 -44 28 -4 12 -58 -24 36 14 38 -74 72 -36 14 32 66 -4 56 -52 -16 -98 -12 36 -116 26 -58 50 98 10 20 -56 -20 -74 8 44 28 -34 -70 -86 8 42 -36 -56 -86 -48 16 -4 28 28 78 -8 -14 -2 -38 -20 22 -40 102 20 60 122 -14 76 66 -8 -14 -44 -26 -18 106 40 -116 126 -26 46 -72 -58 72 -44 34 0 42 -60 64 -84 -22 34 40 -76 -46 -90 122 40 4 12 12 10 -32 -64 -114 -64 -86 -48 4 124 104 0 98 78 -38 -52 -60 -62 -34 -22 6 -20 -32 -90 -80 -34 -24 -26 66 -16 54 112 -16 84 -4 54 120 34 92 26 -10 -60 16 -92 -124 -90 120 -66 44 84 22 -56 -126 -88 -98 -54 -58 90 22 92 42 -56 -2 22 56 -42 12 -46 -42 -64 22 -50 100 96 -10 -60 54 -78 -34 -94 -84 84 -66 -26 -8 -10 42 -68 -20 -104 -6 98 -104 122 -32 -44 -96 22 32 4 10 42 120 -8 22 -102 12 52 -122 124 12 126 74 90 4 -4 26 10 -112 -84 36 -62 118 126 -50 -10 -38 -10 -52 0 42 -38 -126 -56 -16 -16 36 30 34 94 -78 -24 -80 -54 -98 -26 36 -94 -102 -24 0 -100 42 10 -32 126 44 -24 -18 -4 -82 10 -16 -10 -34 -60 -24 -58 -10 -20 4 -4 -116 -128 -6 40 -120 -46 80 34 -28 0 -72 -10 -18 110 -126 4 32 24 -58 62 86 22 -12 -70 4 -52 -120 -98 76 90 126 96 90 32 -42 54 126 -32 34 -2 -108 -72 44 -38 18 -102 -112 -66 -18 -46 0 82 122 -42 -76 72 32 -122 12 -12 34 -84 -12 38 -16 -42 -58 -60 -88 -18 -46 120 46 -10 -62 -38 -32 40 46 -48 -10 
-112 -58 58 -38 50 -36 -42 -36 56 54 36 64 -38 2 2 10 -70 -60 78 -98 42 -58 2 -70 104 -18 28 14 12 -118 -84 -102 58 68 124 38 -24 -44 6 -26 -104 38 -12 -24 -30 -116 16 84 -22 -56 -34 -102 126 -94 110 22 122 -76 -124 124 78 52 64 74 -80 -44 -48 14 -68 -88 28 34 6 -20 4 116 -88 -42 26 -120 -52 -122 14 -14 -52 46 28 -34 -110 74 32 54 -54 -44 -20 -88 44 -114 6 -58 -96 -124 -72 30 16 0 42 -124 -44 -84 22 20 -20 8 -122 96 114 86 -104 34 -52 -28 -42 -68 -42 -38 -20 16 -96 -30 -4 -74 -68 14 26 40 -118 -80 -2 24 126 82 -86 -66 44 70 -94 126 -64 112 -14 6 120 22 -44 -110 120 -50 104 14 78 106 -52 -88 -12 -102 -4 -22 -18 58 6 90 126 -52 -92 66 -40 -48 26 74 -8 76 -74 -96 -118 22 -62 16 -52 -46 -58 26 6 68 122 20 116 56 -86 16 20 104 16 -14 -8 -126 16 110 -116 -44 0 -60 2 -102 48 -114 -14 -62 96 64 -120 10 -6 0 84 -48 88 54 -122 -4 -58 70 52 30 80 -126 -6 4 120 -126 58 12 -118 -42 -128 84 -126 -118 -74 -108 -86 28 -98 -4 60 -76 -42 -108 124 108 18 12 102 -22 90 10 -40 124 72 -10 -34 -4 -50 16 -38 -80 -14 -6 60 -56 -74 -40 -78 -74 -90 -6 30 118 12 78 90 -96 -46 -4 -102 94 126 -38 -74 18 -34 -4 26 -36 -54 108 -116 120 -52 42 -30 -66 106 -10 52 -62 126 -124 70 32 -44 -58 -74 14 -30 -30 12 50 72 100 -44 -110 30 -60 -100 -96 14 66 6 -30 50 -74 -84 40 -122 -54 -44 62 30 36 -30 -52 104 -124 -112 58 -6 114 6 -120 -6 120 108 50 18 -20 -56 4 126 -14 -126 88 44 -48 98 -30 120 52 -10 -28 -104 52 -94 74 -56 122 10 -126 72 -58 -4 -122 40 -76 -64 90 -62 56 24 56 48 -94 -112 -52 38 -78 -12 16 -22 -122 30 -66 34 -20 122 2 22 -10 16 -44 -6 106 -32 104 -112 -22 -2 -60 32 80 -122 124 -16 -50 -4 -2 -126 -48 10 -54 38 124 58 -88 56 -78 -30 14 2 70 92 -110 -82 -90 30 -76 -8 -20 -12 -120 8 38 106 72 -124 72 -30 -22 60 -96 116 -64 -86 -6 -112 -114 -46 118 -90 -126 -2 70 -120 20 112 36 -110 52 54 48 -120 74 -10 -84 122 -122 -126 -82 18 8 -60 0 -80 -42 -70 -18 30 18 -102 -126 32 32 
-2 10 26 34 88 80 10 14 14 76 12 22 -2 -72 -28 114 52 90 -34 -80 10 64 48 -122 -10 -66 -86 -2 124 -120 2 116 28 80 -54 14 -70 -32 14 56 -48 70 86 118 16 -22 94 110 56 -8 20 84 14 -62 0 -18 22 -80 42 -58 112 -52 16 0 36 18 -46 -66 80 -14 -32 -32 -82 -126 -46 16 30 118 90 -6 10 -20 -114 -122 22 -80 8 2 -62 110 -14 82 -118 -100 -48 -12 32 20 54 -30 66 120 -6 -72 94 -14 -18 38 24 20 -66 -106 106 -28 28 -58 80 -72 -30 -96 -72 104 6 -90 -110 92 -26 -10 34 -6 -78 64 92 96 -34 106 46 -38 -20 0 -116 24 -112 6 44 -104 -100 -58 126 -106 118 -92 -6 -106 116 100 72 26 80 24 -38 30 90 -8 80 32 86 -54 98 112 -16 -8 -124 38 -48 -54 42 20 -28 8 2 2 -36 8 8 -52 16 110 -34 -76 -20 -104 -44 -78 -124 24 -64 2 84 -72 4 -114 10 42 -2 74 72 52 34 70 124 0 -8 38 -46 10 -46 -76 20 -48 -4 -82 124 20 -94 60 74 -28 -102 26 -22 -38 -58 118 -4 -20 -34 108 -40 20 26 -10 14 86 -58 124 -56 -110 14 -52 -120 -8 4 122 34 30 40 26 -82 -26 30 4 86 -38 -54 -2 74 -126 2 60 -116 62 26 -96 -126 38 16 -26 20 -72 28 -38 -92 -18 -64 -100 24 -20 -14 78 42 34 -114 12 -18 -64 122 -80 -32 20 34 -36 -54 20 -74 104 104 6 -46 -16 -58 120 122 22 -22 28 28 54 -22 -42 52 -36 -124 90 -4 -8 -44 70 -50 10 22 -94 10 78 -34 36 -76 -2 -80 -32 -102 -78 52 96 4 120 24 14 36 58 100 114 58 36 0 -14 -10 30 -128 52 -14 -62 -98 -110 22 -42 90 78 0 -10 -102 -18 72 36 112 -46 112 4 -68 66 52 -38 78 -20 -52 8 -16 -4 -8 -24 -64 -70 -56 -2 -6 -58 -90 8 34 80 48 68 -4 120 74 82 -68 -10 10 -124 34 18 2 42 22 90 34 -50 126 -24 66 122 -44 -76 -32 58 20 -40 82 82 -108 82 12 20 90 86 -18 -16 22 20 -60 48 -126 -64 6 42 -40 -112 -18 -102 -6 12 -68 -56 10 -54 2 22 -84 -36 -16 -46 62 18 -40 6 -76 -122 32 -28 -116 26 20 78 30 28 -34 88 78 -8 58 2 -10 106 -70 -42 -20 28 -86 16 8 -24 28 -6 116 116 -82 -66 -66 -26 118 68 -6 48 78 50 -28 -8 120 54 2 -54 
-74 34 44 34 54 -104 -72 -110 -10 -48 16 -30 -22 -10 -116 74 -54 -28 -76 -114 -48 12 12 18 -26 -16 -10 -44 42 64 38 -58 36 62 120 24 -50 38 -30 -22 -44 -86 60 122 -46 -74 -100 -20 -122 -60 6 126 -56 70 -26 -58 10 8 -40 86 -34 -20 -46 -22 -58 6 6 -118 -10 -14 -6 10 -124 -126 26 -76 2 -70 -58 118 36 -34 -70 -10 104 -46 -62 10 -12 20 -66 -8 -128 54 -14 -14 108 -10 -20 54 -72 -18 -50 -124 8 118 -74 116 6 -122 84 100 42 12 -72 -48 68 -76 -2 88 16 -4 14 -34 72 84 -68 10 4 -14 48 18 -118 -26 22 -72 88 -68 60 -48 74 -36 92 30 -14 -68 94 -124 22 106 0 -124 6 -6 10 -90 -110 84 -120 -112 -24 -34 -44 -60 14 -48 50 74 -30 -18 -26 8 114 -52 96 -48 18 32 -86 22 -18 -42 -124 6 112 -10 80 74 58 0 84 -22 -54 -100 118 -60 -118 -62 -8 12 -126 12 -4 -124 2 -66 -82 -28 -28 60 122 8 -58 -34 84 62 -4 -20 -16 -82 106 -114 48 88 -8 -22 -32 6 8 -94 -114 -76 -10 24 6 -26 -6 -12 -74 -2 48 -94 -52 50 -24 20 34 -26 -54 -118 80 -20 44 64 -122 -28 50 -38 -30 100 -92 -36 2 -54 -116 4 -6 124 0 -36 78 32 -32 48 54 44 48 36 -42 94 -22 -56 38 -28 -52 -46 46 122 -102 0 -126 -8 -124 36 -8 -56 -42 -4 -12 4 -58 -40 -70 14 4 122 48 -44 -86 -4 -52 -62 -48 16 -92 32 -44 -54 -22 -36 18 -8 -60 -38 -24 4 -4 -8 -66 14 88 -78 -8 -18 84 -66 2 -114 -32 20 -118 -4 26 94 20 -52 38 -126 54 112 48 72 76 0 -38 84 12 38 -46 -74 -32 2 -50 -116 -124 -82 40 126 -122 -122 76 -14 4 -84 -100 86 -68 96 10 -124 -22 74 -30 26 -28 106 -22 -126 -36 -56 40 -112 -2 -52 120 -56 -102 -86 0 -48 -64 -22 40 -124 -86 -10 18 30 44 -52 -10 -12 6 0 -46 62 -54 -38 -8 -120 -60 -114 2 -84 80 4 68 124 48 34 -36 -126 -16 -126 34 -72 -6 -36 -24 -70 46 120 94 -44 -18 -54 -100 24 -26 -76 -30 14 -124 -36 14 -4 -126 18 4 -4 82 -22 -48 4 -74 -64 8 -114 -2 -108 -74 22 -126 -56 62 106 40 -2 -78 -56 -32 -26 86 56 -72 0 -6 90 -26 90 -102 -56 -64 -58 -50 -46 -60 -50 126 -42 70 48 80 30 -68 -124 -70 44 20 -70 -6 96 
-32 -16 58 16 22 74 -42 36 -50 18 118 6 -46 48 30 78 -38 -124 -62 50 6 48 26 -14 28 24 124 -46 48 8 54 8 4 -60 -126 -54 -76 18 -44 42 52 56 32 -112 38 54 22 -128 -66 42 2 -36 -54 -124 56 -58 -50 6 -2 -114 -58 -38 16 -32 -78 -44 30 -106 -62 -16 -64 42 -56 124 -48 -30 -12 12 42 8 -44 -20 26 -74 -62 -78 -34 44 18 58 -92 120 -16 48 -54 30 98 -2 -106 -32 48 -6 -74 -64 94 -62 -42 126 48 60 -126 -48 -40 108 -104 18 86 -86 40 122 14 -120 -104 -22 126 34 -36 -20 22 -60 64 -20 64 -110 70 -128 -38 -10 -68 -98 -126 -36 116 74 26 38 24 -126 40 -120 16 -112 18 -108 12 122 -114 -44 16 -84 -28 -76 4 42 -80 40 -90 -26 -26 74 12 -26 -126 -86 8 -30 -44 36 -42 -46 -32 62 -124 -60 -56 42 24 -44 32 124 124 -58 -12 -70 -126 84 -98 -26 -102 -122 -124 24 2 -72 -52 88 16 -40 0 -32 -48 28 -62 10 42 66 -16 -28 -4 -126 -38 -12 16 -58 -10 80 -40 -72 -94 10 -66 -116 -22 -6 -106 8 74 -34 -42 -44 -24 -120 -92 0 -122 -72 10 -46 -12 -66 26 36 98 32 -46 52 -122 -104 -48 -124 70 -88 -32 94 -96 -22 28 -124 -50 8 30 -14 -26 -56 38 34 50 40 8 -14 10 112 -28 -64 8 28 70 -62 6 -82 -48 56 122 -22 32 -118 -124 46 -24 22 -58 -28 -112 -24 110 -4 122 -4 6 -70 -26 -4 -48 52 -78 -38 22 46 -16 -58 28 -68 -88 -92 42 50 42 -60 14 -12 -6 -44 -110 -16 16 -30 20 -72 -52 14 -18 26 -46 -32 32 10 46 60 -22 40 88 36 72 -40 34 48 -16 0 -22 -124 -28 50 -60 -96 20 -44 106 6 -28 16 20 -74 -12 -34 -58 88 32 -42 8 -104 -34 -44 -32 14 8 -46 -112 86 -120 -8 -120 84 46 -76 68 -118 76 34 -38 50 40 -46 66 -90 -2 -10 12 -30 -40 -62 14 -26 22 16 -38 36 -38 -74 0 12 122 -124 -8 -22 98 -4 12 62 4 -112 -52 -126 76 -124 122 20 10 -40 64 46 4 -126 -64 -38 -20 44 -34 -52 -50 -78 -50 106 -118 58 56 -110 30 10 -12 -78 36 28 -52 20 52 84 64 122 -94 -104 -124 58 36 -60 -66 74 44 -32 -10 -84 22 -70 -58 82 36 -80 118 -68 -44 -8 12 -22 -54 -22 -24 -30 26 -4 -28 -12 52 34 -14 20 92 -60 -124 -46 6 -10 4 4 
-94 16 -100 -16 -114 46 -26 -110 68 -26 32 -44 -62 -114 -94 -126 36 52 118 -126 -26 36 22 -36 -42 -12 -60 74 -32 -56 -12 -24 -112 6 122 -108 -2 -58 -62 14 92 -64 -4 -66 46 124 -44 -34 -34 92 18 -14 -118 40 -56 102 -18 -48 -92 42 -122 28 46 62 -16 -44 -22 -52 -10 78 74 -58 -52 -46 -18 30 102 -10 -38 -6 18 -42 -60 30 74 12 -60 -114 -16 -82 4 -84 60 -16 44 -6 -82 6 -62 -36 -102 42 -92 -38 0 -100 -100 -128 -76 -96 124 86 -4 14 -108 -120 22 -84 -126 66 -54 -8 -18 -32 -64 44 116 -8 -30 -50 -46 38 42 30 -66 -84 -122 -28 4 -120 126 6 -78 44 -24 -114 62 98 -58 106 -28 126 106 118 58 102 -34 -56 4 54 60 -76 112 10 -74 -76 -90 -36 -82 18 -70 40 126 -56 -26 16 58 42 -34 50 34 54 -40 32 -30 22 6 74 -90 104 -22 6 -88 68 124 -86 98 24 38 42 126 -116 -14 -18 34 -42 -44 46 -60 -118 -30 22 84 2 -30 -122 52 -4 -128 -16 -34 44 -32 -28 -72 2 -60 0 -20 -98 28 -92 -76 30 -22 -20 -56 -80 26 32 36 116 -46 -42 54 -98 -126 70 34 58 68 -24 -56 70 126 14 -56 -112 -4 110 32 22 -20 -50 -62 58 18 126 -40 4 -86 -2 -120 -54 6 -76 -30 -4 32 -84 28 -98 -28 30 66 -118 -12 36 -50 -20 18 -68 126 26 -96 -6 74 68 36 -24 -6 120 12 12 -22 2 40 -28 8 -36 -34 48 -118 -14 40 6 -16 -96 -94 -106 -36 -52 -42 32 -60 -2 -120 -54 24 -42 -30 -4 -102 -48 120 20 -32 90 -22 -24 80 22 14 -116 68 2 -70 -52 8 4 48 32 -114 -24 -102 0 -66 -64 -24 104 14 -10 6 -48 -76 40 -16 24 -64 -88 -104 -8 26 118 -52 -56 -120 -24 -68 26 -48 -48 -50 -26 56 114 26 -124 -50 -84 -24 -126 -20 126 -62 -102 -100 22 -4 -126 -46 -32 -80 -60 36 -86 0 -28 -30 104 -54 4 -128 -118 -16 -98 -78 -38 2 -52 -84 -6 -62 -98 -102 -16 12 -124 10 -86 -62 -122 -16 52 -122 -92 32 -50 12 -68 -24 98 58 12 4 24 -64 -70 -96 82 6 -76 78 -40 42 102 52 28 106 -36 -114 110 -22 -108 -78 -20 -66 -10 -124 -40 122 -36 -114 -40 8 -118 -118 -32 28 -124 74 -6 -124 -124 -24 92 -70 -90 52 -90 104 -44 -46 114 82 -98 2 76 62 14 8 -10 14 -124 50 -76 -22 -66 114 80 -118 86 
-42 28 -32 2 0 62 82 20 12 88 -78 72 4 20 8 -124 16 24 56 48 100 14 36 122 12 -34 -126 -28 -22 -52 0 2 -112 -24 26 -38 72 104 -124 -102 30 36 -44 30 34 -8 84 30 88 -48 46 -64 -76 -26 -18 72 28 -10 104 12 14 36 -98 8 -46 -76 48 4 -32 92 -92 -22 90 -124 -36 -16 14 32 90 -34 -14 -10 68 62 42 8 12 -126 78 38 12 -106 18 -88 -2 -40 34 110 88 -12 -96 -66 -94 78 -118 -90 126 24 76 -50 80 58 -2 -8 70 -30 40 -34 -16 -2 -26 -54 -124 72 126 30 -26 98 -114 -38 -6 70 124 -62 -122 110 -14 14 -120 -88 -6 24 -26 -98 54 -84 2 18 4 -126 -38 -16 -64 -48 -18 -34 58 76 2 -68 44 -82 6 -124 -124 -36 -38 66 36 -124 28 52 52 -30 -94 -80 -52 46 10 -38 -84 -118 8 10 40 90 -56 -82 -60 26 -42 82 -8 -12 -112 20 120 4 58 48 22 -2 30 92 16 -118 4 -18 -10 8 48 28 18 -42 -24 42 -30 -10 -84 -122 -46 -46 -2 40 22 2 -74 -38 -68 -26 20 -62 -40 -46 126 -42 60 18 64 34 4 -86 126 14 52 120 58 -18 -36 24 -38 -10 14 -42 28 -22 -28 -24 -40 2 -118 42 -12 -2 50 56 -92 -108 -110 -52 -90 -72 -4 42 -40 26 -54 76 4 30 -120 -124 -62 -122 16 -16 18 96 102 -56 46 94 -126 74 22 92 118 -38 62 -14 60 50 40 -46 -86 4 -78 -6 10 50 60 44 40 48 -72 10 84 -128 -120 26 124 -80 44 -8 -4 20 52 -40 -124 126 84 -34 28 -26 76 36 -48 -12 -90 -36 -126 56 -64 -54 82 86 -16 -46 16 -6 -128 -40 -58 22 8 4 42 52 -114 -2 -76 48 38 48 -2 -14 -60 -54 -8 -106 -64 -44 38 42 62 -18 -14 102 -2 -38 50 70 -12 26 12 8 2 10 -30 -66 20 -90 -60 14 32 -54 38 92 -90 -122 -54 -8 12 4 38 -30 48 106 -2 44 0 -102 16 18 22 112 -32 24 -124 42 24 48 48 -62 16 22 -26 -94 -28 -68 74 90 34 66 -126 40 82 -20 110 -62 14 -54 -36 20 48 -28 16 -18 18 70 -94 116 -96 -48 -26 -54 122 -50 14 -70 -40 -16 32 44 -52 46 -124 -126 -36 22 -102 92 30 -50 -64 -56 112 -74 12 -60 22 -34 -26 42 60 -44 2 -18 -4 -26 38 -26 62 58 20 -52 -20 -22 -82 -8 -22 10 -62 -82 -20 32 84 40 74 -46 124 -120 
84 -4 12 28 48 60 28 -92 -22 18 -62 28 22 -62 -10 -92 -128 104 52 -40 -90 -40 40 118 -82 -48 46 -128 80 24 54 18 -24 60 -102 -34 -48 -48 -44 28 48 104 -46 34 14 -20 32 84 -54 2 126 76 -94 38 14 -8 14 -48 44 -14 -60 8 60 36 116 -68 72 -112 68 -120 -14 -126 -122 -128 -18 80 118 96 64 126 -48 -88 -126 -50 -114 -40 -16 116 -100 -10 -50 -80 -24 -10 108 8 54 -82 76 -58 124 48 -122 -128 -128 -112 22 50 -60 -96 48 102 -126 -80 -126 48 112 -42 -30 -118 -96 -16 8 -118 54 118 122 -26 52 -100 -42 -72 -126 120 124 -4 122 -36 -34 64 56 -124 -2 16 -122 -126 80 26 -82 118 52 16 50 -24 54 -100 126 -6 -110 -126 6 -10 42 68 -126 76 20 24 124 -118 4 12 48 32 -126 -90 86 54 -50 6 -58 -124 -118 126 -24 32 -78 10 -22 54 32 100 -96 -84 -124 -126 -128 28 -126 -60 96 6 72 -62 24 -80 124 -26 -28 -72 20 6 28 78 -16 -50 44 -106 -24 -124 -126 26 14 18 -42 -72 4 -74 -12 -94 -124 -104 28 118 32 18 -116 -126 -10 18 114 12 -80 -18 64 90 -126 -10 -12 108 16 -28 26 -122 56 6 -100 -126 -52 -84 -102 -72 76 44 -104 44 -72 -110 -2 -80 -102 -18 28 56 -10 -20 -24 58 -32 34 26 -62 114 -126 -66 -124 118 36 -102 120 -28 -24 -104 76 -128 -126 92 108 -34 -4 -6 -126 18 -50 -122 22 18 -66 -70 -16 66 82 -36 -6 116 82 120 -38 62 112 30 -2 -82 16 24 72 -126 32 -120 44 -30 -116 -56 -38 32 68 -32 -64 20 -26 -124 -68 -102 126 26 0 126 -124 8 12 24 -114 -72 26 -78 2 56 34 -38 76 -126 -12 4 68 54 6 -90 -112 -80 -38 -120 46 100 44 104 -44 20 -18 -20 78 -88 74 126 -2 2 124 12 -126 34 -26 -16 126 104 48 -54 -126 24 72 66 110 -126 -10 -12 126 -124 76 -36 -106 54 -48 68 -14 -34 50 -20 114 -50 -10 -126 10 118 42 -118 -108 -20 6 20 18 -64 80 122 -64 84 60 126 46 28 -98 -10 68 -124 26 32 -78 32 -124 82 -52 24 -66 64 -104 -6 -98 98 72 -66 88 64 -80 -58 52 84 4 -98 24 30 -122 50 -26 126 -126 -36 -118 96 -126 -10 18 -34 124 116 20 -126 62 44 40 -110 16 -72 96 -126 -72 -42 -8 88 110 40 -110 -124 14 126 84 -70 -126 12 58 -88 -58 -122 -90 28 28 
-14 126 12 -26 -28 -44 -102 120 126 -26 2 -116 -126 -84 120 -18 -124 76 -8 -26 20 76 -10 122 -36 126 -106 -18 -30 -20 86 24 -90 118 126 -14 -54 0 18 -98 88 -50 92 70 120 76 84 -8 100 12 112 -24 106 -20 -126 36 20 -34 -54 -36 -8 22 -124 86 -22 20 88 -58 -124 48 102 -126 -56 -34 118 12 -28 -36 76 118 -124 -8 -118 30 -46 30 -12 46 124 -36 44 -32 68 72 18 44 -86 -96 120 94 108 -92 -112 -122 30 -20 112 -26 40 -66 122 100 -54 10 38 126 0 -4 126 118 -48 62 88 -110 108 14 -16 -126 6 -108 58 126 -122 90 124 -124 36 48 -44 -22 -44 12 -112 -62 54 -94 -28 -16 -32 116 96 124 -12 120 24 -6 24 126 82 8 24 16 26 98 114 -10 110 -6 -126 80 -124 100 -84 26 -122 -126 100 126 126 -34 126 -6 -120 -124 32 116 -38 126 84 -88 16 50 -14 110 124 22 -58 -18 -124 -36 40 10 50 44 78 98 90 -30 32 -106 10 100 -22 24 114 -128 -2 62 124 34 -114 88 92 -50 -50 84 -10 -84 36 -14 32 -20 122 68 -62 118 -70 -50 76 12 22 -24 78 118 -20 -44 -20 36 110 26 58 -2 72 98 114 122 -32 -40 -6 124 -82 120 10 -128 120 126 116 126 -96 -6 122 -126 -118 -26 124 102 124 74 124 76 -122 -126 -114 -10 126 -42 120 36 -2 90 -92 108 -94 -30 108 -122 -26 54 46 84 -126 106 126 -92 -10 -42 64 -32 58 22 104 -22 -6 126 120 50 120 78 -32 -6 -46 52 6 -44 94 -120 -22 -16 18 -120 56 104 54 100 126 124 110 120 46 122 -54 -4 -24 22 42 -10 -2 60 -126 48 -8 122 22 -126 126 6 100 110 56 -32 50 118 -22 -52 40 74 4 28 22 30 86 -12 -48 52 -40 -46 20 120 124 80 126 -60 -18 102 26 -98 -56 126 -36 -126 74 -22 80 126 122 18 -78 64 -24 28 32 50 70 52 -116 104 28 16 116 8 -76 -84 114 -34 70 -110 124 34 118 0 -16 76 58 -90 24 72 126 -38 34 14 42 -126 62 10 124 46 122 -18 122 -12 -46 64 98 -126 20 102 -46 -128 64 -72 82 -112 34 -20 34 126 -80 -114 -122 66 -30 52 -30 126 126 78 -24 -72 -4 -124 -10 -52 -114 -126 22 -28 120 94 26 -48 94 -124 -126 -88 0 124 -30 -118 -126 126 56 -118 114 -98 68 22 -32 -68 126 124 44 0 62 -128 -64 -90 22 64 -16 -4 -14 100 
38 122 46 -60 126 -8 6 -128 124 126 52 -126 -126 126 80 122 -126 -126 -120 -38 -116 -126 -112 108 -8 -108 -116 30 40 0 122 122 -126 -76 -126 48 -6 -54 -126 -116 -128 -126 110 -38 126 -64 126 48 -50 38 12 126 -124 -64 -128 -86 -126 122 -24 -38 -56 -124 70 -124 108 -128 102 44 -118 64 -8 -128 -118 -110 126 28 -122 -106 -42 96 -128 10 -128 -44 12 104 -124 42 -124 -76 -126 -12 124 -124 86 -64 44 -122 26 -100 12 124 -126 -126 -10 76 -22 126 -10 22 -122 40 -126 92 -124 -126 -98 -120 -124 120 106 -10 96 -120 -46 66 108 -128 34 -124 -44 26 -126 -20 118 -90 14 46 -94 -128 -126 -26 -98 -28 -128 -90 -56 30 -64 -104 124 126 108 26 38 16 -38 94 -2 -126 126 -128 -128 -124 -126 124 126 96 -126 100 124 80 -126 48 -128 -126 74 94 -108 -128 -120 -74 -128 126 122 20 36 -128 120 -48 72 -128 -82 -70 -126 -126 -126 -56 -126 22 48 52 -102 -120 -8 -54 126 -8 -124 126 14 12 114 -88 82 -128 124 -124 4 -128 -16 -50 126 -126 -126 126 48 -128 -122 -128 34 -126 90 -108 46 2 0 -124 -38 -72 -114 -116 -54 126 2 -88 -126 124 -128 46 4 126 126 118 -124 98 46 -104 -112 -118 64 -22 126 -16 -64 -124 -112 -126 -108 -128 44 -122 78 22 124 126 -26 -122 -90 -66 110 -126 120 -128 56 110 116 -62 40 -92 -126 64 -40 -52 -128 -128 -124 78 0 -122 -30 -128 70 -26 94 100 -88 74 116 16 26 126 66 -70 -88 -56 -44 -52 -126 -68 4 -122 -128 -126 114 14 -34 20 -94 -122 -24 -96 -126 44 126 122 34 -126 36 -34 -114 82 88 96 120 -126 6 -128 -110 20 -128 38 -68 -124 -128 42 98 114 -126 -108 -126 62 -126 -112 42 12 56 58 -92 -32 -122 4 -32 -126 48 90 -18 -12 8 -72 -126 10 -90 110 86 116 126 126 -126 -124 56 -118 -10 12 116 -30 118 124 -124 -126 -122 18 -8 32 -128 126 126 -102 -58 -124 -124 -128 60 -74 -78 -36 126 -126 -78 126 -38 2 6 -126 6 -56 114 126 -6 -120 108 -78 40 126 -28 -18 122 48 -104 -128 70 -104 -16 -128 80 -60 30 -128 -122 -42 -128 90 -90 -126 120 110 -124 -124 -128 -128 -128 28 -94 70 126 26 80 -128 12 -124 126 -120 -4 -90 126 -128 122 -126 122 50 -16 -128 -126 -118 -118 30 -126 -128 -120 66 4 -34 -110 -120 -18 -50 -58 72 -42 -84 110 -92 126 -128 -118 4 -126 100 -50 -124 -126 -122 
34 -34 -66 -20 -8 -8 -24 -74 -6 -70 -16 90 -18 44 20 44 -4 -104 126 20 -58 12 -112 62 46 4 -22 116 22 -32 82 16 12 44 -18 -28 20 10 118 16 2 54 50 -60 -86 62 0 94 10 2 30 -124 -14 36 -22 0 10 -14 86 -4 -4 124 24 2 -28 -46 -126 -32 56 -66 62 16 -98 64 -96 -60 -40 -122 20 42 -12 2 116 4 38 54 -6 42 28 -18 -46 30 -82 -20 -120 76 -18 2 50 24 74 50 38 -10 16 34 40 22 4 -38 14 114 -4 -90 -50 -44 36 -38 -22 -14 -16 38 0 -40 -74 -36 -12 -48 42 52 54 -80 -46 -60 -74 -46 -40 26 50 32 -84 -38 8 -98 90 -20 124 -76 -20 -48 -126 -30 -70 -36 -40 62 -110 -42 -6 64 48 -46 -86 -102 114 46 -18 112 56 12 -10 -62 0 30 12 16 -50 30 -124 -52 26 -34 104 -102 72 38 22 50 92 18 18 28 -42 0 -120 30 0 32 -112 118 24 -112 36 -30 -44 34 -22 36 -10 14 24 -8 -46 -30 10 -14 18 0 8 -2 118 18 18 -94 -44 0 44 -32 72 -34 50 20 -126 -10 -38 12 20 106 0 -6 -40 -84 0 -56 8 -122 34 12 -28 54 -22 -126 58 48 0 52 84 42 -118 -58 -64 -68 20 90 -2 68 86 24 -10 30 -14 28 -6 -120 -50 36 -34 34 -14 -116 -28 -42 32 110 46 30 -64 -50 36 68 22 46 124 -10 28 14 -68 32 62 38 -60 34 82 28 -98 -56 34 -54 -10 -46 34 -14 -24 4 -52 30 92 46 -12 36 -52 32 120 -38 38 64 94 -126 88 28 -48 26 12 -46 -2 -12 -70 82 -20 32 88 26 28 -16 -46 12 -62 -66 16 14 2 -76 52 36 26 36 12 -112 92 76 0 60 -2 10 -104 -18 34 -50 54 44 82 56 -4 -54 14 72 94 8 -4 -116 62 -12 22 -62 18 -86 118 -34 22 -12 2 118 -74 -88 20 -56 20 18 48 24 -52 -26 2 14 68 46 -124 -4 -124 22 30 44 42 12 108 -14 -18 -4 -60 86 16 34 66 10 46 102 -44 -62 -50 82 -40 -34 -36 60 16 -6 -8 60 82 60 62 -18 -78 80 50 30 30 32 -114 22 52 -8 -4 30 -78 -20 0 36 26 6 18 -30 -52 0 -26 -38 -62 106 8 -42 -70 0 -14 -44 26 16 -20 70 -16 28 74 -22 56 90 -16 -28 16 -50 18 56 72 -48 42 -24 34 -118 -12 26 -8 -8 122 4 -80 20 54 -100 32 -52 24 -52 26 -94 
-36 12 54 -114 12 64 64 18 36 -128 -122 -126 106 52 78 -32 2 -88 126 106 -100 -22 -108 12 2 -64 -60 -106 24 68 -32 26 -82 6 -52 -114 100 -124 -10 118 42 -80 -120 68 -104 80 54 56 2 -18 30 38 -52 -30 -40 66 -104 -120 -84 -48 30 118 24 -36 36 34 58 -110 68 -96 -24 -120 -52 126 -88 114 20 -26 44 -10 58 4 68 52 76 54 48 -32 -122 96 118 116 -24 -4 -124 52 28 62 40 -54 68 40 -100 -10 -22 50 22 -86 80 50 -52 2 72 60 54 -64 -48 -62 60 22 -76 -54 -114 40 38 18 -4 6 92 50 -100 10 16 26 -76 -122 6 -106 2 110 46 -22 -60 90 76 78 16 -84 60 -52 -56 -48 60 -68 -80 -22 32 -124 -24 102 -18 58 76 64 8 10 -16 84 -36 -68 32 -78 -24 -16 74 26 -24 6 72 -66 -74 -40 108 108 -36 6 120 78 52 -14 124 122 16 20 -22 44 88 -86 32 -26 -4 66 42 -108 -66 22 -48 4 -54 28 28 46 14 -108 4 108 -24 36 38 -16 120 -8 52 98 -126 -72 66 -14 -88 -84 -22 -64 -58 -26 -124 30 26 24 118 -54 58 26 -46 6 20 -116 28 40 2 124 104 -12 30 -40 40 -46 -46 12 26 120 84 -82 -24 16 -2 8 -114 -68 122 18 112 -18 -80 -36 90 -124 68 -74 -120 -10 80 28 -52 126 -62 -26 104 -28 0 -46 -38 76 110 -52 16 -26 -78 78 -28 -78 -18 -38 20 -20 -72 100 -10 40 -54 28 -26 -44 46 -2 -62 20 12 -64 2 -102 22 -94 26 22 38 78 4 -126 106 -116 82 4 58 -116 26 122 -126 -26 -44 -76 58 -22 -70 -4 52 -124 14 -46 60 114 -124 76 118 36 8 -32 96 -124 -90 8 -22 -14 -88 -22 -54 -126 106 122 46 14 -62 -96 -94 0 -120 -52 -74 -56 -96 -38 18 -58 -8 108 -124 24 -64 -122 -30 64 16 42 -32 32 -4 -42 44 2 4 -34 58 10 -2 -48 -68 -32 64 76 -76 -12 36 124 30 -124 10 6 -90 70 -118 56 -122 -52 -116 -104 68 -18 -56 4 60 28 -34 -16 -126 14 -50 -126 38 48 -124 124 -52 -64 -108 120 50 -76 -6 -66 58 58 -124 32 -56 16 -120 -28 8 -2 24 -72 34 -44 64 -24 32 -70 -66 -10 52 48 124 -128 80 -88 16 52 -26 76 10 -48 110 24 28 -122 34 92 30 42 -84 94 -6 126 54 126 102 -64 -24 -10 70 -126 -14 68 -122 -48 72 -96 -42 28 126 104 -26 96 
126 -62 30 -102 50 -26 122 64 26 -50 -120 -44 -126 82 50 126 -108 -126 -124 -58 88 -32 -128 -122 52 84 34 -128 68 12 50 -4 -126 124 -62 -122 -62 14 -126 122 -22 22 124 -110 -62 32 62 -86 124 -2 126 24 -126 124 -124 12 64 68 -124 42 -44 -120 -128 -62 38 -98 -28 -40 126 2 -128 -126 -122 -90 -70 98 14 -104 86 126 -128 -64 -100 -40 4 -30 -128 -48 -124 106 -100 -28 -58 -40 6 -46 52 -102 62 -112 126 -22 -126 76 92 124 40 46 -14 -90 90 -40 82 -48 -40 -128 -60 38 -120 -126 18 72 126 -8 -128 -44 -22 -126 120 -10 -54 -126 32 -124 82 -52 98 -12 -8 -114 8 -96 -120 -32 -60 -124 -46 -110 114 -48 -8 -128 -4 46 -6 -128 -96 -126 126 -44 -128 -128 -128 116 48 62 126 70 114 90 4 -126 -26 26 30 -128 -54 -42 -126 -26 -34 46 -126 -58 36 -44 124 64 12 8 -12 -74 -14 -126 -38 120 -122 -86 -126 124 16 -16 6 62 -66 -124 -8 -124 -126 -8 46 38 -100 60 12 -126 -24 -128 106 20 124 -120 90 36 -126 4 50 -124 -128 -54 0 -30 -126 -40 -16 -114 124 44 -126 -26 126 -74 -128 -24 10 -124 -64 -126 118 -70 -126 108 28 -10 -102 8 124 28 -94 -50 -52 -18 100 -126 14 4 -126 50 6 -126 -84 -118 -126 0 -122 124 50 -12 -128 50 -38 -62 10 104 -112 4 36 108 16 26 -126 -112 -72 -86 -126 -128 -94 -94 -16 -82 -126 -120 -24 -44 50 126 108 -12 -32 -118 124 106 -36 24 44 -126 48 -10 -28 -66 -124 -124 -128 -14 56 88 -42 -54 40 40 44 -124 -68 -40 86 -126 -118 -124 -46 -24 -68 -48 0 74 -32 -22 -12 58 -122 -16 -128 56 6 -110 -116 -124 124 76 124 -96 -120 122 -126 -64 -120 6 72 -46 -80 62 -42 -22 38 -76 -32 28 -112 18 64 -126 -128 -126 6 -126 110 102 118 14 -100 -78 16 36 28 16 -30 -58 50 -52 0 16 -110 -78 -64 62 32 120 14 -66 4 66 -8 66 -126 106 -84 46 -104 -126 126 -38 30 -126 118 -46 124 76 122 58 0 -34 -44 -128 60 -92 -114 18 92 -60 -38 -128 -94 -120 -72 -128 -8 -128 54 -126 -84 -126 -126 -126 -126 -126 120 74 66 8 -66 122 -124 112 -4 32 -28 -20 76 -80 126 -114 76 -126 -46 -70 124 -126 98 124 68 -46 -28 -124 -58 30 118 -68 120 -128 -126 88 -120 -66 -126 -18 -44 24 -56 18 -126 -126 58 90 122 -128 -14 -108 -124 60 28 -70 -4 -128 
120 -18 0 -30 -64 18 92 108 110 112 22 6 -30 -52 -2 -22 -120 66 110 48 -56 44 -124 52 34 -42 62 76 -44 -76 -106 -14 40 -74 28 -116 -98 2 42 -22 -14 -40 -62 -118 -120 -88 -24 50 -54 6 68 -128 -8 -16 2 -6 -20 -124 46 68 -16 52 96 22 68 126 -38 -34 64 -54 30 86 -14 126 -32 90 -16 -122 -46 -118 -14 12 54 46 58 34 74 -126 68 -24 38 -2 -118 -76 -120 -20 -114 70 88 -10 96 6 -50 56 -90 -28 -110 16 -126 -38 114 -108 88 -64 -30 -70 -108 98 -128 -26 -54 122 -2 -124 -128 -108 -36 96 84 36 -122 -112 -42 -46 -78 32 -118 -10 8 56 14 122 82 -64 -22 -60 40 124 32 -78 -126 -26 -124 -44 -46 -126 26 -14 -96 -16 122 40 104 -94 126 -50 -58 -14 24 8 -44 -108 24 34 -68 -12 -70 -90 -100 48 20 -108 0 -120 -30 -16 4 80 -116 -82 -126 118 -40 -46 56 -112 -122 -78 8 -114 90 -100 52 56 58 -96 -124 -14 18 -4 88 -114 -2 44 64 2 10 -74 76 12 16 -42 2 120 52 -42 -46 68 64 -20 -128 -118 -126 -72 -68 -86 -14 20 4 -14 -58 -28 120 -40 62 -108 -110 90 26 64 -58 -124 56 122 20 -6 124 46 58 120 120 -54 6 34 -66 62 0 124 34 -32 -128 -22 -40 -72 -118 -2 50 26 74 -128 -6 -38 -78 76 30 74 -90 -100 14 66 -22 -36 -88 10 30 122 12 -20 28 -24 -72 74 -40 -14 -126 -118 126 80 38 -116 6 -124 78 52 80 72 44 -70 64 118 -94 -44 -124 -14 4 -80 24 38 -126 -64 -66 -20 58 -104 -10 30 -92 62 -94 22 126 -6 96 -24 -66 28 70 -98 -22 10 74 2 -36 24 -46 -88 34 -30 8 -76 22 52 66 16 -124 40 -56 -118 40 118 -2 -16 6 26 40 -30 126 102 22 -12 46 -110 26 -120 -54 126 20 -26 -100 18 68 -126 -70 4 -6 4 -36 42 44 -48 -124 -56 14 120 -24 18 -128 90 -124 32 18 -68 -24 -2 60 36 -68 -82 32 32 -94 126 -52 4 -104 -112 -74 42 86 82 34 -128 -48 58 90 40 -102 2 -12 104 -126 92 -72 66 -122 20 124 -4 -116 -20 102 54 -48 50 -62 74 68 28 4 -10 110 -42 -112 78 50 2 -12 114 -2 -12 58 -50 -8 -52 112 -124 -20 16 32 -26 -38 44 -38 -48 -4 10 60 72 92 10 -10 -118 26 24 50 -18 -58 24 64 14 14 82 -102 -52 -46 124 62 114 -32 92 -14 84 
-86 66 -74 84 26 -10 64 -2 112 -94 -90 -14 -20 58 44 124 -56 4 -78 -114 -64 -36 -74 82 20 -4 70 -34 4 -16 -6 -12 -8 122 -86 24 90 58 42 -106 44 -6 22 60 46 -20 16 36 -116 -12 122 -120 -126 50 -44 10 -24 32 62 -6 42 -16 -30 -12 74 50 -124 -104 -110 32 -98 -84 -72 126 -114 -120 44 -14 40 -122 -98 44 24 76 44 118 -52 120 18 18 -110 -50 -82 58 -122 56 -14 84 -50 106 114 116 -38 74 2 78 -102 -18 -128 90 52 -46 -32 30 -124 -12 24 20 122 -108 42 16 78 120 -46 -30 -74 -26 -48 -22 -96 8 -126 114 52 -40 -20 40 -56 84 -38 -34 -108 -112 88 56 -108 -126 -82 124 2 4 -122 -122 -2 92 -126 -20 12 124 -44 24 -118 -126 -114 -28 26 46 -106 -88 0 0 -74 96 28 24 -104 -108 28 -90 -124 98 96 -32 -52 68 44 -126 40 2 -128 82 46 122 126 126 -92 38 122 48 -124 82 -94 -12 -10 -82 -6 14 40 74 94 74 30 62 24 126 -14 -48 -62 126 18 -12 60 -38 -94 102 -44 36 -76 88 10 -38 30 -114 38 0 88 -16 -50 34 -16 118 118 32 -30 -6 126 12 -16 96 -104 -38 -66 122 -124 -84 26 104 -108 64 124 -70 34 -32 30 10 32 108 -66 -20 54 10 -22 -120 -40 16 14 46 30 -114 -18 34 72 112 4 14 -96 -120 126 -38 -46 46 120 2 44 48 -126 78 -126 34 110 38 18 -16 122 -104 -102 -86 -66 36 -116 124 118 44 -78 -46 -122 -80 -4 -58 4 -122 108 -74 -14 102 40 -78 114 -32 44 124 -112 56 -44 -122 -108 -60 124 -44 122 -54 -114 -128 120 -96 -96 106 38 40 -36 102 -56 -38 -40 -36 28 -122 -10 110 118 -6 -54 -60 62 -44 42 100 -54 34 92 46 40 -52 -70 18 -104 28 104 2 26 -16 -74 32 -22 106 100 82 22 -34 56 120 76 -24 -72 42 -122 52 -116 -126 -66 56 68 126 78 -32 14 30 58 -52 50 126 -26 -128 -106 30 48 -122 -64 -32 122 -126 94 -6 4 -50 62 54 -122 -44 24 124 48 94 -10 -6 -120 86 28 -32 -24 26 -100 -92 -2 -30 64 96 124 48 -70 -118 -126 46 -118 120 84 -8 -64 -82 -68 -22 -118 14 86 118 -22 124 -70 -124 -116 124 -32 -122 10 34 14 -104 22 42 124 60 18 -70 14 -6 124 90 -36 -40 -24 94 76 -26 -56 -12 126 112 -26 -54 -76 126 102 84 26 118 -128 36 126 -12 44 4 
-126 -18 100 -48 -68 -18 -84 110 46 -86 -30 28 122 110 -124 -126 124 -124 86 -128 -80 72 20 42 -112 86 -8 -94 -42 56 -54 -36 -118 -128 -106 126 122 -82 18 84 -92 -108 -122 50 78 2 50 2 -110 48 126 -122 10 -124 70 -26 48 -2 -126 -52 -126 70 36 48 -128 -76 126 -100 92 -112 -48 -36 36 124 -38 126 -24 22 26 0 -20 42 126 -118 -118 -20 10 -74 -20 -26 -94 -20 124 -62 -40 -118 -24 -86 -52 -4 -126 54 -68 126 -22 -126 -124 -126 -126 -126 -2 -126 114 -44 -126 -126 114 62 -126 50 -128 -94 120 -62 -120 84 14 -18 -78 14 -72 -56 -126 46 -16 54 10 92 -10 -64 120 -94 -120 -122 -40 -124 126 88 -56 -126 -56 110 -70 -126 -126 126 126 54 48 -128 126 12 30 -120 -96 114 110 54 118 -28 -40 6 112 -126 122 -124 -2 -92 102 80 -18 -20 -128 8 100 14 -122 -32 -36 -118 -118 78 -110 -34 122 -2 -48 -122 -126 -28 -124 24 -26 -26 -42 -118 -20 -104 -60 54 6 -122 48 40 -124 -28 6 -120 -4 -126 70 -22 -8 -120 98 -12 -124 -32 -46 108 48 -126 126 -124 -24 26 -126 -100 92 -24 92 -2 112 -54 110 118 -124 -88 -82 38 -100 -122 -12 10 92 -78 -124 -128 32 122 -102 -126 -126 18 20 48 -64 -126 6 -34 -46 -38 -58 84 -10 -120 -126 20 -80 -94 22 -124 -70 14 -28 -126 -90 44 -126 84 -66 104 102 106 -62 12 126 54 -128 30 -124 4 -56 58 -42 -126 -126 100 -126 2 -88 36 8 -102 -2 -84 126 -124 -28 126 64 -54 -66 4 -126 -54 -124 -88 38 32 -26 -12 -76 -60 104 -10 18 -16 -52 -8 -128 -26 -126 -126 60 -70 -26 88 34 -34 -66 -126 -30 126 -66 44 60 32 -8 78 8 46 20 98 -80 -52 -74 2 24 114 -118 -118 -40 -80 -44 20 124 -14 126 -112 -116 10 10 46 -22 124 -126 -124 -34 -26 -70 -128 16 102 -102 -36 -126 2 42 -48 -86 -54 -76 118 -26 32 -90 -108 -74 -126 62 -12 -128 8 -126 126 -60 42 -68 -126 -116 18 -52 -48 78 -96 -20 -126 50 -124 126 -124 118 -128 8 -88 122 -126 -18 -30 20 120 4 -66 -46 -114 124 -126 -28 96 122 -80 -126 24 2 -126 60 34 76 -50 2 12 126 -124 -104 -106 -28 124 124 124 116 -126 -122 126 -30 -128 22 34 -118 78 118 62 -34 -120 26 -56 -126 90 44 -126 46 28 58 2 -114 112 -56 52 30 -92 -126 -30 -126 -128 2 124 -126 72 -126 -112 -120 44 
-8 14 -82 -26 20 16 26 -16 -32 120 126 6 44 8 -46 -22 -66 -2 26 14 28 -68 44 -28 -52 18 -2 126 10 -48 48 46 8 -28 60 100 92 -32 80 24 -44 116 100 -28 44 -26 -90 -14 126 -22 -28 -24 112 -60 96 112 18 60 38 -30 24 6 80 -6 -72 -44 64 -12 -60 -4 26 64 118 -104 -80 82 -80 -4 40 -38 8 38 70 -128 42 -98 -62 36 -70 -40 -38 6 60 86 -14 -54 -64 126 -20 26 118 42 -28 46 -100 -88 22 -40 -120 -60 16 -42 -10 6 -118 -8 58 56 -122 -8 -106 34 -28 -64 24 0 76 64 -120 64 -18 -124 -54 -54 -80 -88 -46 -6 -128 -120 34 44 106 -108 38 34 -62 -28 -10 126 -64 104 22 28 -22 -114 78 -68 70 -72 110 14 -42 88 -94 -18 -96 -64 -60 -104 -120 2 -30 -36 -40 -30 -34 14 -28 90 30 -126 16 2 -112 20 -20 -102 -68 -18 -12 -40 32 -72 -76 -10 -20 -38 -74 -14 -38 44 -18 0 -20 24 44 30 -14 -58 6 96 -104 -94 -116 -10 -32 -28 50 18 -62 20 120 102 126 26 44 80 -14 -22 -104 116 36 6 -124 -46 30 72 -52 48 -18 64 -6 -122 -24 -98 -122 -36 -122 -50 40 44 -80 -48 16 60 -8 -104 66 -56 -118 24 -28 -56 -50 74 -34 -2 78 14 -126 -24 -54 114 68 20 62 -122 68 -76 120 18 -66 100 78 -30 -100 40 -68 -72 124 -106 -4 -24 -40 124 52 24 54 -36 -32 50 -70 4 -62 -78 -70 -110 28 -58 6 -72 -24 -88 -74 -14 -50 38 -74 80 40 40 120 40 106 -72 -110 -82 -56 16 -52 -28 -76 -94 6 118 32 -74 -36 38 126 68 -82 110 -22 -40 -36 122 -82 -58 -114 6 0 -8 126 -118 -60 -14 -126 -34 16 10 118 48 122 -40 -86 -128 78 -46 104 -60 -8 -34 46 -26 56 -68 -4 28 -14 106 4 -118 28 -90 -50 -28 -64 110 12 -126 -126 -86 -112 38 76 -52 38 58 -84 0 -6 -18 -12 10 -64 10 106 44 -110 78 -20 106 14 66 -96 92 66 -14 -2 -40 -60 50 -24 4 -14 -68 6 -62 0 94 46 108 -108 -126 -30 -20 0 4 -124 126 -38 36 50 126 76 56 122 28 62 -126 20 -20 36 -82 -2 -10 10 -62 -4 -4 -24 46 -40 56 14 126 -32 40 -6 -68 -6 -32 18 -56 -96 -62 36 94 -48 -34 122 104 -6 58 -126 44 -34 -62 76 -124 40 12 88 -2 66 14 54 -8 20 -94 42 -32 24 20 118 48 18 74 -98 40 
2 -18 0 -66 52 66 -112 -56 -68 116 20 106 110 -18 -34 -4 -6 126 -60 0 -28 -20 100 6 20 -8 -72 0 -114 -20 38 74 -88 -62 102 -64 -100 -124 -44 -78 26 -72 124 -40 66 8 -20 2 96 -102 -24 -60 -74 40 -32 -44 -32 122 -72 -38 -34 -60 80 124 -114 58 46 18 -8 0 -108 58 -50 38 84 -14 -60 -62 122 -72 -50 22 20 22 -14 -26 66 -118 120 72 16 120 78 116 -120 -32 -26 -86 -80 -96 92 30 104 22 -10 -6 -26 -42 20 42 42 56 -14 -122 0 -38 -70 38 -46 22 -110 126 14 -50 44 -56 -24 118 122 -56 90 38 14 112 46 -112 -16 22 -122 110 36 120 14 76 14 8 -8 52 -28 24 -126 -72 88 -16 50 -22 32 -52 -4 -28 30 6 -124 84 -6 42 126 36 72 56 94 60 6 16 -30 16 116 -28 -76 -112 2 -22 -110 54 40 124 -120 58 24 -106 -42 -68 -42 48 106 -12 54 -42 12 48 -6 52 -44 70 20 48 4 -44 -4 88 52 64 -60 -100 -50 76 42 -96 -14 -14 -28 -112 -48 116 36 -2 -22 -74 -60 -42 10 -6 52 20 -62 62 4 -4 114 48 -54 38 16 120 30 108 -70 -24 68 -36 -74 2 -82 -104 116 -38 22 24 -50 42 -98 -70 -70 -76 38 10 114 -60 -124 -54 34 -60 62 38 122 -104 16 8 -58 -62 -26 -10 2 20 42 26 38 66 -108 -42 -124 56 92 -56 -50 -44 82 -30 -116 -110 58 -22 38 -86 -124 -18 118 34 -48 18 -40 38 -34 40 -50 32 32 -54 -80 -48 16 118 -4 40 -34 -54 2 104 88 -94 -100 92 -64 -122 58 54 -118 42 -38 -40 -8 -114 -36 102 30 126 -120 -26 18 -78 -114 18 -20 -4 64 68 -70 6 -124 2 -18 -50 -50 -16 -68 124 -6 -48 96 -26 68 54 50 78 -2 10 46 96 2 80 82 36 120 46 -42 6 -30 -34 90 26 -4 56 -118 74 -122 -4 14 62 -16 -30 14 4 -14 0 42 -30 10 -8 80 112 126 40 12 12 40 -46 -16 -100 -64 -38 98 52 62 40 -12 -56 26 -48 -92 -124 -20 6 22 -72 36 -92 48 -118 -68 -18 122 -46 126 -28 26 -126 16 6 112 30 26 -124 108 14 -20 -124 -98 122 56 -18 -64 -6 116 46 16 52 -10 92 68 -42 -60 -54 -20 28 -2 -70 -6 84 -16 -44 24 -78 -36 -54 2 70 52 -124 -48 50 4 -124 -114 34 32 -46 -28 -8 48 -6 -88 -16 -26 34 2 -18 -76 18 40 -52 22 56 
-128 42 58 -6 126 -114 -24 126 118 124 -34 60 126 36 -124 -126 -76 -64 -60 102 0 126 -100 122 96 -128 54 126 -128 -128 22 -44 74 -66 28 126 -128 -28 -18 114 -124 -122 -64 126 -38 52 -34 -12 -48 76 -74 -50 84 -66 -56 -128 32 22 118 -32 -74 -50 90 -98 124 -60 124 16 126 16 -98 -84 -124 -94 126 34 126 -102 2 126 126 126 90 -128 -2 124 124 58 -46 -38 2 -128 -44 126 38 -108 -52 -44 -124 -22 12 -128 72 4 -42 -8 -126 56 -124 -54 32 126 126 -32 -78 -44 -122 -128 -26 124 126 124 62 -78 126 -50 8 126 96 94 -116 -128 -124 48 -118 126 122 -112 126 126 -70 -74 100 -126 -36 14 -18 -36 -118 126 -128 126 -36 -108 38 126 -52 126 -116 -124 30 -96 -106 2 126 -62 -4 122 2 78 126 -8 -92 -128 20 4 124 -128 126 -112 -78 -126 106 -86 126 -128 -98 24 12 -82 -126 -92 -42 -128 80 44 126 -46 64 -34 46 -122 54 -94 -42 24 -24 122 100 -124 -72 126 88 -128 -122 -8 -42 -128 -106 126 -32 -94 -126 110 -42 -74 80 -98 -128 108 -122 124 36 68 126 -24 126 126 2 -26 2 52 44 126 126 46 72 126 -112 -126 124 -30 -20 102 126 -74 120 88 126 126 72 24 64 -94 126 26 62 126 -100 112 -128 32 -128 -50 -126 92 -84 44 112 126 22 -126 42 126 22 -128 -128 -72 124 -126 126 -26 16 34 -124 66 -12 42 74 -16 -82 -12 24 -114 -120 86 118 -54 -90 -126 76 72 -10 16 126 50 126 -14 126 -112 126 120 126 -38 -126 74 -96 126 126 -124 -60 -10 124 38 -128 126 -38 -14 10 -40 -126 -126 126 -128 14 126 -86 -126 38 66 86 -46 94 26 -8 -128 -106 -60 58 84 -128 36 -126 -122 110 30 -50 126 126 -128 40 126 126 -128 70 70 118 -22 50 -126 126 122 -6 126 -112 -122 -126 6 126 90 -126 126 -50 -112 126 66 60 32 80 126 -20 126 84 126 126 126 -22 126 126 -26 -38 -124 -92 102 54 126 -126 126 -48 126 74 126 -46 -128 14 -32 124 126 -94 126 42 100 34 100 126 -128 -24 -104 -56 -32 124 22 28 68 14 126 64 -122 -128 126 -56 -126 -6 124 -106 -110 -128 -104 -126 -74 -112 126 38 -60 -118 -126 16 -128 -50 30 36 126 -128 6 124 126 58 124 -30 0 44 124 -126 56 -128 -128 -62 126 -90 86 -108 116 -54 8 126 -128 -126 126 -46 -92 -84 -56 126 -38 0 -122 126 10 -64 32 -48 84 
-72 -24 24 10 -26 26 104 34 92 122 48 -18 -34 88 14 110 114 -6 -78 -22 -96 -36 -40 64 56 34 -26 -10 8 8 124 -66 28 -26 -58 -44 90 -32 -98 -28 32 -30 34 -72 -30 22 22 -118 16 70 50 70 -20 -112 44 -10 76 68 60 82 -32 104 -4 8 78 34 -88 16 -4 72 -76 -60 30 126 58 62 -20 62 -6 -46 28 46 70 -6 -80 68 -38 2 -28 30 -20 38 126 -16 -26 -74 22 -34 82 114 32 54 -8 -4 78 38 -4 -38 46 120 64 -72 14 54 28 -38 -4 -10 104 -14 118 -4 -76 112 -14 30 -48 16 -14 40 -2 -18 -28 -116 -24 -32 -76 -8 -26 -60 20 62 42 -6 58 0 42 122 70 -56 -12 96 106 120 62 54 -96 70 -30 -18 -62 66 24 -22 -14 28 56 -54 -12 48 -6 16 -58 -10 34 28 38 -118 68 56 -22 22 122 16 34 -14 4 10 28 42 56 8 60 -18 -74 -38 120 104 8 -86 82 112 24 -40 52 42 106 -60 -24 -4 18 96 -44 34 18 32 -22 28 -36 54 116 16 -6 -46 -32 32 -20 8 78 10 32 12 10 50 18 44 36 32 8 -4 -6 48 -8 100 -8 -122 -48 -12 -74 64 64 8 18 14 2 -66 -54 -54 36 -118 122 110 120 78 -58 -14 2 90 66 44 -6 -14 -6 -16 2 36 30 -12 24 -2 84 22 96 -70 -66 70 110 -26 -76 18 -18 112 126 -74 26 98 -22 -94 -20 -32 50 40 -66 68 122 114 -44 -10 60 -124 92 -66 -72 -50 -6 -10 118 58 18 -12 104 -66 -42 10 -38 70 14 -64 -18 88 42 8 50 10 -46 46 -2 -56 92 26 120 22 70 -14 82 -76 84 42 52 -8 -14 52 60 94 80 2 12 -4 -56 60 0 -50 58 20 124 114 100 82 42 -22 98 -6 10 28 -44 -26 -108 -12 -34 -42 -36 -2 -60 -118 -26 62 34 -38 -26 -46 -38 20 -24 80 30 -32 -4 14 22 58 58 -54 -38 86 38 28 -16 32 -120 -20 -44 -88 -74 -24 -94 64 100 -2 -10 52 -12 -84 16 90 -8 88 0 -112 -70 -36 86 126 68 -42 74 -24 -16 -6 -20 -14 -42 -54 -34 -14 -6 12 20 -50 114 -82 -56 78 12 76 -16 68 8 -28 -8 2 46 -36 -120 26 10 -32 -20 120 36 26 48 76 120 72 -20 120 -30 -12 -80 2 -60 -28 -12 34 84 -22 80 52 -46 52 -20 110 -32 24 2 -24 26 44 -56 -24 120 10 122 54 -56 -34 -76 16 14 24 116 22 
-90 -68 -38 40 -6 86 36 -56 30 32 88 38 20 -118 10 -12 106 -102 -56 -14 118 60 106 18 30 -12 60 12 40 -126 30 34 80 6 -48 84 -56 -18 -40 -60 -4 122 -38 54 2 -18 120 -90 36 -18 106 -106 12 -64 52 28 122 74 -58 122 72 72 -42 -50 -88 -12 76 112 110 -16 44 74 -12 122 -10 64 -6 62 12 16 -72 -72 38 -40 -112 -52 -54 24 -44 72 -12 -54 24 -28 74 -124 -32 -30 -6 -124 -14 118 -10 42 -74 -82 -92 -114 2 -70 16 -104 -26 -18 6 -4 106 32 -118 72 -6 -10 -18 56 -52 -28 52 -2 -24 10 -52 54 78 -22 10 78 24 -128 -94 -94 -122 -8 -98 62 58 44 -126 126 -14 -122 -50 -120 86 -62 20 -32 120 -116 100 68 118 82 -46 -60 8 72 12 18 50 -58 -56 12 -78 20 26 40 40 -50 8 120 96 26 36 -106 -34 62 -92 76 0 92 -100 -70 -14 -8 -124 96 24 -58 -48 -80 -48 126 94 44 88 -14 126 106 -6 -66 -22 52 124 -12 -68 -124 78 -48 -44 4 -102 98 38 -70 86 -6 16 -16 -126 14 12 -86 120 -18 72 -126 -72 -8 42 -122 22 62 -4 6 -124 92 -116 -54 -92 -6 -66 -58 40 -12 -12 90 -74 -94 -126 -122 -118 -36 -8 72 92 18 -8 -122 -14 32 86 14 12 52 -8 -16 -94 -100 -10 10 -44 -122 -14 100 52 -64 118 22 -108 -70 58 28 126 -26 50 22 126 -64 -64 -84 -52 -28 -94 -66 30 -114 -12 -4 -94 30 -80 116 -116 -28 -114 20 -48 -34 -26 20 -52 -24 94 48 94 76 -116 78 122 -72 40 84 -24 70 14 -2 36 6 32 56 100 18 10 -84 16 -2 28 -20 -30 78 4 -58 106 62 -108 -20 -44 18 -40 98 -12 50 -42 16 54 -32 72 -64 -2 -4 40 2 20 -2 98 -28 -80 -88 -128 100 -6 110 6 0 -52 124 0 -22 48 -18 -54 120 36 118 -14 -112 26 8 102 -14 28 -124 -126 114 -24 -42 8 22 70 -126 26 12 -122 70 82 124 16 -48 -14 -18 -8 -92 50 38 -4 -38 84 -70 -24 -98 110 126 -8 12 -64 68 60 -106 46 4 -120 -126 4 -98 -40 -38 64 -62 -42 -48 104 -120 -94 -116 -32 -8 10 62 -2 16 -102 -126 118 20 -66 48 4 126 78 4 -118 -114 112 -24 76 -118 -72 26 -124 -80 120 -16 74 -2 -38 -8 78 104 -18 -62 26 -8 36 -66 124 -124 -124 82 -80 76 28 -8 -120 -118 70 26 -116 72 -118 -86 28 26 
-126 44 -10 42 -32 -18 -40 36 0 -6 14 -42 50 -68 -68 -50 48 -64 -56 38 -72 -42 -54 26 120 -16 -82 -14 -4 -34 -86 56 -30 -114 -64 -42 -76 76 -48 -42 -40 -78 12 -88 -14 114 2 -46 -88 -12 -12 -12 96 -98 30 -34 0 22 -54 114 -6 -120 -62 -106 -8 -62 -6 -14 -46 4 -18 8 104 -52 -2 28 -10 -50 -82 2 -6 22 8 -54 -20 -18 -60 -78 -14 -66 -52 -24 12 60 -16 32 4 4 -40 74 -10 -36 -26 -54 -90 90 -18 -70 28 12 56 104 126 -2 -108 -24 22 76 -38 66 -54 -114 -92 -58 100 -34 -78 0 -24 70 4 -50 2 -44 -40 -108 118 -8 -40 -28 -60 -112 38 -82 116 44 -42 22 38 118 -48 -38 -26 -10 -42 100 -14 -80 -124 -18 48 -98 -36 -42 60 86 -82 -18 -44 -12 28 -24 54 -46 -54 -8 -24 -6 2 94 -52 -46 124 12 -12 -12 82 32 -30 -100 -82 52 -78 -72 -52 -28 106 -36 52 2 -46 40 48 -28 -24 -82 66 62 -100 4 16 -20 62 -62 -12 -66 -2 -46 -68 126 20 -20 -52 -28 66 0 -36 44 -44 12 -30 -40 -36 -68 -62 -16 -42 -52 -96 20 4 -112 78 20 -28 -20 -30 20 14 -14 -32 -26 -10 52 46 -70 -54 -118 64 -98 -8 -88 70 -64 -8 -6 -16 82 28 58 -30 -46 -72 12 -74 -88 -74 -36 40 14 2 -6 -46 -40 -40 0 -76 -40 48 -118 50 14 126 -8 -72 -18 42 -126 -8 0 -44 118 -48 66 -26 18 -10 -44 -32 -102 -66 28 64 -30 60 6 -20 -52 -6 -14 -46 -80 120 -8 4 50 112 -2 64 18 -44 -86 92 2 -22 -48 -40 -4 64 -20 32 -12 -24 -72 -2 -52 -60 -118 -34 80 -72 -58 -32 -16 -50 42 56 74 -10 -42 -22 -110 -124 -28 38 20 -62 -38 18 16 -104 8 86 26 42 -6 122 82 -6 -8 126 -6 -48 -30 -8 40 -16 -76 -68 32 -28 118 -46 44 6 -122 -30 20 -40 112 120 -12 -52 -12 -28 82 28 -28 12 26 -24 -16 0 -4 60 46 -36 -54 -32 52 -58 -64 34 58 -20 -2 40 -64 34 -78 -82 -18 2 -32 -110 22 -76 24 -20 -82 -6 58 -34 -22 -40 -8 40 24 8 58 -4 118 -64 -26 -48 -32 -26 -68 12 10 36 74 -24 4 -22 4 20 36 84 -78 102 -60 -16 -92 54 -12 -60 52 18 -36 84 -70 124 -16 -34 16 -104 102 26 12 -16 -114 -12 26 16 -40 -48 -50 34 32 -56 -26 -84 -10 20 52 86 -92 10 -52 -36 -22 
86 -10 -66 38 78 -40 -32 -118 -36 14 56 -24 58 -66 92 -60 -34 -20 22 110 6 -18 24 -38 -8 -110 -58 -44 -36 6 34 -18 60 120 -126 48 -24 -56 -26 32 -66 26 26 -124 88 -2 64 -26 46 72 -6 -46 10 -52 -14 -80 -22 56 88 -30 28 44 -40 20 -112 -96 -2 72 54 0 -44 -42 -6 48 4 -16 -68 122 -8 -8 -118 32 46 -108 -100 -48 -18 -16 48 -40 -56 -118 -6 -44 -30 -18 -54 -42 0 -96 52 -122 28 -8 -60 -116 -14 120 -12 -50 126 -44 2 10 -118 76 -40 50 -38 6 20 -112 -32 4 -16 -38 -126 -26 -2 -54 12 -2 -74 72 -54 -6 -62 2 -46 -28 -34 -16 -126 -58 26 -90 -12 18 72 -80 -124 -40 -4 -126 -42 36 12 28 62 -22 122 -36 14 94 -34 42 -56 62 8 -114 6 -60 -38 124 -6 -124 56 -100 30 -122 22 -112 -58 -40 -10 8 -48 8 -118 30 -94 -60 18 -32 0 10 110 -128 66 -16 100 -4 74 -124 10 -64 22 32 50 -60 18 -20 -114 20 -122 -44 -38 -58 124 72 -72 6 -118 44 26 42 -8 24 -60 78 60 -48 -36 -12 -36 -74 18 36 -54 -12 -36 -38 -30 -20 48 -32 18 -24 -26 34 -20 -32 -32 -72 -86 -32 -46 -44 -30 22 -98 -102 -46 122 -22 -52 -54 -120 -18 12 -72 -18 92 -14 -20 -88 -52 2 32 32 42 122 72 -122 36 -48 -22 40 -24 -22 126 -6 -44 -26 36 36 126 62 -56 72 46 82 36 62 -46 -122 16 -14 16 -48 -2 20 -32 28 -122 -30 30 -82 -6 6 -80 -36 26 -90 -76 104 -2 -20 24 36 -2 14 -110 96 -2 62 -54 68 20 -28 -118 24 -124 26 -24 10 -76 124 -54 -22 18 -8 -26 -118 -120 -88 -20 -42 -90 -122 -30 46 2 108 32 20 16 -44 -18 20 -36 -4 4 -110 60 30 46 -70 -64 64 0 46 50 -60 56 122 -8 54 -26 -48 86 -126 -6 -116 -18 12 120 -50 8 -112 -80 -40 -28 -84 80 70 34 -64 -2 -48 -14 2 -20 116 60 -4 58 -26 -34 30 24 46 44 -108 34 100 -30 26 -24 -122 -78 118 44 -116 -84 40 -52 54 2 30 -38 14 -50 -58 -4 10 -18 -6 -8 -30 122 126 -20 -76 0 12 -86 10 22 20 -82 -54 68 34 50 8 50 -126 62 -14 -88 -18 -100 -2 116 16 4 116 -34 -4 28 -30 90 -94 -20 -12 18 24 -26 -32 58 12 32 -124 -18 104 -38 114 4 42 72 -38 -44 10 20 8 -34 -30 -32 -40 4 46 
-20 42 -92 -26 14 -40 108 -126 -124 80 88 -52 26 -38 -20 -38 -122 -128 -86 124 -20 78 -114 -20 64 -2 118 0 50 20 -58 -18 26 26 -122 -114 -126 -4 120 50 -10 -16 -34 -124 -28 -126 -56 -28 -116 78 30 126 -62 -118 32 -20 -26 2 -82 -18 -74 -126 -6 82 46 -128 76 -122 -24 -28 -82 -20 20 126 -74 18 -8 56 -14 118 0 -128 -112 -124 16 -126 -78 42 36 -6 -122 48 -50 -2 98 -110 -6 -118 -122 -124 82 -126 -12 -116 -42 -126 -48 -22 -126 -126 -128 54 -16 -120 -82 92 -124 -42 -124 104 -56 -56 -70 -126 126 2 104 16 104 64 0 -122 -108 -48 -8 -126 32 -24 126 -116 -92 -68 62 -40 -20 -114 -22 14 102 64 -124 -126 -2 40 12 -126 -18 -126 -120 -52 4 20 -120 126 106 -26 -98 62 2 68 -34 -126 -70 -82 -126 -28 18 -14 -124 68 56 -126 94 76 -20 22 50 -56 -60 36 -128 -36 66 -72 -126 -126 -100 -72 -82 -40 50 -122 -126 -58 -28 -122 -110 -18 8 14 -36 -40 18 -34 -100 -48 8 -116 8 -104 -52 58 -102 -122 82 16 8 124 -60 -114 -120 -126 -126 -14 -128 78 72 6 50 52 118 -2 -58 -128 -70 -44 2 80 -110 -122 -124 -26 -30 -124 -84 60 -122 -34 -124 -118 -110 -126 12 -50 -126 24 8 -124 18 34 -126 42 -80 22 -84 -102 -54 -32 22 -108 -12 26 -2 122 -54 86 74 -76 -124 4 -84 12 126 10 8 -120 -76 -34 76 -36 -126 -126 -78 56 -126 34 54 -126 -28 -124 38 -126 -78 -6 -26 -32 26 -38 -32 32 22 -124 -128 -70 22 58 44 20 126 -62 10 -126 26 20 70 -44 -124 58 -126 6 126 40 44 126 -126 -100 -24 -118 16 -18 40 -122 -18 50 18 28 4 -28 -118 -128 -126 82 14 -36 -128 -12 50 122 10 -24 -122 -66 50 -82 -118 -12 -126 -106 48 -56 32 54 52 -122 56 120 124 -86 -124 44 -84 118 -38 24 94 -78 -10 -24 48 -22 -124 -14 32 -126 -124 -62 -124 -24 -122 94 -80 -126 102 -16 112 56 -126 -84 -32 -22 74 -56 -124 -124 -4 122 104 -60 -124 -126 6 -102 -56 -4 -120 -128 -58 58 -16 -54 -126 -110 -108 -12 44 16 -8 -22 -40 -116 -34 -116 -92 40 -46 -88 -56 -2 44 24 -68 88 -92 -8 -126 20 -48 126 -30 -46 -128 6 92 -114 -42 -18 -40 -40 -74 -2 -58 50 126 56 -48 4 -126 -70 44 108 -22 -128 -114 -96 -2 -74 -46 48 -126 84 60 -106 -122 14 24 -126 126 -120 -18 -4 16 -126 
-82 92 70 -80 -96 -16 2 44 -10 8 52 -16 -44 54 92 -2 46 -30 102 2 22 -44 76 -70 20 -10 72 30 4 84 0 50 -30 126 -116 2 -4 86 -100 102 40 34 82 -96 -14 -66 94 66 108 -18 110 112 26 80 22 -20 -64 94 -30 -108 -122 -8 60 -12 -44 -20 -18 34 10 66 18 44 -46 -114 -4 118 20 -56 2 4 -8 -122 8 -122 54 72 -4 -86 34 42 22 -4 -66 -34 -40 122 116 -4 0 -2 -112 100 -24 -58 40 16 -30 78 108 12 -16 -48 90 -64 -4 120 56 -12 8 18 82 62 -32 10 -108 30 94 0 0 -4 62 76 -86 -66 4 2 -16 98 -70 26 -10 -18 -52 16 94 100 88 -126 -58 20 66 -128 -116 24 24 -18 -42 40 36 116 -110 -76 -52 102 -52 28 -100 12 -40 -78 -124 96 118 124 12 50 -30 -32 -62 -54 -20 38 44 -24 -58 98 -14 122 68 110 32 -72 -2 -52 -126 -22 -40 -22 26 50 92 -54 4 -4 70 4 -16 66 -30 -94 -52 -80 54 12 56 84 -8 80 -8 110 118 80 -56 -56 -48 76 -34 66 30 -52 116 120 46 14 64 30 -14 124 -50 124 100 8 4 -74 -2 44 26 86 110 -30 -118 -18 -56 -76 18 80 -24 -12 -126 -98 -24 62 74 78 -28 64 -10 -122 -42 14 86 -36 -102 84 30 86 72 -44 108 62 -10 -72 108 -68 -114 122 28 -92 72 32 -2 124 -122 22 -46 12 -12 -64 4 -36 -50 36 -42 -16 110 72 116 56 84 -22 112 44 -18 26 32 -14 -20 48 38 114 -44 -6 126 -42 60 34 120 26 -46 -82 36 60 86 -16 -94 98 60 -38 -8 -18 -126 -2 60 46 -74 60 58 -38 -34 18 -66 -116 -8 -120 -4 78 -58 -14 -2 -52 -22 -40 0 38 122 -38 26 -112 -108 -88 74 22 -62 -68 -112 -20 68 -42 -40 44 52 10 124 4 -114 -78 -52 118 -32 -38 120 -14 -64 18 -14 -28 -98 92 -16 -114 2 118 44 68 -28 -124 118 124 24 104 42 70 -18 -90 -124 64 32 54 -96 -92 10 38 -46 2 40 36 -68 34 50 120 -40 118 118 -36 72 114 -92 2 -28 50 -58 112 -80 -36 126 122 38 24 20 -28 -120 16 -10 -36 -26 70 -106 54 -46 -60 -18 92 -116 -118 -40 76 -4 -126 32 64 46 86 -74 -20 -28 88 104 24 30 -74 -18 -14 -124 90 2 -26 66 120 4 -110 -20 18 8 98 -18 80 122 76 58 64 54 -36 -14 76 -28 -2 46 -82 -120 20 50 -36 
-56 0 14 -40 116 -6 -66 -20 26 26 -12 -22 -26 -78 112 36 -28 96 -62 8 6 -24 -4 -54 6 16 -2 6 -44 8 -34 52 72 124 16 -2 32 -38 -86 -44 38 -2 -24 -78 -6 -14 66 14 -50 24 112 92 118 42 -16 -26 -90 40 -116 -2 -6 -12 90 6 -30 -58 -34 80 28 6 28 -52 -42 -122 -2 -40 -4 8 48 32 98 -58 -84 -58 12 -38 -22 42 -28 -64 -36 -52 44 -78 8 -40 -18 -52 0 14 6 -120 18 36 34 -8 -124 -42 -72 -96 86 2 6 -6 -118 22 -96 72 -26 -62 58 108 -22 96 -60 6 -48 -38 78 22 -86 -66 -96 48 12 14 -58 16 90 72 126 106 38 42 -30 -28 2 4 -32 2 -60 -70 6 42 -38 -72 -24 -64 -6 -88 42 -16 -28 -2 94 -40 -94 -46 -94 -44 -90 -34 126 -26 -104 -72 74 18 48 -20 124 -22 -54 42 -20 -2 -58 126 -62 26 -100 50 52 -100 122 -96 -82 46 92 -56 -68 -6 -110 -14 -36 -42 26 -4 -6 24 -4 -78 86 -22 -10 -82 -16 -52 104 10 -12 -66 -118 -76 -26 -4 50 -32 30 -120 -106 -4 -18 18 -34 30 -98 82 22 28 -80 72 -6 -4 116 -32 -82 76 -60 54 -30 4 -8 -68 -42 18 86 -64 -14 116 -70 50 30 -36 -10 64 -52 126 -24 -74 -16 -106 -32 -26 -36 -32 40 16 8 8 -8 98 92 -58 -114 2 38 48 -32 56 -28 -64 84 -6 54 24 -26 26 26 18 -90 -88 14 16 10 -36 -10 28 8 -20 120 -92 62 -52 -64 -52 -44 -122 -104 44 -12 -2 -120 38 52 -18 6 8 -78 14 32 6 82 -62 24 12 -2 -58 -22 10 -90 8 -30 126 -26 4 -28 -34 48 0 -24 90 -72 108 78 38 -30 98 -66 -54 -12 -24 42 50 -38 68 -26 36 -74 -98 -16 -98 -56 124 -2 -52 14 48 -4 50 -74 -60 0 -10 -8 -104 -120 -46 4 -2 118 -118 -6 -110 24 26 -118 -18 -10 -46 8 -4 -22 -60 -100 -118 -8 84 2 -20 58 -56 -2 100 22 -26 42 -20 -30 -88 -46 18 -26 88 -6 -24 18 22 92 24 26 -88 30 -96 18 34 -56 44 -26 -22 -26 114 8 14 46 -52 -86 36 34 18 -18 16 -14 12 -12 94 -32 -50 102 4 42 40 -22 16 -110 78 0 -126 -78 -120 -12 -90 -46 -68 -8 124 -92 90 -38 110 -56 96 -48 -34 18 30 102 50 32 20 -30 26 -76 -128 58 -54 30 76 -44 -68 4 32 54 -6 30 22 -46 90 -118 -126 62 -4 
-78 66 38 22 -98 62 22 48 12 18 -4 0 118 -98 -34 -86 54 122 -42 -22 -54 44 54 -4 12 -120 -22 8 -26 -22 4 -20 -64 -126 -126 74 32 0 80 -80 -122 -116 -26 -118 28 78 -26 66 -88 10 24 -126 -34 -86 -100 20 0 -126 -96 0 8 20 -74 36 -80 2 -34 52 -44 -126 -56 8 -20 -4 -34 -8 4 92 -128 -124 -108 122 -22 68 -24 30 30 -12 -78 -14 2 -126 8 -42 12 50 12 98 26 -12 6 94 58 50 -6 -26 124 6 -52 -36 66 40 48 78 -126 -4 -14 -26 -110 -70 -74 12 28 4 -38 42 -76 -42 -58 52 -46 22 50 -108 72 22 -20 -28 68 -22 30 34 -64 -22 10 -122 32 -52 -14 -76 -30 24 -16 54 -48 122 26 24 60 70 36 -42 56 10 -10 -38 120 -36 116 10 66 20 36 -70 44 -52 -86 20 30 84 -70 -20 20 -98 62 -22 -30 -128 -58 -28 -126 86 12 20 -110 2 74 -56 -38 -6 112 -16 96 24 30 -56 10 -24 52 56 -46 -122 -18 32 -78 14 26 -10 -120 42 32 30 -118 -60 2 -2 -86 38 14 86 68 -6 16 -4 58 14 6 -126 100 -22 72 -44 -24 62 -92 16 -128 -114 122 76 -96 -20 60 -2 10 -30 38 114 -60 0 114 -12 -56 2 64 -12 -22 14 6 8 34 92 -48 -50 14 -52 -124 8 -120 -48 -14 -98 54 -126 -48 24 -94 -2 -94 -122 -10 -6 34 -2 -6 74 44 -26 -30 -14 46 22 0 -42 12 2 8 12 -126 8 -102 -124 -30 2 14 36 40 124 104 -12 124 -124 126 20 -50 -34 -24 -10 -42 2 -126 96 -42 -38 -38 -76 -40 0 70 -84 -28 -2 -52 -126 -44 -4 -46 18 -28 92 106 -18 -42 62 -110 54 8 -56 -80 122 -10 2 30 -52 10 30 -104 -26 46 58 -16 114 -14 -106 6 6 122 42 -28 -4 -40 18 8 -64 -90 56 4 -38 -8 -104 -56 118 10 98 -46 -6 -18 36 120 -14 -114 14 56 -4 102 64 6 -8 -22 -56 62 28 -24 -12 76 -32 -16 30 62 74 76 -18 -110 82 -110 -44 20 -74 26 126 72 -122 46 6 -24 -48 -34 18 0 62 40 -32 10 -30 -120 -34 48 -58 14 12 26 98 34 -40 42 -4 40 -42 -26 -64 -126 -24 30 -50 -34 -26 -34 -108 54 -14 28 -114 46 112 -94 -128 102 -116 -8 6 -6 52 -2 -80 -8 6 -86 120 48 -24 -74 44 16 26 -12 -12 14 0 -16 82 -18 -38 -44 -24 -76 -22 -4 -6 -20 100 -118 -16 
-74 4 18 -54 98 6 -68 -126 -124 -82 -128 106 -52 -40 10 52 34 -118 -46 10 -120 14 6 -12 12 38 -22 20 -80 -16 -124 94 26 40 -124 -122 62 22 -18 -124 82 -94 -122 -102 -38 -34 78 16 -66 26 92 -22 -116 -126 54 -18 -78 -74 -44 -50 -32 -126 -8 -124 -14 -126 0 -42 -78 -10 -16 32 118 -108 6 20 -62 -62 -92 32 72 56 -28 30 46 122 -40 70 -8 4 38 38 2 12 -112 -70 28 -10 -104 124 -120 36 126 -100 -24 118 -18 -34 -48 -22 102 -36 -8 -100 -24 -18 -18 -50 -78 -8 -12 46 -74 62 122 68 120 28 -120 -2 -74 34 0 -80 -46 -120 -26 -2 -60 116 54 0 -76 56 52 -6 -44 32 4 -86 -16 -80 -18 -26 48 126 70 -126 -38 38 86 -86 16 58 16 66 30 -40 -78 48 -86 124 -78 20 -28 -4 98 -60 -124 94 120 12 -110 68 -36 -26 86 -26 76 94 -116 124 66 -50 124 -52 10 24 84 120 18 -4 0 0 -42 80 -84 22 18 -18 26 114 102 74 68 -28 -54 -102 -66 -4 -44 88 44 -122 122 78 -64 -100 4 -110 -110 -34 8 -74 126 -4 -16 66 -30 40 124 -122 -64 -88 -18 126 16 34 86 -48 -126 -124 -74 -48 80 -102 -38 -16 -104 -50 -80 -66 -44 -24 112 -92 76 -10 -4 -34 120 -56 58 68 -52 -122 92 -10 -84 4 -126 64 24 -12 44 32 -16 -80 44 -28 -4 -56 -40 -42 20 -82 -98 30 -102 16 98 -124 -92 -50 126 56 -128 66 -80 116 124 68 26 2 -96 -12 44 -22 88 -120 -68 12 -122 112 50 -28 58 -16 32 8 66 112 -4 -126 34 -128 -126 -70 32 -114 92 86 -26 -54 -20 -110 30 -34 -98 126 82 -62 -6 -66 68 -92 14 -10 -124 32 -126 10 -60 118 124 -126 -64 58 -124 -128 -118 -114 2 126 34 -6 -36 96 52 52 34 96 16 30 52 -122 -20 62 120 -76 40 -92 -124 40 -90 52 -92 -22 -66 110 54 30 50 -38 -38 -12 90 -36 -126 58 112 -38 -18 26 60 -16 44 -72 -124 -22 -84 -82 28 8 -108 -72 -68 -62 100 -100 -82 -126 -24 -12 126 76 22 -14 -88 -20 6 20 -114 32 -112 -126 -106 -20 126 -30 48 -8 -126 -6 118 -6 -20 -46 32 -122 112 -10 94 26 -46 -16 114 -44 -6 -122 -48 72 32 -124 94 14 98 18 -20 100 62 -40 -10 16 74 54 -114 -32 -70 56 14 94 -96 -24 -8 -36 6 0 -110 -34 -84 -52 -126 24 64 30 -96 56 24 42 -76 -126 
14 -40 54 20 -122 -40 40 -100 -36 2 2 12 28 -56 -8 -24 74 -10 -18 28 -12 -18 -8 -4 -20 -124 44 76 70 0 -70 -42 -18 52 24 66 -26 -24 126 -82 126 -18 -16 -126 -6 6 -40 -16 66 46 -28 34 -14 46 118 -90 -124 -58 40 36 -4 -34 -120 70 -8 82 -40 -46 28 -128 -18 -36 -50 -60 -16 56 -20 -28 124 60 4 -86 26 -64 -8 10 -10 -28 2 -32 -12 -74 -16 80 8 2 -122 -112 -32 -64 24 58 -12 26 14 -40 38 14 40 -42 -40 0 50 -10 -14 -32 -16 -92 20 0 18 -52 2 26 -44 86 -22 -36 -104 0 48 -4 58 -44 2 -8 -20 8 -36 -18 -20 34 16 -110 34 -110 -50 44 -18 6 28 26 22 -82 -108 -32 -2 -18 40 -2 -30 76 4 -106 40 -118 22 -56 48 126 -124 -48 30 120 -16 2 54 54 -2 88 -110 76 -46 114 -6 -64 -6 122 -86 -84 -20 100 -16 56 -88 34 -50 20 12 34 -22 -40 30 -78 122 40 20 22 -60 -48 -22 -62 36 24 -34 30 24 28 50 -46 6 58 -94 -4 -14 -12 22 10 38 -90 64 -6 -26 64 -4 -64 46 48 20 -30 -118 108 6 -116 64 34 -6 36 112 -36 -38 86 58 -48 108 42 62 66 32 -72 46 -52 18 -36 -2 -48 -40 46 14 -6 22 -36 64 22 6 20 56 -26 62 -10 36 -20 -122 68 -10 -54 -90 10 -114 56 14 -26 -126 4 112 60 26 64 -44 -122 48 28 -54 -54 12 36 48 14 40 28 84 -126 32 -14 102 -46 26 -126 108 -8 -96 26 -60 -84 -82 -28 -50 -20 -90 4 126 -104 -68 -4 -126 -44 -6 18 -102 -12 -22 -18 8 30 -124 -122 60 -50 48 -26 -68 14 26 -22 -120 -6 -96 110 -14 -120 -20 40 -14 -14 -4 6 -90 64 20 6 -46 -6 28 -76 0 2 -74 26 -32 28 22 2 10 36 6 88 -26 -4 -36 -72 -68 -126 8 46 34 70 64 0 -50 56 -26 -38 -12 -36 40 120 -114 -32 -64 32 74 20 -56 -46 -12 -26 -12 -14 6 42 -104 -10 -30 46 36 42 -108 -36 -22 126 58 -42 -40 50 -126 0 -32 -122 42 -118 20 58 -6 20 -18 -86 -34 116 66 26 -30 28 -88 38 68 -112 -120 18 46 -42 -120 -90 46 8 36 -58 -28 -126 -72 16 -22 -10 46 -16 -6 46 -20 120 -6 46 -12 -10 -36 54 50 48 -44 58 -48 -32 -30 70 76 -116 -58 -26 26 36 -70 -78 -40 58 20 -14 -26 12 -4 14 -104 110 -114 14 
-90 116 -22 44 -2 -10 100 20 84 88 12 98 -28 -30 4 106 20 -44 70 -30 54 92 40 126 -10 -44 60 66 120 92 124 52 -40 -16 -32 -2 -22 -64 -8 -30 112 108 46 -42 22 -82 48 -32 -12 32 40 120 30 -6 -18 32 40 84 68 -122 40 24 -118 64 -12 -14 -80 44 106 -68 56 -86 -50 92 -42 64 30 120 8 6 46 -30 118 -76 92 96 116 16 -76 88 -24 10 -124 76 76 102 -20 10 36 -120 -100 106 -112 -12 -18 -30 0 88 96 -38 28 66 -116 86 122 -30 86 -60 82 76 112 -46 52 -66 96 86 6 88 0 -66 118 48 88 102 118 48 88 106 -72 -2 68 -20 12 120 8 -106 82 -128 96 2 28 -26 -110 84 -42 -86 -60 22 8 50 28 0 32 50 110 -50 12 54 18 98 -64 110 34 -44 -50 -88 -34 28 -102 22 -54 80 124 -122 38 -32 12 118 88 92 80 -118 22 -46 -8 -20 112 -118 124 -82 42 48 -72 126 38 64 -14 22 36 -18 16 14 110 46 114 -30 -32 86 116 -42 104 92 90 -110 16 120 50 40 20 -86 50 -12 -50 0 112 118 38 114 -104 62 20 42 26 32 114 64 98 76 118 -108 -48 22 72 -106 -6 118 44 2 -98 126 30 40 100 120 50 0 124 -6 58 -52 -12 -12 96 92 -62 92 26 -8 60 104 -8 84 -94 126 -22 120 18 112 36 -46 78 126 124 116 94 120 -50 -118 46 -46 70 30 -34 104 38 62 100 102 18 -42 98 110 98 50 56 -4 26 -74 116 52 122 -42 108 50 -58 106 90 -84 -8 -18 110 58 -78 6 -112 -40 -28 18 -36 116 118 68 6 50 -68 44 120 96 -12 28 66 0 40 126 -30 80 36 68 -62 38 -32 -18 82 -114 62 -56 -56 -116 6 44 26 34 -58 -64 22 64 -26 -64 52 -46 82 110 -18 -26 -18 122 86 16 6 -106 -28 100 -18 24 -46 -48 -22 108 -32 68 76 118 98 108 78 116 100 32 -68 2 -16 110 98 -78 -6 56 96 68 94 112 56 -26 -72 -4 30 -96 122 -16 102 0 22 92 36 18 54 68 118 -42 -10 28 10 118 -72 42 -42 72 -72 22 120 -6 40 2 38 -88 -62 -78 48 18 124 -126 -98 50 12 -4 104 -58 -100 120 50 42 38 72 -22 46 -16 126 102 126 120 -16 68 -116 12 118 96 64 -72 112 -38 114 -24 126 56 -102 58 114 64 -44 -28 104 48 38 -8 94 120 -10 44 14 56 122 -78 42 
-70 28 -12 24 -44 126 74 78 -76 -4 -16 -18 38 30 -100 50 40 70 112 88 -4 -28 -72 108 -28 -66 -56 -14 18 -8 14 44 30 -124 124 -2 -32 2 -94 -86 -124 76 120 14 -28 36 68 82 -26 64 -126 12 -58 -18 -68 16 66 32 124 -26 54 -8 -116 -42 92 62 -118 -44 -30 120 -96 -32 -86 -118 26 -98 64 -42 58 16 14 122 122 6 94 76 34 96 6 -22 -50 -44 -16 66 -38 -38 -54 126 54 26 76 -122 124 -40 -12 122 24 84 104 126 120 2 -38 70 124 -100 32 -76 122 34 100 62 2 78 124 -38 -20 -98 22 4 62 -2 38 56 112 -28 36 24 -46 82 106 0 60 -46 38 -4 0 40 14 94 32 124 -48 66 6 -98 -70 106 106 40 -124 -20 -26 -116 -32 -50 10 60 -126 34 120 18 118 -50 28 -94 -48 56 2 -122 -50 40 -8 -70 44 -70 22 -122 0 -18 8 -102 -18 18 118 -24 -34 26 114 -60 104 -36 -24 54 -80 98 62 4 38 -6 -14 24 -16 -40 20 30 -2 -34 -90 -32 36 28 124 42 4 86 116 -26 12 6 4 118 -84 -104 -58 0 22 76 -6 30 -118 -34 -44 112 -124 -98 122 -56 70 4 14 48 30 20 -78 18 102 42 50 -64 114 40 -36 8 0 24 -46 88 -124 34 2 116 126 -66 54 88 -44 42 40 66 48 124 -122 -4 40 -22 -60 -12 80 46 -26 16 -126 116 28 24 -124 -16 -20 -24 58 -2 64 14 8 126 26 -8 -72 54 -92 126 -10 -10 -58 -40 -98 110 -68 -66 16 62 52 -36 22 46 -28 -116 -116 52 14 62 14 48 40 -8 -32 -32 -20 -106 -80 54 60 -70 -6 36 28 -24 56 94 70 110 0 -114 -50 30 8 -42 36 62 -8 4 6 -88 86 26 78 -70 78 -10 30 38 -8 -22 100 68 34 -56 26 -8 26 0 -34 -26 -12 -126 126 126 86 32 -126 -100 -10 -4 -6 50 122 -30 -32 56 116 4 106 -76 38 74 -34 -80 -16 14 -6 -8 52 -18 114 -122 66 -38 38 80 118 -50 42 58 112 2 -16 122 64 -26 -124 124 26 84 46 6 112 36 16 114 48 70 -88 72 18 -58 0 14 -22 -54 -124 116 88 36 -74 -122 -66 42 -114 -62 0 24 -44 -4 42 -4 60 -124 -56 104 10 38 126 0 88 -20 30 -120 26 -122 102 -94 -10 82 -10 -16 54 -112 -54 -86 46 -4 86 -30 -2 -26 12 -122 -70 -12 4 -114 78 122 -38 -52 -2 52 122 82 96 22 
126 110 -62 66 -104 94 36 124 -116 -78 -126 -60 84 68 -50 -26 38 -16 -52 -72 -38 18 -16 -110 -48 -44 -92 -74 -80 -58 -42 48 44 26 110 66 -66 -16 -86 -48 -106 -24 -18 56 -48 10 -32 82 110 18 -58 -10 -72 74 -88 44 100 -92 32 114 30 -42 -4 34 -54 -126 36 120 -122 -58 -120 42 50 -52 -24 -40 62 -84 10 -88 58 42 -126 -38 -96 -36 52 -104 74 -8 42 -82 68 -88 -28 -80 -122 0 -90 -28 -10 -54 -104 44 64 -126 20 -74 -124 94 106 -56 -110 -90 -46 90 -126 20 -74 -128 -30 46 120 -16 -126 20 -104 60 56 20 -20 -54 58 -100 -104 4 -114 -18 70 76 84 30 -4 -108 -92 42 -114 -32 -24 -16 -74 -10 104 28 -22 -122 -48 82 -118 -124 4 36 48 80 -26 -52 14 -126 0 -34 -108 20 58 48 -66 -2 -102 -72 -48 -76 46 -30 -126 6 -50 14 -48 -30 -108 -50 -126 30 -6 76 -34 6 -28 26 -118 50 14 44 -48 116 46 -116 -26 -16 14 80 86 -8 -124 112 -6 -34 36 70 -64 -56 -128 -66 18 8 -42 20 -66 -104 -22 48 -60 -2 -112 14 0 -78 58 -58 84 -30 -46 54 -90 -6 16 10 -30 -44 84 102 -50 28 -94 -30 108 -20 82 -36 12 -46 -64 -28 28 -124 98 -66 -100 26 26 -62 -50 -18 -122 36 -122 56 38 38 70 -48 -64 -86 22 -40 92 78 -80 -2 -28 114 22 -122 -80 54 -102 -126 72 118 -46 -12 32 -62 -28 12 64 -80 -52 26 -40 -40 26 -124 10 -68 110 -20 88 -24 -6 -46 20 2 -124 38 -8 -56 -26 -52 -40 -20 -4 -2 32 -110 -44 -118 -12 -16 84 114 -30 -4 -42 -32 -116 54 -114 -120 84 -96 -22 22 -92 44 64 -108 -28 30 4 -92 116 78 50 -20 22 -86 -18 -12 62 -34 -40 -2 36 28 -10 -68 -124 54 6 78 -44 -28 -100 54 16 -126 10 20 20 -8 52 -128 -106 6 -120 -120 -58 -124 6 -50 26 20 -36 -90 -128 -76 -86 82 -14 20 60 24 92 66 6 -74 -88 -10 92 -118 -110 32 14 2 -84 78 -60 -58 -38 -50 -12 -128 8 -36 -112 -124 -36 -116 -70 26 6 -82 6 -96 -84 -110 -70 54 -90 82 -32 -122 -20 28 42 18 4 -118 -16 -74 -92 12 8 74 48 -36 -26 -68 -44 36 60 36 -60 -82 -78 -100 98 -28 -14 -124 -124 26 -112 -60 -122 -64 72 -4 8 -34 36 -22 38 88 30 -86 56 -44 114 80 -100 26 96 -94 -20 -40 -36 30 -94 -10 -34 14 
126 16 -22 32 -8 -122 120 2 -40 -8 82 46 -10 82 -62 -100 -50 122 -122 -116 86 58 -110 72 28 -56 -60 -10 -70 28 62 -40 32 -64 2 10 -100 -112 6 -12 -24 62 14 126 16 -22 -120 -92 110 -12 124 -128 124 -52 6 52 20 -126 -56 6 104 46 54 90 40 26 -124 24 74 96 8 122 -122 -126 72 126 -26 -74 52 52 20 -112 70 -10 78 34 -4 -126 12 72 -30 -64 -98 -8 58 -26 4 -32 20 16 -68 126 -10 -48 -82 110 -56 126 70 -118 -122 -76 30 -126 124 104 -66 54 76 18 52 -100 -10 -54 -110 -34 -124 -8 -20 -24 -6 32 -92 -126 -118 -118 -36 -16 -64 -62 -48 46 -62 -16 -76 114 -16 -126 -36 14 -8 112 -38 124 -126 -20 -104 -116 78 -70 124 -112 26 116 24 -16 70 46 -18 -6 -58 -22 16 124 -102 30 -48 118 -44 -122 50 -128 -4 -122 -110 44 112 24 46 -114 -114 88 4 122 -128 114 -72 -128 -22 -2 -24 -12 126 -60 42 -126 36 8 -18 58 26 -18 -116 -74 108 18 28 74 -124 56 -42 -126 -124 126 -94 80 -74 -18 6 -114 48 16 -40 68 118 6 -44 116 -114 -114 50 -110 64 122 -108 -44 -60 -126 -34 -28 94 64 20 -124 -100 -26 112 70 -46 -100 -90 120 32 -16 40 40 -46 -58 62 14 -32 88 2 86 -4 122 58 -32 -4 124 0 -50 -126 -36 -26 82 58 -124 124 48 2 -82 -96 -4 -120 12 20 -38 20 -60 58 -6 54 14 8 118 20 0 -90 -18 -12 56 -126 2 -48 18 -54 -112 46 122 -22 -112 44 0 70 -124 -6 108 118 22 88 -56 98 -124 82 -92 10 -22 124 26 110 -28 126 -70 -124 126 44 -82 -34 34 -86 122 -66 126 102 -36 -74 92 120 -26 124 -20 6 124 124 10 78 -6 4 24 120 -10 -60 120 -126 -40 74 98 -72 -126 98 -126 -126 90 64 -54 -28 -126 58 34 20 36 -6 -124 46 -32 -120 -124 -112 -122 -48 30 56 100 -62 100 100 50 116 118 -26 116 -38 -122 -124 126 -16 14 -70 76 -94 -100 34 -86 -54 110 -122 -114 -86 34 -6 -126 72 -126 48 126 86 8 -2 94 -28 -6 -68 54 66 -100 126 -2 -120 -32 -120 116 -128 28 -100 -14 24 -14 -26 98 34 -32 30 -2 72 124 40 -126 124 8 112 -6 56 -14 -118 114 -102 118 -108 -26 -82 84 20 12 90 -40 62 58 -60 -120 90 -126 116 48 -40 -30 12 -126 32 -50 98 -128 38 68 -118 -64 -28 -36 -128 -72 74 90 
68 16 -118 -26 -64 30 92 110 98 14 126 -62 126 -26 -32 -78 0 124 -60 26 60 -36 8 0 -76 -102 -42 68 120 26 -54 4 4 -28 2 -12 58 -74 -38 -44 122 116 -124 48 20 102 34 -2 -4 -22 -4 -46 -94 -30 -104 -68 -22 -82 64 -62 -16 -78 -26 82 -80 -24 -20 -6 -48 96 -38 70 -42 -40 -12 58 -50 -56 118 -68 122 62 52 -4 52 -36 52 -20 118 118 -124 -58 82 -68 34 -54 -118 -70 -22 126 -46 64 -126 68 72 86 24 16 90 -78 60 -20 -28 -88 16 -82 34 -88 4 -32 106 -20 120 -126 -122 124 -120 -26 -122 -26 12 -40 -36 30 -60 118 -122 -8 -124 -88 -60 -70 76 -106 -94 -54 0 54 -44 14 -88 18 -26 82 102 34 2 -42 -128 -18 48 -40 -40 6 -36 54 -52 10 14 4 58 -28 4 74 38 -68 -22 -16 -106 64 2 -124 0 -114 54 76 2 126 -104 -12 -26 52 12 18 42 -86 52 -126 -28 4 126 -34 30 66 22 -116 10 -24 0 16 -106 -108 -32 -24 -22 68 -10 98 -26 16 2 -62 -48 -128 -36 -66 -2 46 28 -22 116 80 -60 72 -110 4 -32 126 -34 -46 14 -44 18 20 26 36 -30 -74 -126 22 80 -38 16 4 -16 -110 122 -122 8 74 -32 92 -30 -80 14 90 -40 68 -64 -16 -10 -40 -58 -48 -62 6 16 10 -2 -60 -70 -2 6 -128 10 -126 -30 -34 66 -36 -36 -126 122 16 8 0 90 -18 46 -86 -56 44 -66 48 -100 -50 4 90 -110 92 -54 22 34 -90 26 42 68 -124 -126 44 124 32 -72 -4 6 10 -124 34 -128 -60 126 116 44 -44 30 26 -12 34 16 -28 126 -22 -50 60 32 120 -40 -124 -126 90 -60 44 -50 -12 -76 54 -126 10 -128 28 86 -14 -26 -24 -14 30 124 -98 -16 0 2 -116 28 16 -44 -90 86 -26 -4 -32 -126 24 8 54 -38 108 10 10 38 48 48 122 -108 -26 28 -6 14 -50 -80 -74 -110 14 -22 -14 14 16 -60 26 -36 -64 -66 -36 -46 0 -52 50 -8 -2 -44 58 -124 -2 -124 76 0 -86 -26 -38 -10 -12 22 -128 -58 -108 96 -38 -18 34 -126 -30 -76 44 92 126 54 -6 -8 54 -8 -20 126 -68 -16 2 -108 -128 6 112 90 -114 8 -46 -126 -2 122 78 -96 88 114 42 -6 -4 40 -14 -44 -84 16 -116 -124 -52 38 -22 122 -48 66 84 -58 124 -58 -8 -54 -128 -6 6 -58 100 -4 46 -124 0 2 -20 72 -28 -36 30 -52 -10 -122 80 110 -18 
-36 56 44 20 -16 22 56 2 -42 76 -20 0 -56 66 -120 -18 38 122 116 98 -2 26 22 32 4 4 38 -46 102 18 30 -44 22 0 -56 -6 12 0 -16 -54 -24 22 58 20 -128 20 -96 -122 56 -50 -118 -60 20 124 -46 122 -58 52 90 -48 -6 50 52 18 70 52 -124 -124 54 22 40 -38 -124 -38 -30 -122 40 -112 4 -114 -10 -22 -16 48 8 28 22 -40 10 56 22 34 -36 64 -6 74 -24 16 -52 80 104 72 -40 48 -26 126 4 -42 -118 -38 80 92 42 44 -80 -44 -90 -28 -66 -58 82 -84 52 54 32 14 66 -28 78 -42 72 -14 44 6 -42 40 38 -126 -66 28 -28 -82 -92 -22 26 38 120 -108 52 -110 -42 -54 -66 -126 46 -104 -120 120 -64 118 -126 -28 52 12 22 -34 6 -26 -74 48 -96 -102 -128 78 6 120 92 6 98 -60 26 -40 22 -110 62 64 124 34 36 -14 120 -28 -8 0 -124 16 -38 -54 86 -34 -48 -116 -34 38 -44 124 -126 94 94 24 126 92 62 62 52 48 -118 112 16 54 120 -64 62 74 16 16 -80 38 38 48 -52 30 32 70 -2 -16 104 6 124 -20 -6 108 -34 50 -124 52 50 122 120 -56 42 -118 -38 -8 82 58 98 -22 110 -124 6 34 68 38 -122 4 82 -126 -120 76 108 28 -104 -4 -50 26 116 32 -10 38 44 -94 38 22 -30 30 -100 -78 124 6 -40 30 -44 -78 52 -32 -102 -32 86 86 12 0 -36 -34 36 126 62 42 110 8 -30 112 -72 80 48 92 -124 76 -14 -126 70 -30 -126 -112 116 52 -8 -86 -12 114 26 126 -34 -26 -22 60 22 -16 -34 74 -128 30 74 60 -30 -30 26 -126 -30 -10 -14 70 -16 -38 -2 48 56 -66 28 -46 48 -32 6 -78 -92 -30 50 34 72 -118 44 -10 -24 28 -94 28 120 -68 114 -122 12 -32 -20 -52 -82 -128 122 -54 6 0 -96 -6 34 120 96 -60 56 16 44 -42 -30 -8 -12 -108 120 -122 22 44 12 34 62 -52 -34 -114 58 -124 122 -46 -70 108 104 -118 -12 30 -2 -94 -52 -12 -22 -8 -128 8 -114 -6 126 -124 10 -18 74 62 0 -126 -36 90 56 118 112 -16 14 -40 -84 78 56 -20 -84 0 -88 -60 -46 68 -52 124 -122 -56 80 66 -40 -14 -84 -10 -122 120 46 86 -32 -112 -58 34 44 -50 -8 -102 -66 112 -44 116 -30 -16 16 122 78 34 -26 126 30 -124 -74 -52 -14 -20 -70 18 60 -60 -44 -128 -46 -34 58 56 -34 -18 
-98 92 -16 30 106 6 -14 122 26 124 120 -18 90 118 16 120 -122 -14 102 80 120 -96 44 -122 122 18 -12 112 74 114 16 22 80 18 -90 124 30 10 126 122 -8 56 -10 122 -58 22 124 46 18 14 120 96 10 126 -104 -128 114 96 52 118 110 48 34 -12 -10 40 42 78 86 -120 114 -44 -124 -86 124 76 -44 -34 52 48 124 46 86 66 126 68 2 118 116 112 82 88 -8 88 -14 84 126 70 98 124 96 28 124 -50 44 70 124 122 90 -54 66 122 126 54 70 -110 -128 80 126 -124 104 -20 124 -14 -12 -122 84 -74 12 124 54 -106 120 -58 80 -36 126 -90 124 -50 44 -126 126 -32 126 -74 126 124 116 -126 122 -126 98 120 72 72 30 118 122 -122 -14 -26 100 126 120 60 30 -60 124 108 108 6 -68 8 126 36 12 126 122 124 50 82 -128 -100 118 -36 66 66 54 -44 118 50 -118 -120 2 124 -64 -80 -64 -22 -22 -18 124 32 0 126 8 120 -22 126 114 104 102 -98 94 62 60 82 68 126 126 12 88 102 -26 -106 122 16 -124 -38 6 112 96 40 14 -112 -60 118 50 92 44 42 126 64 102 8 124 42 20 8 126 8 120 -72 36 112 30 110 108 -38 -4 92 124 -6 32 112 10 -62 114 -8 124 -2 54 124 -22 126 40 74 126 118 2 -72 62 120 -16 26 122 46 52 6 -126 126 -128 126 -36 8 -96 82 74 56 -24 -52 56 -46 62 124 110 112 50 86 34 124 116 20 98 -50 126 22 120 -44 14 28 126 14 98 34 124 34 -86 124 32 -8 104 62 90 62 126 -88 2 -4 -122 -124 126 82 44 26 124 -94 112 82 54 10 124 122 120 12 122 126 54 -10 72 -122 -48 116 -12 36 124 -126 124 122 126 18 100 -28 28 28 124 -34 20 -18 124 124 124 116 32 -90 126 -120 116 -14 -2 -128 36 58 92 124 4 76 46 44 92 124 -110 -18 -128 26 76 80 126 -6 -92 122 122 54 112 118 64 124 92 70 78 46 42 122 122 60 118 44 122 64 -22 -128 26 -14 -120 124 50 108 -26 126 50 4 122 120 -122 116 -28 54 64 44 -2 -86 -12 -62 -104 -48 112 28 72 50 118 68 -124 -20 -78 70 96 -126 126 -48 -18 -46 50 50 126 126 60 12 -82 84 -126 108 -124 122 -126 100 -44 100 -36 -8 -120 -34 124 68 100 12 -54 38 -62 126 8 -34 124 -102 126 20 80 -68 -106 118 124 126 
34 -6 18 -48 -66 -64 -126 42 124 -70 -104 -26 46 70 32 -16 62 124 112 -82 88 -38 36 28 36 -52 36 -112 -70 -20 8 -94 -2 -108 76 52 80 -64 4 -56 -2 78 -82 90 22 48 18 -126 28 -106 62 126 34 76 70 50 18 56 28 -66 -10 64 24 66 -82 -32 108 -92 30 -16 60 38 -104 126 126 112 18 -14 50 90 -28 -104 78 120 -4 124 2 34 -86 18 124 48 20 -118 72 0 78 46 70 -80 -128 66 124 -60 16 126 -36 -62 108 16 -8 100 -28 -12 -28 58 -68 42 -94 56 60 -74 -60 -8 -6 10 -34 -6 88 18 56 -116 38 -44 -124 34 -124 -26 56 -84 66 112 -16 16 4 68 -86 20 -42 -126 126 58 -26 102 -66 16 90 -124 -42 70 -40 38 88 42 42 -46 68 70 -12 -36 30 16 100 -14 -52 -6 -122 124 80 -88 -26 88 84 14 4 -28 -28 -62 -12 76 126 82 -118 28 118 -96 10 -122 -18 -124 38 -26 -72 8 -10 -6 122 -24 50 -58 42 -16 26 14 24 6 -20 -24 18 -128 14 12 -114 -66 -110 38 -62 16 116 -14 124 98 66 56 126 -42 -96 -26 40 2 46 58 36 56 38 -68 -124 10 -32 22 -20 20 90 -124 58 -36 -36 -90 8 -64 -124 126 50 14 2 58 6 -6 -4 -26 124 -64 2 84 -24 -14 -24 8 -2 116 4 -74 24 2 -44 -10 -114 -100 -114 68 114 -8 126 -32 -124 114 -40 -28 122 18 -60 64 60 -22 -106 -58 -118 -110 -124 102 -8 30 8 14 56 56 70 -28 42 90 68 94 -54 -4 -46 -36 34 48 -22 -46 -22 -30 40 -10 -28 -28 -68 -24 96 48 50 -66 30 -16 12 108 10 -104 72 12 8 -28 10 34 -118 -30 8 96 -42 54 -116 20 -38 38 10 -18 84 126 124 8 -96 22 68 20 -20 12 -34 46 124 54 56 -70 -8 48 84 70 -120 -46 94 10 82 74 12 4 -14 6 94 -86 40 -70 108 26 -4 -64 -72 -60 -116 -48 -14 14 -14 56 10 70 -4 -52 28 56 -24 -54 124 24 -122 122 -94 -124 76 -74 88 118 -12 -24 18 112 96 126 -10 -18 -38 -50 -2 -34 38 56 -6 50 -122 -18 -76 6 74 22 20 30 -10 -38 122 -20 14 92 110 -90 40 -12 12 40 -12 106 46 114 106 48 2 -28 -8 12 -58 22 50 106 -124 42 -124 4 66 24 32 -94 30 -32 -72 120 -30 68 50 8 -12 -64 120 24 -126 -124 70 28 -68 38 -114 30 -28 86 -14 -14 
-114 -60 -120 -128 -122 126 -2 78 60 20 122 86 -124 114 48 52 66 -120 -100 -122 88 -66 104 102 -126 -128 120 -18 -42 2 124 -102 118 126 -14 -18 102 38 -124 -40 114 -62 68 -22 32 -118 -120 14 -12 16 -76 -26 -118 126 -70 126 -10 18 -74 -100 124 104 -24 -116 102 24 80 72 126 -58 52 -126 84 54 126 -70 -112 114 -58 -100 98 -110 124 40 -124 78 24 -6 20 44 122 -24 -128 122 -16 -128 104 60 -68 -120 -122 110 -94 -94 126 -122 -126 -126 -48 126 -70 -68 -74 80 124 108 -120 -126 116 54 10 126 -128 126 118 60 -106 126 -108 88 78 74 -116 126 -24 -122 -120 -74 112 122 -32 44 -126 -18 -36 126 -122 82 -124 58 126 -128 126 54 84 -50 124 20 -126 -126 -78 48 44 -124 -42 16 -98 104 -62 -102 -126 80 -62 -12 -104 80 -116 126 60 64 82 126 120 -100 -114 -42 -126 -124 18 90 120 122 22 126 44 92 -120 24 -122 66 54 102 -104 124 44 34 -20 12 16 64 -20 -74 118 -124 -36 8 -126 -126 -68 -126 18 126 62 -94 4 48 18 -116 96 -46 126 -114 112 126 20 126 126 122 88 126 108 126 -126 -20 -122 -44 86 -126 -26 -110 106 98 -112 96 124 58 -12 126 6 16 -124 14 -74 -34 104 -94 -126 38 14 6 126 110 118 102 126 -92 42 22 -122 82 -114 -122 34 -120 122 4 120 18 -86 -64 2 8 -126 -116 124 52 24 126 -122 36 30 -98 -2 -96 122 -126 -76 70 108 114 0 -124 -14 -36 32 -116 -72 -108 122 -72 -8 58 -126 120 -116 -48 126 -12 -84 -10 124 124 -70 126 -116 -80 62 126 82 24 62 -50 -108 80 -110 -108 -110 126 26 -58 -120 96 -58 126 -18 -128 -120 -124 6 112 124 -34 124 -76 126 62 124 -16 -128 126 -124 -8 -120 122 -74 38 -128 -46 46 10 -34 28 -70 30 118 -50 -128 126 2 60 106 110 122 122 -72 126 14 -68 18 -112 -6 118 98 72 124 -126 120 -66 122 74 110 96 124 -26 126 -84 106 -80 -126 -50 116 46 -126 8 -44 -56 -126 24 -94 120 116 68 -56 68 -126 8 -120 -34 16 -126 126 -40 46 66 34 86 -68 4 -82 126 0 -92 124 126 -38 -54 -126 -126 -128 126 -126 -18 -18 -28 62 64 -112 -102 -88 -2 72 52 48 -6 -112 126 92 46 36 118 68 112 -122 -126 -18 -64 126 -124 -126 -16 122 126 -56 -4 -116 -124 126 -104 -88 -120 42 58 18 124 122 -126 -126 8 -28 70 -126 -124 
116 -126 104 14 64 -42 46 36 50 64 -90 -40 -32 -56 -70 4 110 -106 6 120 54 16 122 112 86 44 -6 18 8 -34 72 6 -46 14 50 122 -18 82 126 -28 -36 -42 40 -70 -44 -12 -12 58 -50 -72 -6 -12 34 -58 60 -50 56 60 92 -52 34 -60 -6 -82 54 88 32 66 -114 -32 -18 -16 24 -124 0 40 -8 -6 42 42 66 68 -46 40 118 -6 126 54 -16 -2 34 -18 78 90 96 62 60 -4 -104 -32 -6 -42 124 86 34 120 -22 50 -2 38 22 124 94 -18 -60 -106 94 -52 -32 -104 68 22 120 -22 104 24 62 -2 -44 112 -80 -64 122 50 112 102 122 114 -20 84 -62 80 50 -16 -12 -66 20 58 12 -126 -8 112 -106 -20 62 -22 -28 -70 122 124 -64 30 22 -100 72 -122 -10 38 64 54 24 64 -54 -84 46 -32 30 84 -26 124 36 20 126 -92 28 -26 -34 68 -34 62 110 -102 36 62 -126 -44 98 62 124 122 46 124 114 22 -28 66 4 -102 -50 -16 2 48 20 30 -10 12 102 -26 10 18 54 -44 -14 98 54 32 40 22 110 2 84 116 46 -66 80 -38 -18 96 -120 20 40 42 104 -36 88 32 8 16 -2 -52 -48 62 44 -28 8 -4 -34 124 82 -62 0 10 -114 -78 80 10 -22 -108 88 80 -10 38 -42 20 -108 82 -4 -50 78 102 -32 -26 48 34 -10 8 -82 -24 -32 -90 64 104 -66 76 118 120 30 28 70 96 78 108 -72 -20 76 -34 116 -16 66 12 -48 84 -92 42 32 -64 -42 46 46 0 10 82 126 -96 64 56 44 66 -44 50 -36 10 6 36 0 4 92 -8 -28 -2 -48 -18 64 -80 98 10 92 -122 36 22 52 0 102 24 -44 32 50 0 90 126 46 92 -96 84 0 -6 30 -108 118 54 126 12 24 12 44 18 14 -64 -30 -2 82 74 80 44 28 -124 -104 32 112 22 26 10 -84 14 10 68 90 -8 52 6 -10 76 116 -2 54 54 28 12 82 -60 60 -42 40 -14 -56 84 -40 46 92 28 32 60 10 124 -14 -10 102 4 -18 76 84 -86 -58 -2 -100 -30 28 72 -112 18 2 -44 86 114 48 16 86 -20 62 -6 -10 -122 86 52 -110 -12 -4 4 -30 52 86 -68 38 104 -4 -100 34 -56 124 60 -48 58 100 -60 64 -8 42 102 6 120 6 6 92 56 -124 -32 -52 -50 -26 92 18 -72 -26 -20 -12 20 32 68 -32 32 66 -50 34 -46 4 78 126 8 -34 32 -48 70 
-64 36 -30 -74 -14 44 -8 -110 68 -6 100 60 24 124 0 20 -30 28 110 14 -46 22 -26 116 126 -80 106 -122 64 2 -88 124 -84 20 -126 -44 -20 -48 88 58 -26 78 38 70 54 -120 58 0 -60 44 86 124 -14 -14 -82 -22 -42 -40 -14 -86 -62 -104 -82 118 12 -2 12 34 104 66 -104 22 -54 -48 18 18 -126 62 -58 0 -42 122 22 -78 -50 -58 2 48 120 36 78 26 -74 18 -32 112 110 120 80 62 -58 -14 120 4 16 -120 -126 -42 -50 2 52 122 -128 62 122 38 -26 -122 30 50 32 4 -24 -12 126 -6 126 54 0 -96 62 104 -124 -84 -14 -38 64 32 126 28 28 124 -40 80 96 -2 48 -64 -34 120 116 74 -46 2 -24 -126 122 -74 -10 22 108 108 -80 30 34 126 -22 -112 22 44 86 114 -62 -66 74 84 34 114 -94 78 66 -68 114 66 -98 56 -20 -62 -120 126 14 -20 122 -34 -124 22 28 -32 -68 12 94 -30 32 26 -14 110 -4 4 -4 -28 -6 20 64 -122 -76 78 -94 -86 28 80 -60 2 -6 20 -126 -42 -72 124 -32 -54 -54 48 -40 18 -18 32 -18 -30 20 70 -124 100 -126 -126 44 52 38 2 -34 120 -30 -8 104 18 28 -36 -126 122 -126 44 -124 24 -118 -64 -54 54 74 -128 50 110 -36 92 42 116 18 -22 -88 22 28 -100 62 58 -126 76 106 124 2 -56 54 -80 -110 36 -126 -12 -8 124 34 -128 88 -34 -6 -126 -82 60 92 -118 10 24 -52 -14 -44 80 90 -4 122 -48 32 126 112 -38 68 -40 -14 56 6 -62 122 124 -36 66 124 -48 -82 30 2 52 66 10 -116 122 -26 76 44 72 -58 124 42 -26 82 42 -126 -30 66 96 18 14 -54 -40 112 52 56 0 6 32 2 6 98 54 26 -6 110 -76 26 -98 -6 126 126 -50 -92 88 124 66 38 -30 56 -14 -122 112 12 -8 -104 -126 6 -58 66 38 -56 118 -28 28 120 -50 -10 64 -124 126 -22 -2 22 -4 38 110 26 58 -28 94 -68 64 -32 -6 122 34 -112 10 120 34 120 -28 112 126 38 108 -2 -6 -98 48 -126 12 6 68 -64 -40 42 98 -54 20 58 -66 108 64 12 -124 88 -72 98 -124 18 -26 82 118 110 58 -60 -90 -30 14 -48 6 120 6 -86 -96 8 64 42 -78 -92 74 38 126 4 100 -126 118 90 96 74 -70 122 0 6 -38 -18 12 -18 -48 -22 88 -34 -32 24 88 -92 30 118 -76 -52 -90 110 36 96 36 
36 -82 -88 42 86 120 -32 -10 40 6 6 10 -98 86 -50 46 30 60 -86 34 14 -4 78 4 72 -50 112 -24 4 -120 54 50 112 78 44 28 -126 -10 -54 -66 50 -40 18 -14 70 -52 -34 -44 124 124 -38 -30 -8 -58 -126 78 98 6 26 44 126 18 126 -4 -80 12 106 58 26 10 112 102 126 -4 12 62 -12 -6 -62 22 68 18 64 34 -54 30 -36 124 68 -30 68 68 -12 74 66 -120 -118 124 -76 -26 26 42 68 28 -52 32 -44 54 110 38 -116 28 70 82 -34 84 -110 32 98 -50 2 54 -34 56 120 38 36 -98 -86 -16 6 48 -16 26 -56 22 22 -126 100 46 36 88 42 116 16 -122 -110 118 -98 -20 -34 10 124 -4 62 -84 -26 50 24 -36 -54 68 74 38 34 -28 74 -18 22 44 -32 114 -60 22 24 108 -4 -76 -58 -88 -28 -88 38 104 56 -68 -68 118 -48 26 20 -16 -30 104 -32 -18 -14 68 92 42 10 116 18 -94 102 62 112 -42 124 48 -56 -102 -38 68 -46 120 116 0 -28 16 -50 62 -26 -20 54 72 -46 16 62 90 58 62 66 -52 -10 -58 -126 68 48 -70 12 2 28 12 -74 -78 -28 -48 -48 -14 -92 96 60 -62 -46 -16 -88 50 2 -90 28 100 -126 -88 -4 -38 122 46 80 -96 10 68 56 48 122 -38 -20 -44 70 32 30 -14 -2 74 24 126 -36 -46 -92 -38 24 -116 -24 -126 104 124 -80 8 86 -124 22 -46 52 -2 6 -122 126 -8 -124 -60 10 8 -26 58 -60 120 -94 -4 46 -32 4 100 84 80 22 98 -68 -42 124 -126 30 66 -86 34 52 76 -30 18 20 62 28 -56 88 38 8 -24 34 60 96 -116 -24 -6 122 -30 -4 -34 -46 -10 -8 -8 -50 44 12 -6 110 -52 2 124 -88 -10 124 -34 124 10 120 122 -20 -106 -34 76 -56 -30 52 -92 -92 -12 -16 -24 36 -108 44 -38 80 24 42 58 56 -124 -16 90 82 -74 -38 16 44 -22 126 82 58 -126 24 -104 -4 -26 80 -74 -84 32 -64 -90 46 -48 -114 6 62 -48 108 0 -52 -88 -26 126 84 14 -8 56 -24 -84 -68 56 24 -126 52 70 -124 16 20 114 28 58 -56 20 118 116 -36 -50 -8 -8 48 -18 10 6 -48 124 -54 -40 -26 32 68 78 64 -30 122 -10 8 8 88 26 22 46 -16 56 30 122 20 -14 70 62 70 100 104 -104 18 104 74 -14 -20 -8 6 122 80 -44 -24 70 20 -36 18 94 22 -126 -24 98 
40 -92 -98 -50 -32 60 0 92 -106 -102 98 -62 22 4 -70 16 16 124 20 -14 -6 -66 -126 28 -78 118 -46 -8 -8 0 -74 -42 -50 -100 110 -84 -6 -64 74 -22 -22 -56 -16 82 0 26 112 -62 -12 20 -10 -126 16 18 -108 16 2 70 28 -4 -62 50 -34 -44 -96 -52 -120 -70 -94 44 -120 26 -58 126 2 18 -78 -10 -38 122 -44 -120 -24 -94 -68 46 -126 -60 -22 -4 -32 -100 74 50 -120 -56 -76 -14 126 14 74 -44 -106 -38 -62 70 120 -26 -14 -20 -30 -44 -14 58 -28 -4 -64 18 -102 -12 -2 -8 -36 -118 -14 -40 -72 54 -60 -32 -60 -122 8 -36 -56 42 -46 -48 -118 -122 34 24 110 -18 -52 -82 -56 2 8 -22 -96 16 -28 -30 -2 50 -6 -76 -58 16 -8 42 44 -36 4 32 -80 14 -76 -10 -100 -126 -70 8 86 -128 30 -94 28 -84 82 -96 60 -8 -30 20 -34 22 -68 6 -14 -88 -26 -26 124 -72 38 -12 -58 -120 -10 16 -26 -8 -48 -52 26 -62 -44 -68 46 -4 -74 -42 16 -26 -54 -122 -30 -42 58 -50 -52 -48 -122 -64 -14 40 8 108 28 32 -76 -22 -40 -52 -40 16 -30 -64 -4 28 48 -36 38 -124 2 84 -14 38 18 114 76 8 76 -124 -126 18 60 12 -82 38 -40 -80 78 -24 -122 92 56 52 8 -26 -46 72 126 -88 -58 -26 94 108 -46 -76 -8 10 14 -26 -30 72 -72 -36 28 -62 -128 -48 18 -6 50 52 -8 -122 -44 88 80 72 -48 -82 28 20 -14 -114 116 50 24 -6 112 -48 52 18 -10 40 48 -32 126 -70 -4 -90 -56 -126 -52 -78 -6 -62 92 -118 -54 -34 124 112 -68 -78 -122 -46 18 -88 -42 122 -88 -126 -6 30 -12 -20 -22 -50 74 -34 44 84 -96 -8 -68 108 -68 46 -74 32 -100 -50 32 74 122 54 -40 -36 -86 -104 -50 52 -46 78 -86 6 6 -90 -34 -8 -32 -106 -36 24 26 -38 -72 -54 -94 20 -114 -8 22 -112 -70 -8 70 -88 -36 22 -78 -62 -122 12 8 -62 -114 108 -4 56 -122 -62 -6 -120 74 -126 10 6 -84 -90 78 -90 54 -20 12 124 24 -22 46 -54 -94 -62 -80 -26 -66 122 118 -40 -40 -82 -120 -58 -124 -22 74 66 -94 26 -52 12 -16 -52 20 -94 -82 -90 -126 -28 -10 -16 -18 -128 -66 -30 -16 -70 40 8 -44 -120 -54 8 48 28 48 -104 -126 42 -6 70 -94 26 -24 -34 72 -72 26 -54 -64 -104 -96 22 4 -16 -52 -60 -114 -30 -44 -46 66 92 -36 -8 -42 -18 
-36 10 20 -68 80 -126 66 116 -2 72 56 -44 28 124 14 126 -124 -124 -128 -52 2 20 -114 32 100 62 -80 124 -56 12 -58 36 96 -6 -126 -122 -110 -88 -12 106 108 -38 -16 -56 8 -20 18 122 -64 36 2 -34 110 -38 34 -42 10 64 -114 92 92 -98 -28 40 12 122 -98 -124 -36 -92 -36 34 -20 -126 46 -6 58 -4 76 62 50 -18 -26 -84 56 118 34 -16 70 36 -124 64 18 -88 -112 70 12 -126 34 -122 -108 -46 -14 54 68 74 122 118 -90 -124 -102 66 12 50 36 92 100 -42 48 126 54 96 68 -126 82 -14 126 -52 24 40 116 -96 40 -80 -16 -100 90 -112 118 -12 88 -36 38 -14 26 -36 -40 -80 8 122 80 4 34 92 104 114 -98 -16 10 -80 82 -36 -72 8 -58 54 -8 0 80 80 -16 78 64 20 -104 14 -4 50 -120 126 -32 64 -26 50 -94 -78 78 -120 38 34 64 126 -12 -128 -124 -46 -22 -60 12 -14 -36 8 84 -76 -64 68 74 64 46 0 116 -122 -50 16 90 -88 20 118 30 -86 -52 -92 -6 -126 -16 20 -26 14 16 -82 -124 78 108 16 -124 -88 72 38 -22 102 100 -82 -14 -106 -86 38 120 -74 -74 -124 -2 -14 6 -16 -66 -4 -122 66 -72 -124 -30 -118 66 -14 -60 34 -4 -10 0 -26 4 18 -36 -24 -18 40 -6 -24 -96 14 -70 -16 34 -112 22 76 12 12 -122 40 58 60 -52 82 4 -124 -20 22 -42 -44 -124 120 -124 18 -30 14 118 22 124 -68 32 -80 64 -2 -40 -16 -66 -122 56 84 -16 10 116 -4 -8 -72 56 -44 -126 34 -4 -114 50 -96 -50 -80 38 -54 -44 12 -116 -30 -34 122 -92 56 0 -122 -24 -20 14 -36 10 68 42 -74 -64 56 -124 -126 -64 -8 20 -40 -44 -76 38 -16 32 -34 -6 -70 10 -42 -70 60 126 110 -86 26 120 -90 102 -26 -38 24 -34 -126 -82 40 -36 -82 12 -72 48 12 26 -118 106 70 104 72 -6 36 -26 -70 30 -24 112 40 18 -128 120 -72 20 -56 -64 -32 -88 -120 -14 -108 60 -86 24 66 -10 30 -42 -104 -90 -128 -24 -116 90 -8 -24 18 -88 112 36 14 70 -108 40 30 124 -48 -88 -68 -58 -8 -96 -8 74 62 -116 -16 -26 42 118 -28 -112 -10 -84 34 6 -122 10 -110 80 18 28 -96 -38 18 -2 -2 -48 80 4 -24 -122 22 -36 40 36 -16 126 -28 -60 -42 44 -122 -16 -2 26 -112 60 8 -106 -54 8 16 -50 126 16 -4 -90 -126 -6 -22 
-44 22 0 46 -60 -4 -76 46 4 64 -12 -84 16 -26 46 -26 -60 -122 -22 16 48 120 36 -54 34 16 -84 44 -76 -70 16 -10 94 24 -16 48 -32 78 -30 106 -126 126 -4 20 -38 -6 42 -2 -36 -76 -106 22 26 14 16 -12 112 40 -60 -16 34 16 14 24 -10 40 -22 -24 -26 -110 60 -8 0 -36 -8 44 -8 -104 -112 -92 -110 54 -92 -30 16 -6 34 -50 46 56 40 -6 38 -114 6 16 98 -124 -12 -94 -42 2 -66 -118 42 18 48 86 -10 26 -36 8 116 76 -2 106 34 22 16 42 14 -6 -18 -28 -48 -64 48 28 96 10 10 -34 -6 -48 0 36 12 12 -100 -16 22 56 -68 -72 -80 72 -26 -52 -116 -2 64 44 10 26 -96 22 20 -2 -14 32 2 16 -22 -4 -34 -34 -88 26 -122 -72 62 18 78 -106 -76 -44 -70 -26 20 96 50 12 -108 -12 -42 -126 28 -122 74 -72 -42 -126 8 -34 68 -4 -30 40 -8 16 -12 -40 36 62 80 -128 30 10 -46 -6 -40 -92 4 -122 42 -124 2 2 38 118 -108 -6 32 -118 -30 -82 58 110 -10 28 -58 -26 38 26 30 80 2 -124 26 40 18 38 -28 10 -60 -28 52 38 -52 -52 -50 -36 10 -18 -68 10 48 -52 -20 6 70 -60 6 -94 14 -124 80 -56 0 112 -20 -40 -28 2 -20 -10 -66 116 76 2 -126 -36 118 -64 -72 26 -8 80 -80 68 50 -18 22 -102 12 -26 -30 12 -10 26 -84 -18 58 58 36 52 30 16 -46 -88 -64 -116 34 -6 -18 18 2 122 20 54 -78 20 -26 -40 -34 -104 46 -6 68 -82 -38 -26 122 -56 -92 -26 -14 60 -66 -14 -100 58 14 12 -126 -126 -112 -22 12 116 124 -26 -96 -80 -4 -82 -104 -14 0 92 46 -48 6 24 -38 30 62 -4 40 -20 -70 -64 -46 -66 -42 -124 -66 0 -32 -16 58 22 20 74 -118 -32 24 2 -18 -56 -62 126 -42 -50 2 -46 -2 -60 60 -66 44 26 -14 6 50 -72 -2 106 96 38 -18 116 22 52 38 34 48 -68 -26 -88 -10 -2 122 -36 4 -22 46 52 -102 12 -34 -126 96 42 -60 -104 30 108 62 -34 24 78 -16 -14 78 -100 26 -50 20 -26 16 54 -48 60 -56 126 -4 114 12 110 114 -42 22 -4 -58 -14 6 14 -6 26 20 -36 -18 -48 -80 22 44 -116 2 -78 -2 -78 -44 8 64 48 4 90 -126 -4 -58 72 22 -46 -16 -8 20 16 40 -4 14 -18 12 -54 -44 -24 -48 -34 -78 102 -122 -30 
-82 46 -6 4 52 70 104 -78 -58 -114 116 118 122 10 -110 -124 94 -122 120 42 -30 -126 -124 8 90 48 -56 84 -42 -76 100 34 -10 10 -16 -124 102 -4 -46 -40 -84 122 114 12 4 18 38 4 -40 -50 36 14 48 36 28 -22 68 -128 100 66 -24 120 28 42 -34 -80 2 48 24 -66 -126 -126 114 84 -24 -18 -98 98 -60 -122 66 -10 -64 -124 26 104 18 106 -124 -6 -126 -16 36 -22 6 -4 -18 106 120 126 -120 60 -128 -44 -32 32 -50 56 4 12 96 50 36 52 -28 -126 -66 0 -120 80 -16 -124 -124 -96 18 -102 94 -96 -38 56 40 90 106 -74 -94 124 -8 86 120 90 -22 84 58 -82 -26 32 -78 64 -124 118 54 104 -2 18 118 -68 56 54 82 78 90 6 2 -8 8 -38 -12 -122 -74 -102 34 124 50 -42 92 82 20 -38 -128 -30 90 28 44 -24 -20 -8 116 -62 -74 122 40 -120 -64 -124 18 -48 -72 -64 -62 -126 6 28 18 -126 48 -66 78 42 -100 76 -108 -20 -20 -126 -128 14 70 16 88 -26 54 -40 -68 -4 116 80 76 82 -58 100 -60 106 -120 106 -126 8 96 124 -4 72 6 -4 -94 -124 6 -124 -126 12 112 -122 108 -64 -12 8 -14 -34 46 82 44 124 -34 8 -92 50 78 -92 110 106 110 -124 54 24 92 -8 46 -124 108 -14 -128 24 80 120 -10 40 30 76 -2 80 -20 -124 56 4 110 -88 82 100 120 -42 -94 -10 -126 88 -74 -2 -78 -14 -122 -32 0 -122 -120 -126 36 -38 98 -84 0 46 82 -126 54 -126 104 -2 16 -122 92 40 16 120 -10 118 -44 20 -28 12 126 -80 -126 -126 46 -116 38 66 -78 -62 -24 -44 -126 6 100 -38 0 50 -122 74 -124 -94 102 114 116 108 56 50 92 100 -118 124 22 -24 112 -124 -18 -36 68 32 -114 82 -12 -94 -10 26 70 -124 -114 32 -50 -56 -124 -40 -48 92 -124 36 -44 48 -12 -24 80 36 28 -20 -96 2 -118 46 -122 -20 -122 -8 62 -42 -2 40 28 18 24 36 -40 26 54 114 -122 -54 -26 4 -8 -106 14 66 16 -62 -124 122 68 28 -106 -126 88 -84 -126 -44 -76 118 6 106 68 -92 -114 -126 116 36 88 -74 14 -8 116 -124 38 -118 34 -90 74 -34 -4 -84 -126 -30 -124 -124 -84 -126 98 126 -4 80 -124 -10 -26 -58 108 -72 -36 -62 110 -126 22 0 30 -36 -80 -102 -70 126 -30 -8 -26 104 120 -62 -110 -2 -92 -40 -18 0 30 -88 -48 34 -124 -126 
44 -34 124 24 -4 -20 -66 118 78 -8 -116 76 -124 -38 40 -10 74 120 -100 -20 124 -112 110 90 2 -32 116 12 -120 32 -108 -122 100 62 -2 58 126 -82 30 0 -44 26 -126 -16 -110 16 -54 26 92 -28 40 -42 -24 10 76 -92 -24 -86 120 -84 -34 -6 12 52 -112 118 -8 16 54 110 100 126 -14 8 74 98 104 -114 -72 122 122 -16 -18 -28 10 -48 -126 -90 44 2 -16 -58 -22 56 -66 18 106 -10 -28 36 4 -48 26 118 -68 -4 -34 -50 4 -20 80 58 10 -34 8 -24 26 10 82 -58 -104 18 14 48 -26 74 40 126 -58 6 -74 10 84 84 112 -40 -14 76 -36 -126 18 0 -30 30 126 78 38 -54 6 30 -46 -8 -10 34 -48 -124 122 -8 -4 -14 74 24 126 -82 70 -118 -128 126 -6 102 106 -92 44 68 -32 -60 84 -14 46 82 -104 44 -32 -120 20 42 76 124 42 18 -50 38 16 58 -82 -28 20 102 54 -102 28 -18 32 24 90 14 -16 -76 -80 -118 38 22 -34 -124 -122 -110 -66 6 94 2 50 120 18 34 -74 -110 44 -126 12 -18 92 42 44 38 -126 24 -26 74 88 -10 60 16 26 -62 44 34 -120 78 22 8 126 -32 124 30 -4 124 26 -32 36 4 8 20 -2 124 74 -126 -128 12 -90 -38 84 -34 92 -30 124 112 88 -124 4 -38 124 -16 2 28 -82 -72 42 20 -14 2 74 98 42 -60 108 -76 -48 -16 -42 -60 -100 -8 -60 10 -126 -40 54 -38 22 126 -78 -24 28 -124 -12 124 12 -24 -20 114 -66 124 40 -14 -16 -72 20 34 -126 -124 30 60 -124 114 -36 126 62 92 96 38 -42 74 58 -18 -56 66 -116 -46 -126 116 76 124 -4 -24 -74 18 -110 30 104 60 60 86 -24 10 -84 -120 60 -40 -28 68 -70 -126 106 40 -106 20 -16 -74 -2 70 -6 116 32 106 -38 106 40 58 40 -44 8 -42 122 -58 0 -128 -24 116 -46 -16 -64 14 66 -82 -50 74 -6 -30 110 38 34 58 -22 -88 -26 -32 12 -124 -96 84 106 12 6 -6 -124 54 -62 46 36 82 -32 -94 -26 -66 68 4 32 44 -124 -28 50 124 126 -70 -128 86 -50 28 -88 -56 28 -60 32 88 64 -62 -24 120 28 -66 4 -10 -44 -16 6 -86 92 -124 50 -76 30 58 -68 -44 46 -8 -48 44 22 -4 80 -44 -126 126 46 -64 -8 124 126 36 -4 20 64 -78 -46 42 2 -16 64 -2 10 -50 14 76 -26 0 -40 -36 -32 -48 42 110 
108 -40 -4 -126 64 -82 -10 12 20 -22 58 -82 -54 124 36 40 62 106 -40 -10 -4 48 24 -94 4 4 32 12 -26 26 4 -36 -110 120 -118 46 4 -2 90 -78 -124 -12 -88 -118 12 2 122 2 76 -44 -92 -122 -84 -16 -8 -64 112 -38 -10 -20 28 -102 70 2 -18 34 32 -14 -50 6 -64 98 10 6 28 124 -72 -22 -80 6 -58 -78 -126 12 18 -26 -6 32 46 -90 -8 -58 82 -2 58 0 32 -82 -80 -118 -86 -78 88 72 -22 42 -56 -46 16 -42 -34 8 102 -86 -60 -62 -98 -62 -64 -74 -62 28 22 -102 -122 -28 62 -32 -68 2 0 10 -52 32 -20 -10 -98 28 0 10 -66 112 0 -30 20 2 -58 6 -76 -74 68 34 -34 20 -26 50 104 40 108 62 98 -66 112 64 -30 -44 20 -16 -24 20 -102 56 -78 28 50 -52 48 -46 18 86 -120 -60 90 -120 -20 22 6 -20 20 38 -14 -28 20 120 -98 -24 46 -64 -10 72 -26 60 38 -90 -6 -98 6 8 22 -22 -58 -28 -54 -48 -32 56 24 -30 4 -14 -30 34 -40 36 44 26 -46 126 58 -14 62 2 42 -28 -4 -10 -52 16 42 -22 -24 6 -36 -104 -42 58 -24 -56 -56 -12 -58 52 6 -4 -10 -30 66 -40 -28 -126 14 52 -40 -10 32 -22 20 2 30 78 -78 -62 48 -10 -2 24 62 -12 -54 -26 -68 -28 -16 -46 66 -6 44 4 42 -20 -100 16 -82 -52 -34 -2 24 40 -16 36 -60 -124 24 28 36 -46 -16 -40 -84 -4 -76 -86 36 -32 -126 50 126 -76 -66 4 -62 4 42 -60 -28 84 0 4 -126 -106 20 12 -94 58 30 -56 16 64 -38 -14 -60 72 -12 -22 -38 -2 -48 -38 -66 28 32 8 18 -88 -76 24 -16 60 -108 60 64 50 6 44 72 74 -60 -24 -8 -120 -8 -82 50 14 -66 8 -12 -10 110 96 -88 32 34 -32 76 30 -104 88 -4 -102 -62 48 -30 -30 -116 2 -24 -50 12 -84 -12 18 40 64 110 52 116 -4 -52 52 90 50 -16 -4 14 -4 44 -62 -28 -60 -60 24 16 46 -26 36 50 -64 -88 -50 48 -46 56 -34 -56 -68 -14 -8 -38 -106 28 2 -4 106 42 10 -52 -14 72 2 -56 -124 -104 24 -114 80 32 40 -4 -28 -94 60 18 38 30 -84 22 -128 50 -88 -116 -94 62 -66 -30 -58 62 -108 -16 -38 -64 -118 -8 -12 -26 70 8 4 -16 50 26 8 -20 42 -46 46 -18 64 20 -84 28 -94 -46 -124 -48 -50 -40 -10 -6 0 -92 -18 
10 -8 -34 18 46 24 34 88 -106 -8 -82 -24 36 -126 -52 -126 -20 -110 -120 -90 -100 -6 -44 26 -32 40 34 14 6 -26 34 -58 50 -118 122 -20 -52 -104 -120 2 0 -116 -24 -72 -38 -68 -46 -70 68 -46 -126 56 124 124 2 90 -4 -126 -4 10 -2 22 -12 94 126 -44 -56 -124 -2 66 -42 -48 50 126 56 -20 2 84 -22 120 -14 -98 -40 -118 34 66 18 -32 8 -44 -30 -66 22 30 -34 -2 -30 -68 -16 14 -126 30 -104 -16 -12 124 110 -10 76 -2 -104 0 -30 68 54 16 44 80 76 -16 -30 -116 -40 2 110 48 -106 28 -8 20 46 -110 80 24 -106 -122 40 -34 -82 -38 50 -52 -102 62 18 -84 -108 74 -4 102 126 124 64 122 -58 -84 24 -110 32 34 -16 -42 48 -54 -54 -32 -2 -64 -48 34 -10 62 86 20 42 88 -56 62 48 -48 -88 -58 -54 118 -12 38 60 -112 36 -76 -96 62 -74 8 116 -122 -48 36 -10 -122 90 52 -96 78 -18 26 2 42 52 -56 6 38 102 -46 34 96 26 2 -92 24 0 0 -28 -12 -90 12 68 22 -124 36 -44 -114 114 60 -66 8 6 16 8 -16 36 44 -118 34 -18 -56 -42 -120 16 -86 122 40 82 -56 30 -2 -90 26 86 58 -82 16 26 -42 36 62 34 104 -2 -2 -44 114 -88 66 -14 108 -6 44 26 -40 -68 48 44 -70 20 10 16 -62 124 0 4 -54 126 -16 62 -18 30 -2 -124 36 -20 -76 4 -78 66 -12 2 -126 124 32 -40 -40 96 8 36 -14 -88 40 -34 62 106 -26 -96 14 -16 -68 24 -54 124 54 -18 -30 86 -34 -112 -40 58 34 -30 54 80 10 60 120 -12 100 34 -96 -50 64 56 122 30 10 -54 12 -8 -124 -50 82 112 6 4 -72 68 46 -4 -18 106 62 30 64 -46 -98 -8 -56 12 -118 -90 20 52 70 34 16 -28 -28 24 -120 -60 14 46 -40 52 28 6 12 72 122 12 -38 -20 58 -14 -32 -82 -82 -54 0 64 -10 92 -66 -32 -26 22 -84 -100 68 -58 -34 86 -124 -22 -2 -44 -8 108 -120 36 120 24 -82 -30 82 126 92 0 -42 36 4 56 38 26 -76 -4 -12 -78 12 82 -50 48 106 70 -54 -38 22 -98 -30 -12 32 70 -20 -12 -10 -124 10 92 122 -86 86 126 26 76 26 -76 -52 -10 -16 42 -16 8 -60 8 20 -4 20 -28 56 -2 -110 16 44 8 10 -74 40 -26 -20 -92 -16 -32 -84 108 116 -6 18 -34 80 96 28 -14 2 
-24 34 24 -48 -106 -40 14 -102 -120 -32 -56 -12 -40 -108 86 52 -118 106 -12 -80 -12 14 -10 50 -10 24 82 32 -22 -36 -52 -88 -38 -16 70 52 68 -58 4 4 -68 -12 -4 -116 30 -10 -78 36 -116 72 30 -36 -46 -32 -90 -50 -24 8 -110 44 52 -26 50 -66 -30 -18 46 -46 14 -18 62 -58 14 -124 38 86 -76 -14 -36 -118 -74 -6 -106 -72 -116 -76 8 32 124 20 34 -94 94 -40 116 -124 -62 -44 -54 -34 -100 -124 50 44 0 -48 -42 -70 -68 -14 -46 -36 20 -90 -104 -40 -118 70 -108 0 14 -34 38 118 54 -46 122 -40 18 32 12 -10 -34 -116 30 22 -6 -56 -8 -46 12 66 98 -16 40 -124 -30 124 -20 -36 -28 -122 48 -122 52 -92 -114 -40 -78 -118 -52 -58 -24 124 -6 76 46 32 22 -76 -18 24 32 -36 -122 -110 30 4 52 -50 -94 38 -126 16 -92 78 -48 -120 -10 -80 18 118 10 14 -82 -96 16 -34 -108 94 120 52 22 8 -20 14 82 -98 84 -38 -44 -76 -12 -10 -62 10 -38 -124 -4 46 -64 62 -26 -24 116 94 12 24 -22 102 -14 -48 -58 68 -36 0 -114 -112 64 -126 18 -58 -16 -76 34 74 -124 12 50 -38 -74 18 98 -94 14 -4 -98 82 4 -82 -42 18 -116 8 -60 2 6 -4 76 -60 -70 -38 -50 20 -38 -48 -48 44 -20 -46 -16 -28 -46 -64 90 -110 46 -44 -6 -6 8 -62 -126 40 4 -8 42 84 -44 -120 -38 -92 30 94 -14 76 -96 -10 58 30 -12 -38 -16 22 30 18 122 -82 -68 44 12 26 10 -6 -126 -88 -82 12 -26 0 52 -34 18 -50 -96 -62 -88 -34 -64 -40 58 40 34 -88 -8 20 -34 -34 32 -88 -20 46 104 -104 -44 -38 58 -38 -122 -124 -46 64 48 98 8 36 26 -28 42 12 -58 20 -38 -74 -70 -60 76 -124 8 -66 -38 -60 -24 42 -6 -82 -108 -62 -16 96 4 32 -64 -18 -44 44 -26 -24 -20 42 -86 -126 30 -46 8 -22 0 62 66 -118 36 -78 -12 40 126 22 110 26 -20 66 -68 46 4 38 -110 12 -116 90 -52 8 0 -14 -16 -28 -122 -66 -88 2 -10 -32 -42 -96 6 4 -106 -20 -2 6 8 -32 104 -88 -96 68 36 12 -42 2 8 98 114 52 98 126 -96 108 -66 -126 -26 -18 -36 -46 -62 28 -120 -124 8 86 -60 -36 -16 76 36 -70 -22 -16 46 74 -10 120 6 82 42 34 -16 -124 -122 -58 64 92 26 -100 94 12 2 -2 22 -80 -120 20 20 -18 
66 58 -10 44 -26 12 -48 -14 -74 -38 66 -42 -52 34 46 14 -66 -18 -124 -56 -10 -46 -30 -112 -20 6 -68 32 -2 34 -88 78 42 124 70 -76 -92 50 -22 -36 60 98 74 48 -28 16 -114 -112 114 -42 -22 126 -24 -62 -10 -50 24 28 -24 70 80 -28 56 -2 0 -36 -50 -22 -60 0 34 -74 24 126 116 -52 22 -16 20 -48 -14 -16 -10 -10 70 124 -30 -62 24 -26 -62 -22 68 -90 36 -46 10 76 -60 52 80 -36 44 -20 74 -110 0 58 120 38 -52 -124 -114 120 112 86 10 -58 124 -124 22 -64 2 -34 -124 18 18 24 12 56 112 106 -58 100 -76 -96 6 -80 -6 -56 -82 98 -64 12 90 112 -120 20 -58 -122 96 -26 72 106 -6 70 2 70 -100 56 -120 -68 -10 -2 16 -16 -40 -46 34 -22 40 90 -124 112 -54 98 -12 -74 -102 -38 -2 -12 -12 32 -2 -62 22 20 102 -52 -78 -108 -18 26 -124 -6 16 70 60 -8 116 72 -6 42 10 -20 110 24 96 24 -24 -42 18 -12 80 -26 -64 118 38 -32 -18 28 42 100 10 40 8 -6 -124 46 102 -110 94 22 104 -44 12 0 -90 -16 42 48 48 -6 4 110 30 -26 12 -78 14 10 -50 100 -52 16 70 80 20 -126 108 80 -24 -34 -118 18 36 -128 -32 14 108 -6 34 -42 18 54 6 68 52 -100 -20 34 12 -34 84 28 124 -126 104 12 -118 -44 124 -112 110 -14 -64 118 10 -30 8 2 -50 2 122 14 -58 -36 96 118 -24 -24 -38 -20 -36 66 -74 -36 -36 -32 -52 -2 -62 -64 -76 -86 0 52 68 -34 24 -26 16 32 -52 56 -38 -20 64 70 124 18 4 18 -22 -34 16 -48 38 -58 56 122 -54 4 58 4 110 -52 -4 -6 -22 -26 -44 -10 122 50 -62 32 -74 10 82 -86 2 34 42 22 -14 118 18 16 8 -106 14 82 60 30 -32 38 2 -16 84 72 14 -32 -38 48 -54 -22 -12 -92 66 32 8 88 12 -16 44 -10 48 -32 30 -26 102 -12 40 -120 44 4 90 42 -46 -122 -30 88 -46 -16 -54 -124 72 -14 6 -78 -44 16 -48 28 60 54 -6 -20 84 -122 20 4 -82 62 4 64 30 -68 -68 26 44 56 50 36 -12 -108 -2 16 34 -72 -108 76 -32 82 38 126 0 -2 -102 52 126 14 52 84 62 46 38 -60 -48 -10 60 -24 -68 34 80 -32 90 -100 8 -4 -36 38 -22 14 70 8 -26 0 66 72 -14 122 26 26 -84 16 72 2 20 -92 
