-384 640 1152 1280 128 -1024 -640 3072 384 2176 1920 2432 -1152 1024 1280 -1408 0 -640 -1536 -1920 0 -256 -384 -256 384 -512 896 4224 -1536 -1152 896 512 2304 -2560 640 3072 512 -640 1024 1792 -1664 -512 -128 1280 1536 -1152 -1408 -768 256 1280 640 1152 768 -256 -2560 2176 -1024 -1536 128 -256 768 1408 1024 -128 3328 -640 256 384 2432 -1280 4480 1024 1536 -384 -1024 768 896 -384 -1024 -384 0 2176 1792 -640 -896 768 -640 512 -256 -2688 1920 384 128 128 896 -2432 -256 1664 256 -2688 640 768 512 2688 1664 256 768 -128 -896 -1280 -1280 -128 0 768 1536 -1408 896 -1792 1280 -128 -384 128 640 128 1280 -1152 512 384 128 -384 3840 128 768 896 -1792 -1152 768 896 2944 -640 -1152 1152 640 -1024 896 -1152 -1280 256 -384 2944 -384 256 1280 -640 -1664 640 384 -256 -384 -1408 -2304 128 -2048 -768 1280 1152 -1152 1024 512 -256 1280 -768 -896 -128 640 128 896 256 -640 384 384 -1024 -1536 -896 -384 -384 -1664 -2304 1408 -896 640 640 -768 -768 1792 1152 -2304 128 -3456 -128 1408 1152 640 -768 768 128 -640 1408 768 -1664 256 512 -1152 -384 2688 -512 -512 -1280 -384 1024 512 768 -1664 1152 -1024 -1792 -384 -896 -512 256 384 896 896 -128 896 4096 -128 2176 -512 3200 1792 384 -384 -2560 -896 -256 -512 -640 -3072 384 2304 -1280 1536 -384 1024 -768 -512 1408 1152 -384 128 0 -256 128 896 0 1024 1024 -1408 384 0 1024 -1024 0 128 896 1792 256 -640 4480 1280 1920 384 0 1152 2304 -512 256 0 0 512 256 2432 -1280 1536 2816 1280 640 512 384 384 -256 1792 256 128 256 1408 -1024 3584 -1408 1280 -1152 512 1024 384 -1664 768 -256 -2432 -256 1408 -1024 -512 896 384 640 -1536 -512 0 1024 -768 -896 -768 640 -1920 -640 384 384 -256 -1152 -2048 -640 3072 -1536 384 -2432 896 1920 640 640 768 640 1024 1536 -256 -1920 0 1152 768 -1024 -512 256 1664 -640 -128 -1024 -1024 -1408 256 2432 896 -2176 128 -384 -2176 -768 0 512 -640 1664 -1152 -1024 256 -1792 -640 -896 1792 768 1152 128 128 -1024 1408 128 -1024 -2944 640 -2048 -768 -256 1152 1152 -2432 896 768 -1024 -384 1536 0 -1152 2560 -384 -896 0 -256 1920 1024 128 384 -1152 -768 0 256 -640 -1664 -640 -512 256 640 -256 256 -128 1792 1280 -896 -768 -384 -1152 -128 0 768 -2688 -1920 -768 -128 -1280 1536 2304 2176 -640 -1408 384 384 0 -1408 512 -1024 128 1280 1536 -384 1152 -640 -3584 -384 -256 -1792 -1152 -1152 -640 128 2816 -384 256 -1920 -1408 384 640 128 1152 2816 -512 384 1280 2048 640 -128 896 0 -128 -512 640 384 2048 1536 -512 1408 1152 -512 1280 -2432 -256 1152 -1536 2944 2048 -512 128 1536 1408 384 2048 