256 -1280 2432 384 256 -3456 4224 3200 -4224 -2432 3072 640 -3200 -128 -1152 -384 -2432 -896 4736 4480 -10368 3456 -384 8064 -1536 1536 -640 4480 -7552 -1536 3328 4992 2688 -1408 -6144 1664 -6528 3968 -3072 -2048 -5376 -512 -1408 -4608 128 3840 -8320 -1792 -13184 3712 -1664 -1024 -2432 1536 2432 -2048 -3456 5120 -512 -2944 -11136 1024 -128 -1920 10496 7296 -2816 -3072 9216 -6272 6656 -6016 -6784 -6528 -256 256 1664 -2688 1664 -1408 2688 -3328 2432 1920 7936 1792 -2816 8448 128 9472 -2944 128 -6784 -3200 -2816 -3584 2688 128 5632 1664 -128 -5120 5120 -3712 -8576 4992 1536 -4224 256 -3968 3584 13184 5248 3456 2304 -1536 -2432 -2816 896 5888 -1664 896 2304 -6528 9600 2304 -1408 1664 2176 -7936 -8192 -8960 6016 1664 7808 2304 4864 -2048 -4096 896 3840 -2432 3584 2304 9344 3456 -1152 -3328 6272 512 4096 -3456 -1152 -1280 2304 4224 -3072 -384 1024 384 1280 1024 1152 -640 -4096 6400 -3584 10624 -1920 -2048 6400 -6656 1920 -5888 3712 3200 1280 5632 -1152 -2688 -2176 -128 7168 -7680 2560 3200 2048 -4224 -512 4480 4992 4736 1536 640 2816 -4096 896 -3456 3584 1920 -8704 -7296 1792 -2432 -5120 6016 128 -14080 -1536 1408 -4224 -8064 4864 1280 -640 896 -896 -8064 128 6400 2816 1664 -256 -2944 -3072 6912 7168 -2304 5504 -3456 -128 6016 -1152 2176 1280 -4864 2304 1664 -1152 -3456 6016 2432 384 256 1920 -3456 5888 4736 -3456 -3712 -1152 -1664 3200 -256 -1536 3328 2432 1664 2176 6400 5632 -10496 -3968 9088 4224 -3712 -2048 -512 3328 -1920 -640 3712 5248 896 5632 2304 384 -2560 384 4992 -2432 -3328 -4736 -3584 640 -1792 4480 2944 3200 -2944 5632 3840 7424 5632 4352 7936 -2816 -10624 -1920 1152 -128 7168 -768 2816 512 -1152 -1664 2176 8192 8192 -1792 1792 4224 1408 128 4992 -1280 -2944 -5504 640 5888 -1792 -3072 -1664 2560 -4608 1280 5120 7680 -10240 -8192 2304 1408 1152 3712 3200 6144 2688 -384 -1408 4352 -10112 1664 -1792 -3584 -1792 2688 2432 -9600 9856 -5120 -4352 5504 -3456 896 3328 -4992 -1152 -6272 3968 1920 -2176 1920 -3072 5120 -768 -5760 3072 -4608 2560 5376 5248 2304 768 2176 4608 -3328 -896 -1408 0 7168 5376 4608 -768 6400 -5632 2304 -512 -1152 1152 2304 5888 -384 -4736 -1536 256 -512 -6912 -5376 -3200 -128 -1024 -2176 512 5632 -2560 -1920 -1280 -1024 -2304 4352 -7040 -10240 -1920 -3456 -3200 -512 -256 896 3968 6784 -2560 -6272 2304 5632 -1024 640 -512 2560 -2048 -4352 3840 -384 4352 1920 512 -4480 1536 1408 -5376 -640 7040 -896 7552 7424 -4224 3840 5376 4864 256 4096 4608 384 4992 -2688 -2048 -5120 -2944 -4736 -2304 -3328 4864 1792 2944 1152 640 -3712 2944 -512 -1664 8704 -5120 2816 1408 -4096 1664 1920 -1920 -7168 -3712 8448 -2816 4736 3840 2560 -1024 -5888 -5504 5632 8192 1536 7296 -640 -1664 -5632 -6528 -1536 1536 1152 -384 2176 -2816 -640 -1536 -2304 1920 -2560 -128 -3200 -8064 -5504 1792 