-18 118 38 118 114 24 -110 -110 -22 -124 126 -110 -108 -100 -10 -120 4 74 106 104 126 -86 -122 -120 -120 -128 -124 -58 94 -114 -126 112 114 114 -110 126 120 116 -44 -122 92 118 -28 118 22 114 -52 64 -124 118 -66 -118 122 126 -8 124 -120 -118 122 -120 126 -4 118 -126 -102 62 62 -114 -126 116 58 -120 -92 84 110 124 -126 -48 -64 -114 -114 52 116 -122 -76 -18 -116 38 -116 -42 118 -36 124 -22 124 120 -124 -114 -112 20 10 112 -8 124 -110 120 24 -120 112 124 68 20 36 120 -108 116 -102 -92 110 -114 120 -54 62 126 -72 2 -72 110 126 -110 100 118 120 98 -54 56 16 28 -116 -114 -124 -84 -120 120 122 24 124 90 -10 -110 4 -126 -122 108 -126 12 -120 -12 -118 -122 4 -106 112 -48 90 126 -122 52 -116 -94 124 -104 -10 2 112 -124 124 14 -6 120 -114 34 122 124 46 -108 -124 -120 126 106 124 -74 -118 116 -128 90 -58 -60 18 -50 122 54 -108 124 -16 -112 12 -12 -124 -58 -126 -40 116 -116 122 -124 -22 -122 124 -40 -120 -82 110 124 -110 110 126 112 -104 -78 16 124 -96 112 -30 -66 -116 -110 -118 -94 -12 -8 -28 -108 116 -120 16 -40 -6 124 122 50 122 114 -10 126 -70 -14 -46 -110 -68 -68 120 -120 122 -108 -10 120 14 2 -120 -118 -116 116 122 46 -90 -88 2 -56 -8 -24 84 114 124 -118 102 34 68 -126 -124 124 114 -114 -78 78 106 126 126 -22 -120 118 -120 -128 -116 112 96 124 -124 16 -122 86 -118 122 120 -120 122 124 114 20 34 -114 118 118 -14 118 -104 116 -120 112 64 -118 -104 120 52 40 114 26 10 120 -54 8 -54 -120 88 36 -116 4 -62 28 124 116 102 -30 -74 -60 -118 122 -120 96 -126 -110 122 62 -126 -16 -94 -118 -114 66 20 12 116 54 -90 118 8 -120 -110 -110 -120 20 -114 18 34 -88 4 118 -122 -122 0 112 -98 -118 -22 -34 -58 8 -120 122 -120 124 -12 124 -120 -122 120 120 124 -122 -114 112 122 -126 -102 124 4 66 120 118 -120 -118 126 -120 -26 78 118 56 114 -58 114 118 -116 -122 122 122 -114 2 -122 -30 36 -90 118 -124 70 -38 126 -96 -50 -46 124 -14 122 -120 -122 28 118 -120 126 -46 -124 -64 -100 -118 114 110 124 126 -124 -10 118 -120 122 118 64 -114 -108 110 72 -112 120 124 66 -122 120 118 -122 4 32 92 -114 112 116 -44 116 118 122 -118 120 50 -118 -90 4 -66 122 -42 126 122 122 114 108 -122 
22 118 -120 -118 -126 -2 -16 32 -60 -16 -76 -86 120 32 116 -66 122 2 126 -116 114 -124 118 -122 -118 -126 -126 2 -42 -122 -116 118 122 -118 120 92 -80 52 -114 -30 120 -122 112 -14 22 94 22 -26 -124 -72 110 118 -114 122 74 -68 120 126 -104 -122 122 104 124 66 -118 -92 -124 -98 -28 120 118 66 120 -120 -122 126 -122 120 -100 -120 -114 -24 12 120 122 40 -74 -10 126 -62 64 -124 124 84 94 -112 90 -124 116 36 -46 -124 -32 -88 18 124 -108 -122 120 -120 40 -32 124 120 -114 -122 52 52 34 -106 -106 38 24 56 -120 -118 -122 -18 114 -6 106 -106 122 -116 120 22 -30 74 24 122 118 120 -114 -124 120 -60 -24 -124 -120 118 6 -58 -122 118 -124 -98 -58 124 -54 120 54 124 -120 -70 -122 -56 -124 -112 -118 -58 124 34 0 -52 -98 126 -16 -80 -46 -62 118 -2 -114 118 124 114 104 126 122 118 124 2 -114 -118 92 -120 -124 -48 -34 24 116 22 -32 122 -96 120 120 32 18 124 114 -122 -66 -112 -112 26 -24 -118 120 -18 -114 122 -124 124 124 -124 -120 12 122 -6 0 124 112 -112 -88 -114 118 84 122 114 84 -94 114 20 -118 122 36 -28 -124 50 116 -6 76 -122 44 124 120 -56 118 118 116 -50 -124 -120 94 118 84 50 14 82 -78 32 -110 122 122 -118 -120 -68 -6 58 56 122 124 -44 24 -122 -16 16 116 126 -72 -122 2 124 122 -114 118 -116 120 22 -122 102 -120 -126 108 -116 98 -118 118 -22 -122 54 -8 122 -126 74 -110 -122 -2 124 80 120 -118 122 118 -116 -2 124 120 116 -112 -118 -110 -124 -124 -4 114 -10 -116 -120 10 -88 -126 -122 -106 -116 -116 -28 -50 -10 126 -118 100 120 58 122 116 -34 -122 -92 -14 -116 124 22 -122 78 126 118 -2 -72 24 -114 -116 -122 38 -124 28 118 -92 -96 116 120 -118 -114 -20 -122 26 118 -122 118 -14 -120 -118 -8 114 120 -74 -62 120 120 -120 -120 76 40 -36 -124 120 118 122 -124 -110 24 -102 110 124 112 -36 -76 -102 -86 120 38 122 120 124 102 122 -126 124 -50 60 -124 -54 122 118 -34 72 36 104 114 -30 96 8 20 -98 122 124 124 -94 -2 -118 0 -94 -126 -110 126 -124 16 30 -14 122 90 124 -26 -124 126 -116 122 122 68 82 -118 -14 -72 6 116 116 74 -76 120 -50 -118 -120 -124 124 126 122 108 -2 -112 122 -124 118 108 122 124 -108 50 -114 44 -122 106 -8 -110 -50 4 -18 120 -108 122 -118 118 
18 120 -100 -112 88 -80 124 -124 28 -76 12 124 -104 54 -10 124 120 10 -118 28 -100 14 36 114 10 -110 -126 112 -120 118 -112 126 -118 -118 -120 -120 124 12 -122 22 110 -64 -50 -20 -40 -120 -4 -120 -124 116 122 114 112 120 -124 124 122 124 -62 10 120 -10 -120 126 122 -118 -122 -124 104 -126 -120 -118 -126 -118 -124 22 -118 -124 116 -118 120 92 -38 118 -120 -120 -128 20 124 118 -96 62 122 -98 120 122 -106 116 -122 68 58 108 120 122 -128 124 76 122 122 -14 124 22 -106 -122 -44 -120 120 124 -64 122 -120 106 88 124 118 122 -118 120 -112 -124 -120 124 124 100 -126 -120 16 -102 -122 80 -122 -124 -124 -124 -110 112 -122 24 126 112 66 122 -122 -120 -36 112 120 -14 68 -124 -28 -70 -122 122 -124 120 120 114 124 -126 126 18 -12 64 0 124 30 -30 -16 -104 -122 110 -120 -120 120 122 124 112 -72 -116 -114 -124 -124 122 118 124 -128 10 0 -30 -122 -44 124 -96 124 -126 -92 -124 122 124 -128 -2 124 98 106 -126 12 120 -122 -86 -110 -70 -118 -120 122 -120 -2 124 126 96 -30 -124 124 116 -122 118 -126 -122 114 -112 -76 -122 -120 124 66 -76 -126 0 -20 -96 114 52 88 120 60 -118 126 90 120 -116 104 -34 -124 -120 122 -28 -28 -32 -10 -116 122 126 -126 122 124 124 126 -122 -18 102 -4 -116 124 116 -56 -122 -126 94 120 124 -114 120 -64 122 -124 126 122 -122 120 -8 -118 124 -124 -110 -68 124 -114 120 -8 38 -118 -120 -126 -124 -126 124 118 38 126 118 -122 -128 96 122 -122 124 122 -116 122 116 66 112 -124 -122 -124 -50 112 -44 124 124 124 56 -128 -126 108 116 124 24 12 -118 124 -108 -124 -120 -124 24 -122 126 120 124 -124 120 124 -122 126 30 -18 -120 122 -86 112 -10 114 112 -120 -50 22 48 126 114 -122 -128 -124 -18 20 124 -36 124 100 122 16 -124 126 124 -122 124 118 118 -10 -126 -122 -122 118 90 -122 -122 118 -118 -16 30 108 -124 120 46 -126 -118 -26 32 110 122 -120 -114 106 -116 -110 -114 -122 124 124 120 124 -122 4 -120 118 124 114 -126 -90 18 126 -120 -118 20 80 112 114 126 -118 -8 -124 -4 64 -100 122 -106 126 -124 90 90 -122 -112 -120 126 -122 126 14 -122 112 -112 -122 126 -126 98 116 118 -118 120 -96 -120 -122 -114 -120 -124 -40 122 126 -16 -20 -122 -122 122 116 122 -116 126 -124 -124 126 4 124 -124 26 120 -100 110 -122 -124 124 -92 -94 122 
-70 110 94 124 -110 122 -116 120 120 -78 -118 124 -122 -4 -62 -124 -126 -32 -122 124 108 122 118 -124 124 32 -122 114 -114 -120 -124 124 122 120 120 -122 120 -40 -120 -122 -124 122 120 124 -86 124 0 -116 122 -104 18 120 -124 118 122 -104 -126 -116 -124 114 122 -66 122 -88 -118 112 -124 -122 -126 122 -46 -116 -120 124 -124 -118 -122 -96 126 -124 -122 -124 42 -120 122 30 -68 -24 46 -124 36 0 126 112 -120 118 118 126 -108 124 -120 66 104 -114 -120 -122 -68 126 120 124 -120 -26 -8 102 -122 122 124 -64 30 112 126 116 50 122 -118 124 70 -118 122 122 120 120 116 88 122 124 -16 50 112 -124 -122 124 122 -120 -64 -38 120 -126 56 118 -86 122 -116 118 120 -16 114 -126 108 -124 116 -118 112 -122 -126 -126 126 -120 -120 36 124 -8 44 6 78 124 44 120 118 122 -122 -122 -122 126 -128 124 -120 -124 6 124 124 126 -114 126 -110 122 -126 -20 114 124 118 2 122 -124 124 -124 -18 120 -124 124 -124 12 -80 -124 -120 122 -12 -120 -122 32 -118 12 122 -120 -124 126 -62 -120 126 -72 -66 -124 -120 124 -112 110 -122 -126 120 -120 32 120 -102 126 124 -108 -120 60 126 -116 -124 -70 24 -126 120 -38 126 -110 114 116 126 118 -122 126 114 -70 78 0 44 42 124 126 -120 122 -128 116 124 58 -64 114 58 -40 124 -126 -120 124 -120 -78 -118 -126 126 -122 116 -122 -126 126 124 -124 -100 54 126 122 -120 124 116 -120 -122 122 -118 36 -120 -124 -118 120 -100 -48 -126 122 -124 -126 112 -116 -124 74 -124 120 126 124 120 104 -52 -108 124 122 -124 88 34 -114 122 -122 -120 12 120 -56 124 122 126 -22 118 -92 122 -30 -124 112 82 122 -120 -68 -124 -124 -124 122 122 -118 122 -78 -120 124 124 -2 120 124 -126 122 120 -124 -120 120 -118 108 122 -122 -124 122 -6 124 44 126 -120 -116 -8 122 124 -126 126 -118 120 -38 120 -126 -120 -126 118 -42 120 -122 -120 -114 120 -124 -120 -116 -122 122 -118 -80 8 -18 -122 -122 -122 -84 118 -122 -122 124 -124 124 122 120 116 -124 122 -120 -124 -126 -114 102 -120 122 -118 120 -120 -64 -88 122 -126 124 126 2 -122 8 -26 122 -120 -32 126 112 -122 22 -122 -112 122 98 124 -120 124 122 124 116 0 116 -122 -122 -114 -124 -118 122 126 -110 110 -118 -122 122 -124 114 -124 46 68 -118 -114 122 122 -124 -116 122 -126 -124 124 122 126 110 -66 -122 -122 124 -124 120 -124 -40 2 -122 
24 -126 124 124 -110 18 124 -122 118 -78 -4 118 120 112 80 -126 114 94 126 -126 -42 124 120 -124 -52 64 -126 86 126 -118 -76 118 122 -120 124 108 -22 18 -122 -120 -122 -126 -4 -124 -106 124 -20 126 -126 126 -2 124 -112 122 124 -122 124 124 -120 116 126 38 124 -126 -122 124 -126 -114 34 124 -124 122 -124 -124 -60 26 120 122 126 124 122 -64 -114 126 -118 -122 -112 -106 124 112 -76 -108 124 -124 -122 120 124 122 -126 116 96 -62 -120 -122 122 -112 -110 -114 -124 -110 -120 28 -124 -124 -78 -120 -82 -120 -74 -122 126 8 -16 118 -122 -124 -86 122 -118 -124 114 118 114 -48 114 -122 30 -36 124 -114 126 -124 120 -122 -114 -122 124 -124 -126 122 114 118 -120 -126 124 104 -118 122 96 126 -6 124 -120 122 -122 122 126 82 126 -124 96 54 -8 0 -8 126 102 124 38 118 -122 -128 -124 122 -126 -124 116 114 -126 -124 -126 -120 18 -120 92 120 -126 38 -128 108 120 -42 -116 -124 120 118 0 126 -124 -114 -118 80 -124 -124 114 120 -2 106 120 -116 -124 28 124 124 126 124 88 110 -116 -62 62 126 116 122 -110 -118 122 122 -118 124 12 -116 70 -120 -124 -74 -126 -54 -118 -12 -120 -66 -116 -126 -70 -82 116 34 122 124 126 122 -124 122 124 44 -24 54 -34 -120 -126 114 -120 114 -128 -108 -120 -110 98 -120 -110 -114 120 -124 -116 124 126 42 -74 122 126 -118 -72 -120 -126 -112 124 -108 118 -58 124 120 -116 -50 -32 98 56 -124 120 6 124 118 -122 118 126 -6 -120 22 -108 -124 -98 -120 -36 -124 -6 122 126 122 -126 116 -26 122 -120 -120 122 -46 120 -92 -120 -122 122 18 114 -122 116 -18 124 -10 -114 -126 120 -122 -126 -84 126 -80 124 94 -126 114 118 6 126 -116 -124 24 126 116 -122 -70 8 -110 114 122 106 -118 112 120 40 -126 -126 118 -122 -106 -24 -122 -120 -106 -118 -114 -42 124 -126 118 124 122 -116 -112 -124 126 -118 -120 -114 -34 124 124 -122 -122 120 -120 -118 -80 -116 124 -122 -72 -50 -24 -122 -122 126 -122 114 122 126 -124 -126 -124 126 118 118 -126 116 -120 124 122 116 124 122 116 44 -122 116 -18 64 -118 120 122 -104 -110 124 -46 58 120 124 116 118 126 120 -82 126 -110 -116 114 124 -120 122 120 118 -106 -118 124 124 -68 -124 -128 -124 118 120 122 110 -124 126 62 -124 -36 -126 -28 -70 122 124 124 34 -100 -112 -122 118 -126 118 124 -122 -6 -18 -118 116 124 -124 -46 -124 -2 34 122 
-32 120 -114 0 -10 -116 -50 -120 -128 -74 64 122 -124 16 -90 120 124 -46 -116 118 98 -120 124 -126 -120 120 -70 -124 126 122 -64 120 -116 -118 70 -120 -118 38 -126 0 124 -126 106 56 -102 126 36 124 -126 110 -114 -124 100 124 -108 122 -124 116 -122 98 122 -30 124 122 16 -114 24 126 122 122 118 120 124 -124 -120 -122 118 122 -124 -124 126 102 -122 120 -120 114 -18 -44 122 124 92 12 124 -34 -124 -118 126 -122 108 -122 -48 98 -120 112 -114 124 2 122 -116 -124 124 -40 -106 120 -26 126 120 126 64 -126 -120 122 74 120 -36 -124 -126 120 116 -122 -120 -126 120 42 -124 -122 38 -14 122 120 -120 -120 24 -124 126 120 -124 118 124 -124 -20 124 -120 -122 -118 24 -104 -50 32 126 -18 12 -118 -122 -88 -50 118 118 -116 -78 118 -28 -96 0 -4 126 -124 -56 24 104 -120 120 -124 124 108 -116 8 -98 -126 -122 -124 -120 -126 -124 -112 118 120 -24 -128 2 116 86 124 126 122 -126 -46 -124 126 126 124 -54 122 -122 -124 116 -2 126 -126 -96 -124 -12 124 -122 124 -122 24 -124 126 24 116 126 -118 124 -126 122 126 -120 -122 -118 -60 118 90 -94 -122 -124 -128 -8 -120 74 110 -6 78 124 108 -126 112 -108 -122 -118 -118 124 -126 -124 -22 -108 -12 8 14 118 116 -122 -114 -128 -126 -124 -122 40 -90 66 76 -62 118 98 122 -110 126 -80 -10 -118 124 -122 22 -116 118 126 122 122 -112 76 -120 116 -120 -114 38 -120 78 -114 -12 -4 126 -114 -124 -124 -120 -126 122 -88 122 124 -72 124 -124 -124 -40 126 -124 -124 122 -122 -78 122 124 -122 -122 38 -122 16 124 -120 -118 -64 6 -126 50 -108 124 76 -98 -124 120 -126 -124 -38 126 -114 124 -70 124 118 44 124 126 126 -128 -104 -112 120 124 126 120 126 -126 -118 112 116 -8 -126 -118 118 -126 118 94 -126 -16 120 -76 122 -106 114 -100 122 -124 124 122 -116 -38 120 118 108 0 -128 114 -50 -120 4 -124 120 122 126 120 118 124 -82 -124 -94 32 58 -110 -124 120 116 78 -118 124 116 118 -116 120 122 112 118 22 -34 108 120 112 -120 -74 116 124 126 122 -28 -26 -74 -86 -118 -14 -72 -124 -28 66 122 126 118 122 -120 42 92 124 -4 126 -120 -126 118 122 -124 -124 84 -32 -122 -124 86 58 -128 -118 114 -122 -122 116 114 126 -58 -124 70 124 -70 30 122 -114 124 -124 126 -110 -118 -126 -124 -124 102 116 -14 -20 114 -120 122 122 12 -118 -40 44 -110 
94 116 126 -120 -126 94 -118 116 -124 -114 -116 -122 122 -126 84 -106 122 16 122 114 38 -126 124 122 124 -126 122 120 -110 -120 -122 124 122 120 -124 -80 -124 22 -122 -110 -120 -126 18 -122 4 126 -22 -126 -116 -122 -124 -24 -126 -124 -118 -122 -124 -118 34 86 122 50 -120 108 122 -126 30 -122 124 -26 -116 122 124 116 122 -122 -118 -106 -126 118 -46 116 -36 116 124 -42 32 -112 122 -124 -28 10 126 66 -116 122 -118 60 -124 124 54 -22 -124 -120 -124 124 -54 120 126 124 -6 42 -110 -86 -122 124 -124 -6 -28 114 -126 -108 110 124 -124 120 -118 -126 120 126 -104 114 -124 -114 -120 -94 -20 24 -122 -124 -122 -122 112 -124 -122 -80 -124 122 126 -96 44 -46 122 124 -124 96 120 -66 32 126 42 126 -122 -122 -104 124 122 124 122 0 -120 62 104 28 -26 124 56 -84 -8 118 126 122 -122 -126 -126 -122 122 -122 126 98 108 116 106 -124 -76 114 -128 -26 100 38 102 -126 116 126 124 -124 36 -126 124 124 -120 -94 44 124 112 122 36 122 -124 66 -124 -116 124 120 -126 20 2 -124 126 -110 76 126 124 114 -122 112 -118 -110 -124 -108 20 -100 122 122 -126 -124 -122 56 -118 116 116 -106 122 -116 -116 -124 -104 24 -118 118 -114 124 -124 -126 -118 126 60 -114 -44 -76 114 -126 120 -128 22 114 -118 -12 64 -120 -36 84 120 -124 122 126 -124 104 30 -124 122 -124 46 -116 114 -114 70 124 20 -80 126 -120 -118 126 -32 126 124 -110 -120 2 -124 -118 -124 124 -120 124 -120 -100 124 68 -58 120 -120 -122 106 126 124 124 -126 -104 -78 -120 -116 -122 -124 0 -126 -32 -114 124 6 -4 -112 -118 -14 -30 -120 -34 -90 20 114 -126 -126 118 -120 124 -112 16 122 -124 -112 -124 124 124 4 110 120 126 122 122 112 124 -128 122 76 16 124 -126 122 120 -114 -120 -118 120 118 122 -116 126 -118 -114 118 -122 126 -124 -116 -122 -116 -124 -122 120 126 -124 -122 -68 -122 116 -124 122 120 -122 102 30 -116 122 120 4 -64 -110 122 -122 126 -40 10 -120 124 82 112 126 118 124 32 -124 -118 118 -124 -124 118 -126 122 110 -122 124 -122 -16 -12 124 -4 -118 126 -12 -124 26 32 -114 124 104 104 -118 14 -114 122 -4 58 118 -122 120 -110 116 -122 -106 124 110 122 2 124 122 -122 114 94 124 126 -124 124 124 120 114 126 -42 -22 -124 122 -126 120 -114 124 126 -126 -122 -66 2 112 18 -30 118 -64 122 124 -24 120 -2 -78 -112 
-62 -124 126 -118 -18 -120 124 124 124 -124 -80 -116 124 118 -72 122 116 12 122 -126 10 -82 120 124 -122 -64 120 -34 -126 -124 -120 126 -124 124 -122 -124 -108 40 -120 -124 104 122 -120 124 -122 126 0 -128 -120 110 -126 122 -100 -118 -104 -124 118 -118 -120 50 126 -96 124 -124 88 114 8 122 114 120 118 -122 126 -124 122 -82 116 -124 124 122 126 -42 -104 16 126 126 -116 -88 122 -128 -34 -28 126 -24 -122 66 122 120 -126 122 -12 -86 -96 122 -120 126 34 -126 -124 120 -122 -56 -116 122 26 120 -68 -124 42 74 124 -126 46 126 104 -124 -92 122 -124 126 -122 124 -122 68 124 -124 34 4 120 -126 126 122 -124 -122 -126 -4 120 126 -112 -116 -14 -124 122 124 -122 -4 116 108 8 -116 -106 124 -124 -114 -68 114 126 112 116 -64 126 -22 -102 20 -122 122 -56 -68 112 104 126 -120 -120 -126 124 -124 -122 -122 20 -122 124 124 -124 -122 -96 124 -128 2 120 58 -126 28 124 -120 126 -126 28 126 -126 -124 118 -54 98 -118 -124 122 18 -120 -126 -74 -128 26 126 116 126 122 36 -124 -58 -2 -104 124 -122 -120 -122 86 -126 126 -118 8 34 112 120 -126 -124 -124 -124 -114 120 -92 122 -98 -102 -122 -16 -122 -106 -124 122 -126 -110 124 -126 126 126 -42 -38 78 118 -112 -122 118 -124 -126 -28 118 -118 14 -2 112 -42 -50 118 122 122 126 -122 -42 124 96 120 124 122 -124 -118 -122 -124 118 40 52 114 -122 -126 126 58 -118 -120 -122 14 80 -126 114 90 124 118 110 -124 120 -118 -124 -120 -124 -120 0 -112 124 124 -124 -126 122 108 -16 124 -122 -124 -46 124 42 -114 122 126 -126 -126 -122 -122 -108 -126 44 114 -110 60 -126 -126 -26 -118 126 126 -96 124 -126 124 -120 126 126 -122 -124 -126 -120 -124 124 108 122 -126 -116 88 122 -110 120 -108 -120 116 -124 124 124 -118 -120 -104 -122 126 124 120 98 122 122 -124 122 112 2 -120 -118 126 122 -116 -100 -124 -120 120 126 122 122 116 -106 -124 122 -108 -70 44 24 122 122 120 -122 -68 126 124 66 -122 -120 126 120 124 118 122 122 -124 116 66 104 122 62 64 -78 -122 -16 40 124 -120 -122 118 -116 120 -22 98 -116 -122 -124 94 -122 -18 -106 -122 -12 126 -122 126 116 122 -126 -124 126 124 120 124 122 -124 -120 126 122 -50 -118 122 -122 -122 -120 -122 124 124 -66 -34 -50 116 -128 122 -124 126 -116 -120 -124 122 124 122 8 20 122 -126 126 120 -10 -126 -122 -124 -120 
16 120 -120 126 -54 22 -106 116 124 -126 -62 -110 -120 24 -124 -126 112 26 122 26 -122 126 126 -122 -118 118 114 34 -50 118 -124 126 -106 -120 -124 56 -26 -72 -120 -116 -124 122 -78 -120 -98 126 2 122 -122 -122 -102 124 -124 122 124 110 114 -118 -116 76 124 -14 126 122 116 126 -18 120 -126 -122 110 124 126 -118 118 42 118 122 122 118 -122 122 46 -112 126 30 82 -6 -116 -70 54 26 116 -90 -118 -8 124 124 102 -122 40 -86 -122 120 -48 126 4 -126 120 -124 126 20 106 -120 -22 122 94 126 -40 122 124 -126 48 124 -114 -124 -122 124 -124 -120 98 -124 -116 -68 -120 -124 -14 6 -118 108 122 -120 120 -122 -2 120 52 -124 -122 -116 10 -124 -124 -120 108 80 -124 -126 -6 126 -12 38 26 -120 -38 -16 126 112 112 38 -124 -88 -38 -12 -116 122 -88 -126 42 -122 126 -120 -120 -124 -122 -122 114 122 -104 -122 20 -116 -78 -118 -118 114 122 0 -126 -16 -126 -12 124 -124 126 116 120 -20 -120 122 122 -10 78 116 126 120 -2 -124 -122 118 -126 -118 -120 116 122 -120 -20 88 124 36 -122 -116 82 -124 -110 -116 94 120 124 -90 22 -124 92 -126 122 -120 -124 18 118 -104 126 -124 18 -118 84 -118 -88 -68 124 -124 -116 122 -124 -112 126 70 32 -124 -62 96 -122 122 126 -124 68 120 -126 28 18 122 104 -24 112 118 122 -118 124 28 120 -122 124 126 102 -126 106 -72 -124 116 -30 4 -120 -118 -124 8 -32 120 118 -118 -114 -116 126 126 124 -118 92 -126 120 -36 120 -4 -124 116 66 88 -26 124 122 -124 -58 -122 54 122 126 -114 124 -22 124 -40 -118 -122 -110 -100 118 -108 -122 -56 -124 36 120 -32 36 82 -120 80 -112 -120 98 -104 122 -124 122 -122 126 -122 -122 -70 112 -118 62 120 74 120 112 126 118 34 -100 124 110 -76 -122 -124 -116 -124 38 -124 -120 -124 -110 126 -80 -116 -118 124 -78 -34 -118 114 -124 -122 -122 -128 126 -68 -118 -122 114 126 124 122 100 -2 -122 -122 122 -114 -10 18 110 126 118 124 -108 -120 120 84 126 -96 126 122 124 120 122 122 -124 -120 -110 126 -126 -16 118 126 122 -34 -48 126 -126 124 -122 -122 122 30 -30 120 -124 -122 114 -116 -116 -8 120 12 86 -122 -46 118 124 -80 122 -108 -124 100 -114 -10 -126 -120 124 122 44 -122 -124 120 -124 118 -102 116 -120 -44 34 -114 120 116 114 74 124 -122 -118 118 -124 80 122 -14 -42 -122 84 126 -62 -22 -102 -118 -124 -120 
-14 -126 122 124 86 64 114 -124 -126 -76 -122 -106 -122 -96 -24 -122 126 80 -78 118 -126 126 -122 124 124 0 -72 116 126 -122 -126 124 -84 -124 -76 44 14 -12 -122 -126 -122 -124 -18 120 -110 126 -20 124 122 56 126 60 -122 -118 -118 -86 114 -126 -124 96 122 28 -72 -84 4 -122 -72 -126 -126 -118 -120 120 -74 126 120 118 -128 -124 -128 120 -116 108 -82 116 124 58 50 -120 -114 -126 -40 -6 120 -108 -122 6 118 -126 -124 -122 52 114 122 120 -124 126 -96 -122 126 -120 -116 -4 -60 -100 -38 -126 70 -120 20 118 -94 -84 40 -32 -116 118 -126 -120 -98 -126 72 -124 -126 50 70 -124 -52 10 -124 -126 -118 -126 -86 -124 -54 -124 -126 122 126 126 -42 -116 -108 122 -124 112 -114 118 68 -118 -108 22 120 122 124 104 -90 122 120 -8 -118 -44 124 50 -118 124 28 124 18 -122 126 126 -120 -124 124 -110 120 -124 6 126 126 126 46 -110 -74 104 122 -24 -116 50 -124 122 -102 122 -124 -126 36 -126 122 126 -120 54 -122 126 122 118 -12 126 -126 -12 -124 -34 -118 122 -120 -26 -42 118 126 -114 82 -120 -56 -126 -120 -94 126 118 -128 120 72 10 102 -118 118 -120 -126 106 120 -52 118 -124 -120 126 -2 30 -122 48 -116 126 -122 126 -124 -124 126 -50 12 34 -24 88 -124 122 126 -126 -122 116 -124 -20 12 -46 -30 -2 120 -118 -116 -124 120 -48 122 114 122 -124 -48 -124 120 120 -126 -124 14 -40 124 -124 6 122 40 -106 -26 126 -98 126 100 38 116 -122 -120 122 122 0 -122 -124 -114 126 124 4 -120 126 18 -122 -116 -126 120 126 -120 -112 -122 20 126 -20 126 -28 124 -128 124 114 -116 -128 -96 -48 120 -74 108 118 -120 -122 -68 -28 -112 -108 -122 120 124 -126 124 -120 80 -120 -122 -88 126 -124 -10 16 118 126 -120 116 -46 -108 124 -108 120 -126 -122 10 82 118 122 116 -22 -122 -126 -124 112 120 124 124 -124 -96 126 -116 120 -128 122 -114 122 122 118 122 124 122 72 -128 -124 124 118 8 38 116 122 124 120 120 -120 -118 122 -112 126 122 126 124 64 -128 -122 -120 -124 -122 -122 -124 -120 -122 -124 122 96 24 62 126 -112 118 122 -126 114 -14 -10 -10 -128 -118 124 126 -114 -108 126 82 120 126 -120 118 126 -74 -126 6 -122 108 -100 -114 102 122 -116 114 118 122 -122 120 124 122 122 110 -122 46 -52 -118 -124 44 122 -122 126 126 120 -126 -122 -26 -120 46 108 -108 -88 124 120 -30 126 -8 -110 -116 
-16 -126 124 18 118 -122 88 -112 -68 -108 -84 122 -122 96 -12 -30 122 -66 126 124 -124 -124 -124 120 -32 8 16 -122 94 126 -128 126 -122 -96 -26 -110 -120 36 -104 -124 118 -122 12 124 -48 120 -4 -122 124 36 126 -104 -64 -112 120 46 114 120 -96 78 118 16 116 116 -82 -124 -28 120 -104 126 96 -64 -8 124 120 124 -128 -124 92 120 126 -108 28 -118 126 112 122 -98 -120 122 28 -86 124 -38 -104 -96 88 -128 126 -118 -40 -12 122 120 -124 126 -88 -122 -122 124 -54 -24 -30 120 -16 -64 118 -70 -4 122 120 120 106 -126 124 -118 -114 -90 122 -124 126 -118 122 108 126 -120 10 -2 34 116 -120 -90 48 -124 106 56 120 -124 -122 124 -44 114 -124 -2 -12 76 124 -124 -12 -124 -98 -90 120 114 122 -118 124 122 -122 -72 110 -78 -124 44 -106 62 -114 126 26 -124 124 -114 -74 -60 -118 -118 -118 -118 -6 118 126 120 -124 -118 124 -126 -80 -34 124 -8 -122 -124 -124 126 124 -126 -18 126 120 -122 122 18 122 126 -60 -120 -20 -118 120 28 -122 -8 -104 2 -122 122 54 -124 -110 -126 124 -120 -122 -122 -22 -66 -88 122 112 112 62 -124 120 112 118 -126 -124 -8 120 -4 -120 -118 -120 126 50 -70 -110 -72 -118 122 -124 124 -90 18 66 -20 -18 28 126 108 -124 124 -120 -126 64 -124 126 30 -14 114 92 -48 122 122 10 -112 -126 52 126 72 122 -126 22 112 124 -84 -124 -124 52 28 -58 122 -122 72 58 -122 -118 116 112 -2 126 -122 -124 -124 -122 0 122 116 -118 -124 -116 -124 122 -62 -114 126 -102 -122 126 -124 4 118 -116 110 -124 0 126 -112 126 -124 122 -52 108 -4 -12 -122 124 10 120 -122 122 122 -124 -38 -74 -40 126 -72 -116 -114 110 -116 122 116 124 -120 104 -118 -112 -124 38 2 88 -118 -118 52 -34 122 -122 -118 122 118 -126 126 -122 -122 124 -126 126 126 -30 -126 -124 118 126 126 -100 122 124 -124 124 -122 -104 -118 120 -116 -122 -122 124 116 26 114 100 120 120 36 4 -120 112 -124 122 122 -42 66 124 -54 -100 -126 120 116 126 -126 90 112 -124 124 -122 -50 -124 -122 118 -122 -124 -96 -48 -122 -50 122 38 -124 122 -8 114 -62 -124 -22 -120 -114 -116 -126 -114 58 120 -92 124 -122 -120 -108 -116 42 126 -38 124 20 116 -122 122 112 -20 -120 -118 120 -118 -104 122 100 122 -66 -34 120 -118 -126 -34 -124 120 126 -126 -126 120 22 -124 56 -114 116 -122 126 120 66 -120 24 126 6 
-18 -124 124 -106 118 126 -118 -118 124 -4 -76 -110 -36 -118 -24 -118 -72 -40 124 124 -124 -112 110 -120 124 -64 -114 -4 -126 124 -126 126 90 -122 -118 116 -108 8 20 -118 -126 -112 -46 -36 -38 -112 26 -124 126 -114 126 122 72 -124 114 2 108 120 22 -6 122 4 122 -116 94 126 46 122 28 122 -118 -122 0 126 122 56 -128 122 -94 -120 -86 -2 -16 -60 116 -126 124 44 -122 -84 -70 36 82 116 -112 120 -86 -96 124 0 48 14 -20 -6 -122 126 -42 -122 -124 -114 124 30 -62 -120 -60 116 120 126 26 122 -124 122 48 -96 122 -120 -124 126 120 -126 78 -124 -118 112 -116 -116 -16 36 -128 120 -122 -118 126 -122 -60 118 122 -124 126 122 -74 -122 -118 -124 124 126 116 120 20 -42 -92 -38 120 -10 126 4 124 124 122 34 -122 -120 50 14 -120 -26 88 124 -82 116 122 -60 -120 114 118 -122 120 124 38 116 124 -122 -124 -120 126 -126 124 -104 -96 6 -118 -42 -116 -122 106 -12 -124 44 -116 -116 124 48 -110 126 116 2 -26 -120 122 120 -124 -10 -120 -124 -122 -112 -26 -122 -122 -52 118 74 124 -122 -28 -94 -120 -124 -120 52 34 -30 124 -122 122 -126 -124 122 -38 96 120 -124 -84 118 -90 -124 -94 24 -124 120 102 124 24 -34 116 122 60 -124 -116 66 -124 72 88 118 -82 -122 126 14 -14 -122 10 -112 122 -124 124 10 110 -14 126 -108 122 -120 10 -124 -106 118 -124 -60 118 -22 -116 32 -114 74 8 116 124 -114 96 -124 126 114 -120 -124 120 -124 122 114 126 -12 -124 -126 126 -2 72 14 120 -94 124 -126 -18 120 -112 -48 60 -2 30 -126 118 -124 -126 54 122 26 -16 124 106 -20 -124 -124 60 122 12 -56 -122 48 -112 -68 -110 -120 -124 -116 122 122 126 -116 92 -120 124 -108 90 12 -4 112 116 -38 -18 124 118 124 120 -52 -124 -122 126 -122 118 120 -124 124 124 -124 120 -118 118 -122 -116 -126 -120 -120 124 112 122 -122 -120 124 12 126 120 -120 -110 124 122 118 126 -124 110 126 -124 -96 -126 90 -40 -110 -120 -4 108 118 124 4 124 -122 -120 126 -124 -20 -78 126 -124 -116 -126 80 124 -88 -78 -124 -122 126 126 -124 124 22 16 50 -122 -78 -124 -122 -72 -120 124 6 -82 122 -120 -118 -92 122 116 -88 124 122 -8 62 -124 96 -116 50 110 -116 -118 120 -110 122 124 94 -98 -126 -8 120 122 78 -52 116 -118 -120 -44 -126 120 -4 16 14 -122 112 124 126 42 122 124 18 126 124 
-20 -122 122 -120 -2 -124 124 -122 -30 94 32 114 -58 -72 6 30 120 -30 122 -122 -106 126 40 -62 122 24 -28 -114 66 74 -124 126 -108 -124 -94 88 -66 -2 -22 -88 -60 -106 -8 32 -124 -122 -8 124 126 122 -94 -28 108 -124 124 -2 -8 124 -44 100 124 22 -120 116 -56 8 -52 126 98 124 24 -122 118 110 -78 -20 -124 94 -96 20 118 -118 14 -68 126 -126 120 106 12 -126 2 20 88 122 -106 76 12 -122 124 34 -64 52 26 -120 -124 126 -38 -112 -122 92 -122 -18 110 110 -120 -120 50 -122 42 120 126 124 58 -100 126 -26 -126 122 122 -120 -56 -124 -22 34 96 -84 2 -6 -32 126 -54 -122 54 -90 -28 -128 -126 118 -118 122 -58 -88 104 -82 0 124 120 -122 -52 -114 -126 -48 118 72 114 20 98 126 108 -124 -120 -124 120 8 100 -82 -42 124 4 118 -120 124 -114 -12 -108 92 124 -110 -48 -114 120 118 -24 -112 126 -108 122 4 -122 -10 122 120 -58 102 -120 -124 -124 -120 -76 -116 -110 40 -120 -120 -98 -116 8 124 116 -104 -114 -14 -118 -114 -124 120 -58 -52 -120 -38 -126 -80 32 -126 -120 14 66 -20 -120 98 -120 66 124 -52 110 -108 -118 4 -108 16 -110 -124 -120 116 -96 -118 -122 -42 -126 108 120 126 100 -116 122 8 -14 70 6 30 -124 34 -120 -124 126 -124 126 48 -30 -84 -88 -108 116 -122 4 -112 38 -30 124 -116 116 -124 10 120 -124 68 -80 122 44 40 -70 -122 -124 18 0 72 118 -108 88 124 -110 124 -126 120 -78 124 -4 122 50 -62 -120 -52 126 52 20 124 -126 124 108 -116 16 126 -120 -110 98 -2 -94 -112 122 -124 122 -50 102 120 110 122 114 -40 -24 -116 8 122 -64 72 -116 116 -106 -118 80 -68 -118 76 126 124 118 -126 38 8 118 -8 90 86 118 -58 -116 126 -46 -62 -124 -26 36 -118 -104 110 -124 92 124 124 120 126 116 -124 -88 -120 120 118 64 126 -118 -112 126 118 -2 -122 122 -118 124 114 122 -122 -118 -88 122 120 126 70 104 -124 -122 -116 2 -120 114 116 -94 28 -12 32 126 -128 114 -110 -122 124 -120 -112 -112 -122 -26 -100 122 46 2 -100 -26 -126 -82 -76 118 -124 122 24 70 98 94 -20 -120 -118 112 -122 122 -22 86 -124 -46 -120 118 52 -122 40 -120 98 -76 116 -68 122 46 64 -52 -124 22 118 -108 116 52 110 72 -122 -12 98 20 -64 -122 106 112 -50 120 -124 116 126 -118 68 100 -118 34 122 112 126 124 40 30 122 
-14 24 124 -110 86 126 -86 106 -124 -14 118 118 -8 -74 56 120 76 62 124 -110 88 -104 126 -104 114 14 -82 -60 126 124 -124 124 -118 -120 -120 102 -106 -34 -16 10 -124 -106 110 -104 -120 -122 8 50 114 -28 -104 120 124 -120 104 114 116 126 -52 6 124 0 -114 20 20 -124 112 -108 118 124 -108 -124 116 -114 -126 -98 -120 120 120 -120 112 -100 44 -8 126 -124 124 98 -114 -88 26 0 84 122 92 88 112 -90 124 -36 62 -56 120 -122 100 118 68 40 -124 70 124 -16 72 6 -120 -36 -22 -78 28 40 -70 120 70 -122 108 124 -102 124 126 -124 -122 68 118 -24 70 126 14 -34 120 118 72 -32 -88 14 0 122 -108 40 126 40 12 -118 -30 16 112 126 112 120 -100 -122 -124 -40 -30 -118 -86 -2 116 124 76 -120 -58 -126 -126 -2 122 -124 28 126 38 118 -124 -120 -124 126 -28 122 118 116 96 -118 122 120 62 68 122 -122 120 14 122 -44 126 -126 -42 110 -124 -124 124 126 -124 -116 -108 70 -22 74 32 30 0 -122 -118 54 -96 -116 -110 -108 -100 34 -42 -124 -120 -32 -124 -82 58 -118 -118 18 28 22 -110 56 -122 -16 124 80 -126 98 -108 52 -116 76 -124 -124 -124 -124 108 28 -48 44 -108 -112 126 126 50 58 58 -34 16 -60 126 86 -124 126 -122 -122 88 26 126 44 -4 -26 -42 -4 94 70 -88 -118 -86 -14 122 -106 124 46 104 116 -124 118 124 122 4 30 -118 -110 -118 -28 -8 118 124 -124 94 -118 -114 100 -122 124 -6 -124 -120 122 116 8 120 124 116 -110 92 -114 -124 124 124 56 -92 124 36 -114 -76 24 74 -104 -116 -126 22 -118 -42 126 72 126 124 32 0 -110 -4 120 104 34 -74 120 20 -118 124 -120 114 124 124 122 120 -126 -88 -112 -88 22 84 122 122 46 -116 126 82 124 -122 -100 -120 -124 -120 -92 124 126 124 42 116 -118 -124 -124 -98 -122 14 -118 62 -116 -10 -124 -96 118 -122 10 74 24 24 102 120 102 -120 -120 122 -20 124 74 86 70 -126 -16 -120 -108 116 48 -34 -108 -6 26 124 -126 124 34 -122 124 -108 0 -108 32 -58 52 -80 112 -120 -58 6 -124 -76 -120 -76 -124 116 -40 -16 104 124 -32 -72 48 108 -126 -100 -38 -118 -118 124 -118 126 -124 -112 -22 12 106 102 114 122 126 110 56 -2 -126 -120 116 26 114 46 102 24 -122 14 34 54 118 -122 114 120 -120 -120 -24 56 124 -116 2 124 -124 -24 120 110 120 122 14 10 -60 
20 124 124 -92 96 -116 -84 124 120 58 70 120 124 -124 6 122 50 8 104 106 -60 -84 120 96 38 -70 -104 26 -126 126 -126 124 -40 -70 -118 108 -30 -32 -92 -120 -122 -126 126 10 -108 -120 0 -120 -6 -4 114 120 126 -122 -116 120 124 126 -36 -28 124 22 -78 26 62 126 74 -124 -100 -124 -120 118 -100 -124 118 -30 -122 124 36 -120 -102 -22 -20 -116 122 70 108 114 -122 118 14 52 112 78 60 -54 68 20 120 -120 10 -12 126 -38 108 124 -100 112 -120 -42 -16 10 64 -120 -6 48 -124 122 34 -4 -74 -80 26 -114 -54 120 -114 60 -118 -124 24 126 124 -20 126 122 -4 -20 124 -120 124 -94 -104 116 6 -18 114 116 -118 -114 28 -110 -120 -54 114 124 120 -124 -44 -122 -126 -50 -114 -108 16 120 -108 126 -122 -56 104 -124 94 -24 124 -126 114 122 32 -98 -120 122 -118 112 14 124 120 124 2 -124 108 120 -46 122 -54 -124 122 -2 -126 -60 120 -126 -124 -88 -122 -122 126 -126 -122 -116 -122 26 -124 122 -2 126 6 120 -126 34 -124 -78 118 -126 -124 40 46 -118 -118 -42 94 126 24 -124 -74 -118 -82 122 -70 -98 -126 20 126 62 -120 120 -108 126 -124 0 -122 -124 -126 -124 102 10 108 6 80 -118 126 120 -26 16 124 124 36 -50 -122 88 -124 124 120 -126 -80 120 122 86 28 56 -18 -84 54 122 -54 -118 96 8 124 42 122 120 52 -118 114 108 122 104 -20 38 -122 -122 -124 -66 -56 -102 58 -122 70 124 -118 126 -120 126 68 118 -118 116 120 -4 122 122 -62 22 122 -118 -70 126 126 122 -126 -98 -114 -126 -118 -20 -100 -120 -122 112 -126 92 -116 122 -112 126 124 -20 -42 -48 52 120 82 -108 -40 -116 58 -126 110 120 78 124 122 120 124 -126 44 -124 -124 102 106 56 126 124 -126 126 108 114 -64 -116 92 -126 -122 50 -122 120 124 -126 124 -118 -88 -124 118 -124 112 -120 -92 14 124 -118 -122 114 -118 126 -104 124 -22 -122 114 122 -122 124 122 -124 124 120 116 124 -126 122 -126 -78 88 124 126 -108 124 62 124 -126 122 -126 -124 110 -124 -124 -116 124 56 124 24 112 124 54 118 -126 -74 -126 -108 -126 -120 2 56 34 120 -68 124 124 -2 -128 -118 -34 -124 66 -124 -96 -78 -124 -124 6 126 124 -14 120 -126 122 -124 -4 -28 -126 -58 120 118 124 -126 122 -124 -70 16 -122 -116 124 -124 116 100 -114 -120 108 -124 106 -124 -108 -124 -122 -124 120 -122 2 116 22 82 -116 
18 124 126 -98 56 112 -120 124 -98 124 -116 122 124 -122 -110 124 66 -104 0 -110 -122 -66 -124 -30 -120 -46 -84 66 -72 124 -126 124 124 124 -100 -124 2 -16 -10 -118 122 -80 124 114 -54 -72 -12 126 -124 16 126 98 124 -112 -126 72 -110 114 -84 -4 124 -6 118 -30 126 -118 88 -112 -112 -122 18 124 -122 38 114 64 -124 120 122 -122 -122 -28 10 -12 -22 120 -38 116 -118 122 72 -12 126 -126 -28 -122 114 112 126 -118 -44 -48 126 82 126 126 -120 46 -120 -22 10 -30 -30 -42 -110 -70 -118 -124 66 88 92 90 30 -24 -124 122 -110 -120 -124 -126 124 124 56 90 76 124 28 74 124 -120 126 70 -118 126 -70 -126 -98 124 122 -116 -10 -126 -120 -126 -68 126 124 100 50 -122 -126 -84 -124 -122 -122 126 118 124 -122 -20 120 126 18 -46 120 -124 -64 124 24 -122 -118 -112 -116 -14 118 126 106 -118 68 -116 -90 122 -8 122 -120 -124 114 22 116 -68 -118 124 -124 94 -96 -120 126 68 112 -118 -124 40 -120 118 -26 106 -12 -120 102 90 -116 2 124 -120 -116 14 -12 124 -118 0 -84 126 -122 -122 -106 -60 -26 124 -2 -124 -34 48 -118 -112 -24 118 126 114 124 -18 -122 122 -124 106 6 -52 124 24 -124 -122 124 16 48 -46 118 124 12 -26 126 120 -118 114 126 -124 -18 120 -110 98 70 122 30 -18 -110 124 124 -124 -124 -58 126 80 124 124 6 -122 124 -116 126 -124 -114 -10 -114 -122 -122 8 -38 -120 -78 -112 110 -126 126 122 124 122 -12 -126 -120 0 120 24 106 56 -108 -122 126 -122 -126 126 118 120 -68 -124 -108 -122 -106 28 -124 -100 120 122 122 122 -122 90 110 -20 124 -2 114 -100 18 122 122 -124 24 -126 122 -126 114 124 -120 126 126 118 116 -126 -72 -10 -120 96 84 110 -20 120 22 126 -120 126 -122 -114 120 -126 -124 8 112 -118 120 -126 120 -48 120 -126 -90 -126 72 -116 -114 124 124 -124 -120 -122 52 126 -120 124 -66 -118 124 0 -122 110 126 124 124 108 76 -126 -82 126 -122 58 -52 122 122 102 90 -38 124 -124 118 -122 -126 120 124 -102 -124 -122 124 124 42 26 -122 -110 108 -124 -92 68 -114 -126 -122 14 40 -68 38 -98 118 124 52 -122 -122 22 -122 120 118 -118 -122 -106 -122 80 -120 112 84 122 106 -124 -124 -28 0 126 -34 -126 124 68 -118 44 -122 124 28 -110 -120 -118 -126 -124 -126 122 -122 102 -122 6 -122 -122 -124 94 -112 126 -122 -126 -122 -46 112 28 
8 104 126 -116 -108 16 62 100 90 -52 -122 120 -66 -120 126 124 122 -26 -98 -126 -122 24 -124 -118 -122 -50 118 104 116 122 -124 122 120 126 -114 -124 -88 -90 -78 -122 116 124 -94 126 -40 126 -50 -124 120 24 126 -120 70 122 14 102 -118 126 -8 30 126 -34 122 108 126 122 -62 124 -126 -88 88 122 108 124 102 92 -110 118 122 -102 -110 -114 -22 4 -122 124 12 120 -120 124 106 60 126 -126 -100 -120 102 120 122 126 -8 -120 -124 -122 122 124 -38 -40 -14 -88 20 4 -20 -120 26 -124 126 124 10 -52 -8 -122 76 0 -122 120 -110 -114 -88 -114 60 -114 -124 44 -120 120 12 100 -120 -82 122 32 -96 126 64 118 -24 126 -118 -86 6 -126 104 -122 -24 124 120 -42 -124 -124 -128 10 -110 -122 -98 -52 124 124 -112 -22 -124 126 -124 28 -2 -124 -64 124 -36 -106 -116 108 -122 -118 -64 116 118 -122 -46 120 -116 124 94 -120 -14 -124 -46 36 -108 -4 -124 122 -126 -86 116 -122 -124 8 120 110 -122 62 -118 120 30 -120 2 124 120 120 -120 70 116 -108 44 2 40 126 -116 -28 -20 124 -122 -124 -120 126 2 -120 -118 -122 124 18 -126 -124 116 116 118 -6 120 -42 124 122 -126 124 -74 -48 124 -56 -124 -80 -122 -40 54 -122 -122 124 24 -8 -102 112 -66 126 122 36 118 120 -118 92 24 12 6 80 -86 -34 126 -126 12 -56 126 -14 -40 120 -46 -100 66 -122 124 -126 28 22 122 124 -124 -36 122 -84 120 -114 118 122 126 126 108 124 20 120 124 -46 -112 30 -124 -122 -2 -118 126 -112 -122 58 120 -124 -66 -122 -124 -124 116 12 -118 -118 124 122 -126 118 42 -122 116 124 -120 -70 76 -30 -104 124 44 -118 114 -124 124 -124 -122 -104 -122 126 126 -126 122 -74 56 124 106 -8 122 112 -116 126 122 126 -124 124 42 -118 120 -124 -120 -64 -120 -118 124 -52 -112 126 -10 -124 124 0 -40 122 -76 -122 120 -124 -116 -122 122 124 -124 22 20 124 126 -112 94 -124 110 126 126 10 -26 -120 -124 126 -72 120 -28 118 -78 122 -124 74 124 -122 124 118 -126 122 122 116 -126 118 -34 120 -12 -122 60 4 -122 -124 36 116 -122 -126 -124 -24 -50 -118 -46 -10 -124 104 116 -124 -120 58 122 124 -108 -104 -118 120 -122 -36 124 28 126 126 -84 -124 -122 -48 116 114 108 -124 114 -20 124 8 -120 126 32 -54 -114 -124 -118 -124 -124 124 116 78 -112 -120 -110 -102 126 126 120 126 -122 -124 -122 -86 -118 112 
-18 -126 120 124 -126 -108 124 110 -32 112 -68 122 -124 -120 126 -112 126 -104 -122 -116 -90 -6 -122 -122 -120 -22 106 -96 -126 122 -124 122 -116 124 -116 -104 38 42 -94 -122 66 126 -124 100 -114 126 -26 50 122 22 126 -126 90 126 120 -50 100 126 -114 -60 124 -32 120 -120 -16 -60 22 126 -124 42 122 124 126 118 -122 102 120 104 120 118 120 -124 -120 -18 -124 122 54 8 124 124 -40 -28 126 -128 -112 -118 126 120 126 118 50 -118 -120 -126 118 126 -38 -122 122 -26 -10 -10 118 -124 88 -122 122 -124 -8 -82 -60 -122 8 -108 -80 124 -120 118 122 88 -116 -120 -124 -26 -118 118 32 -106 -122 120 -116 124 -126 126 -18 -22 122 118 108 122 -12 -126 122 -120 -116 120 116 -62 -38 118 -122 48 120 -122 -92 -26 -56 120 -106 -36 -126 126 118 -28 124 -118 -70 118 12 -120 14 -38 -118 -100 60 -126 -102 -120 44 122 -120 124 118 -126 12 120 -124 -20 94 -30 -126 -66 14 32 -124 -14 -68 -70 -32 124 -124 -26 122 -118 118 -116 10 114 112 -108 -114 64 -122 116 122 16 30 -122 72 -78 24 -82 -108 -74 -122 122 52 -122 -124 124 124 -122 -128 -124 -122 122 118 -112 120 -18 126 126 -124 124 116 -44 120 -46 -122 118 -118 -8 -118 -124 -120 -98 16 34 126 114 -118 122 120 124 -54 124 -120 40 2 -120 14 -74 34 -126 124 -124 -4 14 124 104 -124 -40 -72 -116 -112 -118 122 -120 -30 -2 124 126 -116 -48 110 28 124 124 120 -120 -68 -94 -112 118 -114 -84 126 10 -122 -92 -116 -122 78 116 126 -124 -120 126 124 -122 122 -108 -124 -72 -122 8 -116 -120 124 120 -126 126 124 -124 66 114 -124 -10 -90 -60 -108 80 102 124 122 -106 120 112 -126 -116 -124 122 126 -124 114 112 -116 124 120 -94 110 -36 -124 124 64 -118 -126 124 124 -118 118 -126 -108 100 120 118 124 118 -122 -88 -118 -122 6 -116 -116 118 -2 56 122 -120 -118 118 -62 124 -120 124 122 124 120 122 114 -22 -126 -108 126 38 -64 122 -26 126 -20 -92 -106 -114 -124 28 -118 -64 114 -120 126 120 -122 126 122 124 -98 -26 -124 102 -2 -122 64 58 -124 -124 -82 -122 30 -126 102 8 -20 -110 116 46 -126 -120 42 -124 112 8 126 106 116 -114 -116 122 -122 -38 -44 90 124 126 8 -124 120 -56 68 106 120 -122 -48 -86 124 12 124 112 10 -86 122 -70 -120 -104 -124 122 122 124 -122 -122 124 -70 114 96 124 126 -116 -116 -124 -40 -118 -108 
6 -126 122 126 -106 126 122 -122 46 -64 122 -44 -122 -126 126 -120 126 -16 -118 126 4 -34 -124 -116 -122 -28 12 -98 6 -126 -122 124 -124 54 -100 38 -102 -42 -30 -124 -124 34 -120 -120 -116 124 58 12 126 -24 94 -124 64 122 112 -124 118 126 -20 20 124 -80 118 44 -116 16 12 124 -50 126 70 120 -116 -124 -126 110 118 -124 -92 122 124 -122 16 -116 -126 -122 96 116 120 -20 72 -16 126 -122 -118 94 2 108 126 -120 14 80 -110 -110 -56 126 -80 -126 124 0 -16 -22 110 -124 126 120 -126 42 2 -2 -46 64 14 -70 122 -26 -98 122 126 124 -120 108 -126 -104 -46 106 24 -104 -112 124 -120 122 -124 124 48 -50 -124 116 -70 102 22 86 120 -122 -90 126 122 48 -60 126 98 -84 120 116 106 64 -126 124 -58 8 120 126 -128 -22 124 78 -60 122 4 -126 90 16 -126 122 -118 -124 -118 120 -88 126 -116 124 120 -122 -110 122 -86 -50 -38 -54 -122 4 120 -6 -126 118 122 98 -124 124 -100 -36 126 -120 -66 124 -12 98 -122 -114 -40 22 -126 120 124 -8 28 -126 120 -80 -70 -120 118 -92 -124 -36 30 122 -126 124 124 -122 -126 -126 -124 124 118 -2 124 54 126 124 -122 94 126 -72 118 -8 118 124 -106 74 -112 -20 -90 -128 28 8 -118 116 -122 -110 108 114 -20 -6 92 2 -34 -106 102 46 126 -120 114 -126 46 26 86 6 -122 58 -2 -118 -126 102 -46 -28 -74 64 120 122 -114 10 22 4 124 126 -34 118 -120 -124 -120 118 -88 -106 122 -12 -124 -84 18 -44 -40 38 120 -124 104 124 124 20 126 -4 -24 124 -124 -2 -116 -88 120 120 84 124 28 -122 124 0 -102 40 -122 -60 46 -126 118 126 126 124 -46 126 -124 -118 -118 124 126 -116 84 108 54 52 106 4 92 -118 -126 110 -122 -124 -124 120 126 124 52 -126 -38 -20 -118 122 124 -112 -122 -122 122 -124 -116 -126 -114 108 78 58 116 -112 -122 126 -120 124 -126 124 124 -126 -126 126 78 64 -126 -116 120 22 -112 122 -118 126 112 -124 78 -80 -78 -110 122 48 100 -118 126 120 -62 120 -112 124 48 -2 -126 -122 22 -110 -96 60 126 -122 -90 -122 122 -116 122 -10 -38 -80 118 -24 -126 -122 -118 -126 126 8 86 106 -74 126 -124 118 -122 -10 -36 120 30 -106 8 -16 120 -94 -116 70 116 116 -126 -124 -6 -58 126 110 -14 56 120 124 -124 126 -122 -114 82 122 -122 -122 126 -72 -122 -126 118 126 -118 -108 -126 -60 -110 -120 
44 -98 118 126 -50 -120 112 -124 -40 18 124 -118 -124 -126 110 -116 122 -122 -114 122 118 -72 -124 122 -88 0 -26 110 80 -124 -116 126 -44 -122 -48 88 110 -12 -72 -116 -90 112 -124 -50 -90 96 -14 -100 126 114 -100 -124 -40 124 114 -126 86 122 10 84 124 -36 122 -18 -124 56 8 92 112 8 -74 -64 -46 -122 -122 -112 116 -126 -126 122 126 -92 10 38 -124 -78 118 118 -122 -118 40 46 50 -118 -58 126 -48 -124 126 -124 -34 54 126 -118 -124 126 -36 -126 102 120 16 -24 -20 122 70 124 -124 -64 -12 32 104 114 46 -52 122 -120 36 -24 124 122 52 70 -126 118 124 -126 -104 126 -26 124 116 16 -124 126 4 122 -34 -16 32 -124 2 58 -124 -120 -82 124 122 -20 24 -48 124 12 120 118 122 82 -124 124 122 -40 124 126 96 -34 124 122 -4 124 124 -126 -110 18 -126 116 0 -118 -124 120 22 126 -122 120 118 120 2 90 116 14 14 28 -126 50 122 10 -122 112 -74 -68 -126 120 118 42 124 -106 -116 124 -2 18 -126 -118 -16 -26 -116 122 114 60 -44 -98 -122 64 -8 -118 58 0 -100 -66 -78 126 -128 38 126 -124 -128 66 -126 98 122 -20 122 -44 120 124 -126 -122 124 30 110 -14 -122 118 120 118 -14 112 116 -124 16 28 124 106 -124 -124 -124 102 20 -124 126 44 -66 110 -80 30 100 -120 -114 -122 28 26 -124 -74 102 124 -36 -118 -124 116 -122 -126 -114 4 72 -26 -118 -68 114 32 -112 122 -112 -120 124 -124 74 120 -38 106 126 -114 120 76 124 116 -26 16 22 120 120 118 116 118 120 -118 22 120 -116 -86 -120 16 122 -116 -118 126 -114 -122 46 -78 126 8 16 32 76 -126 84 126 34 118 -120 126 34 -66 122 126 126 -116 -2 126 108 -122 -118 14 40 -42 4 -124 -82 -122 126 48 126 118 -126 -128 122 0 72 78 126 -122 66 -114 -88 -124 -124 -126 -124 118 -10 -122 122 120 -116 120 -116 124 -124 124 124 -126 -126 124 124 -92 -120 -118 120 118 -118 -124 -120 126 112 -124 -126 122 -14 -118 50 22 -126 -120 126 122 120 112 -124 116 124 -12 -108 -120 -14 122 4 -78 126 -122 72 -106 126 102 -72 -12 32 -2 56 -36 -126 -118 -124 -124 122 18 -122 108 -28 124 -124 124 -116 34 48 124 -52 -126 -24 124 -116 -116 -112 126 116 122 -106 -124 -120 -40 -66 126 -20 -32 -124 122 120 126 -122 52 -126 14 -124 -122 116 118 -96 -124 48 126 -124 -74 -118 -2 70 126 
24 120 124 124 124 104 -106 -114 2 104 126 -100 116 118 92 -120 116 -122 120 126 126 -14 -60 122 -72 110 36 118 -66 -116 -118 126 120 -82 -124 114 116 8 -118 -126 50 110 -96 126 -82 54 -32 60 70 -6 -86 -122 -126 122 122 -86 68 124 116 10 124 -32 122 22 -126 -52 78 -120 124 -114 -118 -124 98 -124 120 -126 124 -126 -118 -116 126 -124 -22 120 -124 104 62 114 -120 -124 124 -28 98 -120 8 122 -88 -86 126 120 -20 70 126 114 -120 120 -52 120 -98 126 -26 22 -124 126 116 -28 -4 32 70 -124 66 122 6 124 122 -118 78 -108 124 -76 122 -116 -114 124 126 -126 40 126 116 126 126 44 -38 126 14 -110 -60 -122 -24 -124 34 -28 -126 124 -24 124 126 40 -14 -124 120 52 122 -122 122 -36 -118 126 120 -108 -120 116 -92 4 122 94 -74 126 126 40 -102 -32 -120 -124 -28 -122 -120 114 0 114 -118 -110 -68 124 -2 26 120 112 10 44 -124 -72 -124 24 24 114 -54 60 54 118 118 -44 126 94 -84 -124 4 -22 -126 -56 -2 -122 -110 122 42 -14 -26 124 -122 -102 -30 118 -116 -114 -94 118 -14 124 -124 30 46 24 -124 122 -124 86 116 116 6 50 -114 122 -126 -124 122 -16 -28 -12 -122 -124 112 126 -14 104 82 -112 -12 -8 -116 116 -82 -124 -106 118 54 -124 118 18 110 -68 48 -2 -30 -118 -122 -108 32 120 -122 -100 120 124 -14 126 -120 118 -126 -124 -126 -94 -122 -122 -120 -118 -4 22 -124 58 -118 70 126 -120 126 124 122 -120 126 -118 120 106 122 118 -102 -24 -126 126 124 118 124 8 116 -118 16 -124 126 -112 -124 110 124 -126 104 126 -108 -120 34 98 120 2 12 -100 110 -124 28 -124 -116 124 -118 124 -122 54 118 122 126 -124 -114 122 12 -122 -112 122 76 36 120 -126 120 -120 126 -126 124 122 -124 -126 122 -4 -20 -124 126 -122 126 126 -10 -116 -112 -124 -124 118 -94 120 124 122 124 -120 -118 4 -120 124 -122 118 -124 -116 124 124 122 -118 126 4 -120 -104 -126 124 120 -122 -106 116 -120 -124 -122 110 -126 -124 126 126 124 116 -122 -122 124 32 126 -124 -20 124 -24 -94 -92 -106 126 12 126 120 -114 32 -22 74 -122 22 -126 -120 -126 122 -122 104 -122 -28 -6 118 -122 -94 126 6 -68 126 -120 -122 -4 126 -124 -66 -110 118 120 122 -36 -108 -122 -74 -110 126 12 58 -114 126 122 -84 -120 120 -126 -128 -124 -124 -110 126 124 -124 -92 126 110 -44 -30 30 -48 126 
-14 124 126 -114 126 -78 -24 122 20 -112 92 126 124 122 126 -110 86 -122 96 122 126 -14 126 124 30 120 60 -2 88 -124 -120 126 114 124 -126 112 112 -124 -116 -126 118 96 126 80 -126 36 -42 -56 -120 -14 -12 -68 -124 -122 40 126 -120 84 126 -122 124 -88 120 0 -108 36 60 -122 120 -104 -122 -124 6 -102 124 -124 122 -126 -124 -124 -122 -120 -128 112 122 -100 88 124 -122 116 124 116 46 104 -56 122 -122 114 122 122 52 4 126 122 -124 122 -122 120 -54 126 8 -4 -116 126 62 -126 24 -4 -20 -126 36 58 44 126 124 -26 32 -64 122 -126 28 -124 120 -112 122 -120 -44 -128 98 -122 122 122 -70 122 -56 72 -4 -118 -34 -112 38 122 68 126 -60 -114 -120 -16 24 -122 118 -22 120 -122 126 -38 -78 126 -100 -98 -122 54 118 -20 8 -58 -120 124 124 118 126 30 -108 -126 -2 -122 124 124 58 -118 -106 -122 42 126 94 116 118 126 -8 58 -122 -8 -124 62 102 118 8 -16 116 -16 124 -18 124 124 126 -122 -40 -96 -126 90 -42 24 -122 120 18 38 -114 124 16 -126 48 118 44 -120 -92 0 -70 -108 68 122 2 120 -122 118 -90 122 124 66 -124 -12 -120 124 -124 -46 -126 118 -112 -18 -124 -126 116 32 98 50 -104 78 -12 -10 76 122 116 -124 124 124 112 -122 -16 -44 126 -118 -24 86 68 -122 -22 -116 -40 40 -122 90 122 124 -68 126 -124 96 -124 -126 68 32 -122 -124 -118 -88 98 -52 -118 -94 -62 -50 120 120 122 124 126 100 68 20 -116 -122 -38 -124 -124 -34 -126 126 124 118 124 -122 62 -116 -54 -126 -126 124 -124 -74 124 -128 -14 58 110 -12 -124 24 -104 116 34 -72 94 -120 54 -126 -62 120 120 118 -124 8 110 114 126 -124 -116 82 -98 -120 -112 -76 88 -36 126 -126 124 -88 16 -124 126 106 122 124 120 -56 -12 -124 -122 -122 126 126 110 -122 120 118 -122 -122 -32 -90 122 116 122 -126 -108 26 120 124 -108 124 -126 -122 122 -10 122 -122 124 92 -118 120 -100 -56 120 -122 -68 -122 -124 -24 -120 -28 -126 -122 124 -122 -100 74 114 54 84 -42 122 -122 6 -8 -12 -44 -116 -88 114 -106 -116 120 -120 42 86 -20 -114 38 -30 -110 -48 124 -126 116 -124 -126 -4 -124 116 -122 126 -96 54 122 -118 -124 -8 -74 -94 -90 -78 -112 124 98 -118 -116 -122 -82 -36 126 -126 -112 -124 124 124 -114 -116 -114 50 -126 -122 -120 -122 122 -44 -122 -96 126 124 -46 -56 8 -28 122 
-22 120 124 -120 124 14 -124 40 -30 122 118 124 124 122 124 -124 -68 94 -122 122 124 122 126 124 126 72 -120 -122 -44 -118 -124 126 -122 120 -128 78 -110 -126 -120 -124 108 -126 126 -40 -126 -50 -24 76 -116 48 16 118 -78 -106 -64 124 -106 -118 114 -122 124 -22 80 38 116 -58 -40 -24 122 114 56 -36 -22 122 118 4 112 110 -124 10 -122 -70 -90 -120 126 56 -68 40 120 122 66 52 126 118 68 122 -118 -24 122 40 120 -94 126 30 -124 -86 -86 120 124 126 20 46 34 122 126 116 -126 8 64 -120 -74 60 58 -108 122 -124 122 -60 114 114 -120 -128 122 -94 -120 -10 -126 -126 -116 -120 -106 122 -118 118 -34 -14 124 -122 -22 -54 -16 124 118 118 -92 -124 -120 12 16 -120 118 122 112 -124 34 -60 -122 126 -122 30 -124 64 -104 -58 -110 -112 60 -92 124 122 124 -24 72 52 84 -124 124 124 -2 -120 126 -120 116 126 -58 116 108 126 -20 46 -118 62 -126 -4 122 38 -112 -18 114 -122 -110 20 -116 116 86 -94 -10 -114 -34 80 -56 78 -106 120 118 -32 16 -122 -90 -106 -68 -126 126 -72 -18 -128 72 -42 118 -14 -14 104 -124 -126 -118 50 124 -24 -126 62 -118 124 -76 -124 -126 16 -120 -24 -126 -122 -42 -106 18 -124 -122 -90 0 44 -56 120 -24 -124 124 126 -92 -122 -118 -18 122 122 -96 16 124 -128 -120 -124 -92 -126 64 -82 126 42 60 126 122 -124 124 118 -122 8 -118 122 -116 -50 54 82 -126 -126 122 32 118 124 126 -122 -20 -62 0 80 -124 -122 -120 -124 -106 -16 -124 126 118 116 122 -122 -116 -116 120 -112 -122 126 -122 -124 122 -52 116 122 122 122 -10 -22 -112 82 48 -22 80 -38 124 112 126 68 -44 24 -124 -126 -124 124 126 -122 64 40 124 -110 -110 -86 104 -126 86 -124 24 40 -78 -122 126 -122 124 124 -126 38 14 126 -126 -126 124 126 -114 -100 98 122 122 -124 -122 62 120 -120 120 122 126 -118 118 74 122 118 -120 124 46 24 -114 -122 124 -96 -120 -78 -124 -120 112 40 122 124 -122 120 64 0 -126 -120 122 -122 -126 -82 122 122 -122 38 124 82 14 -118 32 -22 126 122 -20 -112 -120 54 -118 -12 -14 80 124 -4 126 122 120 126 -124 122 -122 -124 54 124 120 -112 122 -20 -10 124 -52 -124 -30 -124 -118 -46 126 116 -124 -116 42 -116 8 -80 64 126 122 -128 -126 124 -120 -104 -122 2 124 -122 124 -118 -108 126 -66 -120 116 126 116 -74 -46 -122 12 -78 
-24 -120 124 -110 126 20 -124 -82 12 122 124 -114 -124 120 124 -122 118 126 -126 50 126 2 46 122 34 2 -92 -40 14 -122 -122 126 -114 118 -126 64 -110 -122 -126 -126 -94 -114 126 6 -124 112 46 -56 -110 -38 84 -114 124 124 -118 -54 -120 -120 -96 -108 126 -50 6 28 44 38 122 126 -56 -86 116 18 14 114 -120 126 -94 122 116 126 -122 -8 118 -88 124 32 -124 -126 126 122 -118 -46 124 16 -64 124 118 -126 -70 -122 124 -82 126 -118 122 -118 40 120 126 4 30 -10 -96 118 124 126 -122 -2 40 118 30 -62 32 -120 124 -126 124 124 -126 124 -34 -126 120 -82 -124 -118 126 126 -114 126 -122 118 -120 124 -22 20 -48 -2 -16 -122 -90 110 124 122 -94 -126 -124 -22 -66 120 114 124 -126 -124 -54 118 -124 124 -124 90 124 -28 62 26 -50 -52 -90 -124 126 126 120 -12 118 122 -42 120 -12 120 -96 -120 122 -122 96 106 -30 -82 120 126 -30 -104 -122 -60 -126 70 124 -118 90 -8 -78 -122 -122 2 -122 40 62 -116 24 120 118 80 -116 32 16 122 114 24 -78 -110 -4 -26 60 -124 110 118 -106 -4 88 -104 120 -98 -50 -126 -68 -114 -122 98 124 32 -108 28 -120 120 -34 -120 -124 54 -122 -10 -126 -122 -100 42 -102 -116 -58 -22 -36 -26 18 126 -100 -54 -106 124 -70 -122 122 14 -126 122 124 96 122 -92 -120 -124 -46 -124 114 -124 122 124 60 116 116 -106 122 94 -86 106 126 122 -102 28 38 114 -124 -124 60 -50 124 122 116 36 -98 18 0 78 -126 -20 94 -122 120 50 -122 124 116 -120 124 110 -124 124 124 -112 -116 -126 -126 -124 124 104 -114 122 96 118 -34 -32 114 -118 -50 -24 40 -26 86 -30 124 120 102 -20 -112 -128 -124 -116 126 126 126 52 -98 -118 118 10 108 -114 -120 -56 -118 96 -120 -124 126 -122 124 110 -124 2 -70 126 -126 -122 118 78 94 -114 122 122 116 -124 -124 -40 -126 -124 -124 126 126 -42 122 -124 -32 114 -82 126 -114 -56 -122 -116 126 -32 -126 -2 -102 -124 124 126 56 124 120 124 -112 -56 -122 -116 124 -120 -124 -116 122 -96 -70 -4 122 8 -36 42 -18 -46 56 122 94 -116 -116 88 108 -42 -112 112 122 48 100 122 -74 126 -124 124 28 64 28 126 116 126 118 -6 8 124 38 -124 30 -124 -122 -90 126 124 -122 -116 -2 -104 126 -20 40 62 124 -122 -124 124 -124 10 -122 118 114 -118 126 -120 -92 -2 92 -82 124 124 -118 20 114 -124 -72 -46 
64 -126 116 -118 -16 -22 -126 118 -18 36 -120 -124 -120 120 -100 -116 120 124 114 124 126 -56 122 126 -112 -32 36 74 -30 -76 -124 126 124 124 -124 -112 62 126 -126 -122 -110 112 -10 118 -126 126 16 30 -124 -88 74 -124 120 124 -120 -104 112 88 -114 58 120 -46 122 -32 -108 4 108 -118 -122 -124 122 20 112 112 -120 126 38 -124 124 116 -82 60 -116 116 -122 -122 18 -126 122 -114 6 -108 126 -94 -66 -122 72 -124 -74 -120 124 -124 126 -114 122 120 -122 116 122 -116 10 -16 -122 98 118 -32 -116 -18 108 122 36 60 40 -118 124 -84 124 26 -124 -124 -14 -126 108 -48 -104 -126 124 116 124 126 -118 124 -120 -112 -56 -74 64 -118 28 -120 -68 -118 126 122 -106 -122 116 -20 64 120 110 116 -126 -20 42 116 96 126 -126 4 124 -120 -88 54 34 -8 -122 -100 126 126 120 44 112 124 38 126 -116 -126 -112 -122 122 -124 -4 -112 -56 -122 126 126 4 -118 -124 98 122 34 120 74 92 -24 -56 112 -118 -12 -120 -126 -16 -124 -30 116 118 -14 -120 -124 94 122 -120 -22 -24 124 120 -24 -42 118 -124 126 -122 96 44 -114 120 90 28 -124 -10 122 -124 4 -120 106 -66 36 -122 122 20 -122 -124 24 -124 0 122 -126 88 124 -96 -86 118 -42 -24 54 -38 122 28 -120 -52 112 12 -118 124 26 -126 -66 112 96 118 126 -122 -126 36 126 30 -120 -122 124 8 -122 66 122 124 -124 -124 -44 42 126 122 -2 50 -120 28 -124 -108 -16 -126 122 -124 124 -118 -50 -108 -116 -126 88 118 -118 124 74 -94 126 -118 -126 124 38 -104 124 126 126 126 -126 -122 20 124 -122 82 -124 92 126 42 6 120 -122 -84 -110 -112 -56 120 118 120 -90 16 118 122 102 122 -122 126 124 126 30 -114 -124 126 2 76 -102 -118 120 44 -116 -16 -114 126 -120 126 -122 -118 24 28 108 -124 -118 -98 -82 -76 -122 114 114 -120 118 -122 24 -128 -122 -124 126 110 116 34 58 -126 124 -120 126 -62 -60 -92 -122 126 122 -16 56 -44 -124 -108 126 0 -34 120 124 -124 -10 -122 -86 126 126 -126 -98 -122 -124 120 -12 120 -100 -18 126 -2 -70 -120 98 2 -120 -16 16 124 -84 -108 104 -14 58 -122 74 -124 126 102 126 124 112 8 -122 118 124 124 -18 -24 54 40 48 -24 118 -118 -56 124 124 0 32 -126 -120 116 -28 122 -128 -126 78 -126 114 -124 -96 120 94 70 -124 124 -122 -114 -68 -126 98 -8 120 -124 -98 124 -124 -38 126 
-56 -126 126 -118 -114 0 118 -96 -24 -66 -128 -116 122 126 6 122 -114 -76 124 126 -124 -126 124 126 -96 -66 -114 -118 -58 -122 -104 124 126 -120 -118 -50 96 126 -126 -126 -124 122 -122 120 -126 48 42 -52 -118 -34 26 120 88 -126 104 -122 118 118 114 114 120 -18 -118 -28 -28 -6 44 -120 118 -124 116 124 -96 122 44 -4 120 -122 114 -122 -126 -124 -126 74 -122 52 120 -128 120 -46 -52 -80 124 -72 -112 -126 -126 118 -122 104 -98 -126 126 116 124 118 116 118 122 -32 -26 -20 58 112 106 -120 -122 -24 54 -126 60 120 70 126 -124 124 124 -114 100 -122 -22 30 -112 -120 124 114 -52 -124 120 -120 -120 124 -124 -114 16 44 -82 -124 22 112 106 120 -126 124 -124 -120 -118 4 126 -90 -98 -124 -34 124 -106 -120 124 126 -124 -104 116 16 40 2 -28 112 -124 114 -22 126 114 -6 116 120 118 -122 124 -126 -22 -52 -120 124 14 -124 -10 116 122 126 -20 -30 120 -68 124 -36 124 122 -84 -10 -122 122 120 -120 92 -126 -126 -24 -14 -112 -122 -96 48 -124 122 -100 -122 -42 124 122 120 -56 10 124 110 120 -118 118 -84 116 -110 -80 -28 -90 -124 124 8 -26 -122 124 -108 -10 -88 122 94 -120 122 96 -126 -30 124 -124 -104 48 -42 -44 122 54 8 28 22 124 126 -124 124 120 -56 -124 122 4 -56 -56 -112 124 114 124 -122 -118 -38 124 -94 124 -124 120 34 -126 124 -120 126 -124 -118 -14 -118 114 86 34 106 -122 126 -124 114 -12 -126 18 -122 124 70 -14 -122 -124 118 28 96 -126 124 -2 -18 122 -122 -122 6 -126 120 116 122 126 126 124 122 124 126 -124 0 -126 116 118 -76 110 120 -124 110 -86 -120 34 64 10 124 -124 -122 122 120 118 124 -120 124 -74 118 92 40 122 122 -54 116 -126 84 -118 126 -102 118 124 126 108 120 -122 -112 6 -46 -116 -124 -118 -120 -96 10 -124 120 120 -122 122 -120 -54 -124 -108 -124 124 116 -118 -122 -70 -114 120 -120 -116 122 -18 -122 -124 124 122 104 -92 122 -120 -122 124 100 -122 -124 44 120 -12 -120 -106 124 124 -124 90 -116 -126 30 6 -120 102 -4 -112 -32 -74 124 -72 8 -122 -112 -22 124 84 126 20 104 -36 -118 -46 96 126 122 122 124 4 -16 -124 120 102 -122 112 -44 122 6 -72 -18 124 124 -12 -120 126 -122 124 -122 -116 122 -44 -60 -126 -122 124 -126 122 -122 -120 122 8 120 -126 120 -122 122 8 116 -124 -124 126 -122 22 -118 118 -98 126 
122 -126 124 -64 16 -30 122 -120 54 126 34 -122 118 124 -108 -122 -124 126 -120 116 -124 38 122 126 50 -62 -106 -120 -30 -120 -88 126 48 -2 -124 114 -64 120 -122 -126 -126 -10 -122 52 -120 -124 -4 -36 124 116 52 100 -120 -122 106 98 122 -122 118 126 124 -6 -122 70 16 26 120 126 120 100 -116 -62 -52 116 112 -124 -6 124 110 -122 -122 48 10 -112 -124 110 126 -124 120 114 -82 -94 0 10 64 -126 -128 126 -70 -124 -126 -126 124 120 124 -120 66 122 124 44 -18 2 94 112 114 122 -118 56 -76 -126 32 -74 18 124 -120 124 -100 -112 -124 0 -74 120 -122 -14 126 124 -126 40 -116 120 114 124 -124 -112 52 0 -38 -126 48 122 36 126 118 -122 -122 -124 -66 40 40 26 -42 -126 120 124 26 4 122 126 -120 26 120 82 -60 -68 46 124 -126 112 0 -108 -124 20 116 124 -42 -120 126 -124 16 -120 -124 118 32 -124 34 112 118 -70 16 2 124 10 -124 -96 -54 118 -14 42 122 -124 126 -122 120 -96 -124 94 50 10 -114 -106 124 -118 26 -122 116 14 -122 122 122 -108 -32 -118 124 -90 -62 50 108 112 -42 -122 -88 102 -106 122 122 106 -114 -68 -124 -66 116 -116 -14 -118 120 50 -120 76 -124 106 22 -122 110 72 -28 -102 16 116 -46 126 124 84 124 104 0 -126 42 -104 124 112 74 8 26 126 -120 114 16 -124 -10 122 34 -122 54 126 124 -122 122 122 38 -116 -120 -114 -50 114 38 -26 126 -124 116 -22 -114 -106 124 -120 -94 54 -124 -124 120 -124 -124 -124 -108 -118 62 124 -124 -116 -126 114 122 102 120 -122 -112 124 124 120 122 -122 92 -122 -120 -122 4 116 -120 -22 -62 48 -118 62 106 -64 122 -112 16 20 -124 118 -124 124 126 -112 96 4 -36 124 124 52 122 122 -92 -116 124 56 12 126 126 16 114 122 124 -30 6 -124 -124 -120 112 -126 26 -126 122 -124 -122 52 -120 52 -126 118 -122 -122 -124 -12 -120 -126 114 122 90 -118 124 -54 -124 124 122 122 70 124 120 -124 -118 18 32 -10 -122 -124 124 -38 -122 -104 120 120 -122 -122 92 118 -118 4 -118 -74 -16 -120 -64 -34 -64 -110 122 -122 -114 -26 -20 -50 126 8 -122 -46 124 122 126 126 124 -42 -118 124 -18 120 74 90 -124 70 -34 126 120 -126 -52 -120 14 -66 100 78 8 118 126 124 126 -88 -124 -68 124 116 -124 126 124 -30 120 122 -126 -124 126 -124 122 116 -80 -124 -120 126 114 -50 -122 126 -20 122 
-10 -124 122 -94 28 16 108 124 22 -32 122 -120 -126 124 -114 -126 -118 126 -122 -110 72 118 68 122 124 66 98 -104 62 -122 -104 124 62 122 -124 -124 -8 82 -120 -126 -124 -124 120 114 -126 -124 -26 -42 122 126 -114 -124 -16 122 -122 126 120 -122 120 114 -118 54 24 102 122 30 126 122 -124 122 4 -122 104 -126 120 -126 -126 -102 124 122 -54 118 126 -112 -126 -52 -100 -126 -12 -126 -122 12 -122 -40 -110 -128 -124 126 126 -30 -126 -126 124 -122 122 -116 126 -32 -122 -102 36 12 106 -122 124 90 -106 -16 -116 114 -46 -38 52 -40 52 -62 70 -110 -128 -120 24 122 118 102 -120 124 122 -54 -110 126 126 126 -40 -114 22 66 84 -126 0 2 118 -120 122 -126 14 -126 -122 -14 126 126 112 -126 124 126 -20 -68 124 126 -20 110 122 -70 38 124 68 120 -24 -120 124 -110 -124 -38 124 124 -54 126 122 -6 -34 -126 126 -126 -122 126 90 -128 124 -126 14 -74 126 -44 120 -72 -122 -116 4 40 122 -124 124 -112 114 122 122 126 100 124 122 94 124 -126 -126 120 124 22 -124 -120 120 -98 -30 12 -48 118 110 6 66 -76 -124 -96 -40 -126 -96 118 124 -86 -124 124 -124 4 122 -118 -122 -106 122 58 126 10 -122 120 114 -118 -56 42 42 -58 12 -80 46 124 -122 124 120 122 32 -124 -122 -64 124 100 2 122 -118 52 -90 118 116 -124 122 -120 124 -126 -126 126 -122 114 -122 86 -126 -124 -124 -120 -124 58 120 -34 -120 14 -120 32 -124 -114 120 -124 44 -20 -122 -24 118 -124 -126 -124 -122 12 -86 122 -122 -122 -116 118 -72 114 118 -120 -122 -120 36 -42 126 -120 -64 -108 -114 6 -28 88 -120 126 6 -68 62 64 -124 114 -120 -126 -68 -122 -126 -126 -124 -10 122 -120 -88 50 -36 126 126 -48 116 124 -102 70 124 30 -66 -124 126 116 124 126 122 50 -10 114 -124 -124 -120 -120 -48 -124 64 -128 126 120 -120 22 -124 124 -120 116 -2 -58 114 116 -28 124 116 -118 124 -30 114 -104 120 -42 122 -120 -28 -122 124 124 -104 114 124 -120 -120 16 -124 112 124 126 -126 -116 -124 124 -104 4 126 -12 0 -118 -24 32 -4 124 22 -114 -112 20 74 14 98 -82 -120 94 124 122 -102 108 -122 -40 -116 120 56 120 -118 126 -120 -104 -36 118 -50 -112 16 -126 -126 28 -38 126 124 -90 122 -100 -110 -80 126 2 -88 -126 -122 124 72 118 122 -126 -124 -122 122 -124 -124 -6 -2 -120 -122 124 126 44 -110 -116 82 82 
-124 -122 122 124 124 10 58 38 24 62 -126 120 -122 124 -100 120 -120 -36 -124 114 122 -24 -98 -42 112 46 -118 126 66 -120 30 126 114 124 -124 -124 98 124 -116 -126 -70 -128 124 124 -126 126 24 14 -126 -30 -24 -122 116 124 -118 124 118 -120 -38 -124 -106 -8 126 -56 -68 -6 104 118 116 -116 120 122 90 -126 -120 50 124 -122 -76 122 -122 88 124 -112 120 102 -120 -114 -120 -126 -124 92 96 -48 -124 -118 122 -118 64 124 -126 122 126 -108 120 -126 58 -126 -118 122 24 -24 6 -128 126 -98 122 28 -30 118 -32 122 50 -118 -34 -124 122 120 -126 -122 114 -40 114 -22 -110 -116 -122 120 18 -124 -116 126 -112 -110 -122 -12 40 82 -22 100 112 -122 122 120 112 -124 -126 -36 -110 120 82 104 -124 124 -74 10 118 126 122 14 124 -70 -42 124 -86 -62 78 -122 126 20 -122 18 104 -122 -38 126 116 -126 -72 120 126 -126 -124 126 6 -122 126 -12 4 -126 76 8 124 14 -122 -122 -30 68 -126 -114 -122 -104 -62 118 124 126 2 -56 120 118 -40 -124 -122 124 118 20 124 112 -108 106 24 122 -118 118 0 116 28 -92 -124 120 -56 -126 114 122 124 88 -118 126 114 -106 -122 -118 -54 122 96 42 126 2 126 122 -120 -54 -122 124 -116 16 40 -122 -6 124 116 122 86 118 42 122 -56 12 -84 -124 -122 -2 -110 24 -76 122 -6 -86 118 -110 124 26 -124 122 -122 92 114 -120 76 122 -122 -124 102 24 124 118 -122 -124 -108 8 -126 -122 -120 -126 -54 -50 -124 -120 120 4 -126 -122 -120 4 -8 124 -118 122 116 -126 -124 -122 -124 124 112 -70 118 -46 126 -124 -24 90 -116 120 -50 -8 -124 126 -124 80 66 122 -52 -112 -124 -126 -118 -114 122 -124 122 -126 126 110 66 -30 70 126 -118 -22 112 -100 122 -122 124 122 -94 -124 126 124 124 124 122 -12 -8 124 -122 -124 -120 -122 -22 -118 -96 -126 124 120 -114 -34 -124 -124 -124 122 126 126 124 120 -122 120 120 94 -80 -46 124 -120 124 -104 60 116 -120 -118 122 124 -36 102 114 126 -122 38 -116 110 124 118 -122 118 -122 120 -120 42 126 120 18 124 -30 66 32 84 -126 52 -66 98 -124 0 -120 78 112 0 122 -122 -118 114 -124 -114 -120 118 10 -118 -126 -122 120 -4 -18 126 -122 -100 -36 118 122 20 -60 64 -122 30 -72 -122 -114 6 124 -56 -88 -120 104 124 -118 120 124 -126 120 -120 -120 -124 -120 -126 28 -124 116 120 120 -14 -86 -122 -30 -122 
30 74 126 122 -84 22 122 -108 20 118 -122 46 46 44 -112 124 -124 -114 -122 126 -112 -80 124 -122 80 -80 -122 124 -36 -116 -84 126 118 124 -124 -122 -80 -12 -118 118 -122 112 -122 -92 -126 124 -110 -10 -120 56 122 120 124 -124 -122 -98 42 -124 -104 -122 120 -28 -112 -16 -126 16 -38 124 114 -120 112 120 14 -122 -122 -18 124 -122 -126 -122 -22 -120 126 -120 124 -94 -78 114 -86 122 -122 -100 120 -14 80 76 114 -120 -118 120 122 126 126 116 124 -126 -124 -126 122 108 -6 -6 -126 -126 122 120 -100 0 -36 -94 -62 -120 18 124 -120 -120 116 120 108 116 104 -126 -118 52 126 -126 -126 -56 126 -122 -116 124 -118 -120 -50 18 -40 122 36 114 -126 124 124 118 46 -126 120 -22 0 -124 -124 -126 -120 122 -124 40 -122 126 92 -94 -92 50 18 -126 -36 -88 -122 120 -30 -118 -118 24 118 -126 122 -108 116 -122 -124 124 -114 120 -122 -62 -14 -120 116 -46 0 -114 122 -34 -122 -34 -122 -122 118 -2 -124 -112 -116 -120 92 -126 -126 126 -20 -44 120 -118 60 -126 -124 120 124 -4 122 124 -110 54 36 112 -120 30 112 -122 86 -104 -122 -122 90 -126 106 -24 120 102 -104 -110 112 126 -118 -118 -120 124 -122 -120 122 6 126 122 -108 42 -112 124 -60 -6 -10 48 22 126 122 124 -126 -126 -124 124 120 78 -30 -120 -118 -102 -124 122 92 126 -6 126 -56 126 -124 120 -126 126 114 10 124 -66 -126 122 122 118 -102 36 -80 124 74 -124 120 0 -124 94 -118 -124 -124 4 -116 -124 120 -106 96 -122 -26 122 -122 122 -36 112 116 -120 -118 -124 -120 124 126 124 122 -20 126 -126 -118 100 -80 114 118 -92 -126 124 -122 122 86 122 -4 92 -118 -122 122 120 124 -122 120 -116 126 122 114 22 60 122 -120 58 86 126 122 -126 122 -6 124 114 126 126 124 124 -122 20 -4 -114 120 -124 -20 110 50 -122 -124 114 -124 -122 -114 -10 126 -124 118 -124 -14 -28 118 -124 124 118 -44 126 116 -6 124 -118 124 -80 86 -86 -126 -116 -112 126 100 -124 -124 116 120 -16 34 -42 124 126 -118 20 122 -124 -46 -10 -114 118 -42 124 -18 126 -104 -118 -114 -118 122 24 -124 2 -40 6 -124 54 122 -122 126 114 116 -98 96 122 -4 -126 -122 -122 118 124 16 118 110 -28 10 126 110 -64 124 -122 -122 124 116 -122 -38 46 118 -78 114 36 120 126 -118 124 -114 122 126 106 -116 -126 -122 -122 12 -124 74 126 -124 -8 -74 126 62 14 
-124 -124 126 122 -120 -10 124 120 -12 -124 -14 114 126 94 -120 -122 -124 100 -122 -102 -118 -114 126 -70 -28 -82 -112 -106 -54 124 -126 126 118 -110 -122 -120 -10 54 -122 86 -118 122 -64 -16 -126 -68 122 4 120 2 -80 124 76 -124 -108 -124 -126 -126 80 64 112 12 -112 24 -12 -10 116 124 -120 122 -82 -118 -26 -124 112 -94 -122 -120 -122 -122 126 -42 124 120 -124 16 8 98 126 118 -124 -84 50 -124 6 -124 -80 -110 -118 122 120 -28 126 114 102 -122 48 -120 126 -40 -34 26 -120 54 26 126 -114 -12 6 -112 104 -90 26 124 -120 -118 36 122 118 122 -68 -126 -118 14 126 -126 112 -48 54 122 126 122 -118 -118 4 24 -50 -120 -42 122 -126 122 120 -118 50 -126 122 22 -52 -122 -118 -128 -60 6 -126 110 -120 126 -122 74 -48 -80 -16 -124 122 112 -12 118 -92 -120 -122 -12 72 -120 -100 -112 122 120 0 124 -112 124 122 -124 2 -122 122 -122 0 14 124 -20 30 -124 -124 116 -112 -18 114 126 -120 -126 122 -122 -126 114 -120 -84 120 120 122 -116 -118 72 -122 8 -126 -118 126 -60 -24 122 40 -122 124 -122 56 -124 116 -114 -50 118 0 -40 -120 -2 64 -122 16 -106 122 -122 -122 -120 -126 -62 -58 -30 126 122 102 74 66 -108 100 -10 26 -120 4 126 -100 124 -126 -122 126 -122 124 -60 126 118 -126 -12 -128 122 -122 124 24 126 -116 -24 -124 120 124 108 106 120 116 126 74 120 124 120 -124 106 -70 86 122 -124 126 10 114 122 -118 -114 -104 -44 -122 -94 102 114 2 -86 56 -32 38 116 -116 -2 116 -124 120 -126 124 -120 54 -124 112 122 126 118 -54 -46 -70 -92 18 10 -126 -106 88 4 6 -12 -112 -82 -122 122 126 120 124 -124 118 -120 126 -126 108 68 -20 120 -110 18 44 126 110 120 -112 -122 126 -116 -102 126 -104 122 -124 28 -4 -96 120 -124 124 118 4 -124 -120 32 -122 -116 -124 4 124 112 -122 -122 -124 -40 122 -124 -106 118 -80 116 120 -56 122 -120 126 108 8 72 110 126 -118 122 -120 -122 -114 -122 116 2 116 -92 126 126 -126 -120 118 -126 126 -50 -124 120 -14 -120 -6 74 100 -102 74 -124 116 28 4 58 124 120 -122 22 -122 120 66 42 120 -122 120 118 -12 -120 -18 14 -88 120 -34 122 100 86 2 40 10 -124 126 -116 -116 -116 118 122 -120 -32 30 6 -102 120 -122 -44 -82 -8 -120 124 120 -110 124 122 -88 -28 -20 -36 40 120 -124 70 114 126 52 -118 
124 -124 126 122 -112 -38 124 120 24 40 126 122 116 116 -116 -120 -124 118 -118 -100 40 100 -112 -124 -58 -48 -10 100 10 124 -100 126 -118 -124 16 -88 94 -26 -122 114 -80 -22 126 44 -128 -50 124 42 118 -118 -36 -10 -124 -106 -122 -122 -128 -122 -48 -120 -108 18 122 8 -114 62 -62 124 -122 124 -72 -126 -22 -124 122 -34 -122 -118 120 120 126 120 122 110 -124 -114 -44 26 122 -124 -124 -50 118 36 -124 -120 -52 -122 104 120 -4 -122 126 -92 -128 -72 -118 32 80 72 -76 -46 -64 118 126 126 -116 28 -78 -46 -28 -48 60 124 -120 -124 -118 122 122 124 118 -126 -112 -120 116 -84 -2 -26 10 116 120 118 -122 124 -42 -64 20 -124 56 118 -126 -44 -116 122 48 -122 -126 26 -68 -96 52 -64 -120 -122 -48 60 28 126 -122 8 120 20 -12 126 108 120 58 -72 -64 -30 -120 -38 -126 -118 -118 -110 124 120 -20 122 -118 -116 124 -126 50 -118 124 -124 0 46 -84 56 116 -110 -118 -12 -14 -58 122 124 -122 -124 126 116 -124 -122 122 58 -14 120 126 122 -76 16 -126 24 118 -124 -84 -100 10 120 122 -104 124 26 -44 -12 126 -104 64 126 -124 112 -126 112 -120 40 -78 -22 124 16 -122 -72 104 92 120 38 120 116 126 114 12 -10 42 32 10 -128 2 124 -122 114 124 122 60 -126 124 -8 -100 -94 -126 -120 -124 126 -126 122 10 -102 -44 28 -110 122 22 -124 -124 124 122 116 32 50 -122 -120 -122 8 82 -68 126 124 -104 -4 126 -118 -122 -118 70 -32 -124 126 -40 112 -110 126 -44 28 104 122 -122 52 -120 -38 114 -22 116 72 122 114 118 122 122 122 74 -122 -116 -124 -116 64 -120 18 -4 -84 -18 -116 -78 -56 -102 -100 92 -102 122 -124 84 -116 122 -126 -124 24 -104 124 126 -120 66 -124 -120 116 -120 -118 -100 -126 -122 120 -122 124 -18 -4 8 122 -122 -124 116 126 -22 -124 126 -122 122 22 -126 -12 -126 48 -124 -116 116 8 116 118 -122 120 -124 108 2 -94 124 -116 122 66 -48 -12 118 112 -126 -118 -54 102 106 -110 120 26 94 22 126 88 -126 -120 122 -114 92 52 -122 -36 40 -122 -22 126 72 124 -104 -112 112 -64 122 124 118 8 -120 -62 -122 122 -114 122 118 -120 96 -120 46 98 -118 -122 -120 116 -42 118 -68 56 -22 -120 120 -102 -124 74 -116 -118 124 124 -110 74 -80 34 120 114 -124 -86 122 -82 120 -114 120 -124 126 126 126 90 56 124 96 110 -118 -28 -76 56 16 -20 
126 -122 -82 -122 -24 14 126 -54 4 114 110 -14 76 126 114 122 -124 -106 118 -84 -42 110 -124 -122 126 26 -50 126 2 114 84 126 -114 122 40 -20 48 -10 -124 122 100 -126 78 -124 -128 -70 -126 8 -124 -122 -70 124 -124 -114 -116 20 120 -122 -44 -126 -116 12 122 44 -116 14 22 126 -114 -116 94 110 -110 -128 122 120 76 122 120 118 122 124 92 -120 116 -76 -124 -10 -122 -116 -126 124 -84 48 -122 42 82 -120 120 122 -122 112 120 -104 -128 -122 32 124 -124 -6 -26 122 122 -122 126 -76 -122 30 124 -124 42 16 24 -98 -120 -122 -118 -116 116 120 118 -122 120 -114 124 -124 -126 30 124 114 -122 -100 -122 126 0 -14 -18 120 -24 -94 -124 126 -124 120 82 -122 -126 34 -44 -122 110 -120 -122 -122 96 -62 124 124 120 76 116 78 -44 126 -118 2 124 -126 -108 116 -122 -20 -126 42 -104 -114 126 34 -102 122 -116 -126 116 110 122 112 -124 68 4 -32 76 32 118 -4 -124 -118 -6 -10 -68 -116 118 -122 118 118 14 -124 126 122 -120 -32 -50 126 -120 124 -116 2 122 122 -78 120 30 -108 -118 116 126 38 116 118 122 100 -28 -120 -126 124 38 22 -30 126 118 -58 124 92 -110 126 124 124 120 84 126 112 -56 112 -92 116 -60 -24 24 -126 32 124 96 -122 118 120 -58 -120 124 16 -94 -122 -126 78 -124 64 -110 122 68 30 116 126 122 120 -116 -124 -126 -116 118 66 -52 -124 -124 -126 -122 -2 -114 -110 126 126 -104 6 120 -120 -120 12 -118 0 -124 122 -124 -86 -120 126 116 28 110 -40 120 -124 -122 -122 -108 -124 -16 126 124 -102 118 -40 122 124 -20 -50 -122 -120 -126 -116 118 -112 30 -34 -108 124 8 -104 -86 -122 52 36 122 -124 -124 -120 124 -124 -120 -56 -34 -124 126 18 114 84 -116 -126 110 -124 26 -124 -112 6 76 126 124 -28 -8 122 -126 -120 -120 124 -42 -114 -22 -122 124 100 -120 -12 -122 -124 118 -122 112 -42 120 124 -92 122 -126 126 -108 0 -110 -116 120 44 80 86 -126 -120 -126 -124 122 -126 -118 120 8 -28 -120 124 124 -88 -124 -116 122 -22 -120 -20 118 -114 22 116 84 52 -38 124 -124 110 -122 66 116 -60 -122 124 110 -122 -122 -120 126 122 -124 -122 -82 -122 44 114 -124 -124 -122 120 20 124 102 -126 4 -114 124 8 -126 122 124 -114 124 126 112 106 -118 116 98 -126 126 126 120 124 120 92 122 -122 -112 126 124 -74 56 122 90 98 -118 -104 -122 2 -10 114 
-122 110 32 -126 82 -14 -118 -70 -18 116 -124 -118 -116 90 -124 -14 -116 -68 124 -30 -114 86 120 120 -78 36 40 -80 38 120 -126 126 -20 124 -100 -58 -126 -56 -92 126 72 -126 -112 -126 -128 -124 -126 22 -122 124 -22 -56 -54 2 124 -36 122 30 -42 -76 -118 -16 122 -6 46 56 -40 124 112 -124 112 120 -6 120 -112 -16 120 104 96 -118 -108 116 84 -112 100 -90 -120 84 -122 -108 126 52 -120 -72 -104 124 -50 -116 -102 28 22 122 122 46 -128 -124 84 118 -122 4 -6 120 124 -116 -118 122 26 -24 126 -106 18 -108 36 -2 -118 30 -80 -124 28 -38 56 -118 114 124 124 -124 106 -30 120 -30 -120 -122 -120 124 -50 30 -20 122 18 -118 -122 44 -74 120 -28 -94 122 12 -116 -78 -4 -124 -126 118 98 62 76 124 116 24 -114 48 -4 -116 -122 116 -124 -18 -122 -122 -28 6 -62 66 -16 -116 -104 102 116 108 62 -126 118 -124 58 -48 -122 -6 -2 124 -2 6 120 -122 -122 126 50 8 14 -118 126 -122 118 -124 94 -124 124 122 -122 -14 52 124 -114 126 -112 -2 -126 120 124 120 -24 -124 118 114 -34 40 118 -74 -2 -70 106 -120 -68 -114 124 116 -58 120 110 -118 46 38 -116 126 -8 -34 60 28 124 -50 -116 -42 118 20 86 16 -18 116 -32 124 -50 -120 -120 12 124 118 -94 -4 -40 -40 -124 -80 -124 42 -120 124 10 -120 34 124 -66 100 66 -100 -124 -98 -106 -122 124 14 -124 -126 -16 30 -124 -126 126 126 86 -18 122 -120 -122 -56 84 24 -122 62 -106 -14 -58 124 58 32 2 -124 -30 -124 122 -112 -106 -110 -112 124 98 62 -26 -122 124 122 -126 126 28 122 -2 -122 -126 104 10 104 -112 112 88 -72 -70 70 -30 116 20 124 -126 -118 124 -124 -112 -58 114 -126 -26 -4 30 96 126 116 -94 74 36 -124 -36 104 -26 122 0 6 60 -120 -82 -122 100 -52 52 120 -112 -124 36 124 -34 10 124 -52 118 -122 -122 78 124 122 116 120 -126 -26 126 50 -126 94 124 124 110 -88 -118 -124 -126 -126 -22 62 -122 114 76 -62 114 124 124 -114 -120 -112 116 -112 16 42 126 -80 -36 122 -18 122 24 118 120 120 -120 10 -126 -126 -126 -100 122 -88 -126 120 124 118 -126 -116 122 120 -48 24 114 -86 -126 8 2 126 98 -44 -2 -122 122 46 -126 -112 2 -6 106 122 88 -88 -108 -44 -122 -114 126 126 -18 106 -6 120 126 -120 96 120 64 -122 14 -108 -124 -86 -120 -6 -32 126 104 -4 
-122 -42 122 -110 96 -12 -122 -74 -24 60 -94 -118 -124 -2 -122 2 -124 48 -104 120 -118 112 126 126 106 -20 20 -98 16 122 -34 126 -66 -74 -120 4 64 -60 -122 122 126 116 -122 -126 -128 -124 124 -12 100 36 -54 -32 100 120 116 -108 -44 68 62 -108 -122 36 116 92 120 10 88 120 -120 -122 44 90 -92 120 -116 -22 122 -124 -46 -118 -122 4 34 -110 112 126 12 -124 -110 112 -126 12 -122 -88 42 64 -122 126 -126 -114 -122 106 122 48 -126 -120 10 30 -126 -124 -54 -122 124 -104 -116 120 124 0 126 -118 116 56 86 122 -112 -122 78 -120 -70 -108 12 -104 124 -98 124 122 8 -8 -42 -88 -122 -124 -120 124 104 36 -4 110 0 98 -124 28 -124 -118 32 -116 4 -32 118 26 -90 124 -126 50 122 -48 -120 124 48 126 -126 -14 -12 -120 24 48 116 120 -122 -122 120 -14 120 122 44 124 126 122 -22 120 126 -104 124 -120 -90 -126 -114 -24 14 52 124 -14 118 -78 -124 90 -34 16 124 -116 126 -120 122 -126 28 -40 126 120 -88 126 98 122 120 122 -124 36 118 104 124 124 20 -118 114 -124 120 -32 78 -124 118 -114 -98 126 -32 -114 -124 -116 -118 -80 122 -126 -122 10 -124 -70 -124 -22 124 -40 122 -118 120 -78 -32 -40 124 -80 18 66 18 124 -122 18 -122 -122 -122 122 -42 -112 116 84 122 94 -124 122 -124 124 120 -50 -104 120 -118 122 -122 -126 -114 -104 -124 -122 -116 -8 -118 -126 -124 76 -126 -122 126 -84 -62 -2 118 -84 116 114 -112 -40 -96 -26 86 76 116 124 -8 76 16 34 -118 -126 120 90 114 122 -120 -120 -122 6 -122 -78 124 122 -126 62 52 114 -122 114 -124 66 96 126 -8 84 12 58 -106 122 -120 112 -112 122 118 -118 126 -124 118 32 2 126 -120 -114 6 -118 50 112 -96 -112 -4 -122 -22 126 -122 120 124 94 10 -90 -108 -16 -124 -114 48 -126 0 -124 -124 126 -110 -24 70 114 118 -118 -124 -82 124 120 116 122 118 -120 126 -70 -126 2 126 -124 112 -44 -122 22 -124 -116 -4 78 -122 -100 -86 84 120 78 126 -118 -124 -114 112 118 106 -18 -52 -112 12 -124 -38 126 -80 -116 -122 106 -36 68 116 -126 -122 -28 118 -88 -126 124 10 -2 -126 -116 36 112 42 -124 -86 44 -126 -128 0 126 120 98 -4 -122 122 -56 126 -110 -12 -114 -116 118 12 -118 -122 14 100 110 124 122 -122 116 98 122 126 -122 122 120 124 -36 6 100 -124 8 122 64 122 126 -108 -4 
112 -120 122 120 -46 -4 -124 122 22 112 -26 68 -116 -44 -114 118 -126 -42 -120 22 36 -102 120 126 102 58 112 86 2 -76 -104 126 -120 -120 -124 108 22 -96 -118 124 126 118 106 -126 -126 116 120 18 18 122 -2 124 102 122 -116 120 -30 60 114 -124 -124 74 118 -108 124 -26 84 124 -106 -124 -94 -118 -14 120 -122 72 46 -116 120 122 118 42 -84 62 108 4 100 -124 -120 106 -106 24 -106 122 -120 -120 -124 90 118 66 28 -42 126 18 -126 -120 -120 -114 -126 -122 66 -122 124 -122 -36 -116 -118 44 126 -124 -70 28 28 -16 126 -122 120 -40 -128 114 -14 -124 122 -36 124 122 -122 -22 -86 -122 120 -124 124 118 50 -2 52 108 -46 72 -126 124 -124 -124 6 -16 -106 -34 120 126 -8 126 -122 -124 122 -122 -120 122 -120 44 118 -112 20 84 54 -114 126 -90 -120 -60 126 -12 122 60 114 122 122 124 24 124 126 -48 122 -118 -28 110 124 -86 -34 -12 126 -16 -124 120 60 -118 -76 -14 -6 -118 -24 118 -108 -88 122 -44 -122 118 -110 124 -116 124 120 -124 -86 30 110 124 -124 124 12 -124 -120 -116 126 -120 -104 58 -124 -88 -118 124 44 -118 -92 98 114 -108 -120 -78 -122 64 -10 46 -122 -122 124 22 126 -120 58 -6 -62 -40 126 16 24 122 -2 122 124 -120 -120 -122 -102 124 118 -12 -110 -70 126 60 -122 -116 30 124 -28 66 -52 -16 -122 120 68 -124 108 -66 -126 96 -78 -66 -120 124 -126 -74 -124 -124 126 126 -28 10 -118 -84 74 -126 48 -16 -124 56 -112 -118 -126 122 -98 -20 126 -20 122 116 120 120 -10 112 -44 -126 122 -50 -122 -10 124 78 -20 124 -76 104 -102 124 -124 -114 92 126 40 -64 108 -8 88 122 -124 -106 122 120 120 -116 120 118 116 -40 68 124 46 118 52 120 -30 -104 86 68 26 -120 -22 42 -120 118 106 -58 20 122 34 122 -122 -106 -80 -128 -16 -120 -124 112 120 -8 122 118 116 -118 106 30 124 16 -12 116 118 -110 -98 -20 -40 124 126 -126 -62 -34 -122 -122 -124 -120 -114 -126 112 104 -116 52 122 -90 126 112 -124 74 122 118 124 0 2 -114 36 -118 10 126 -26 -124 -16 -126 114 -6 126 126 -120 -68 -124 96 -122 -116 -70 -40 -126 -114 -126 -120 18 -124 -124 -60 -122 -126 -26 118 -112 52 -18 -122 52 44 120 126 -42 -120 -94 100 122 -122 10 0 -74 -124 122 124 -122 -14 122 112 -122 -120 118 -108 124 12 20 -120 84 -38 122 22 116 64 100 120 
126 110 122 -14 -36 6 -124 120 2 -36 116 116 -124 28 14 54 -118 -16 -60 -116 14 -72 -118 124 26 34 120 38 -44 -118 -98 116 -112 -30 -124 86 100 44 -74 124 126 114 -120 -104 -128 116 -118 42 126 -106 102 124 -58 114 -118 118 124 -116 76 -122 -114 70 122 -36 -20 -62 -74 118 -118 -62 -8 64 -66 -18 -122 48 -118 68 112 126 124 96 48 -2 -122 10 54 -6 -118 -126 70 30 96 120 -112 -102 -120 -104 124 94 82 52 124 110 -126 -120 -8 122 -122 -58 34 -92 -70 -124 -52 -124 -16 30 126 -66 -56 16 70 -124 52 -72 122 72 -120 118 24 -126 122 30 124 4 48 -16 -52 -120 122 -122 124 124 -56 4 8 -110 -48 66 124 120 -124 -126 -34 -52 -124 -16 -2 126 -46 86 -64 -56 52 -104 -124 -118 -118 72 -82 8 -14 26 4 4 126 -46 -120 118 124 26 42 120 110 0 122 124 34 124 120 -80 118 -122 -40 118 122 -26 24 32 124 -36 -116 116 124 -118 -8 4 26 -118 126 124 -124 76 -72 50 -126 0 50 -124 -88 116 118 -116 54 6 -124 98 -118 120 -10 -120 58 82 124 -20 -54 -60 -106 -30 -36 -122 26 0 120 24 120 -126 46 -44 -64 100 50 -122 40 124 118 -26 126 -110 -52 40 120 -122 38 10 66 120 8 122 116 -120 -120 -82 120 122 52 54 -122 -76 126 124 -122 -118 122 124 -26 -120 90 -60 -116 -122 114 -118 58 62 -68 -122 122 -36 -118 -56 -122 -70 -116 -110 126 124 -68 32 -112 122 -122 -122 104 46 -118 -92 118 60 -126 126 -78 10 4 -58 124 90 120 120 10 -106 -114 80 120 40 -108 -74 122 122 98 -96 82 2 108 -88 -96 96 -36 84 -50 -38 108 70 126 124 -106 -100 124 118 110 -116 112 116 -76 -16 -26 100 -122 -16 52 36 118 -128 -116 114 -50 -116 64 -90 -108 124 -120 -12 18 -64 124 124 -120 112 -8 -126 122 126 -120 -88 124 4 120 -122 110 12 -84 48 -106 -96 -26 -62 26 122 -116 0 -116 68 126 -126 70 36 -120 -120 -118 -122 -38 -110 94 28 62 -22 86 -106 126 122 -126 -102 122 106 118 16 126 -72 -14 122 18 126 8 34 120 -8 114 -110 124 126 -122 -32 -124 52 -122 -120 90 -64 92 -112 26 -24 6 -118 -106 14 -118 -22 60 96 2 -82 -14 -120 108 -76 -116 122 84 -118 114 -120 118 -86 -46 -60 -10 -122 -88 122 -116 -22 -116 -110 42 -120 -58 -116 116 52 -74 -118 -116 20 92 -42 42 -30 -54 118 
-120 126 116 -122 -66 28 -112 124 -30 90 120 114 -122 92 8 -124 6 -78 124 -120 -52 -52 4 122 124 60 84 66 -64 -122 54 122 -62 116 -122 46 20 -100 -30 126 120 122 -92 42 -126 98 -54 -18 124 -126 112 120 28 108 36 -120 122 -122 40 -124 -120 8 122 -20 -4 -52 88 98 -120 114 -74 114 30 -126 -112 -8 -122 126 -124 126 102 94 -30 6 -126 4 -122 114 -116 -124 -126 22 124 -10 112 62 112 -94 -30 -108 -120 -24 124 120 -126 -114 40 124 -120 -110 40 124 -118 -122 -112 -126 126 20 -86 118 20 118 24 -106 -112 -12 122 116 -118 120 24 -124 120 -46 122 -22 96 10 -100 -124 124 -122 122 124 22 12 -44 -124 -82 118 126 -2 -122 -124 52 -124 -124 36 124 98 -22 126 94 122 30 -120 -118 -120 -98 118 -124 76 30 -120 -70 -28 126 22 -122 48 82 10 -122 120 -16 -98 126 -62 -116 14 -122 -126 120 -120 36 120 -114 72 -40 94 122 -18 118 124 58 -120 -28 -46 124 -124 124 122 -108 -106 -114 124 -120 -124 124 -124 -124 -46 114 -114 -14 -70 124 84 -114 112 -12 122 122 120 -108 12 -122 -116 120 98 -2 -124 -26 120 116 110 118 -124 122 116 -104 34 -108 -122 34 126 124 -120 126 -112 -80 -24 -64 -122 -22 12 56 -20 34 122 124 -34 -120 -116 -126 -58 -118 52 50 -20 126 -36 -126 -118 92 124 -122 110 112 40 -80 -122 -66 124 -118 -118 118 -124 -114 -114 -14 -122 -124 -54 -120 122 126 126 -120 16 12 120 -118 -114 8 2 -120 -122 126 -2 -124 124 -114 -18 40 -116 122 36 124 116 104 -118 -120 14 74 -4 -118 68 124 116 124 -124 72 78 -126 -20 122 54 -32 124 -80 20 52 46 124 120 -116 -116 126 76 120 -122 120 118 54 30 52 118 -120 -112 0 -122 120 -126 -116 116 -22 -52 22 -46 118 124 -56 -60 20 -124 -62 124 -118 126 24 -126 112 126 -118 -116 124 0 -120 -124 -124 116 -122 -38 -118 -124 -32 108 54 124 -2 54 -120 -120 118 -126 -26 -26 -44 126 -124 -124 124 -120 -120 -40 126 -50 -114 0 126 120 -118 -120 -122 124 -24 -16 124 30 -42 118 42 126 -22 124 18 122 120 -64 122 126 -122 -58 -104 50 -112 -124 -120 -122 116 -126 120 -82 42 118 122 -110 -124 80 68 122 120 62 0 -120 108 0 -116 118 102 -118 118 -124 118 16 -56 -6 22 14 -124 120 -38 116 -122 -118 126 74 -114 -118 126 -12 16 120 -124 70 124 58 118 -78 -102 110 
4 120 8 -108 104 30 120 0 -34 120 12 110 -124 -120 102 -128 112 88 124 120 122 22 122 124 -118 -122 110 30 -46 -124 -122 122 -116 122 52 110 -122 122 -96 126 -10 120 -24 118 -124 -116 122 2 34 -126 -6 120 -112 116 -80 -52 122 -120 90 -124 -114 90 118 28 -28 -48 -126 2 -56 12 -70 124 102 104 -116 26 -120 38 -122 -124 -122 60 108 -28 -126 -28 -2 126 -112 -126 126 -62 122 -106 124 30 42 124 -100 48 120 100 124 74 -124 124 -24 120 68 -112 68 126 40 -116 -124 -122 126 10 -124 -74 -122 -124 72 -74 -114 120 118 122 -120 122 -44 -124 122 120 122 102 -104 -32 -48 118 120 -122 126 124 -122 -4 16 -30 -30 120 126 8 -112 -122 50 -90 68 -44 -64 -120 46 -76 102 126 -74 118 -22 -120 -108 122 -124 24 -6 92 14 -6 126 26 -122 -4 60 46 -118 120 92 -102 56 -58 124 -122 -112 -118 116 -100 -106 52 120 -40 -2 120 -64 -6 -124 118 118 -110 40 20 94 -62 6 122 74 -114 -110 124 72 -78 104 -126 -122 -116 -122 78 -120 62 -114 32 124 124 88 116 66 122 -92 46 -16 -122 -122 114 90 28 58 -66 32 -38 118 60 122 -36 -106 -10 0 40 -120 126 114 2 124 -118 -116 -52 122 -122 -100 20 80 126 2 122 122 -122 -124 -124 124 114 -122 24 -80 -4 126 -92 -126 -54 -122 126 14 -28 6 -28 118 -124 6 -22 -120 -94 -86 120 126 -114 38 -120 82 100 -124 126 124 126 -74 32 -54 118 122 -122 106 -56 -120 -54 50 -20 -124 122 80 88 34 -102 -56 126 124 -64 56 -120 -124 -70 118 -42 -98 106 120 116 -114 -84 4 76 114 -84 116 74 -72 126 -18 76 124 4 120 114 22 -56 126 -124 96 -118 120 20 24 32 30 124 -118 40 56 -124 118 -66 -114 22 -114 126 64 -114 -44 116 -12 30 8 -124 -84 124 124 122 -10 -124 116 14 122 -114 118 12 -124 -116 -124 -110 -120 110 -116 -114 -82 68 -120 120 -40 10 124 6 118 -126 -88 30 26 -124 18 -122 116 108 120 -90 104 30 -116 34 124 106 -24 -116 -118 124 -112 0 -16 120 8 112 0 126 82 100 64 76 116 -10 52 -120 126 114 -120 -30 -110 -126 -30 -48 -44 -124 -66 -20 70 112 70 -118 -128 50 16 114 108 38 0 -100 122 -62 -44 118 106 -122 -40 -126 32 70 -48 -2 -48 102 -120 116 -120 122 -126 -60 32 -116 120 2 124 120 14 116 -20 -78 -14 -64 -48 126 0 46 
-112 -120 118 -116 -122 -6 126 118 44 116 124 -118 -122 -124 126 -126 -120 34 122 -124 -122 116 120 122 116 -20 116 126 50 122 -126 126 -112 -120 116 118 -102 -120 50 126 122 120 120 122 -126 -124 -118 50 -116 -126 -22 -112 124 112 -122 126 120 -118 120 -126 -112 44 120 4 116 36 126 120 -122 -122 -114 126 -116 -126 -114 -122 122 118 120 -122 -118 38 -124 122 -124 114 -120 126 -110 -126 -124 122 -122 -40 124 -118 -122 122 -114 -114 -102 -122 126 106 -126 94 0 120 84 -118 -18 -90 -124 -122 126 126 126 2 -124 -126 -38 -82 24 -120 88 -120 -122 -120 120 116 -98 -124 -118 -126 126 124 100 34 122 124 122 -120 124 122 94 40 92 -110 62 122 126 124 -122 -112 116 60 120 68 -124 -124 122 -124 -122 126 126 -118 -116 -124 -118 124 -124 62 18 120 -54 118 -78 118 -122 124 124 -48 -118 120 -114 124 126 -120 -122 -122 -114 -122 -2 -112 -12 120 124 118 -34 64 14 -36 -114 12 106 -118 -2 -14 124 120 -118 122 -126 -124 126 126 -120 -122 126 -126 -108 126 116 -126 -118 66 124 124 124 -120 -40 102 -124 120 -22 -102 -116 -126 -122 124 -78 116 -122 122 124 -126 -4 126 124 -120 -114 28 -124 124 -8 126 126 -14 126 -82 126 -114 -68 -122 -88 -16 54 124 22 124 126 -78 -118 -122 -72 124 -124 4 118 110 -88 -124 -126 -122 -126 124 -104 116 -118 44 114 -116 124 124 -120 -116 -126 120 -18 110 120 -118 -124 -64 -124 126 124 -112 -122 24 116 -124 124 -120 118 84 -122 -120 -124 116 -116 124 74 -126 124 -122 120 126 126 -120 -116 -122 -122 -118 122 14 -114 -34 122 120 -104 124 -116 120 -10 -12 124 -110 14 126 10 -106 62 64 120 -122 -122 110 124 -120 118 -124 124 -124 100 120 36 120 -120 -12 104 124 -124 112 20 -116 6 126 74 120 -124 118 -50 -18 -4 -124 -100 124 126 124 28 -124 -40 -122 126 -124 122 32 -122 122 -128 120 -116 -120 120 -122 120 124 -126 122 -112 54 -122 -118 122 124 4 -28 -110 -120 126 -122 -4 102 126 108 124 -30 -120 120 126 -126 120 -122 -98 124 -22 -58 -124 -122 40 -122 4 126 -36 118 108 -118 122 56 118 114 124 -120 -126 -84 -104 -122 -38 -118 -126 -124 120 -122 -32 120 120 -124 -126 -122 24 120 -20 72 -2 -114 116 84 124 120 -120 -118 -126 -124 118 -94 126 -62 18 -120 122 126 -120 120 -128 120 126 -124 112 68 122 -40 -48 118 -124 -118 124 -6 126 126 -96 -114 
0 10 -106 120 80 44 -68 -116 22 -122 124 -82 -24 -20 -58 -70 -44 52 -72 48 124 28 -76 -56 -100 -126 -122 -44 34 18 -114 -110 -104 38 -100 92 124 116 28 -80 -84 108 -66 54 12 44 -8 44 -110 112 -86 -68 124 -4 -42 76 -104 -110 120 -52 124 -62 34 -116 12 56 38 -28 -30 -50 -14 -82 -56 100 96 20 -108 -52 56 78 -54 48 112 -116 -78 -32 -120 -40 -116 -6 126 82 124 6 20 40 -122 10 -24 -26 0 94 -44 72 -112 78 24 2 4 124 58 14 26 96 -64 114 -50 -92 40 -78 112 -30 20 -10 94 -20 24 60 116 -104 -26 36 -36 100 -20 -4 2 32 -76 -74 -116 -6 -20 -26 126 -4 6 -6 58 -106 -10 -122 -120 28 -124 -30 -124 -62 -122 -120 -32 -96 82 -32 74 120 -70 -22 -84 -34 -20 -2 -8 4 76 -124 124 -12 2 4 -92 40 68 38 -110 -92 -122 -84 126 -10 88 -114 -112 122 -124 0 56 -40 14 -36 96 40 -90 120 -8 -118 -38 -16 -106 -60 -76 22 118 -48 122 -108 -14 -44 122 -22 -80 -86 42 120 -106 64 124 108 -108 8 44 80 -96 114 -82 28 -110 -106 -120 6 18 46 -20 -78 74 -120 52 10 -20 124 -6 36 98 50 -26 118 -30 82 54 -112 -34 -40 118 -44 126 -64 -16 122 20 -38 -112 -70 -92 52 124 -42 34 -120 20 -10 -58 20 -58 32 106 -36 62 36 -26 -98 -70 124 122 -108 -28 -16 118 46 126 -16 114 14 -122 -126 -118 96 90 118 -64 20 -26 84 -24 18 120 -52 98 74 34 -38 -8 -116 72 60 -2 -2 -58 22 -114 62 64 -120 -106 118 32 8 -46 56 86 116 -106 44 -20 8 86 28 -30 4 -26 54 122 108 26 -40 -88 -72 -46 84 -62 94 -124 -52 80 60 -124 -58 -66 -126 -120 30 -20 44 94 34 -48 116 10 -110 -70 -46 -118 -20 -70 66 -4 32 -72 -10 -94 -60 18 110 -44 -94 -38 -8 48 16 -122 88 -60 124 -22 124 -114 2 -32 18 78 -66 -40 96 52 -122 -100 122 44 80 102 116 -118 -40 124 -96 -6 40 84 14 74 -64 48 108 -52 -102 96 108 -102 -4 -120 -78 -10 -46 114 -120 70 -12 126 -114 -14 6 76 -22 112 -124 -68 8 82 -116 126 32 -120 -44 -52 -96 114 -58 34 126 -122 -22 78 -48 124 78 66 -112 -46 16 66 -86 12 122 106 -76 -26 -28 -122 -44 16 72 -70 76 -8 -38 18 -40 126 26 38 38 -42 -48 68 -40 80 -44 124 124 90 -14 92 -56 
12 36 -118 -102 -110 -16 6 90 -50 52 -94 -120 106 -12 -6 4 96 0 118 -94 36 -122 122 -102 -76 -126 -122 -20 -14 -82 78 -110 30 -80 120 -32 -28 -38 12 72 58 -110 48 -8 20 30 14 6 -30 -92 84 108 -102 54 70 -32 122 124 -46 -8 28 2 120 46 6 -30 -126 38 -40 88 20 90 118 -68 -120 124 -84 120 -118 -62 -120 -42 -54 122 120 92 -4 22 124 -26 4 -46 122 6 48 -116 100 -56 114 -4 4 -118 50 -104 86 52 -54 -70 120 -114 2 8 122 96 -42 -116 78 50 -10 -14 0 54 12 -80 -90 -68 -118 -100 42 118 28 -106 -50 -102 118 110 -30 26 94 124 116 116 16 -118 126 -86 2 -120 -116 106 -10 -114 -2 90 -50 -62 -126 124 -24 114 36 122 -120 -118 -116 -122 -92 -98 -92 20 8 30 -14 -16 -62 126 -64 -58 -16 -4 110 -20 -124 102 118 118 80 118 104 118 116 108 -84 -106 92 -114 -102 -8 -18 -8 60 30 18 -22 -64 116 74 26 14 86 116 -66 -92 14 -96 52 2 -24 34 -6 36 44 -124 102 124 -118 -108 -76 98 98 28 76 50 -94 12 22 120 -2 108 54 38 -36 70 -18 -120 122 50 -46 -4 -58 -62 -20 14 -100 28 0 38 122 122 114 118 -76 -126 -40 118 80 -10 30 4 66 26 -106 54 20 122 -118 -68 -126 -8 -2 14 126 22 -68 -84 -112 8 4 96 126 96 -102 -18 120 120 -98 120 -116 94 6 -30 -104 -100 -126 112 -124 4 -114 62 -8 -8 -6 122 68 -126 48 -118 -120 -4 124 116 28 -92 124 34 -122 -46 106 64 -102 -66 -120 -6 -80 -120 -28 60 -36 -116 -104 -24 -20 6 -60 -86 -94 -62 -16 -28 42 124 -108 112 122 78 110 118 -56 -30 -86 68 -108 94 82 -114 114 124 106 -14 -50 14 -74 -120 -124 44 -110 -2 120 -78 -50 96 120 82 -76 -22 -120 80 92 42 78 2 -122 -116 -48 96 0 -64 -60 108 46 22 -86 -34 -26 78 16 90 82 52 -124 16 46 -116 110 122 -12 -24 -38 -26 -80 66 82 126 120 124 90 106 -122 74 -30 24 -112 60 122 4 -100 50 72 96 118 -40 78 46 32 -50 80 124 40 68 32 -114 4 -70 -126 -58 126 -118 108 8 34 116 86 110 4 -120 72 -116 120 120 10 52 -110 -54 -92 -8 70 114 10 -84 122 12 -84 -122 -80 78 64 112 116 -42 -122 116 -120 56 -4 122 66 -58 120 -120 -20 -124 46 30 -52 -64 2 -36 120 -116 122 -108 124 
10 -80 10 -10 102 -62 92 -82 12 -34 -104 -54 64 30 32 120 64 30 -116 18 -44 116 10 118 10 116 -120 46 -112 110 34 -118 -120 -76 -100 -8 126 48 -16 52 -20 120 -58 -58 -2 -120 14 -114 -114 86 22 -48 114 22 -102 122 104 124 56 12 76 -22 -118 126 118 -118 -122 -72 22 -126 -36 -116 -122 -102 -40 38 20 -110 6 0 118 4 -40 -80 -124 -120 -84 16 112 114 -36 52 122 -68 78 104 -76 56 -96 -60 38 106 16 122 -116 110 34 102 8 -66 112 10 2 -124 48 -60 36 122 -14 122 -118 -10 -74 42 110 124 -108 118 -116 -124 -90 108 -38 104 -120 -120 -20 -48 -82 122 -122 -100 -114 -122 -52 116 -124 44 124 -4 8 124 -74 -120 118 52 108 -36 -50 -124 -42 -78 -36 118 -118 116 110 120 124 -80 -58 -28 10 0 6 122 -8 -8 -34 -92 -26 56 -120 -114 120 124 84 92 -46 -86 -92 -102 -120 122 122 56 -32 -4 54 -28 -120 0 -38 -124 122 -114 -76 -124 118 -106 -126 -16 102 92 124 -110 -14 124 34 -26 -88 -32 -38 -120 122 -118 4 122 82 30 -4 -122 110 104 -82 -38 -126 -122 10 10 -52 -20 -74 36 80 28 -60 28 -30 -92 94 10 24 104 42 -122 110 124 -8 -126 -66 -122 -124 -122 116 -30 -20 10 -28 -124 114 126 -114 -24 124 64 124 -126 -28 -46 -12 -112 62 106 -18 64 -128 20 66 126 -44 122 -20 122 -118 2 124 -82 124 0 -108 -44 -72 -124 -80 112 -26 122 -42 -26 -100 -50 8 -124 -126 116 118 16 124 112 -102 -128 84 124 -86 106 112 -122 -106 90 68 -50 -54 -120 58 -10 112 82 20 122 120 18 -26 -108 40 54 114 20 8 -122 120 -82 -120 -98 -122 -86 -120 108 124 120 54 0 54 -102 126 62 -94 -116 120 -28 -4 4 72 56 -118 46 26 -114 84 56 -110 -124 -14 -22 -28 34 -60 82 124 122 -4 -40 126 126 -122 110 88 120 -118 -116 96 114 60 2 -122 66 116 -104 -124 106 74 -120 122 -120 -116 -60 -26 4 124 122 -120 -74 56 -38 -104 -112 -62 124 56 78 120 48 -6 -30 76 114 64 -126 46 104 122 -112 -108 -10 0 -48 78 22 -110 16 30 24 26 -110 122 -104 102 -122 84 14 -120 -36 -94 46 -118 108 -114 -122 -78 -48 -62 92 -126 82 116 -84 -86 -24 -26 -84 -60 -22 22 -126 -106 -48 122 -16 20 72 -118 112 -10 0 -74 126 22 -74 110 18 122 -104 46 118 116 -16 -112 -102 120 -72 -20 124 
12 118 36 84 -54 94 -112 118 122 -4 28 54 -104 -52 -100 -118 -126 -26 -108 90 14 122 86 120 -70 108 -120 -116 -88 -120 62 -126 62 112 -66 58 124 -62 56 -92 52 120 106 122 90 122 6 -116 122 0 -70 -66 -120 118 112 -82 -114 -116 -22 90 116 -16 122 -72 -30 36 -126 -112 -122 120 102 -116 -118 -32 -122 -122 54 74 120 -122 -116 2 38 -118 112 28 -24 6 -122 -118 8 2 124 66 -16 -84 84 -8 -6 -2 -46 -38 84 -72 118 -58 -4 -2 26 122 -44 -4 -64 90 -122 118 124 -12 0 120 2 114 -94 116 -10 118 -126 -124 -18 122 -36 -44 -120 -26 122 88 6 6 112 114 -118 116 58 -118 -116 -16 86 74 -60 -106 -28 118 108 122 120 -86 120 -124 -36 -124 44 -122 116 -122 -122 -124 122 -16 -114 28 -126 -34 -14 -12 58 122 10 60 44 114 122 46 -122 124 -128 124 -120 -124 18 122 118 120 -110 118 -44 -120 90 -14 118 106 62 2 116 -124 124 -118 -26 100 -78 126 36 0 46 -122 -118 98 12 -62 -124 14 -46 10 76 -110 -124 126 -22 -120 -56 14 14 -120 -92 120 0 -2 -122 42 126 30 0 122 -24 26 122 -42 14 24 120 -64 -120 -112 16 -124 -8 -60 88 118 -26 116 106 -34 -124 122 102 -34 -28 0 18 46 120 -22 106 -110 -124 -122 64 -126 -4 -10 38 52 -8 -124 76 126 -84 -12 -56 -114 122 -118 36 -118 110 76 122 -74 -84 8 122 -124 -56 90 72 -102 18 122 -36 50 116 -108 120 44 -84 -62 -100 2 -122 -126 118 46 -124 90 24 -122 18 118 108 -88 -28 -122 118 2 0 10 -48 -114 -26 -104 -100 36 100 -122 8 -32 -70 -2 104 -48 120 20 -112 20 120 126 -116 -24 124 -124 -120 -116 -72 66 84 -14 -104 120 114 42 -36 -60 -124 20 110 -66 -84 -60 -96 100 122 64 -74 122 4 68 58 -86 -116 102 34 58 124 -122 62 -120 22 4 116 -52 116 112 -108 -60 118 114 -24 -102 114 -48 -66 -46 -8 118 -18 24 18 12 32 10 -122 120 110 -112 -116 122 -72 118 120 84 102 116 -44 -70 34 -126 -26 40 -92 120 -118 124 -118 -78 -20 -18 -124 -78 126 -18 -112 -26 46 122 -120 -2 -106 120 -96 10 -96 72 118 -118 126 -116 114 16 42 74 -42 -44 -110 -108 -108 -92 120 44 84 -2 -44 -40 -100 -14 10 -48 -118 42 20 -48 24 4 120 -12 46 126 -108 114 -104 -42 120 60 -6 -104 -38 120 -66 72 -124 0 8 -112 
16 -128 116 100 -12 8 108 -110 120 32 26 -64 114 36 66 -32 -10 -20 72 -126 -24 122 114 114 -66 -116 -126 52 124 -114 96 -126 24 -124 32 50 118 -18 100 -64 6 -114 -4 -116 20 52 0 124 -126 64 24 -64 -6 34 -16 -114 120 118 -86 108 54 -62 -14 -126 84 124 -124 -116 -98 38 -100 54 -124 -114 -102 6 110 -42 112 94 122 14 -84 66 -116 -68 -62 -18 116 100 -66 -12 124 -46 -24 108 84 118 -84 -4 72 0 26 -102 114 106 6 -116 -112 -122 -126 -10 -24 -50 -4 -116 -6 -118 -18 18 126 114 16 -46 -42 106 -122 32 -118 18 -102 86 -112 -22 12 -122 20 -18 -92 -64 120 -112 26 -122 -84 -100 124 88 -124 34 34 120 34 -90 124 36 -82 124 -54 114 -6 108 -118 124 -120 114 118 2 114 -58 -122 38 36 -20 -20 124 18 54 -40 -92 -72 -128 -122 -10 -120 2 80 114 -126 -12 -124 -112 -102 -120 18 -60 -36 30 -124 32 38 -22 -32 124 124 118 -50 124 118 -122 -116 -4 -72 -120 66 -38 -10 -52 44 -50 -122 -48 82 100 108 66 -2 114 -104 -10 -62 -28 116 122 42 -42 112 120 -110 68 -26 10 -46 -110 -84 62 -80 36 16 -70 -104 24 8 -120 -46 -108 122 118 122 120 2 -4 -94 -80 124 -48 -8 6 -10 -108 -98 -122 116 -42 -128 -108 74 -124 54 -112 -56 -120 112 -90 70 116 124 6 38 126 124 90 -32 -30 -116 -86 122 26 72 -12 114 -114 -66 -50 -46 124 14 -44 92 -6 86 116 6 -114 126 -26 120 0 102 -122 -28 -112 24 -124 18 -118 -30 124 -126 26 -64 -122 -118 -114 112 -10 110 -42 -118 -112 126 24 -18 -122 -30 -38 38 2 -124 -124 120 -118 -124 -68 118 -104 126 84 -106 102 102 -124 -44 -54 62 60 126 -76 -60 -64 -68 -92 108 124 -70 -38 30 16 88 -86 -122 112 -114 -124 -14 -118 -58 -116 -36 114 2 -22 -124 36 122 116 -114 -102 -122 118 124 28 -112 -20 112 122 -104 -120 24 -108 28 -126 -42 120 72 -68 -6 12 20 2 112 -66 72 118 32 -76 -122 -126 110 68 62 -6 20 -10 124 114 118 126 110 110 -18 -102 122 -22 -4 -80 84 -82 -78 -2 46 8 24 -46 122 114 -108 118 102 64 124 30 -124 4 126 -122 -2 18 114 -52 -120 108 124 -4 -114 98 -122 -8 -66 -10 -60 -124 122 -80 118 -116 -126 -26 -4 -42 -46 74 -8 72 8 -114 116 112 76 -112 -112 -28 -50 6 56 92 0 -26 58 30 0 124 
-30 26 -120 6 26 -102 -48 120 -128 2 20 116 -124 -14 74 122 -120 18 -116 120 80 -112 -112 -88 -80 120 -108 -96 126 122 62 -124 -18 24 92 -68 -40 -12 -26 10 108 112 -26 102 12 124 8 124 -126 8 -106 -120 70 -24 -46 108 -124 14 -112 64 100 -26 74 120 54 -42 18 110 104 50 60 28 -10 16 -122 -118 44 -46 -120 -120 108 -2 -78 126 -92 54 -34 -60 -110 14 108 56 122 20 -74 -110 98 -120 38 -122 -46 54 -62 58 26 124 4 48 -112 -82 100 -4 120 114 -6 122 104 124 20 50 -112 40 -66 104 14 60 -34 4 114 -108 -24 -124 -118 64 2 88 -18 32 46 122 -32 44 -120 -12 124 124 -124 48 124 -72 -38 124 -118 -120 118 -10 -34 -56 -8 -50 22 2 -48 10 8 -90 120 76 -124 50 14 -40 -64 -18 -10 126 -6 -14 24 24 10 28 -122 124 114 76 -122 -18 -124 -28 116 48 -116 -116 -44 -8 122 18 -128 24 66 50 94 124 122 -122 -10 -126 100 -88 120 -6 12 6 -78 70 -4 118 -122 32 -124 -10 12 -118 24 -124 10 -32 18 26 116 6 -122 122 -120 44 126 -58 -6 44 12 58 46 100 10 -124 -26 8 36 50 -40 -28 90 108 72 -126 -64 112 -120 -118 -30 120 -126 -124 -10 -8 0 28 20 88 122 -104 -18 58 -128 -86 92 -128 -18 70 -2 -80 18 118 18 70 124 -22 -6 126 116 -42 -10 92 76 54 126 14 -58 52 -120 52 -48 -10 -6 -118 56 112 16 -48 104 -114 60 -126 -118 -126 122 24 -64 126 22 104 -122 -118 -94 50 -116 -122 120 -94 -18 114 110 -118 -112 -6 -96 -10 106 -88 -118 -70 0 -108 18 -60 118 22 -98 -124 122 -124 -124 -2 88 -54 120 -44 124 20 -24 8 -6 62 8 -58 -92 72 -64 124 -50 124 -122 -116 38 70 -32 -128 -40 112 32 122 66 -128 -92 108 -36 114 2 74 -116 122 -126 18 34 -116 -8 116 122 112 38 -20 50 -54 -64 100 -126 112 74 126 98 118 124 -34 -122 -36 -14 18 -102 -124 -106 76 38 -108 -26 58 120 -118 36 118 30 118 -56 120 104 112 100 -98 -18 -14 124 126 124 -30 -26 10 -66 -104 -28 50 42 6 46 68 124 10 118 52 42 -42 124 34 114 -116 -124 24 -56 -76 -116 -14 122 -100 -72 -22 112 -126 -14 16 -24 -120 -42 42 44 -108 -108 -18 10 6 10 96 -72 120 -124 24 -110 -118 -120 100 -122 70 114 -4 68 120 -56 112 26 16 -122 -22 22 -68 
24 -84 32 -112 -122 116 -42 16 -124 -70 -52 -44 122 -52 20 -14 -122 68 6 -122 -26 -126 114 122 120 -10 126 24 -92 126 -44 -120 122 122 -32 118 -4 -26 88 -122 2 -10 -46 -122 100 126 22 -122 -40 -84 -124 -66 -56 -124 118 -116 -112 -122 80 38 -4 42 -112 -8 -58 -124 2 -124 -112 -110 -40 118 120 122 102 -98 -112 -74 -126 118 84 10 12 8 20 -58 -34 -38 122 -32 42 18 124 4 -2 8 -96 -44 -86 58 20 -4 -124 -90 56 122 66 118 -108 126 122 4 124 -64 -102 126 40 22 -26 122 -124 32 -98 124 -116 122 -118 -126 124 108 112 66 -120 -72 -28 116 16 -4 -116 -78 -50 -118 14 -94 -122 -62 -126 120 126 28 22 -60 108 46 -110 34 112 -44 -44 116 -26 114 108 118 24 62 118 32 16 -18 -118 -8 70 -10 -40 124 8 -32 -80 90 72 118 -120 -104 -126 -42 114 -24 126 124 -48 -30 20 -94 -86 -98 -116 -22 94 -6 114 -26 116 -124 122 -124 10 -124 -80 -30 -34 -30 4 124 26 -116 30 122 -2 20 -118 18 124 122 -124 10 -24 -102 -120 -18 14 112 110 118 -76 -118 -28 -34 -116 -2 -20 -44 64 32 90 -114 -98 -18 -116 24 -120 -16 32 62 -62 -126 -110 124 122 90 -2 120 -126 -34 -48 50 -8 -54 -76 -38 122 -96 120 118 16 120 82 -124 18 -78 50 -12 -66 -124 -66 114 -124 18 42 122 112 -118 4 48 10 -24 -58 122 -14 -20 90 -118 -98 124 -12 96 -22 28 18 -28 120 -76 46 22 -124 122 46 -42 76 -50 40 62 -58 -122 28 116 122 120 -114 12 -104 -124 -112 -122 90 4 -126 22 -50 -102 -86 -22 86 -102 46 36 -112 -2 -60 46 112 -118 -124 18 -28 114 -116 26 -102 44 -110 -124 -84 12 108 32 122 126 -74 124 -52 -80 -30 124 -118 12 40 -126 122 24 14 -104 -42 114 118 38 -38 42 -120 4 -6 -98 124 -90 -116 -104 -104 -116 -116 122 122 80 -100 -2 78 92 -124 -58 -106 -124 -118 120 -96 -2 116 -18 -12 -18 -110 -76 114 -40 -66 114 84 20 120 126 116 120 48 -102 -70 26 32 -108 120 -122 66 -24 -122 -60 -124 -24 6 -50 -42 -26 -86 80 12 -2 24 -20 120 50 -122 40 -8 28 118 58 -120 120 -120 -16 -112 122 -30 -48 124 106 124 58 124 74 -88 28 72 124 -48 -114 112 -118 28 -46 126 -2 -14 -42 -42 92 36 -50 -60 126 -120 108 -64 -110 -106 6 -50 -38 98 44 -122 42 98 -44 12 124 
