-4608 -3200 -384 -256 -3584 -512 640 2688 -2176 256 1792 3712 1664 1280 896 3584 640 -768 512 -1408 -3456 3072 384 -256 2944 -512 2432 384 -2176 -896 -896 -1408 2304 5120 -3840 256 896 896 2816 3072 1280 1024 3456 1920 -1664 3456 -1024 0 1152 -2432 -512 128 -640 1152 1152 3456 -1408 384 2304 -768 -1152 -2560 -768 256 -1024 2304 -2560 2944 -2048 -640 3200 4096 512 896 1792 -2944 1536 -384 -2688 -1024 1024 -1664 -3072 -1408 -640 2176 -256 2816 3200 -512 -640 -2560 -2560 2048 3328 -1024 2944 -2048 2816 3200 2048 1408 640 1408 -512 -1920 -128 6144 0 1280 1408 1280 -1664 -384 1408 -1280 -1920 2688 -1408 -1152 2304 -640 2688 -2688 -1152 -2048 -1280 -3200 -512 6528 256 1280 -2304 128 -3200 -1920 -384 -2176 -1024 -1792 768 -1792 -384 -128 2432 512 -768 128 2944 640 -896 1920 -1920 896 -3328 -512 2176 -3200 -3072 -3968 0 2560 -1408 -1920 384 1664 -384 1408 2560 0 2816 -1024 1024 -1664 -3328 2304 2304 -2816 -512 1536 -1024 1408 1792 1536 2816 -2944 768 5632 1792 -2048 -2176 2816 0 2560 512 -896 1024 -640 -1024 -2688 512 -1024 -896 768 640 -128 1152 2176 -128 1024 -896 512 4864 -768 4480 3072 640 2560 2176 1536 2176 6784 1024 -1664 640 896 -1280 -3456 3840 -2816 -1408 -1920 2176 -1536 640 -2688 -3584 640 -896 0 -512 -2432 -384 384 2048 -2944 2688 -1408 4352 1920 -128 -384 128 -2304 -2432 -2560 384 2560 -384 -2816 4224 512 -2688 -2176 -768 384 -3200 -1024 2304 -896 -128 -2176 -128 128 -512 -1152 -1920 -896 -896 -4480 -1152 3328 2432 1152 2304 -896 0 -1536 -1024 384 1792 -1408 -2944 -1408 -1280 640 -640 4992 -4480 896 -2560 -1408 -2176 -1664 2432 -512 2176 -2176 1920 2688 1152 1280 -1920 256 2432 -3840 -640 -2048 -3200 -5760 4096 2432 -1536 -2432 -1536 3072 -3584 512 -3456 -1536 768 -512 3840 1792 -1408 1280 -4736 1408 1920 3840 512 1664 -896 1664 -2816 -1152 5888 4224 -2432 768 -1408 384 1408 1152 3968 -640 -1920 -1920 128 -640 2816 512 -1536 -1792 -3200 -1792 1536 -2816 -1536 -256 -2176 4736 -1280 -1280 4224 -1280 4992 896 -2176 1920 1664 1664 -640 -640 128 -1664 -128 1152 256 3584 -1024 -128 768 -128 1408 384 768 -2176 1408 3072 -384 2816 -1664 -128 640 4096 640 384 512 -384 2304 -2176 896 1536 1280 3328 2048 256 -2304 -256 -4352 512 128 -2304 1152 1024 2176 -768 0 384 -640 1280 -1408 2816 -5760 2176 1408 -2048 -3840 -256 -2048 -768 128 0 -3456 1152 -1280 -2048 1536 1920 384 1024 1408 1664 512 -1280 -1536 -2816 -512 -1280 -2048 1024 -3840 1792 640 -2560 -1152 2048 1280 896 128 2304 1664 3072 3328 384 -5248 2944 1536 896 896 384 768 3456 -8064 -1536 -3328 -2688 -1792 1664 2688 1408 256 -896 -256 768 -128 2304 2688 -1920 2688 1920 3200 -640 1792 1536 -896 1152 2944 512 2944 -1152 