92 -62 -114 54 -106 -46 -68 -24 -112 -30 -64 22 8 0 -120 -66 -56 -36 -4 78 -126 44 86 108 6 -2 62 50 74 -120 126 -124 -126 -54 -98 -68 -94 102 -52 -116 -40 64 -96 62 70 -46 -100 94 -36 -54 122 -46 -82 78 -126 -12 -80 -46 -110 -50 106 -106 10 -88 -36 -106 38 -10 82 26 -68 -120 -66 68 -30 18 -40 84 -6 -58 -16 -52 -28 -36 -24 -70 -100 -124 36 -18 102 -62 62 -98 -62 20 -120 -100 60 40 34 -20 -90 30 -48 -24 60 -38 12 -48 40 108 -54 -68 72 -54 2 -18 34 70 108 -12 -122 -76 50 14 -52 64 10 -64 -82 44 74 -46 -16 98 -80 68 118 82 -60 -58 -30 -14 104 86 -92 -78 -56 118 24 -88 36 -124 -126 2 -2 -64 -2 -88 -86 -116 58 -50 -20 -38 -84 -34 -100 -68 -46 94 22 -72 -54 48 -30 -26 -82 50 56 94 76 114 98 -70 -88 -66 -26 -34 -38 30 88 48 -36 -124 28 -66 -66 -74 70 -88 112 -78 106 72 22 -58 -56 -52 -22 -6 -10 112 80 122 26 -28 126 -38 -80 74 -34 10 -30 90 -66 -48 84 14 -112 -12 90 126 80 2 -78 -26 62 -2 -94 -30 -84 78 -6 -98 64 -78 -84 32 82 -26 0 84 110 -80 -74 -58 22 -8 -86 92 -4 114 -24 -18 -122 -2 -110 68 -74 -64 -68 -72 -22 28 -16 -42 -74 6 -82 122 -10 104 -94 -106 -58 -56 -76 46 -126 22 -10 -76 -60 58 -112 -32 -94 -36 52 74 -56 96 -22 -126 -16 -76 -14 -46 44 -50 -94 -66 -26 -44 -62 -30 -2 48 74 -62 18 -84 52 -46 -30 -54 40 -52 48 50 -46 -80 8 -4 -40 -84 -64 -128 122 -36 -18 34 -54 -62 -12 -54 -72 -68 -22 -22 58 100 -116 118 -20 -86 -20 88 -38 58 -50 -18 -12 -64 118 -124 108 -40 -50 -66 -16 -124 -72 -64 -46 64 -60 124 72 -72 -96 -22 -18 36 -32 -92 -36 60 64 116 -58 10 -36 -20 28 -68 60 124 -82 -70 -48 -30 58 -34 86 26 -114 26 -58 86 24 -48 -16 -74 -70 54 -2 126 -20 -96 106 -60 96 -78 16 -70 -16 -96 -64 -24 56 6 16 76 -12 -50 92 -128 -8 36 -54 114 -88 -116 68 44 -76 -36 -86 -80 116 -90 -114 -76 -80 38 8 -60 114 -12 -112 -60 126 -16 46 4 -30 58 42 -36 -40 -32 -80 -20 -42 -56 -28 24 -38 72 -106 -106 84 50 -78 90 -42 68 -16 114 -76 -46 -20 80 78 -62 -12 26 -94 -48 -88 -122 -68 -32 48 52 -44 120 -108 -52 -82 -126 50 -48 -72 6 -50 -52 -8 -86 -66 -36 -128 -52 -54 96 -20 -80 -34 -18 0 20 -80 64 58 -8 -68 -14 -124 68 -8 60 -40 -16 -52 -48 80 -86 -92 -6 -110 96 114 -82 -16 -26 122 120 -126 -70 -114 -82 64 -78 114 50 -62 96 -34 -90 8 -6 -34 -6 -4 108 -4 110 -2 80 116 -94 -86 -70 -40 24 2 -126 6 108 56 -22 104 -12 -126 -100 -84 12 30 -80 112 126 76 -114 122 -128 -66 70 -14 34 28 100 84 -88 82 -2 -38 28 92 108 -38 86 14 -4 -54 -60 -72 -126 -46 66 114 30 -8 -92 90 56 -32 80 -124 14 16 114 -86 -10 -68 -56 -66 -20 -90 70 20 -58 106 -8 -108 -86 76 54 90 -58 -60 -108 12 122 -48 124 -40 -32 -32 90 -78 -72 -30 -66 52 64 -44 -108 -28 -94 104 12 -8 -10 -24 -80 56 -42 -52 4 -70 120 36 -126 -16 -64 -26 -12 -96 -28 -50 114 -106 -54 -92 -18 -70 -68 -78 -80 38 -52 32 -66 122 106 -12 40 -86 -86 -42 -62 112 -82 -56 6 -36 56 -52 2 38 -74 46 -6 -126 8 -40 44 -74 -72 -88 -20 18 -96 -82 16 -54 62 76 18 -36 -80 100 70 6 -6 -28 -98 42 -14 -4 104 32 -8 -98 120 -70 46 -44 106 -98 16 -34 -82 -32 108 -70 2 -92 6 60 68 52 -58 -12 -74 6 -104 34 52 -52 -86 -72 -66 -106 -16 14 -58 80 72 -78 -66 -20 -112 -24 110 -16 -46 -90 -86 -14 -42 -90 68 -68 -86 40 -80 -76 -84 124 -52 68 -94 -84 -50 18 -60 74 124 -90 -48 96 -38 118 -80 -52 -114 -40 96 -82 -102 -104 -112 8 74 -82 26 58 126 -52 110 -74 -56 -36 54 -70 -54 -22 -118 18 -52 -46 -14 -4 -34 66 -22 -34 -70 -86 -48 -90 88 22 -16 84 62 -14 -58 -102 -62 -56 -94 -74 -76 -32 16 -90 6 76 112 -20 12 -42 28 114 78 32 -84 60 2 -102 -30 -46 -76 104 -82 -64 -52 16 -70 -40 30 
-32 -102 116 -104 -6 -40 -36 -8 -28 -86 34 -98 32 -4 -4 -116 -60 -66 -92 -36 -94 -72 -28 34 32 46 -12 -90 -42 108 -42 40 -24 -72 -50 -48 104 12 118 -54 48 82 54 -28 4 -84 58 68 36 60 -30 8 66 92 38 74 -126 -118 -56 -108 -120 68 -46 -20 -120 -30 32 -116 -120 36 18 32 -14 0 -76 -106 -42 8 -80 -60 20 98 40 70 -90 -80 100 28 -46 28 56 -66 -64 -126 -56 -50 74 -4 -4 28 -40 112 28 -98 24 -22 6 -26 -22 -66 -50 96 -82 -54 54 48 -6 30 24 -116 -64 -62 36 20 -50 36 -26 56 -38 -120 -48 -30 -24 -84 2 18 34 -102 36 -2 70 -76 -34 -100 -30 -8 -14 28 -104 4 -84 -120 -32 100 6 -38 120 -84 72 40 116 110 -20 -32 8 40 -78 12 6 -84 4 -70 -126 10 -60 72 -52 34 -36 -16 -120 -56 4 24 26 -30 -62 32 -102 -64 -100 -34 28 -52 -26 112 62 50 -98 -32 -126 22 -24 -106 26 -12 -38 -14 -26 -92 94 -60 78 74 58 102 98 -4 -52 -66 -38 -74 16 -72 -76 0 -34 -24 -54 56 -74 0 94 30 102 -18 -92 -92 60 2 -50 -42 -54 -122 -86 32 88 -70 120 20 22 -116 74 84 58 -2 -2 -10 26 -36 98 -76 66 -116 -48 -24 50 -60 -56 -8 -40 0 -100 -16 -26 72 -78 40 -30 -4 -82 -8 -32 110 -64 -86 48 -30 -62 50 54 -8 48 -30 24 22 -66 56 -14 -62 -12 -10 -2 72 -6 68 -24 116 82 -94 -72 -24 -30 30 -68 -86 64 -12 74 -88 8 -20 24 -92 124 -126 -76 32 8 -32 -34 -76 -12 -80 -24 -30 84 -46 52 10 -12 -64 6 -34 42 -126 -80 42 -66 92 18 -100 -4 -114 -78 40 -34 -110 -42 76 -90 -14 2 -86 0 126 42 58 52 -36 -92 -56 8 -60 -26 -92 46 64 0 -40 108 -38 50 -34 -22 0 -28 68 60 84 -10 106 -94 42 4 -36 -48 -112 0 96 -84 -80 18 -62 -68 6 36 118 -66 -50 -120 18 20 -54 -40 50 -22 58 -82 52 -64 -92 14 50 122 10 -94 62 -34 -36 -16 -88 116 -30 4 -20 56 -2 6 -32 -82 -70 -72 -62 84 96 20 -18 -32 62 -60 -94 126 -88 44 -106 -106 14 36 14 32 -126 0 -86 40 -18 -60 -12 -8 -22 -44 -20 4 58 -120 -72 -100 -14 12 92 -100 -24 2 124 0 10 46 116 -62 -22 -94 32 -116 -20 -110 76 56 22 -84 -52 -90 -36 -122 -54 -98 38 -90 -56 24 2 -72 -86 102 -118 98 -12 -88 -62 -22 28 -66 -128 -56 -106 88 -92 -110 78 110 -110 -64 -80 -20 -84 -52 -120 16 102 -44 -80 2 64 26 44 -88 62 -8 -68 20 -42 -70 42 -56 -126 20 42 112 -28 34 36 24 4 -82 20 72 62 -46 -44 -44 32 -46 -8 -50 -36 -122 -14 -122 -42 42 80 120 36 46 8 126 -4 -92 -62 -16 8 -126 -50 -112 70 -4 -48 28 -42 122 -90 -88 -78 -44 54 -8 -16 18 -100 58 -2 44 -92 -10 -108 18 -128 -46 -70 -80 72 0 38 14 16 -14 -26 124 24 -88 -60 -6 64 22 -116 -36 -32 74 -86 48 122 24 50 34 -118 -32 126 -124 26 12 84 -54 -28 -4 -82 8 -32 102 8 18 -120 -88 -6 -78 -80 18 -22 -98 14 -122 -126 26 54 16 126 42 -58 -60 0 -84 -12 120 -14 -108 50 50 -70 12 -26 -38 60 58 14 58 -82 -38 -102 94 -98 0 26 42 -126 -76 -20 64 40 10 -74 18 -32 32 88 120 22 18 40 -90 -92 24 54 -14 70 8 24 -128 -116 -72 124 12 -2 84 -58 78 -26 82 8 46 -38 -26 74 -34 18 -114 -4 60 -50 -32 -28 42 50 118 20 50 36 -80 54 44 100 100 -70 68 -94 -16 116 -84 -62 -126 -60 36 -28 -124 36 4 72 -24 76 26 42 -2 -4 -126 2 -12 66 48 -48 18 -40 28 -10 64 20 -84 -56 -60 -58 -114 -60 -86 -12 118 20 -88 -58 -78 -108 82 -70 -46 46 -92 30 -74 -70 34 16 52 22 90 30 -108 -118 -66 -18 -52 -82 -8 78 -44 -10 108 -34 6 66 -10 4 40 -100 -92 58 -108 -56 96 -4 -14 32 -72 -78 -14 -30 28 18 -62 -36 18 40 40 66 68 -74 46 124 -40 -2 -112 -64 48 56 -16 -124 20 -68 -42 -34 -78 -118 -54 22 -108 -108 56 -126 24 -70 -62 -78 -40 -104 -84 -50 -36 12 -106 110 -106 -88 26 -38 -6 -100 -28 -120 -50 -18 -14 -26 -56 8 -124 -94 -86 -28 -66 -10 -42 -52 
52 118 -64 -8 -18 54 0 -26 -48 -50 -78 20 0 -28 -24 -106 0 22 -16 -8 126 4 96 -8 18 -56 -24 14 -86 -42 10 -4 -16 124 -26 8 -60 26 -24 6 38 -118 -48 88 100 18 -52 -2 8 -30 -92 16 -10 -14 -38 6 20 20 -62 -42 70 -82 -56 56 14 -80 64 46 -36 80 -30 0 28 18 -88 -28 -64 -76 -32 -54 -38 -28 10 -54 -20 -66 -54 56 24 54 -108 -96 -26 -82 38 10 -28 6 -22 -42 -60 44 -90 28 -100 -72 38 28 -50 -54 -14 12 -78 90 -128 -12 -54 -68 52 114 28 -16 84 30 56 -26 -18 -34 18 86 36 -82 40 -72 16 -66 84 30 -108 -30 112 18 -4 28 114 -110 50 -126 14 -6 -42 80 -64 -46 -106 -4 -80 18 -48 14 -94 -12 -120 6 -66 76 16 118 60 -42 -10 124 8 24 -76 18 -36 -4 74 80 -68 126 -70 14 -36 22 62 -58 54 40 102 -62 86 -56 -86 -58 -98 110 20 -34 64 -42 16 94 6 0 32 92 16 -12 30 52 34 10 -28 38 -34 10 -52 -106 24 42 4 -16 -52 -52 -58 0 -44 -50 64 -28 -70 -122 -80 44 -6 0 18 -44 42 90 46 98 -78 -52 -106 82 -28 60 -48 -34 54 90 -60 44 -38 10 34 118 74 -12 -10 52 124 -88 -66 -12 -52 -98 -92 -66 -42 36 4 -18 -56 2 84 -110 -50 -44 12 16 -14 108 -54 -84 -48 4 -28 -26 -26 -34 58 -104 72 -12 -34 64 -72 42 -24 76 18 58 14 96 4 44 -40 20 -70 -2 -60 -22 -8 26 -12 -70 96 -14 44 4 50 24 26 -8 118 -84 94 4 -32 70 -24 -58 26 82 54 122 -50 -30 -40 70 36 -98 2 38 10 108 102 -116 -20 -14 38 -80 8 68 62 -60 -22 4 36 4 106 14 46 82 -38 78 -32 -32 -70 -62 -54 6 -104 -86 -24 -40 -38 -60 -104 2 36 -80 -10 8 -26 12 -54 116 8 10 -4 6 80 42 -76 108 -32 -30 -4 -32 28 -100 28 20 -38 6 78 6 2 98 -6 -44 -82 108 -28 -72 -62 -12 114 6 -38 -16 78 44 -10 18 -10 -56 114 0 -52 62 -30 -34 10 46 -52 -18 8 -14 16 -32 -28 38 -62 84 12 18 12 44 30 8 -4 -6 -2 -2 -30 -4 60 -62 -70 54 -40 44 28 42 66 34 -18 -20 54 84 -64 92 -26 -46 -28 -24 -112 6 -54 34 -2 -26 -26 -10 -12 -36 -34 10 38 -24 -84 -30 -58 -18 -70 -14 66 -30 20 102 -24 -76 -34 -110 -58 14 82 118 -36 -32 -34 -42 0 38 -36 -88 -120 86 -86 10 22 -18 -10 -16 -62 -64 -72 -32 114 -46 112 4 -36 -8 -70 -126 100 -64 88 98 -30 -22 -38 122 -62 -16 -6 46 -82 -82 -14 18 -34 -26 -32 38 -24 -16 42 -38 -6 62 -46 -20 84 42 -72 -74 6 -40 14 68 -76 36 0 -30 -34 -70 -30 76 -26 30 -4 26 12 -18 -10 20 54 -90 -56 -48 -72 34 -44 96 -122 -110 -102 -56 -4 30 60 -2 -20 -50 96 98 50 -104 -26 -2 44 -6 -78 -26 6 -50 -10 48 12 22 -64 122 -60 -24 -40 44 -42 24 -34 -6 66 114 6 28 -72 16 -32 -84 -18 30 44 36 10 118 -122 44 -14 -92 -98 -10 -70 -32 118 4 6 22 30 -18 -6 -22 -16 12 -2 40 64 36 -28 10 54 -30 -98 -72 18 38 -20 -2 -52 -82 -46 -28 -28 30 -40 16 -64 62 70 68 -46 66 24 -4 -48 62 28 8 10 -32 -108 58 36 52 -16 18 56 2 -58 44 82 -62 28 46 40 64 -62 -86 68 26 56 -34 -88 -44 -40 62 36 26 8 40 78 48 -26 -72 52 -52 -48 -2 -116 -38 -24 -64 -6 -54 102 -16 -76 -56 108 -4 76 94 -66 -8 -34 -22 -48 84 -52 78 -4 78 -44 -42 92 64 -56 -66 58 112 76 50 -62 -96 16 10 56 -26 -76 0 -56 -44 16 18 -106 -14 6 -48 -30 52 -10 -60 -84 60 -10 -124 12 0 -32 98 40 -72 -60 74 -12 68 14 18 0 88 -58 -44 -26 42 76 38 54 -68 -14 36 12 -2 -50 -12 -32 90 -40 0 -82 -24 -102 74 4 -28 -58 76 80 -14 16 16 -22 82 -42 -48 -26 -108 54 -40 -6 108 36 -58 -124 -46 -6 -28 4 -84 84 0 -14 -68 -98 110 -26 -62 26 -80 70 12 2 0 -64 -36 -30 58 66 94 0 50 -24 18 -6 -24 4 -40 -34 -10 42 -104 -62 -16 -76 58 -70 22 6 -24 -94 -36 -42 -68 8 26 -60 -66 22 -68 68 58 
22 -96 98 78 24 -68 60 -10 42 68 30 18 34 -4 110 114 28 66 22 44 94 8 66 -12 8 78 64 22 -74 -36 18 34 -14 -20 94 -82 70 -84 64 24 -84 94 -88 -64 102 4 74 24 -20 -4 38 32 120 8 60 -100 -12 30 -88 26 4 22 52 -62 88 -48 -76 -22 68 32 92 -12 -112 -42 -38 20 2 -72 116 4 118 -102 -38 -82 -48 -60 40 -44 -28 -50 -52 14 2 -4 -28 -94 -8 76 20 90 64 -12 -52 116 52 100 42 48 -98 -120 6 -60 40 -84 -104 -26 -18 -12 -78 62 -40 -8 -78 -124 24 88 118 52 -54 -96 -58 26 -58 -28 58 -28 -20 60 -44 -76 -16 -84 -42 -32 -12 -90 -16 -44 -16 114 60 66 -76 -42 -86 -126 -22 48 40 90 4 -122 -6 -26 78 -80 50 -54 0 26 62 18 30 -96 -126 -66 -8 18 62 -12 -62 -42 -46 -54 -110 -114 -20 8 -42 -14 -66 10 124 -40 110 16 86 -120 -2 12 -26 30 -52 -32 -18 -74 8 -72 98 10 16 -96 -48 -14 -34 50 -22 126 -20 72 -40 -44 -74 -10 12 -80 -6 -44 120 -80 -52 98 34 -42 -70 36 -22 2 112 22 -124 -2 -58 82 38 96 -38 -68 -84 -68 112 100 18 94 -60 -42 -48 106 -86 -126 -106 50 116 -6 -38 -62 -62 -4 44 -42 122 38 52 -34 -58 -20 62 -74 50 -46 44 86 -30 -12 40 -40 -108 106 -116 -76 2 -94 -76 114 44 -68 -58 -36 68 -30 -66 -66 -6 98 -52 -94 80 -2 -62 22 14 -60 116 -10 78 -48 120 -124 -22 120 32 84 -20 -6 -28 -94 -42 26 4 -42 -82 6 126 -78 -30 -24 -50 -86 -106 16 60 -26 -52 -88 22 38 -30 -46 36 -12 0 12 38 60 -34 -68 -8 10 -16 32 -52 -36 76 -106 52 -22 0 -56 -44 -32 48 -60 26 92 2 90 -28 0 -110 28 -72 118 50 40 -120 68 -6 126 -34 38 -86 92 -26 -86 80 -10 -82 -100 -74 -80 122 -8 56 126 114 -24 -44 -60 64 60 -64 -16 64 -110 -72 62 82 66 80 -38 18 32 48 -74 20 116 -40 -48 -2 -52 -60 94 -46 -58 118 76 -100 48 68 -28 -38 114 -104 -20 -52 -88 -50 -50 56 -36 64 12 -64 -38 -98 -90 -6 50 8 26 -56 -84 92 -60 -26 -20 -48 -38 72 106 -42 -100 -88 -34 -50 -4 106 -26 28 22 116 -14 -104 -58 -70 -88 -32 -14 14 60 118 -58 -48 -94 72 50 46 -54 -12 42 90 -84 78 -128 -22 -82 72 28 56 64 -10 -42 -80 -32 -28 34 76 84 20 -14 98 0 -66 -22 -46 -28 -126 -2 -56 -40 -44 -44 -20 74 -18 -102 -74 110 -18 -116 -82 -112 -86 -20 22 -22 -94 108 -4 -100 68 84 -2 -48 -70 48 -12 124 -62 -58 -48 -16 -90 46 70 116 -18 -124 116 60 -78 -40 -86 -54 -8 -10 -32 -10 -52 -118 -2 -38 -36 -44 -30 4 -58 50 126 -92 -66 4 124 -74 -34 48 -36 -94 -52 -60 78 50 -28 22 -92 6 -38 36 40 -4 -50 -82 -92 114 -76 -72 -40 -46 -36 -28 -120 -42 -10 78 82 -86 -118 -98 114 28 80 -46 -46 -40 56 -16 -12 84 18 44 -100 52 0 -20 -126 -116 8 -4 -102 -52 -108 -46 -106 -82 -70 74 44 -16 -110 48 64 78 -4 84 -18 24 -42 40 -2 -52 -84 -18 44 48 -126 -54 -44 -106 114 -66 2 -18 110 -28 54 30 46 42 36 -58 58 -56 46 -46 24 -26 -20 34 -8 -98 -124 -84 94 -16 -40 86 -12 -32 -92 -62 -84 8 44 -40 -72 -40 -6 -20 -78 -40 58 -40 4 78 34 90 -28 126 60 -56 60 -18 -28 -4 -96 -28 16 -38 100 42 -26 -52 76 -62 52 96 -88 -68 4 -34 -66 -40 -16 -102 -14 -74 76 -34 38 -114 -44 116 98 -30 86 -52 98 16 58 30 -10 -34 58 -50 -6 -38 100 -86 112 22 72 26 -54 -24 -120 -88 -106 8 -76 16 -52 -88 -38 2 30 -88 -4 -40 24 16 -22 -44 -16 -94 -52 6 36 -10 38 26 -126 -126 -20 -118 92 98 30 -56 44 -34 -70 -12 -14 42 58 -40 112 -40 -40 -88 112 64 126 22 42 -102 -70 10 -34 -62 -12 -6 -108 50 -18 74 2 -30 -62 -16 84 76 -86 38 8 -30 30 98 126 52 -40 -118 -58 -22 42 -10 -16 -46 -70 -46 -8 -70 -96 76 10 58 -4 -72 42 60 -48 -36 -20 78 -66 -14 -60 -34 -80 -6 -24 24 62 -34 -38 2 -76 -64 98 -28 -26 -124 124 -16 70 84 -62 52 64 14 84 86 -64 -24 52 -58 
-14 -38 -4 56 -44 -88 -4 -86 -78 122 -30 -20 42 -14 -16 -34 106 -44 -54 -2 -18 10 -100 60 82 2 110 10 -66 -4 -20 -12 -66 30 -52 -24 50 -22 106 -106 -2 -74 -70 -12 -14 -30 110 -34 -98 -16 12 20 40 -6 -6 -68 16 -48 124 -42 118 42 104 -76 -122 -16 -88 -6 -82 -50 8 -22 -50 80 -34 -68 -20 -22 -74 -126 52 -66 68 -94 10 -22 -72 -42 -80 80 -12 24 -32 -50 -32 -18 16 -14 -110 -74 -28 -110 -48 102 -102 -28 30 -64 26 -16 48 -72 -56 -76 -34 -64 -70 -38 -14 -76 -98 104 -20 6 -28 -40 -84 -58 -58 14 -28 -104 -80 -58 -54 4 -98 -56 -42 -46 68 -52 80 -46 58 -58 42 -12 -38 50 38 -36 -30 98 -84 -46 2 -98 -8 -104 52 -70 -66 14 -52 66 -82 -74 -102 -68 -20 -28 -126 116 -6 -46 84 126 -62 -2 -54 -6 -18 -74 32 72 36 -58 10 122 58 96 -72 -22 20 -48 76 -10 -50 -30 -86 4 -38 -58 -24 -38 86 112 -100 -72 16 78 -56 46 -32 -98 -26 -66 114 -92 72 -54 26 -22 -18 -72 22 -54 34 2 -22 -80 -30 -62 -118 -34 -34 -62 14 74 -14 -34 -96 -108 -124 -14 -24 -48 -22 58 -42 -42 4 -66 -40 -52 -44 56 -110 0 -30 -70 -42 -106 70 -62 22 -120 24 -32 -70 -30 32 40 -8 -32 68 -108 102 -108 16 14 -74 70 46 76 126 -42 -46 58 82 -20 -108 -18 56 -20 -8 -114 -56 28 -4 -94 16 -26 -110 -72 10 84 -84 -54 18 -32 68 12 52 -62 -128 -48 70 -80 -102 -6 110 -62 28 100 -70 110 108 -74 26 -24 -52 -68 -2 70 -28 -44 6 24 8 58 122 -10 16 -42 -54 -6 56 84 42 100 4 -94 16 50 -86 -12 48 -38 124 -64 -8 8 -30 58 32 -38 -30 -8 -108 -6 28 -58 76 124 -42 -90 34 56 -78 -10 -80 106 14 4 16 18 -20 -48 -18 -98 -106 60 -12 14 -96 -48 -24 42 -6 -64 -88 -2 -104 -38 -16 78 -54 -52 -92 38 -48 116 -28 -62 -76 -102 -78 -20 -46 50 -64 -16 -92 60 28 -78 98 -64 -30 -52 -88 -10 -10 36 -54 112 0 -30 -68 -44 -56 -48 24 -28 50 -26 -116 36 -84 -14 62 -36 -54 -8 -92 94 -40 -68 -30 78 -24 50 -6 8 -82 76 -26 6 24 94 48 -84 -24 108 -116 -82 -4 -94 -30 38 10 98 26 -18 -82 -16 42 46 46 10 76 8 -60 -108 -54 2 -80 -22 -106 -36 -76 38 -70 96 64 -50 20 10 -106 0 12 -20 90 -54 -18 62 -44 68 -38 -32 10 10 -82 -34 14 -22 40 -66 -38 -36 -70 86 -80 -84 18 -108 100 -18 24 -24 -82 -10 -20 120 20 -54 36 12 -68 -70 -54 -102 -26 -86 -108 -52 -80 -60 -76 68 -86 60 -2 8 -20 -90 -60 20 28 -18 2 10 68 100 -10 14 -12 -18 -40 24 -34 -30 36 44 80 -26 24 -34 12 48 122 30 12 -116 -64 -66 -66 -90 -54 -66 -26 -38 -4 -36 44 22 36 -4 -110 -120 -86 -80 -34 36 -60 22 -86 58 -28 56 4 90 54 -56 6 52 6 -18 -4 24 -48 78 -54 -118 -24 102 -82 -86 0 -58 -12 -92 44 -6 -62 58 98 106 -4 6 -92 80 2 106 -40 -14 -14 -82 -48 -18 -76 -14 -18 4 -30 28 -82 -2 118 -44 -4 100 -38 -18 -30 -10 -96 2 12 40 108 -48 44 -124 -30 82 -10 -78 -50 28 92 58 52 26 104 -32 62 -50 0 -72 32 54 -70 84 0 10 -18 24 -88 -6 -72 -18 -28 24 28 60 100 4 52 124 -82 -60 -96 -38 112 70 -90 -28 6 14 96 52 -72 -8 -58 50 -52 -42 34 -80 2 54 20 32 -108 22 -62 -52 44 -12 42 -2 -40 -80 -66 20 52 -48 26 -10 6 68 84 18 82 20 16 94 40 62 -4 -22 72 -44 -44 -28 -4 -60 46 -106 44 30 -78 -62 44 -84 -42 48 -30 -10 12 -18 -6 -18 112 -106 0 -68 30 4 -128 -48 4 -4 -42 -16 -86 58 -60 12 -70 62 -68 -68 -24 42 -98 100 -54 -72 -66 -24 44 -40 24 60 50 18 -82 24 54 28 -78 6 -72 18 -78 -14 -10 58 0 -22 -12 -52 116 10 8 -54 -42 -18 126 36 -26 100 -42 4 -84 -48 36 -2 -118 -38 -124 70 106 14 -34 126 38 -6 30 -100 68 -118 -22 42 -122 -30 -22 -54 -38 28 2 -84 -60 -34 -66 -42 32 -44 -106 14 -92 -10 -24 -70 -2 -66 -70 78 -16 -60 -36 -30 -62 -48 -102 -88 34 -34 -6 -60 -32 -104 
-66 -44 -14 -24 -70 -80 20 -40 -20 -36 -12 -74 32 -10 96 -52 -84 -52 -46 -52 -30 -40 -36 -46 -64 68 -68 -54 -20 118 36 -18 -50 -72 -42 -58 54 -48 -52 36 -72 -74 -128 -42 -86 -28 -20 -6 -48 -16 -44 6 50 -78 60 38 -42 -78 10 10 -126 120 -62 -98 36 -92 -40 -84 -6 -20 -8 -120 -112 8 -34 10 2 -108 -62 -16 -26 108 18 18 6 -20 -36 16 -42 -12 -102 -26 -80 6 80 -10 -16 36 12 50 -12 94 -34 42 122 -22 -6 28 16 -10 -56 -104 -28 -100 -58 -16 112 26 -4 -116 -50 -48 -54 -34 -68 -6 -26 -126 2 -46 -24 54 16 -34 -12 -34 -90 -20 -86 30 -52 6 40 -86 4 -90 -64 24 -90 -50 -82 -44 -32 118 -126 -48 -66 -38 -70 -66 -126 -50 2 -106 32 -40 -10 -84 -54 -82 22 -42 0 -56 -48 -44 -74 118 0 12 -78 -66 -52 74 -52 -38 -38 112 -36 -82 -24 -74 -26 -38 32 -30 30 -6 0 -10 -68 88 -66 -76 -52 -20 10 4 -44 -4 -68 -10 -30 -66 -46 80 -120 36 -110 -2 -52 54 -38 -24 -66 -62 106 -14 26 -62 -2 -48 -66 -86 -116 18 -48 -54 -16 4 -94 28 10 -20 36 -6 -92 -90 -54 -80 -4 -50 -30 -6 -100 -46 -44 -72 8 -78 -62 -26 -24 -48 -72 -26 -46 74 -108 38 68 -28 -30 -92 -32 -30 12 -62 -78 10 18 -40 102 -42 12 -92 -116 -28 30 110 -30 -60 -38 -20 -86 -68 -48 -64 -52 -6 -76 -2 32 -74 54 -100 -62 -50 -32 -10 -82 -70 -32 12 -70 8 22 -50 -34 44 -38 28 -46 -2 -82 -120 -62 -22 -52 -2 -56 74 -76 42 100 -24 -34 -82 -66 -120 -66 -86 0 -76 4 -6 -34 24 -86 -26 -34 -64 -2 -50 -38 -74 -36 -38 2 -108 -60 14 -48 -14 4 -54 -38 -54 -58 -32 -38 -36 20 26 -48 20 -64 -24 -104 -80 -54 38 -68 -36 34 -46 -54 -48 -16 -42 -106 -18 -52 -60 -26 -98 -32 4 -42 -28 8 -12 22 -72 32 120 -32 -92 -50 -44 -54 -78 18 56 -24 44 50 -18 -46 -98 54 -74 -12 -20 -38 -30 -26 4 118 6 100 20 2 -112 14 -16 -76 -18 20 -104 50 -70 -54 0 -6 88 -56 -16 -16 22 -58 28 -26 20 -112 -64 104 110 -96 6 -78 -96 -58 12 -96 22 26 -32 -40 24 -42 -72 120 -38 -12 -74 20 -50 6 38 -16 -116 -102 -24 -32 -34 -64 -88 -74 -10 -34 -74 -62 -42 -48 -48 -74 16 34 -54 -42 -40 -2 68 -34 42 90 44 -48 -116 44 -48 -46 -52 36 48 -6 -40 -8 -60 -82 -20 18 6 -66 -40 -84 -68 -60 -28 0 -72 -32 -46 -20 28 0 -38 -12 -2 126 8 -26 -18 -12 -36 -18 -28 -86 -70 -40 -98 -48 -66 -70 4 86 -58 -84 -22 124 42 -64 8 36 -22 -72 -40 0 -2 -4 -14 2 18 -4 -54 -48 -40 -64 -22 -36 -96 -86 14 -72 -28 -124 20 -24 -14 -114 10 50 102 -26 30 6 26 -36 4 -32 74 -26 -72 -110 44 0 -38 -20 -30 -78 44 -2 14 -16 -8 28 -8 14 -14 -24 -70 -44 -90 52 -60 0 -90 6 -84 10 70 -114 -110 0 -68 -52 -108 -40 -66 -68 -76 50 -68 -98 44 -24 -34 12 -42 -30 20 -26 36 -42 74 -22 104 -66 -36 36 24 2 14 -42 -62 26 -90 -32 -74 4 -70 24 -20 -4 -18 -28 -84 26 -96 -62 -44 -86 -92 10 26 46 10 -2 -44 -38 -22 46 -92 -50 -18 66 -2 20 -42 -40 -80 0 2 22 14 12 -12 -84 26 86 -36 -66 -38 -50 -76 -36 -76 24 -12 30 6 -22 54 -28 -62 -22 -62 -6 -30 -60 4 4 -74 14 -86 -84 38 -58 -22 -32 -126 52 -22 14 -28 -36 -4 -58 -90 -68 -16 -22 -46 4 0 -46 -34 -10 -14 -42 10 -34 -92 -46 -40 -38 -46 96 -24 26 -12 94 -122 12 -94 -20 -52 -76 -2 -16 -50 -54 -78 -34 -20 -38 16 -42 -70 -68 -74 10 -72 -10 -8 44 -6 28 -84 -14 -118 -4 -38 -14 -24 -22 -56 -62 -6 -52 -50 -52 52 2 -24 12 90 -16 -82 40 -22 -60 58 20 -26 -6 4 -40 -48 -56 -96 44 -28 -36 -18 -10 -72 -36 -18 12 -30 -54 104 -88 78 -72 -16 -38 -4 -18 22 -50 8 -48 -70 -64 -104 10 22 -24 108 54 18 14 14 38 -36 -96 -114 -4 -68 28 -34 -44 -68 -28 -2 -2 6 -126 -14 -54 -58 -48 6 -22 14 12 56 -48 14 -54 -52 -42 -48 -18 -38 -110 -94 20 -28 50 34 4 72 -66 10 18 -18 52 4 -16 -82 -32 -6 
58 50 -2 12 -38 -84 -112 76 -6 34 92 8 74 26 60 -52 -12 58 52 30 0 -74 120 56 4 -64 56 -108 122 12 -40 10 32 52 -16 32 -128 52 58 -28 50 -66 -36 22 126 48 -32 -96 30 -64 -24 -6 -52 16 12 -30 18 -52 28 2 -32 58 -58 72 -116 126 -48 -104 90 12 -14 -126 -12 68 -74 28 74 -46 -84 40 102 -74 -4 -122 14 -114 -72 -22 14 -28 -78 36 -62 124 -58 -30 24 -116 -120 -126 84 70 -2 -72 -32 -58 -104 18 -72 58 -46 120 -28 78 48 -118 -128 4 -34 60 100 -58 22 6 -102 84 -38 86 -42 -16 26 -102 76 114 -16 -10 -106 -38 2 -64 -14 90 26 -64 -28 34 -34 -82 -54 10 -100 -46 42 42 -96 32 -38 70 32 42 -116 20 34 10 58 -36 76 60 -56 -30 0 -72 126 -56 -54 -24 120 -78 -26 -100 80 -128 -40 80 52 -42 0 -36 -80 -94 -16 22 34 -86 -22 -24 32 -6 98 78 -116 0 96 60 -8 -22 -28 16 -68 -50 -118 30 0 -34 18 -126 -78 -70 72 60 -10 -38 -36 126 -18 98 -2 -2 32 44 -12 -44 -66 14 -48 -22 124 36 -12 -108 44 16 -32 -52 -124 -72 -16 46 -80 -44 94 4 88 46 -104 -88 -34 -80 78 -12 60 124 42 56 -8 4 -30 -70 -80 -84 -46 38 72 -8 -126 -124 -46 -42 50 -66 -4 2 66 36 68 10 -126 20 26 -4 -126 10 -106 44 -80 -30 -8 -116 28 32 -48 -14 20 50 -70 2 16 86 -70 32 0 -36 8 -28 6 4 -40 16 32 -124 72 -76 -16 -22 124 74 -68 32 -90 -16 -2 22 -60 112 -42 -72 18 -64 26 -92 -24 -24 110 64 -42 -32 -26 -112 100 -36 8 110 -88 120 -50 96 24 40 -2 -118 46 -94 86 -94 -126 86 -10 -90 6 34 78 -72 8 -64 -28 102 32 -42 16 48 -12 114 4 -72 20 66 -96 -102 18 -66 60 -10 74 -60 36 16 -116 -18 -24 32 12 32 84 58 -118 6 70 -58 -36 6 -112 -70 -64 8 -32 -72 -52 -6 26 32 22 42 -52 -92 112 -88 78 -14 26 -44 62 -26 -86 -8 22 -52 82 84 40 -92 36 92 -6 126 -36 -94 -76 -64 -88 24 -58 12 78 122 -4 18 -4 -66 38 86 -10 80 -94 -58 70 8 -126 -58 42 34 38 -66 -22 2 100 78 66 56 -10 48 -4 -96 -64 80 -30 -14 78 -112 -54 -100 74 -48 14 -88 -68 84 12 -24 -72 -86 -4 -80 -88 24 24 48 98 -26 -62 64 -100 112 16 70 -8 104 102 26 -36 -6 50 -20 -98 -10 -108 -10 28 28 122 16 -62 -32 -48 -124 48 100 -60 78 -52 -10 24 -58 48 -104 -96 -88 2 44 64 28 20 112 26 92 -56 -82 26 -96 -20 -86 60 0 124 40 52 -60 124 -126 -34 18 8 -8 34 2 -34 86 90 -96 8 -104 12 -70 -90 -42 -90 24 -68 4 -68 -56 -32 38 -64 -42 84 8 -124 -98 34 80 -26 126 -22 -40 -34 66 72 18 -20 12 -80 -120 96 -38 110 72 28 -54 -102 -64 -16 42 -70 22 -86 72 30 -12 34 86 8 6 -60 -38 36 80 32 -124 -46 -46 78 -54 -92 106 -38 50 62 -56 -96 50 -50 42 2 16 -28 -8 -66 -26 6 96 -126 50 8 54 -70 -54 118 -4 -56 8 -2 66 72 -36 78 -76 90 118 20 -122 -122 -10 24 14 -108 -4 -46 -78 22 94 -54 -50 -24 4 -48 -28 120 -16 -104 -28 12 -36 44 18 -54 58 -62 46 -16 -30 -42 -102 -16 -124 -64 14 18 66 -108 -86 22 -28 22 -4 116 38 -12 -86 20 40 20 20 -118 -44 6 32 -126 -14 -4 -16 -28 -88 32 -18 26 -66 46 14 42 -6 -68 -110 48 -124 -50 84 -64 -104 -60 -28 66 36 -12 -20 -28 -36 58 80 -30 -36 48 -12 -28 72 -112 106 -96 82 -26 52 76 -48 8 -98 84 6 -2 -16 40 22 -90 -8 -56 -70 -4 102 -80 28 -70 54 -70 -42 112 46 -96 -4 -26 22 56 122 -38 16 46 56 -126 30 -60 -8 122 46 -80 118 118 -16 -80 102 -32 -96 -2 -32 36 -52 -72 58 82 62 82 54 -88 16 -94 6 -18 74 -128 88 -124 -62 18 -68 114 -24 60 84 64 52 34 2 10 -30 -18 56 28 -46 -120 -32 24 -124 58 60 -118 -96 10 -24 -86 114 -112 -64 100 100 -20 12 -92 -124 18 98 22 38 -36 2 -10 -38 96 80 -52 0 -20 -84 46 -28 -8 -42 -34 -22 -18 60 52 -108 96 86 42 96 -118 20 68 -122 
-30 -30 18 -18 8 66 78 -20 32 -20 104 -42 -14 -4 -90 -46 -34 -70 82 -44 -46 76 -118 6 -22 -90 -78 100 22 -16 -18 -126 -4 42 76 -48 44 -40 -76 34 -28 -16 -106 -116 -110 -62 104 4 -44 0 -94 24 72 -4 -122 44 -64 -10 42 30 -86 42 -50 -30 74 -96 -76 16 60 -90 -58 -70 -82 -20 32 -26 -40 -34 -34 28 58 -70 -28 -58 56 -36 66 76 38 -38 -20 78 10 56 116 -28 -118 -36 66 12 -112 -64 -44 -66 -60 -42 -20 -52 -80 -66 74 28 -42 10 -28 90 84 98 28 -108 22 70 112 14 32 -4 -26 -84 14 -28 -50 -10 14 -36 96 -18 -82 4 -76 -78 44 -52 98 -26 -44 0 -24 -124 62 -44 20 -98 -14 -66 -52 -6 -52 -38 -60 26 -48 40 8 34 -30 -18 -38 72 6 -54 -16 -10 78 -74 -70 48 -62 -86 28 4 -54 0 -34 24 -8 -18 -10 -18 -22 -94 124 66 -108 -54 -50 44 22 12 -64 -6 60 -20 52 -26 -28 -28 74 -54 16 -54 26 16 78 -58 -44 42 -10 -42 16 40 -18 -86 -8 -36 -66 -34 -70 -32 104 -12 -24 40 38 -78 -60 -28 -72 8 56 -42 -84 -12 62 14 122 96 -6 -100 46 -16 88 -80 -62 -54 -80 -4 10 -48 22 36 -24 98 -10 58 2 10 30 -40 -54 -58 -36 -4 -34 -58 -38 -54 60 -40 -44 -62 -12 -52 -102 -84 12 120 -48 -28 -14 -4 104 -84 -84 -20 22 -62 -64 100 -26 -32 10 22 50 -82 -68 98 34 -28 -84 -78 8 -58 -40 -26 -14 -36 -74 6 36 -32 -116 64 126 108 -30 -30 -14 -42 114 72 -34 -56 -2 -80 40 -36 -24 6 76 -36 0 -14 -40 -58 -20 -80 -96 -64 -104 -76 50 44 -12 -76 30 -92 -92 -40 -36 12 54 -26 -30 -36 -66 -28 -66 -38 -38 -24 50 -28 -106 -32 68 -56 -98 -48 -6 -4 50 18 14 -100 -44 -44 -90 -102 -48 -36 -38 -32 -60 32 -28 -12 94 28 -6 -30 -56 -10 -16 -56 98 -12 34 -8 -32 60 -34 88 -6 -62 20 -30 -28 -24 -44 -30 -28 -30 36 -40 -24 -70 -100 42 -36 72 -34 8 16 -58 50 -24 -34 -38 -48 -80 -64 -6 -4 62 -64 -78 -18 -56 -18 50 -30 -56 -70 -22 54 -74 32 -92 26 -28 -68 -56 -112 -92 -76 -78 124 60 -12 -36 -66 -62 34 26 -24 12 -12 -24 120 26 -108 -8 86 -46 -22 18 14 -42 -76 -76 -26 -46 -30 -36 -104 -82 -60 -30 -10 94 46 34 -4 66 -50 -4 -8 -8 -36 -60 -34 -56 8 -54 -32 0 -20 18 -66 -4 -72 -26 28 22 -2 -76 -52 -46 -12 -52 -12 -64 -96 -24 -68 28 -108 -24 -96 -42 -26 -4 -4 -28 100 124 64 -50 -16 -62 10 -108 -36 82 -72 -4 -100 -62 -70 -72 -2 56 62 -26 32 82 48 62 -4 -44 -60 -50 -34 -20 -10 -50 -62 -46 -30 62 -8 24 -88 -58 -22 -120 -62 108 -52 -54 -4 -34 10 -74 38 -32 -34 124 -66 -70 50 -64 -106 12 -42 -64 58 20 -18 -26 -56 124 42 30 -22 22 122 44 -28 70 -48 28 0 -54 -24 -34 100 30 -78 6 -22 6 -56 -84 0 -74 20 28 -98 8 2 -16 -14 30 -68 54 -80 -8 -26 2 2 -80 -18 -46 -60 -48 36 -60 -22 -90 10 -88 -10 -30 -16 -24 -56 -48 -90 -94 10 56 -22 62 72 70 8 -40 -64 -18 -22 -126 102 -78 -106 -36 -68 58 -72 8 -56 -60 -28 -72 114 46 -8 -46 -24 -48 -4 -48 -8 -46 -58 -40 -102 -48 -44 -66 -78 -22 72 14 -2 14 -58 30 -16 -36 -18 -58 -28 -70 66 -26 -22 0 30 -42 -38 -32 -102 -32 -72 100 -106 -38 -18 4 -8 32 -80 -12 0 -52 -48 6 8 -38 -100 -60 32 -36 58 20 18 72 -42 -40 -12 -24 -68 -68 -70 -60 -52 -52 52 68 32 -90 54 -64 -76 -98 -8 -46 -50 2 -66 -88 -48 -2 20 -34 -38 -60 -26 118 -36 -34 -78 -76 18 -46 -62 -2 -20 26 -30 -72 -34 -26 -52 -24 58 56 -30 -38 -12 -12 -30 -46 88 -100 -36 12 -94 28 -44 -82 98 -118 -64 -32 -46 -20 10 22 76 12 -56 -44 -12 18 6 -32 -22 32 -96 124 70 -42 -94 -8 -92 -80 -74 -32 50 -88 -24 -78 62 -20 -10 -72 -36 -22 6 86 -10 -66 92 -62 -10 -8 -30 -66 -30 -70 42 -54 -46 48 -6 -86 30 90 42 -20 -92 -70 4 -70 -38 -72 16 -14 -12 -10 -96 34 -50 -34 -72 106 30 12 120 -78 -32 12 -46 10 -48 -82 62 -60 6 -8 8 -62 -62 84 
-22 -18 84 68 -18 -12 50 62 22 40 -94 -72 52 -20 58 -22 -102 -32 -14 -30 -58 -74 118 -54 -12 92 -120 -70 -110 82 -26 -32 64 -38 -98 -62 76 -6 118 52 10 36 -44 -90 -58 -72 84 -78 -8 -74 22 120 76 10 22 -16 -114 -58 -10 -70 116 96 104 -18 -54 -56 -22 -44 -20 46 -16 8 -36 -24 -20 72 -66 36 -46 -2 36 -46 -58 -72 -26 -44 34 18 -10 -56 30 120 0 -82 50 -48 0 -122 26 -58 -56 22 16 26 -98 -96 -60 -92 -90 -98 -72 38 -8 2 80 84 -42 -116 -52 -88 12 122 32 60 -52 -68 -52 -80 -44 -54 -20 -30 -118 -60 -64 8 -40 -72 30 -42 -98 -84 116 -22 -60 62 -78 32 42 4 90 -116 8 36 6 -36 -32 -44 -80 -50 42 -124 -108 56 6 -18 -66 -58 0 72 -2 -84 -78 -80 -10 -50 -100 -72 100 124 -98 100 60 -20 -18 -8 -48 -38 -34 -72 22 -6 50 -54 -30 124 -70 -34 -106 -28 56 -108 -12 -34 -16 -66 62 -60 -30 22 -38 96 28 -28 -28 -14 -106 -76 -56 40 -82 -106 -22 -102 -46 20 -50 -50 54 -26 -68 -68 22 10 -44 22 -66 -26 18 16 -112 30 -54 -2 -30 -72 -84 -88 60 -78 -34 -36 -64 70 -4 20 10 20 -126 26 -48 0 -24 -10 -38 -22 78 -46 -6 -44 -76 -48 -36 -56 -38 -6 -60 -118 -36 24 -62 -30 58 14 -56 -56 -62 -66 56 -74 86 -10 -30 -80 -32 84 28 -88 -18 -42 68 -126 34 -78 -32 48 -26 -68 -20 -34 -66 -26 -92 -28 -60 -34 -56 -78 -72 -22 122 58 8 66 -90 -104 -74 -106 -110 -58 -12 30 -12 -26 -54 -18 -46 -38 96 -126 52 0 -4 2 -22 18 72 -90 -20 -74 60 126 62 8 -28 6 -94 -28 -40 -60 -24 -42 -104 -4 -40 -36 -92 -92 0 -42 -12 48 -22 -106 -122 -14 88 36 -46 -16 -50 -4 22 74 -82 6 -110 -34 -50 -86 22 12 -86 -84 -56 82 -42 -14 -46 -92 -44 -32 -58 -58 32 -66 88 -70 -30 22 44 -20 -36 -94 -36 6 -42 -26 -34 4 -24 -80 -16 -58 14 -66 26 34 -66 8 8 -42 38 -126 -102 50 -8 -74 4 -84 10 0 -14 34 26 -44 -82 -38 82 30 2 -22 12 -82 86 -50 48 12 -50 -90 -14 -60 -90 -48 -50 -12 -16 -14 106 -58 2 -32 -76 34 -100 44 -98 -86 -50 24 -68 -60 -62 -42 -66 -82 16 -46 -110 -44 -36 2 -24 -54 -44 30 -54 -22 -112 64 -64 -10 -76 110 -46 66 -10 -90 -30 70 -80 -78 78 -122 -60 -116 -22 0 -126 84 10 -32 56 56 96 -24 -118 -36 -86 16 -44 -54 -28 20 -44 -98 72 -16 -84 36 30 -108 30 50 34 -128 20 -86 6 64 -68 -6 0 16 34 28 -20 -14 8 32 -42 56 -84 -44 -20 -28 34 -20 -78 28 -48 120 -12 -74 62 -78 54 82 -64 -68 10 -82 -60 -88 -32 92 -30 -18 -12 -80 82 -82 84 -20 36 -36 -38 122 -28 -12 -36 -82 28 72 -8 -42 -8 -48 40 -26 -74 24 14 -10 -114 8 8 120 -96 -68 -12 -50 -60 0 92 -22 4 -36 -48 -86 -14 72 6 96 58 -68 -14 66 -32 28 -16 -78 -72 26 -68 -54 -42 -30 38 -48 -4 96 -28 -78 40 -68 40 -16 -40 -12 78 32 -24 -30 52 -52 -114 12 -20 -16 -64 66 -122 2 126 34 66 -54 6 34 -54 42 32 -42 112 -124 -56 2 -58 -68 -14 -60 -38 -4 106 -74 -116 -34 -52 48 -52 36 -18 -24 -26 -34 70 -38 -122 -30 -42 18 -14 26 46 -66 -62 -58 -32 -68 64 -122 92 -14 44 -66 -78 96 -14 -12 -50 -58 34 -60 -50 -84 -14 -46 -16 -12 -94 16 -4 -28 -68 -42 -26 -42 -126 -56 100 -12 122 -64 10 -126 -116 32 68 -36 -36 -74 -44 -62 -64 -68 -16 -38 -28 -62 46 124 -62 -88 116 -20 -90 -42 -18 -92 -58 -10 8 50 -122 28 -114 -2 -44 -28 26 20 24 -72 -108 -100 -22 -68 -94 -4 -88 54 -122 -52 -52 18 -106 -40 -26 -58 -86 -78 -30 -66 46 88 -116 -84 24 -104 -92 -92 48 -22 -42 -74 -22 -14 -76 -6 -16 20 -46 -64 20 -70 -60 -70 -54 106 4 84 2 32 0 80 48 122 -14 -20 -56 28 -76 10 26 -18 -58 6 78 -48 54 106 -16 -62 -30 -36 -112 -22 -122 -68 -20 6 20 20 -48 -8 -38 34 -42 -22 -102 -102 -44 -50 -66 -22 -60 -82 -12 -18 -14 -38 40 -46 -14 -112 -88 -6 78 -90 -42 -72 -6 14 -26 -32 -104 -40 24 -56 12 -72 -66 -22 -90 -12 
50 -44 -44 -52 -38 -122 -72 8 -78 -16 124 36 12 2 -102 6 -120 68 64 82 -22 74 -58 -40 78 -30 -28 58 -16 0 44 -22 -74 -6 98 26 -124 86 -42 10 -26 -84 -60 -34 -16 20 -60 -68 -16 -28 -18 -16 42 -22 -54 -76 -42 90 46 74 28 -44 -14 -32 8 82 54 -112 -30 12 4 -34 -48 -18 50 4 68 -4 84 -4 34 -54 6 60 30 86 -40 -60 -6 -36 32 58 32 74 -52 -6 -6 -70 8 -16 -56 -12 38 2 20 72 -64 88 -14 -22 -38 -16 -6 -74 -18 120 38 116 2 -20 -76 94 -12 -52 14 94 78 2 -48 -4 -2 -58 -48 76 -38 94 -76 -76 18 -46 -26 -86 -56 -46 -10 -18 10 -36 126 -82 -80 24 -84 -26 -10 -36 4 26 -58 -8 6 102 -58 116 -40 -12 -6 -82 -94 -98 -54 -20 -50 -62 94 16 -72 -38 14 -52 -22 -4 4 -44 -20 -76 30 -90 -18 -24 30 2 -44 -62 -44 -38 -76 -36 -68 36 -32 32 -56 2 42 -6 -18 -90 -70 -58 -2 -8 50 16 4 -50 2 108 -38 -102 16 42 -74 22 102 -24 -42 -48 -32 -14 -62 28 -100 -14 16 -86 -16 12 4 -50 42 -26 72 -44 6 120 -38 -44 126 -26 78 -22 32 -40 2 -50 68 78 -76 -88 -34 26 4 -64 -28 40 -70 -66 -34 -90 -68 -20 68 102 58 60 -8 -64 -96 -16 36 -36 -24 -78 16 -76 74 106 -30 -32 -90 -28 -20 16 -90 -8 -22 72 8 -4 18 -12 -80 -12 -68 -30 -88 -48 -46 110 40 30 -28 88 120 -34 -72 -28 -72 52 2 -24 96 -48 -34 -116 -20 -88 122 -10 62 -12 122 -34 -68 -62 -80 -32 -120 -8 -72 -88 -50 -18 -52 38 -66 22 -28 -44 14 82 -60 -74 -106 52 36 20 64 -12 26 -10 -46 76 74 -76 -52 -46 100 42 -58 34 -60 -76 60 -38 -26 76 60 48 -66 14 -62 -18 36 -2 -30 60 -36 -88 22 -32 88 118 -48 -48 -14 -36 -30 -32 -88 58 -72 16 -32 -70 -20 54 84 100 -106 -100 -36 6 24 -2 -18 -22 56 66 -82 -80 -50 4 -48 -8 -14 -80 -12 -56 -124 56 -42 -26 -28 28 -60 -38 -16 78 2 -46 -6 -30 -126 -74 -84 60 -112 36 44 52 -74 24 -12 52 -102 -50 -14 -36 -4 -64 -28 104 -20 30 38 48 12 66 -16 -12 -26 -62 -78 60 -64 -32 10 -86 -54 -38 -4 -48 68 -36 126 -26 -14 120 -18 -28 -32 54 50 -40 -12 16 -74 -18 122 58 4 36 92 0 -58 44 -54 -62 -12 -76 -38 -18 56 -2 -52 124 -16 -40 36 122 -116 70 -50 -52 8 38 -36 82 14 -66 -12 -40 -32 -16 32 -50 -72 70 -54 -12 28 10 118 112 -46 -90 -54 -12 30 -24 112 -84 60 -56 -28 32 32 32 -32 48 -70 -2 18 72 -54 40 72 72 78 -78 -70 70 -58 -56 -66 30 120 -100 -16 -58 96 124 -40 -10 -82 -36 44 -60 -66 10 -116 -64 14 -36 -44 -80 -18 40 -50 -6 -26 -24 24 -60 -58 24 -14 -16 -36 -16 -6 -52 -44 0 24 76 -10 -36 8 -50 46 -76 -94 -32 -18 -30 -56 -36 10 -24 26 -36 30 -22 -10 -4 -32 -6 30 -34 -76 -66 -12 -18 82 120 -62 -44 -36 26 54 98 36 -72 -38 -80 16 -10 -8 -26 20 -76 14 -4 -10 -54 -40 -10 112 14 -34 -72 -62 -54 -32 -14 -40 -128 8 -58 -12 -22 -42 -32 0 -42 70 -10 30 60 -48 -120 56 96 0 -44 88 -60 -30 -52 -66 22 -100 -8 -44 28 104 78 -18 -120 38 -50 54 -2 -42 -36 -12 -18 -38 -40 -44 -24 -62 28 70 -80 -18 38 -28 66 -6 -102 106 12 28 4 60 18 58 -122 0 -22 36 -22 -10 10 46 28 56 -2 90 8 56 -48 -26 112 -36 0 68 62 -10 -20 102 86 -8 -64 -70 -42 8 -26 96 -28 -30 52 -42 68 110 2 -14 84 92 -20 -44 90 90 72 20 -70 -38 12 20 -52 32 -78 120 -32 68 -72 -64 -10 38 90 -24 -24 -8 -42 46 0 60 102 -10 -42 -58 -30 -68 -44 -44 18 -22 -26 -28 10 126 8 66 -44 18 4 -32 10 34 8 -42 -36 -40 -22 26 -66 14 -16 -52 -98 -60 -102 4 30 112 124 66 -32 -56 -74 -30 -86 28 34 12 78 4 -12 60 -6 34 -84 -62 -58 -34 -68 -52 40 -46 -32 -66 -36 -36 -112 -20 26 -16 8 -26 -124 44 24 -8 -34 106 -56 74 -30 -42 -114 -2 126 44 58 -74 -120 -12 -10 14 -58 -4 -6 58 -18 -70 22 -28 46 -16 60 -14 -4 
26 -6 -64 -32 20 106 -48 -24 66 114 -6 50 16 -18 58 84 18 34 46 44 -72 -22 -66 -70 12 -64 -92 -10 -110 -80 64 120 -66 -116 54 -10 -114 14 -26 -36 16 52 82 -16 -80 -22 50 22 10 -42 -98 4 -126 -42 48 14 -100 -66 -56 50 -34 -120 -22 -26 24 -44 20 76 0 -124 -18 2 -94 -66 40 94 -14 -114 -34 -26 24 6 -72 -8 36 -62 -28 46 62 -104 24 76 -40 -118 76 -32 104 112 -78 -36 -38 -44 38 -88 -82 124 -12 -4 38 100 78 -8 74 2 -56 -50 34 90 50 -70 -8 -24 -126 -106 -54 -20 -16 -4 86 -110 -68 -12 -80 20 2 -22 54 -68 74 58 -108 10 68 -46 -36 -60 70 96 -126 -20 -2 88 -40 -72 58 80 -8 -56 80 124 -72 -84 90 -112 54 -102 -64 34 118 72 -44 -50 58 -100 76 -92 -112 -100 48 -96 -100 -76 -104 58 54 102 12 94 -82 -76 56 66 -12 -66 124 -46 -116 -112 -16 -52 -78 -68 -14 -38 0 -122 82 -56 36 -58 -46 -70 28 -32 22 -10 42 -48 -52 -124 -2 48 -100 -114 78 -64 -112 106 -86 -54 -88 100 -92 4 76 76 14 -62 -64 34 -36 -6 -30 -44 40 -78 -102 -98 -124 -124 -32 -22 -58 -28 -46 114 6 32 -108 -8 -78 4 18 22 -78 -108 -128 -40 108 20 -104 -44 -38 -30 -82 -54 44 18 -94 126 86 -2 -50 -98 -88 -108 -118 44 8 -26 -120 -26 -94 -18 -66 90 -82 50 86 -8 -106 58 118 -80 -12 8 -64 -82 -52 -56 -70 -58 120 106 -50 96 -74 -30 14 -92 -100 -20 56 2 -14 -18 34 -30 -76 94 -34 18 0 16 -102 -88 -104 80 90 -124 32 -28 -124 -36 -42 -16 -32 -120 -62 -66 106 58 -10 -44 18 -34 -44 -58 106 24 16 16 16 -88 -28 -26 -90 -44 -24 -72 -6 22 112 -42 6 -78 -82 -96 -18 2 -32 -86 -14 -78 78 28 -84 -60 -88 -88 -78 -68 -16 -76 -50 10 2 32 -126 -16 -36 -62 -22 -22 -62 90 -42 -124 -40 118 -96 14 -86 -74 80 40 -54 -60 -26 -34 118 40 -56 26 0 -124 -24 -14 -68 54 -80 106 -74 -42 -6 0 -78 -118 -58 -88 84 30 58 34 114 8 -56 100 -4 -106 40 -68 -118 -98 28 -50 -126 -92 86 40 -98 -102 50 78 80 66 58 -104 60 -2 -78 -60 -62 110 -30 -48 -2 -126 32 -72 -18 76 -118 -14 64 -52 -104 98 -20 -82 12 -86 58 124 -46 -66 100 -60 96 -44 72 -6 44 18 -76 -74 -14 108 -88 16 98 40 -76 -122 -68 18 -38 -24 -108 -58 46 6 52 36 -4 -42 40 -24 -102 -116 -24 -86 -104 -46 -46 -76 -64 2 -124 8 40 -80 -60 -38 -40 -128 -68 -18 52 -76 -78 -68 -48 30 -56 -38 -62 -68 -68 -84 -52 -78 -36 -38 -42 -108 -4 22 92 8 -14 80 68 -32 38 -124 30 -40 26 -80 -62 -70 -24 -102 -126 -10 -100 6 96 6 20 -40 -82 -102 -60 6 -20 44 -28 -76 124 32 -66 -54 -98 96 -70 -82 -54 -66 26 60 20 -60 -84 124 22 -80 96 82 -40 -66 -72 112 -90 -40 72 -42 -6 -110 -14 -74 -44 -104 34 -102 -46 -34 -2 -62 -48 -82 -36 -4 62 -28 -26 8 106 -54 42 -56 -56 20 -106 -120 -100 -126 20 -48 -100 68 -40 -48 -44 -60 -104 34 50 -100 -44 -68 84 -52 72 48 -80 -50 -36 126 -20 24 8 -76 -4 -36 -60 4 26 34 102 36 90 -80 -2 -68 -98 -114 -76 -54 2 -48 -62 -54 -44 -10 50 14 -20 -6 -28 120 -44 -80 -46 44 -80 -52 0 -86 76 -112 -22 -32 -8 100 22 -84 -30 -8 60 60 -66 124 -26 -36 -18 78 -84 -36 64 112 120 -64 -96 -96 -98 80 124 -42 -52 52 90 60 -64 -88 -22 -78 30 22 -40 -62 54 -92 -98 -78 -50 -94 -46 -56 -108 -22 -74 -100 -78 -84 120 -44 126 58 -84 4 -18 -8 -108 12 -22 -8 -28 -86 -48 -32 -86 -56 -62 -8 -98 86 -16 -54 -82 -12 4 -14 -24 -102 0 -24 -18 -48 -16 -84 34 106 -78 -16 -94 -32 -42 -92 76 -126 16 70 108 -54 98 -52 86 -46 -28 -30 18 -14 70 54 -28 -58 -118 -84 74 42 -98 70 -126 38 -28 -72 32 78 -40 -122 -88 84 32 -104 -42 118 -66 -62 50 -54 14 -52 -26 80 8 122 -112 -98 -72 -24 -52 10 -42 -10 -84 74 0 30 24 26 -104 122 60 -18 6 100 72 8 -40 18 -60 -72 -78 32 -82 22 62 12 44 38 50 64 -40 -34 -36 -86 0 -30 -58 -34 -40 -100 -68 38 
8 2 -112 -92 126 -2 -64 -56 -70 -26 -40 66 -34 -20 20 14 8 38 12 2 30 -26 -40 -54 -40 46 2 -32 -50 20 82 -6 80 -18 112 -70 -6 -28 -32 -42 -52 40 14 -70 -60 -90 -22 28 12 32 -20 -10 42 -56 98 -76 -74 -88 38 14 46 -102 46 -26 -68 -26 -44 -66 16 2 -62 -6 -82 -34 26 -8 6 -22 16 -16 -78 86 -32 -24 122 54 110 -102 -46 -4 -48 -86 0 -30 -84 -80 -58 -48 54 124 -64 -54 -44 -118 48 -36 -20 -42 -86 -4 58 110 18 -20 -26 -60 -72 -50 90 -18 -76 -56 -102 -82 -10 -46 48 -26 -70 -8 -24 122 38 -40 12 -12 -122 -32 66 6 -80 -114 -30 -60 36 -4 -4 24 -74 -62 -16 48 38 26 66 -56 -62 2 0 16 -56 -94 -2 -32 116 40 8 -74 -126 -114 -102 -108 -34 -90 -36 18 100 -42 -124 38 -54 90 -16 90 -24 -112 94 10 74 54 -88 36 4 -12 14 92 16 -50 -60 -72 -36 -38 4 -40 -88 -6 -10 -4 -46 -6 74 32 -122 -96 14 26 -82 56 14 32 58 -22 28 -40 -10 -18 20 -18 24 10 22 -64 -4 -52 -40 -10 14 86 114 -48 52 104 -66 16 92 62 -12 -32 10 -66 32 -126 -28 12 34 -116 -80 -8 12 -118 -98 24 -10 -18 -38 10 -8 -36 24 6 -66 84 4 -84 -50 -6 -34 26 10 -84 26 -16 -48 -102 -16 50 68 10 -12 82 -42 42 14 6 -74 -18 50 -8 22 56 -48 22 126 -10 -16 -66 -90 -14 -112 -18 14 48 -34 -80 -114 -70 -64 32 18 -46 -34 8 10 0 -8 -16 -70 -84 -12 -102 122 120 26 -38 70 114 -70 -62 18 -58 28 58 22 8 -42 116 -66 18 58 -56 -26 -80 2 -20 -32 -116 0 16 50 -74 28 -20 -52 -24 -2 -16 -44 6 -42 -76 -50 -28 116 -22 -44 -106 -46 24 -68 38 40 -116 112 36 -64 -14 10 14 -24 46 -94 46 -100 -72 -126 -54 46 -102 -32 -26 -126 -20 -28 -78 -76 40 58 34 -124 -20 -92 106 -6 14 -76 124 -26 -2 -122 60 -38 -50 8 -76 60 -44 -18 -36 -128 -62 34 -46 36 -48 -126 6 14 -96 8 -36 40 98 -84 -44 -66 102 54 -76 58 -50 -38 26 -96 30 0 24 58 20 0 6 -48 82 -66 34 66 56 -70 16 -34 -8 -18 -16 -34 -112 -74 -2 -84 -6 -42 -66 -118 80 98 28 -50 -30 -12 24 -16 0 -72 -116 2 -78 -124 98 8 -50 106 120 -36 -2 58 -38 -50 2 -54 38 -72 120 -24 -44 50 -44 4 24 -48 -24 46 74 66 14 14 -96 8 38 30 48 -4 -2 56 8 -26 68 4 14 28 -76 46 -76 86 36 -126 36 -56 -20 0 -110 122 62 -26 -46 26 22 -68 -52 -28 16 -52 -86 58 -6 4 -44 92 50 36 -74 -24 82 46 -128 64 -2 32 42 -14 68 -108 -122 -94 -10 2 -64 48 -112 98 -20 -66 14 -26 -94 4 48 -42 94 34 122 -28 118 -74 -10 -38 60 -80 -48 -74 76 40 2 -68 -42 -90 -46 -4 54 -24 -20 -78 54 0 12 -50 92 -6 42 -126 16 -90 44 -12 18 -54 -30 -4 -12 14 18 -100 36 2 -50 -104 -54 -126 -92 -66 -46 -94 -20 -60 40 -6 12 -24 32 52 52 8 0 -8 36 126 -126 18 38 -34 54 78 84 10 34 -64 46 -82 -66 18 22 -94 -72 -118 -120 30 -48 18 24 -8 -108 110 -58 24 -60 -6 -56 62 98 -46 10 6 54 94 -112 -112 -24 -2 -36 -4 94 -40 52 60 -36 12 36 -48 -104 8 -42 -82 -16 -50 -42 96 120 -46 6 90 22 120 -22 26 24 -4 -52 -60 -28 -12 22 -44 -4 -20 -40 -86 76 -66 32 -22 52 28 14 22 -118 -88 84 102 0 -36 8 -28 -18 -90 100 4 -8 -6 14 -106 -30 106 42 32 78 102 -24 -34 -82 -46 -32 -14 120 -62 -42 -50 4 54 -110 2 -60 -24 52 -22 16 -16 52 56 -52 -52 116 18 -118 34 -38 -126 -20 -48 -8 -12 4 18 -12 -68 -82 54 22 -68 28 -40 20 58 -62 -64 -36 -34 112 -20 28 -70 16 -8 92 52 -4 -56 -26 24 122 6 -24 10 -40 36 -2 -90 -6 64 -22 58 18 -48 -58 -14 64 22 126 16 22 -30 -22 -110 -28 -128 -54 -70 4 44 -56 -12 -60 -30 -8 18 -24 30 -76 -70 12 58 -114 20 22 -36 72 -34 -34 20 124 -52 -40 -112 116 -44 122 -30 -74 -26 34 -80 -86 88 -22 0 -54 10 120 -44 -72 8 -38 -14 28 -126 -60 -50 -32 -106 -60 
-50 -10 -104 -44 8 120 6 0 -18 -66 -56 96 22 4 -88 -92 -4 -40 6 -16 26 -24 -62 68 82 -98 -28 10 -12 -126 -54 -42 -70 -34 0 112 -40 -70 -86 -86 118 -46 0 -16 -44 -88 -36 -22 -36 -22 98 32 -12 24 -104 -84 -80 10 -38 24 -26 -86 16 0 -84 38 -46 -60 -8 -42 120 -36 42 -54 38 -56 -32 84 2 -58 86 -12 -32 -34 -50 96 -6 -124 -42 -28 54 102 46 -14 -76 -14 -64 -122 -2 6 -24 -76 124 -82 38 -50 -6 -6 78 56 -50 -54 4 -10 68 -66 20 0 10 -34 -14 32 -28 10 -4 32 -24 -48 6 16 -54 56 4 -44 -50 -44 10 4 18 6 -128 -26 -72 -28 -46 70 124 -56 24 54 54 120 16 -120 42 -46 -54 46 -126 -126 -62 -40 -30 -18 -40 -58 -64 18 -46 -30 34 -30 -6 -24 94 -26 -24 -14 -16 -94 -42 10 18 -66 -56 18 24 -82 18 8 32 -76 -60 110 40 -40 -110 -80 -28 -50 -40 -58 0 -68 -34 -78 -46 -60 62 8 24 -34 -90 106 -66 -22 88 -32 -6 4 -16 16 -6 -46 -34 -64 116 106 -28 -78 42 126 -16 30 -76 -64 -126 -72 -2 0 -50 42 -70 -12 2 -28 30 36 -82 -44 32 28 -28 -10 -54 -42 -56 -62 -2 -8 -102 -8 -80 -114 -18 4 -12 -108 56 28 -58 -10 54 4 34 -78 -26 -42 20 126 72 78 -108 -104 -32 48 44 120 108 -14 10 -80 64 -50 12 0 -60 -24 60 8 18 -40 74 8 -122 -12 18 -20 -86 -118 10 -42 8 4 -18 2 56 -70 -40 -64 -22 -54 4 118 16 -74 -24 -24 -128 120 -14 50 -16 60 -6 16 -60 -48 122 -10 -38 -14 2 -56 8 126 -18 -88 -24 20 -50 100 8 78 -80 68 -68 -104 4 18 30 -18 14 -10 0 -56 14 -126 46 -56 -32 80 -68 -64 58 0 54 -58 -60 28 -82 20 20 -70 30 -4 78 -60 -104 0 82 -40 -128 -102 -28 -6 -18 -74 34 -8 -16 -22 0 74 -48 -64 12 12 -40 -48 -14 -62 -8 -26 -128 -34 -18 -56 30 42 28 -8 -18 4 -76 -98 -30 24 -42 -60 -8 44 -48 -80 -86 60 -96 -16 -46 -36 76 -124 -50 52 -48 -12 -48 -4 120 -84 -42 -22 -34 -112 -24 -14 -64 -66 -76 98 124 -72 -14 26 32 -84 -70 10 -6 14 -68 -4 -52 -36 -42 -32 -26 -48 32 -118 -16 -78 84 -48 20 -62 -24 -72 82 50 14 72 -2 -38 48 -24 36 -46 106 54 -30 -92 6 26 -54 -66 -92 10 -12 -74 16 16 34 0 -2 -72 6 -48 68 -16 -126 -2 -40 -12 2 26 20 124 12 -76 114 78 126 -18 34 -18 -54 48 -20 80 22 -30 -52 -44 -48 -94 -62 32 -118 -14 26 66 -12 -46 96 -6 -108 -36 62 60 -48 -90 50 60 38 -4 -18 -70 -18 16 4 0 48 58 -4 -6 -16 -108 -72 -60 -28 -34 20 26 -36 -56 -50 -60 -42 -46 -46 -76 12 8 -40 100 -80 86 0 -32 -4 -54 112 -58 48 -14 -66 84 -18 -4 50 -8 -48 4 -66 36 18 -16 -4 -38 -94 -36 44 -66 -26 -86 -46 -84 -74 82 126 8 126 -72 16 -46 -34 12 -54 -18 -38 -10 -58 -112 -52 -88 -96 8 -14 -90 -48 -34 14 18 -10 24 22 24 -112 -40 -54 -94 18 -20 -116 6 -60 -56 118 12 22 -24 14 66 20 -36 -78 -18 -48 16 32 70 18 -6 -112 24 -34 -92 6 -30 -58 -44 -22 -52 24 16 10 6 20 -78 -118 -40 -22 -58 -124 66 -68 40 -40 8 -14 2 -78 -110 22 118 -16 -22 36 -8 -36 -18 -10 -34 -96 46 -20 8 -14 74 -18 28 -38 38 -32 -16 -36 38 28 -22 -46 22 46 -20 -10 -54 -80 40 40 -2 -106 70 30 -112 -50 -6 -32 -24 -48 -28 -60 98 34 -18 -12 -2 -84 6 -40 -10 -38 -38 -26 50 20 -106 -82 -38 -60 -48 -42 -40 -56 -40 -60 -6 -12 66 -46 -22 -70 -86 -6 122 56 -2 42 50 70 -32 -38 18 -96 -14 78 -14 -96 -36 78 -20 -72 -56 -60 94 0 -36 -44 -28 -44 -30 16 28 8 -78 -2 8 14 -36 122 4 -8 -10 -38 52 -74 -26 -26 -50 84 104 34 20 24 -18 -12 -44 4 -40 4 -24 54 -26 -60 -128 58 -48 -22 -126 -68 -14 120 -116 0 12 -58 10 -78 -10 -18 -24 -52 86 -48 64 -66 -8 4 -36 66 32 -76 94 36 46 -12 -16 -34 12 -4 94 -8 72 -6 -44 -40 112 10 -66 -112 -80 32 48 -110 98 -66 64 -68 -12 -120 78 -74 -42 102 -34 -50 40 
-82 -36 56 10 116 -4 -24 -106 0 72 -12 86 -36 -8 -28 126 -20 -90 -98 -56 -80 -74 -42 90 -84 -44 -106 -54 124 44 -14 -76 -84 -8 -34 -108 6 -60 48 -42 -74 -80 -48 -104 -108 -48 -46 78 -100 -2 -104 -92 -50 68 -56 42 -82 -80 -72 22 36 74 -64 -120 126 -52 -86 36 120 -102 -78 68 -40 -66 -84 0 -56 -34 -38 -32 -62 -50 -40 -10 -76 -86 -20 34 -86 -88 -56 68 -4 -22 -28 -100 -52 34 124 -30 -58 56 126 -34 -10 -90 -84 -124 -76 -92 98 32 -60 -80 -60 86 126 38 -8 -114 110 90 52 30 -2 -30 -32 -84 -40 -62 -80 24 94 -10 86 -4 -8 82 -50 -64 -36 -82 -46 -52 102 -62 124 38 102 -62 -26 76 -98 30 -16 -16 48 -78 66 -90 -78 -92 56 78 -70 -50 -34 -58 -56 -50 16 -122 118 -78 -64 10 -44 -46 -16 -98 -28 76 -78 122 -64 -50 -92 22 -76 -120 -80 42 124 -4 40 46 56 -26 -50 -22 126 -28 62 -74 -30 20 -58 -64 -6 -38 -126 -4 -8 58 24 124 0 28 112 60 -2 -86 -60 -52 -72 -104 46 -82 -92 -4 -82 -68 -54 -48 -62 -94 -62 -48 84 58 -34 -90 -58 116 106 -30 -106 -38 56 -52 80 -60 -78 120 -76 -48 -20 -66 44 -18 68 88 -44 88 -50 42 -38 -22 90 -78 -90 -64 -42 -72 -84 -84 -72 -56 -106 124 46 -32 90 -14 94 2 -128 -14 26 -22 -12 8 -74 -88 -26 -94 -34 120 16 -88 -70 66 46 -124 -28 -38 56 -122 -116 -38 -54 -42 114 26 -82 50 -84 -72 -104 -8 -124 -102 -32 16 76 0 -38 -16 -122 38 -56 -36 -44 34 -30 -32 -8 -42 46 -124 -94 0 6 -80 -88 122 -10 24 -40 -114 -92 60 0 42 16 -88 -70 -80 -52 38 -58 -68 -100 6 -48 -64 76 -80 6 -72 -68 -98 -72 -128 -90 -28 -32 -48 -72 12 56 64 -12 -40 -70 -90 -92 -38 2 72 -58 116 66 -126 -80 -36 126 60 124 64 18 -22 -44 -88 110 -46 -42 -54 -46 48 -106 -76 -98 -74 -68 -54 -86 126 -34 -48 4 -38 124 -102 68 -72 -82 -56 -54 -18 48 -60 30 40 -108 -108 -60 -8 -58 20 -10 -4 18 82 -12 38 96 -80 -10 -6 -90 -86 -38 -78 4 -98 76 -6 -30 -58 -68 -18 82 -78 -52 -58 46 -78 -70 -28 -120 -88 -12 -74 -50 38 -98 -48 38 8 -16 -64 -104 -72 -86 -30 122 -38 -56 -76 -108 -58 54 30 -96 -18 126 -22 22 124 24 -10 104 -50 -48 -4 -16 -102 8 -60 58 54 -8 -124 126 -28 -36 -84 -66 -68 -34 14 78 -72 -6 -44 42 60 -32 -88 -62 -62 -108 -68 -88 88 52 -26 84 -80 60 60 16 -106 56 -90 -78 -32 -60 -64 60 -30 -14 120 -46 -22 76 -14 -128 -90 -54 -18 48 -40 92 -10 64 90 -104 -80 -60 30 -50 -28 -14 -52 -44 104 48 -70 2 -64 76 52 6 -102 20 74 -94 -46 62 -44 32 -50 -86 86 -68 -22 -78 86 106 -10 -100 62 -80 10 -26 -78 -90 -82 -100 100 -86 118 108 120 30 84 22 28 -54 74 -110 -54 8 -90 -62 18 -94 -102 -34 14 -44 -10 6 -112 70 114 -52 118 -72 76 -60 92 -60 -22 -34 -16 -58 -108 32 70 60 -48 -82 86 -38 42 -64 36 90 -58 -12 -100 -64 36 -90 -112 98 104 -68 -96 -52 -58 -20 -22 -78 -64 -122 -52 -44 -108 44 -56 6 -128 -78 -92 -6 -96 -84 -26 -14 -70 -24 -44 -24 -122 0 -28 -102 -16 28 -40 -72 -66 -20 -64 -20 -66 -72 26 -46 -50 -64 120 82 90 -64 -76 -46 -72 -70 -56 90 68 -80 -60 122 -82 -60 -52 -116 110 -90 -92 30 -32 -74 -12 -110 46 50 -72 66 -22 68 -82 94 -18 -64 -16 26 -60 60 58 122 16 6 58 8 -30 126 16 -56 -70 -70 84 60 -102 -14 56 38 -126 -24 -64 26 -30 -66 -48 10 -84 -118 -120 96 -46 -66 -38 -62 -30 -38 -10 -78 -38 -44 -58 -76 -26 -54 -72 40 -48 -84 -16 20 -80 68 92 -42 -42 -62 -54 -80 -32 -10 110 -54 -64 -66 -82 20 -54 98 -48 -62 -54 -42 -94 -50 -50 50 -8 44 100 -52 -36 72 -106 -62 -88 -60 -54 14 4 -106 -18 -96 48 -50 -62 66 -102 -38 -74 -30 -108 -114 -38 -38 -46 28 30 -58 10 116 -46 -64 20 -118 -50 -20 -54 -94 -18 -2 118 -28 -52 106 100 78 116 -58 84 8 50 -94 -24 -44 46 -84 34 22 -6 -52 -58 46 -22 -28 -20 102 -2 -50 30 -38 -26 -72 -46 108 46 -62 -12 10 -22 -84 114 
-68 -40 92 -60 96 -32 -58 -56 -44 -126 -42 -16 -96 -8 -64 -26 -58 -66 -74 -34 -72 -70 50 -10 -42 104 -92 -66 10 24 -82 40 -72 90 -40 4 40 -20 -126 4 -64 78 80 120 76 44 30 -2 48 -26 34 32 -64 -8 -12 110 -42 10 42 26 -124 126 -42 -10 50 88 -82 -50 -58 42 -48 60 -74 -64 -32 -30 120 42 -22 -50 16 90 -10 12 -42 -30 116 88 -16 -54 -4 -66 -8 14 60 -74 92 14 -34 -84 -50 76 -18 -62 108 26 8 -10 -68 -30 10 -22 -6 -90 -34 4 16 -70 -32 14 24 -62 124 56 -22 -68 0 82 32 38 -30 -86 54 120 -90 -40 124 -66 -22 -34 -6 30 -122 -64 -4 12 -36 116 34 -86 -68 -94 -34 126 112 34 -38 -26 -20 -52 -80 -26 6 -32 -30 -34 34 80 104 -26 4 -6 -30 -62 -48 -64 -66 -64 126 100 28 40 68 24 70 116 -28 70 -36 -34 -38 -66 -110 -34 -86 102 -106 -54 36 112 54 28 -40 22 -26 60 80 -54 14 68 -126 -44 -102 -50 -64 -20 -26 12 -40 -90 80 -88 -92 -56 -6 -82 24 -20 52 18 100 8 -24 -42 -22 -96 -44 -28 -16 32 52 -68 -36 -108 -26 -22 44 90 54 -54 -16 -64 -70 -98 -52 -24 -56 10 34 80 58 -58 -36 74 -50 -86 -22 100 -4 2 -30 -54 60 44 -96 28 -58 2 -74 -24 2 -80 56 14 -98 -12 122 -66 -56 -40 60 40 -92 -116 14 66 76 -82 -70 22 68 -10 -2 118 122 126 22 -32 -108 50 -10 -34 36 -34 -46 -16 -66 -44 -86 76 60 22 -26 98 -72 -52 -46 -50 -56 56 10 24 -20 -50 90 -68 -46 -28 124 18 72 -84 -104 102 -78 -10 22 -32 -108 -60 62 -116 -50 -58 26 8 -64 42 -4 -8 -60 -16 -118 -108 -118 10 18 26 -34 -46 -118 -46 -90 -58 -56 -82 0 28 26 -50 -22 -48 -20 -46 -34 -4 -72 26 -58 -68 106 -98 126 -38 -28 -76 -14 56 -2 -26 6 8 -12 -60 36 34 58 22 20 -72 42 80 -50 6 26 26 -48 -122 -26 -54 -96 -62 -108 -92 -36 -116 100 -4 -44 2 -36 28 -32 -28 -2 46 44 -112 48 -62 -80 -48 70 -52 2 96 -24 -52 70 18 -22 24 2 24 66 6 -76 -44 24 0 -58 -88 20 -22 -18 -72 -8 -16 -72 56 70 -62 -42 36 68 -56 34 126 -64 108 -76 -16 120 -36 -62 -24 40 -42 -68 -92 -64 -44 -94 -30 -48 -74 -96 -42 -38 -6 70 -22 -20 12 126 20 4 -48 -86 80 -20 -80 -32 20 -10 4 8 0 -56 -78 -24 -46 -38 -10 80 120 -28 -116 -72 58 -42 -84 96 -28 24 -64 -52 -46 -14 44 44 10 122 -100 -36 -24 -60 -26 124 82 -24 -112 36 36 -20 -58 122 -26 -58 8 -110 6 -118 -8 -20 -58 -50 -64 -22 84 -48 108 -110 -24 54 -68 56 -42 -4 -2 -28 46 -24 -36 -122 -50 -86 -42 32 -52 -64 -32 26 6 52 -94 -56 32 -38 -76 -44 4 66 18 58 -26 124 16 -60 -8 -68 -30 -8 -60 -10 -52 -20 -90 4 -22 6 -2 -32 42 12 -22 -94 8 -62 26 -48 38 -38 -36 -70 76 -34 -82 114 -122 -14 -60 -26 -12 8 -48 56 -38 6 -84 34 -34 -60 2 -58 -50 124 -44 28 -92 74 -12 126 0 30 -10 38 88 8 -34 -92 88 -104 -122 24 -32 76 36 -24 46 -16 8 -22 -114 66 -54 -66 -86 28 -64 -44 64 -92 -32 38 46 -102 46 -80 -12 20 86 -18 -32 -44 -20 74 118 18 106 48 26 -14 -12 -52 -60 46 6 -26 -38 10 -120 -26 40 36 -40 -2 26 -120 -18 -78 44 -78 -46 -62 -110 64 14 10 -38 -50 54 -86 -98 -44 -124 -38 -50 -78 -74 -98 -126 -64 4 10 18 -56 -18 54 2 -34 70 56 -24 -50 -54 28 22 -66 -22 26 -8 -22 56 40 66 16 0 44 -88 30 -82 -32 -80 22 -54 -108 70 -38 126 -66 4 -78 -86 -84 56 -82 -50 -72 -84 0 74 68 14 2 80 -50 -18 54 -88 -28 50 -2 -24 -54 -100 -12 -48 -106 -84 42 44 -2 -82 -2 34 -34 -92 -46 -78 -6 -36 42 -38 -90 -90 0 -56 -62 -18 -70 30 -42 -82 76 -84 -48 -28 100 -24 -40 82 -108 126 -50 -110 -40 -94 70 10 -38 106 -74 -46 26 120 -80 20 40 6 -94 -50 -36 -52 4 -44 -34 42 -102 -14 36 -32 74 -32 -28 -10 24 30 -16 -74 -2 -20 -96 -12 78 -64 4 -68 126 -30 -18 34 -36 -48 -54 2 -38 -42 24 -10 0 -30 28 -32 -34 -10 
-54 -70 -32 -66 6 -46 12 114 18 -8 -66 2 126 -16 -64 -46 -64 -10 -10 -62 -86 2 -72 30 -42 120 -32 -12 -8 -56 -76 -74 -76 82 -4 -38 46 -40 74 -22 -26 -84 -88 -108 -16 -62 126 78 52 24 -20 -26 -34 120 -68 -108 -4 -28 -38 -42 -14 -62 -86 -70 122 -70 -70 122 56 -122 -12 -6 46 98 -60 -84 -18 10 34 -18 -50 90 -38 -24 -90 50 -26 -76 -90 -6 12 -20 38 -70 -66 -68 -70 10 20 -90 -24 116 110 -66 62 -54 -108 -90 -96 -8 52 26 4 -78 -84 -54 76 -100 -78 -100 -14 -44 -100 48 56 -40 -16 32 -64 -110 -12 -88 -66 -40 70 -20 -20 54 -42 -50 12 -82 -4 -34 54 -8 -54 26 96 38 -42 2 -42 -48 -92 -66 -90 -30 -30 -80 -72 112 -16 92 -66 -74 -46 -54 -46 -112 8 -122 82 14 28 16 -32 -52 -86 -44 -40 -30 -8 14 -74 -46 -38 -28 -52 -22 -82 48 92 -18 44 -22 18 106 -92 -64 -18 -48 6 -30 -42 72 -38 -102 -32 -28 -18 112 -28 -54 -42 12 24 -38 56 -20 -62 -60 -32 -94 84 -30 30 -14 50 -14 -44 -6 -44 -68 26 -72 -38 -60 56 30 -108 -88 -98 74 88 22 -72 -30 100 14 82 -26 -52 76 -50 -74 -34 20 -102 -124 -30 82 -8 46 -76 22 48 46 -32 -64 -62 -14 -82 -50 -80 -16 46 -90 -2 116 -70 -16 110 82 -88 -66 -16 -56 -44 -82 42 14 -54 -38 -78 -72 -106 84 -56 -56 -72 -4 -56 -56 18 -94 -86 -62 -22 -38 -96 18 -8 8 -38 44 -26 -68 -52 6 -122 66 -92 36 56 -54 -50 -30 -60 -44 -110 -22 2 -26 102 16 96 -42 -50 -52 -66 30 32 -68 -8 34 -104 18 -24 6 34 8 -60 64 -56 -30 42 -30 -30 58 -72 -22 -58 -38 -48 -16 24 -4 -60 0 -44 -36 -108 -14 -4 -16 -60 -28 -80 120 24 -52 -24 -52 -38 -28 -82 52 -56 52 0 62 -66 -74 -18 -48 126 -94 -16 54 -26 -86 -20 -48 10 16 -52 102 -74 70 -92 -116 -32 -66 -40 -78 -44 116 -48 -64 58 -68 2 -72 70 -40 -124 -36 -46 -84 48 18 40 -22 34 -6 0 -26 -70 16 -86 -48 -34 50 -10 40 66 -72 14 122 32 -38 108 -56 -68 -68 22 -72 -62 -82 -46 -12 42 -26 -42 -90 118 -72 -26 -46 -92 24 -92 100 -78 114 -30 122 70 22 -48 54 -92 -40 -86 -42 124 44 -90 -60 -42 -40 -2 -78 28 68 -76 -48 -104 24 -44 -78 6 -14 -54 112 -66 -54 40 -78 92 98 -78 -28 -86 -88 -58 -48 -82 -90 60 -88 -46 -2 8 -40 -24 -70 -4 -20 -36 -82 -8 -16 0 28 -60 -12 -80 18 -46 -2 -58 -4 -106 -28 -56 -40 -100 -78 -60 122 -22 102 -52 18 120 6 -80 -22 -4 122 -4 -74 48 0 4 116 -6 -52 -80 -102 -66 -40 22 -68 -98 -4 2 22 -26 -90 -66 -64 -8 -90 42 118 10 -56 -42 -46 -20 108 -64 -30 -14 30 6 -122 -76 -2 -40 -12 -46 34 -42 -44 -76 -8 -60 126 -114 22 -48 -26 20 -8 24 48 18 48 -50 -128 -16 -44 -114 -62 14 -54 12 -60 -58 -84 116 122 104 -74 -92 8 -72 60 -30 36 -30 -32 -62 -30 -70 22 12 -38 -26 -20 -40 -60 -22 32 -36 86 -18 -78 -44 -12 -104 -86 -74 8 96 -34 50 -60 -56 46 -14 -56 -60 -54 34 -2 0 -58 -34 -22 66 -52 -50 -78 14 8 -70 -54 6 114 -46 -42 -56 -36 -100 32 -54 -82 -10 -80 -10 -96 86 -52 -62 -36 84 -34 26 -60 -10 -52 12 16 -84 10 -56 -24 -80 -70 20 -36 -48 24 -6 -52 24 -36 10 -30 -58 -62 -8 -24 -22 10 -10 -80 110 -50 -72 -76 -114 -24 2 -34 14 -64 -14 -44 34 -52 68 -74 78 2 -60 -32 -68 60 -62 -68 -30 42 -24 -84 114 -44 -32 -36 46 -4 6 -90 16 -32 -100 -40 4 -36 4 -62 -36 -54 30 -24 -84 -2 -106 -98 -24 -80 -56 -98 -42 6 66 -82 -56 -42 -90 -76 108 66 -36 -48 -80 -94 2 -74 2 104 -38 -12 84 -32 78 -36 46 -122 -78 -36 -42 42 -16 -56 56 18 -46 0 -20 -36 -8 8 -98 52 -70 -24 -4 -26 -34 -62 -56 -36 6 -66 108 -32 -62 -52 -38 -42 24 -68 22 -2 40 -98 -88 -54 108 -40 -42 -50 -70 -6 -10 -14 -16 -44 -44 76 -60 2 80 92 -44 -12 -68 -20 -38 -72 -22 -60 -68 -124 -22 -76 90 68 -8 -96 44 112 -34 118 60 -82 -102 -78 0 -28 -26 -4 46 -118 -22 -48 -74 -8 -26 112 
126 14 84 -20 50 -60 -60 -106 -56 -52 -74 -48 84 12 -60 44 -40 -76 -106 126 -128 74 44 10 -60 -20 0 86 -42 -46 -38 20 40 16 40 30 -68 -28 0 -60 0 74 -60 28 84 -28 -60 52 28 -6 22 -10 -8 16 42 -32 -14 8 6 -80 58 28 -22 -68 -106 -46 -32 -52 14 -42 -92 -42 -48 -56 -52 -124 -48 -20 -12 12 -86 8 -22 -80 -64 -56 -24 -10 -12 -14 -56 -58 100 -34 -16 -68 -32 48 -20 10 22 -44 104 -62 78 -6 102 -42 -48 56 -42 54 -96 92 -54 -46 -66 -78 -28 -10 18 -68 14 -90 92 -40 -100 40 -102 -36 -10 -38 -10 -80 64 -34 10 44 -8 16 -52 52 62 -66 56 -34 48 -68 -16 -66 -64 0 32 -30 -54 -2 -48 -30 22 -14 -20 0 -96 -14 -32 -46 -44 -2 -32 54 -88 116 -90 34 -44 -34 12 16 -76 -24 26 16 2 74 -10 -24 64 -50 -2 26 -126 -20 96 -102 -72 16 -72 -34 -14 -82 -88 -48 14 -36 -90 18 -82 -18 -114 -28 -12 -60 -52 -68 20 -62 -52 -28 -12 -18 -28 -36 -40 16 -50 -52 58 6 -70 12 18 -126 78 -48 -24 -18 108 36 -6 -56 -22 10 -2 94 -66 -6 50 28 -10 -10 12 36 -18 92 -64 -104 -16 -66 8 -100 126 -38 8 -40 -98 -38 10 -38 -70 2 18 6 -36 -68 -8 -34 -4 30 -12 34 -54 -32 -66 -32 -6 30 8 32 92 0 -72 -32 -12 38 -64 6 -22 -54 -18 -64 -14 30 -74 90 4 -36 -86 -82 2 72 -12 -26 54 -34 -6 46 -84 -30 -4 -100 22 -38 -88 -74 2 -104 -80 -28 6 -26 26 0 12 -44 6 -22 -34 -122 -66 -20 14 -88 66 -18 -96 44 -40 -32 48 -62 -18 -46 46 70 -30 -18 -20 2 22 -26 112 -46 -2 22 -38 -26 0 -40 -48 4 -38 -56 74 -44 -16 -70 -52 -84 -38 -6 -32 -32 -32 62 -36 -60 2 -16 -36 50 8 86 24 -6 28 -68 0 -10 -62 52 14 -52 -44 4 0 -72 4 -8 -32 28 -86 -54 -14 -70 28 -84 -68 72 -28 -36 -56 -60 66 -22 46 12 30 -32 0 -4 -20 -126 38 0 98 -58 -24 16 -38 90 102 4 76 -2 64 58 -54 -34 -6 -14 -38 32 -46 28 24 66 -14 2 64 -54 -52 42 26 18 -34 34 -10 -64 -62 -106 14 42 -4 -54 -4 -18 -16 8 -86 12 90 -64 -16 2 -58 -26 -44 -28 -6 -24 40 -22 -34 -96 -6 98 -8 -44 -84 30 -76 -64 -30 -8 80 -58 -24 -8 10 -16 -20 12 -34 -62 -66 -2 18 -2 -16 -8 -32 22 8 -70 -50 -2 80 0 6 46 -72 -8 110 -44 2 0 12 -34 2 -4 -42 -38 -54 -58 -58 -4 88 12 -22 26 -82 20 -24 -56 -44 -66 -28 -38 -56 0 34 -14 -54 0 -68 -54 30 -66 -84 -52 4 -44 78 -68 -102 44 -46 -40 -10 60 -14 18 -82 -54 -38 52 -12 4 -32 24 -66 -6 -54 14 -4 28 -28 -84 -16 16 -50 24 -12 -58 -40 -48 60 -42 -2 30 -34 -42 -76 90 4 24 -104 -54 -16 -40 -66 34 -22 14 -66 -4 52 -76 22 26 -118 44 -28 -56 118 -28 42 -56 -4 82 -24 -18 -4 -22 -8 12 -50 -80 66 -44 62 -12 -30 -20 18 -44 12 52 -40 72 0 -44 54 4 -34 -72 30 -52 -6 -6 -10 -22 -30 16 -12 -22 4 -42 56 -50 2 68 70 16 -6 -66 -46 0 -90 8 24 -24 -26 -52 -70 -38 0 10 -32 -26 -36 -68 -60 12 12 -6 -26 84 -56 4 10 10 16 -64 -16 -80 6 36 52 -2 -46 -20 -56 -16 -50 -28 48 -14 62 -12 -8 -84 16 -96 -56 28 2 -54 -56 22 -42 -92 -24 56 48 -6 -32 18 -24 -36 26 36 -56 -32 -82 20 -56 -60 -52 52 30 -36 76 2 -10 18 -34 16 18 -16 30 48 46 62 -44 126 24 -42 16 32 -66 -36 -88 12 -8 -28 10 -52 16 -18 10 -16 -24 -50 -2 -42 16 -26 24 4 -14 -64 14 -40 -64 22 48 -4 -70 -18 -10 -42 -18 -14 -70 114 -22 38 88 -24 -28 -8 -32 60 -66 48 -36 -44 8 90 6 102 76 -12 -18 38 -36 18 -90 -8 -2 -76 -40 -52 -16 -42 34 -6 -88 -42 -48 -50 -4 2 -38 -72 42 -42 58 -82 -38 18 -42 -40 26 52 30 -2 78 -60 -40 -34 54 -14 -44 -24 -44 36 6 0 26 16 -4 -100 -44 -40 24 -36 -68 -68 -4 -38 82 -50 -56 -42 -4 -68 -4 -52 -74 94 -78 -76 -68 -74 2 -38 -14 -28 0 6 -104 -8 8 -24 
-32 -98 -64 120 -40 -20 12 -66 4 -74 84 -88 6 -2 86 -38 100 -6 8 -34 -22 -112 -14 86 -20 -74 -12 -112 50 -34 -80 64 -54 -90 2 -50 -62 30 -50 -6 -76 50 -10 -42 -104 90 16 86 -46 -16 -4 124 -38 -68 -8 -24 0 -36 -68 114 -112 -82 102 -66 -40 2 -96 -50 116 -100 58 -74 24 -8 120 90 -62 56 -126 -90 100 90 8 14 -32 -108 -20 -16 -64 -84 10 70 94 64 0 -126 -36 -108 -38 -88 -38 -58 -38 -48 34 116 -12 92 -102 -12 90 92 -26 -54 20 -122 -58 56 -74 -92 76 4 -28 28 62 -74 -118 6 -114 -106 -68 -102 -106 120 6 88 -80 84 76 -118 12 70 -30 -86 -14 26 -86 -70 -100 -110 102 -58 -22 -44 60 -20 -68 -20 -34 84 -18 -42 16 -88 -12 -8 -30 -64 -60 46 -28 -16 64 -114 112 -12 -66 -104 -68 -44 84 -80 26 90 -12 -38 -106 20 -8 -80 -24 66 -110 -112 -70 -18 -14 -10 62 12 -46 -76 64 -76 -12 -40 126 -110 -74 -34 46 -128 -22 102 -20 -104 126 -124 80 -56 -76 100 -62 -30 124 -42 38 -92 -52 -4 -110 -54 -50 8 44 -22 -2 -58 -74 -48 114 -38 -8 -90 -114 -110 34 -102 -104 -122 88 28 -44 -106 -70 -128 -28 -74 -90 -30 0 114 -82 68 14 34 -14 0 -16 28 -126 -60 4 28 -124 20 -88 94 -106 -54 -76 -4 -18 -48 -24 -76 -70 112 -90 -20 -34 72 -116 -56 -34 60 -66 -92 56 -124 18 -64 -36 -124 -62 -10 22 -94 -36 20 -46 100 -74 122 120 -42 -122 -32 94 -50 -96 18 -42 -6 -42 106 82 106 -26 -112 -66 -24 -128 -102 -60 4 10 -88 -18 -52 -4 34 -40 -56 -2 -18 94 -102 -46 -68 -58 52 122 88 -88 30 88 -70 112 22 -114 -126 72 -88 -74 -30 -122 -62 48 90 -32 126 20 112 -58 -98 90 -46 -90 -76 -44 -24 50 -80 -98 -44 -124 -106 -36 92 42 -120 120 -12 -74 106 -124 -36 -4 -14 10 42 -126 -38 -64 56 -26 -112 104 -84 12 2 -98 -128 -26 -74 110 -94 106 -26 -116 106 -116 96 116 -120 52 -60 50 46 -44 -54 -96 74 56 44 20 -82 -12 -50 -90 -36 -86 76 4 80 -38 98 -30 -106 88 -18 -56 -56 -10 -32 -98 -10 26 102 -32 -114 -92 110 66 -26 -112 -14 106 62 -10 114 -40 46 92 -60 86 -86 72 32 -122 -22 -102 14 80 94 -122 -22 100 -124 -74 -4 -76 22 -54 110 -58 -10 -106 -72 98 -68 -68 -52 -38 -108 12 108 -40 -36 -64 -100 -30 -80 -32 84 -72 36 -126 -4 80 110 54 -36 32 -4 -50 -98 -56 -80 -128 -124 110 100 -72 38 -82 -126 -122 30 -62 -66 54 -38 -36 -54 -32 -126 -86 -76 88 84 -16 90 50 38 -28 -104 -56 -16 58 -92 -80 -84 -74 -122 82 -112 106 -40 70 -64 -86 -122 -52 -120 84 -56 110 -54 -30 8 -36 88 -106 6 -54 -48 92 124 114 80 -38 -36 -50 -82 -78 104 -16 -104 -44 -114 -52 22 74 -80 4 -88 -66 -38 90 -110 4 -74 -98 124 44 56 -116 88 -48 76 -26 34 -36 -46 -18 -34 -34 -84 -106 -48 52 -52 2 -108 -46 -86 -32 -108 -74 98 16 94 -100 14 62 50 -36 -60 -32 -82 52 90 -70 -22 46 0 36 96 -62 36 -92 -108 0 88 -70 -14 -52 -92 4 -34 88 -24 96 12 -62 -2 -126 -90 -50 -24 72 -58 -16 66 72 -16 -14 -52 50 -12 -80 -68 -84 -96 -56 -106 -118 -36 84 90 22 0 -12 -92 -6 -98 48 -28 0 -34 -22 -42 44 -82 -120 66 -126 -50 88 -102 -30 -62 86 -64 -22 -10 -72 -26 -46 96 -98 -60 -42 -28 10 -94 126 -72 44 -66 -64 -120 -28 118 48 46 104 114 -88 38 84 96 -96 -72 62 -62 -46 -58 20 -88 -42 -108 -58 -114 -70 -106 -82 74 -100 -110 -112 76 -44 -80 -82 36 124 -40 34 -90 -22 114 52 -14 110 58 32 -34 8 6 -66 118 -122 58 -86 -24 -126 -18 -34 -10 118 20 16 -30 -80 -44 -46 -28 122 -46 -28 -80 -2 -102 -124 -48 116 -72 -68 -98 60 30 118 -72 -32 -30 -4 -102 78 -48 12 -74 -48 -40 -16 -14 -60 -48 124 124 -16 60 -44 12 -124 -98 -32 102 88 -46 -68 -34 80 -98 14 -6 0 92 -42 14 -108 30 -124 82 114 -56 68 -70 -22 -110 16 -90 -24 96 -30 -58 84 124 -92 -90 -64 -8 116 -86 -32 -98 60 -58 22 -60 112 -10 -60 106 80 -122 36 -78 122 -82 90 -64 -96 -44 72 52 92 -104 -68 -38 64 -76 -94 -128 
-26 28 -4 -116 -80 8 -10 -20 74 -36 -108 102 0 14 -30 56 -124 8 10 -46 8 2 -2 -88 -36 -70 -84 22 -50 -54 80 50 114 -30 -116 28 0 4 -48 98 116 12 30 58 -26 72 -28 -12 58 -92 34 -26 36 -46 -34 26 114 -54 60 -6 14 -14 -74 100 -124 -44 -82 -114 -62 -46 -116 22 -54 -74 -58 -60 -86 -48 112 -76 -86 -68 -38 -82 8 110 -10 58 102 -60 86 -32 -50 -106 118 -80 94 -62 -82 -86 120 -102 -32 -120 -76 -20 0 -12 20 22 -80 -18 -6 36 118 12 -102 -66 -126 -38 -24 -16 36 -28 -18 24 52 -2 -126 10 18 -70 16 -74 -46 -60 -22 -52 82 -62 46 -72 10 -68 -88 94 -44 40 -10 -46 -124 -58 -44 20 22 72 -44 124 -50 66 -68 -38 -18 -18 54 -6 30 -2 -38 -4 -36 -46 -62 -122 48 -114 -46 -124 -74 -58 -2 -74 -34 -70 40 58 -22 -64 -42 -66 -28 -48 -42 -34 -20 68 10 -34 -106 -60 -108 70 -16 78 -50 26 0 -126 -124 -94 -110 28 106 -18 90 -74 -40 -74 -32 -12 -38 8 -92 -126 20 -12 42 -126 58 118 -90 -4 -2 -60 84 12 56 14 -52 -46 -58 34 -50 -76 -68 -4 16 -108 -30 -64 -6 -106 -62 -38 18 -124 34 -62 8 -8 -106 -48 -116 -68 -76 14 -46 -24 50 -80 -64 44 126 -88 120 -58 54 -126 -64 -84 40 92 -58 -100 18 106 106 -100 -78 -58 16 -30 -84 90 -68 6 -86 -74 -24 4 -54 60 44 -12 -24 -16 -18 -92 -110 -88 124 10 -48 -82 -40 -28 -96 8 -94 -126 20 40 -50 -72 -78 -126 -74 -126 -60 -44 -76 -126 50 -122 -42 -122 52 -96 56 -106 86 -108 30 6 -110 -18 -104 -122 -54 -74 54 -34 -126 -24 -34 74 4 92 32 -48 -58 -26 -108 84 -124 68 -74 -8 -38 74 36 -20 -62 -82 -80 -96 46 -6 -90 -8 -102 -24 18 -86 72 56 -128 -98 -108 -40 18 -52 -66 -58 72 -112 -124 28 -68 -72 -112 -38 -6 62 -76 -10 0 -52 -48 66 -38 80 -88 110 72 -74 -2 -86 -70 -42 -32 -120 -70 -118 -24 -128 54 -108 124 94 46 36 12 -92 -90 104 112 -78 126 -124 -118 40 96 -24 70 -46 -58 -100 -70 6 -34 26 -84 -118 44 42 -20 -118 -26 28 -100 -80 -70 -54 116 -30 -30 -68 -114 -74 2 -76 -52 -42 -110 2 -66 0 -82 -30 -124 -70 80 86 22 -80 -12 -66 -120 118 30 -8 -58 8 -84 -34 -50 -116 -102 -70 -118 -18 -118 2 -84 -16 -46 -66 -126 120 -120 -72 48 -88 -108 -12 90 -46 -26 -108 118 -96 62 -90 62 -114 102 -64 -70 -60 -80 -90 -22 -52 94 -74 -2 -34 22 -52 -60 -36 106 -64 -48 -80 42 -56 104 -64 -58 -44 -56 -100 -62 -84 -58 -34 58 -56 10 26 -68 54 -70 126 -50 -118 -14 42 -74 -28 52 68 -2 -20 -96 -70 58 -16 58 12 -110 -8 -4 -2 -120 2 -76 -124 -128 -40 -4 -84 28 -84 -126 76 112 -124 -72 -58 68 -16 -16 -30 -6 126 -118 118 -94 -82 86 -38 12 46 -64 -30 -102 -50 -104 -72 -44 98 -18 60 -86 34 -24 -120 -90 -34 -80 -108 -30 32 -20 -40 -8 -30 126 -56 -98 -68 126 -66 -24 42 44 -88 80 38 8 40 -42 62 16 -2 36 -72 -36 -20 -72 34 -50 -20 -104 -38 -62 28 -110 -50 -128 -92 4 -14 124 32 -108 -14 -32 -22 -62 -82 -102 -50 -26 52 -32 46 48 72 12 -108 4 112 -84 -104 -66 -14 -8 -70 -48 -76 -102 78 40 -44 -40 -110 -126 -40 -12 -22 20 -32 -52 -56 30 -68 8 -114 110 -40 -76 -22 -58 -10 -62 -12 86 8 -32 -70 -58 10 -14 -64 24 16 80 -30 -52 -126 12 -80 -88 94 -102 -86 38 32 -86 -60 -62 34 -64 -80 -62 64 124 110 72 -54 -36 -42 78 18 126 -92 0 66 -34 -14 -64 -76 -58 10 -28 94 80 -60 -38 -126 -2 -82 2 66 -2 52 -22 -60 -14 -70 90 -128 -6 80 44 58 -30 -20 -64 -44 -62 -62 2 -18 -38 -78 12 -108 96 52 28 -56 -56 68 -38 16 -100 -64 -66 -82 -90 -120 -32 -88 -6 -54 -64 14 -34 -80 124 14 -28 48 -38 -52 -102 12 44 -14 52 34 -50 60 -88 -42 -30 22 -66 38 42 -96 72 104 -60 -66 -36 -92 -120 18 -114 12 -114 -18 -12 -78 -126 -76 56 -114 -76 -118 -74 48 -74 -44 38 -64 -68 -4 76 -126 40 -50 22 -66 -32 -42 -30 -56 -112 -26 -14 -42 48 -74 -62 126 -20 -70 -72 -22 6 -62 -72 -86 74 38 0 90 2 -128 
-20 78 -34 -44 -26 40 46 -60 114 -44 -30 -2 -32 2 -46 36 24 -74 -86 -94 -120 50 54 60 66 -62 -86 -46 -128 106 92 16 6 70 -40 22 -86 -58 12 34 36 80 6 -10 50 4 -20 4 90 74 32 -78 -16 34 -70 -20 -40 -66 14 -50 -32 122 -38 60 -60 -54 -16 22 -70 -10 -76 -82 -74 -26 -74 -126 -128 -64 -36 -14 -40 -96 74 -94 -76 2 -116 56 -8 -36 24 -8 -4 -26 98 -40 -126 36 -16 -6 48 60 16 -38 4 -68 -104 -36 -46 -72 126 -72 26 22 -120 -56 -94 -20 -94 -52 -28 -28 50 8 -16 -64 -56 28 -72 18 28 -50 -80 -66 16 -124 -18 60 -28 -60 -66 52 -114 -108 120 -54 -94 72 -46 34 -68 4 -56 108 -80 -62 -18 -122 -10 -86 -72 -56 46 -44 126 -14 -44 36 -42 -70 -30 -88 -56 -62 0 -4 0 -24 76 -70 -126 48 -60 -78 -8 102 -22 -66 52 -126 -88 36 58 34 14 -44 -32 -22 50 -114 16 126 -14 64 110 46 76 -20 -64 20 -18 100 42 34 64 -52 -54 -76 24 -96 -36 -88 24 58 -60 -30 56 -124 118 -128 2 42 70 50 62 -84 -118 38 -2 6 -30 -104 -28 54 -12 -12 -78 20 -74 -42 -64 -114 -24 16 -22 -122 50 -34 -96 96 12 -28 -72 -44 -2 -62 104 112 102 -110 -96 40 42 -26 56 54 16 -98 -94 -56 -80 72 66 -86 38 -18 54 -94 -6 102 -36 20 -58 -28 42 -48 -10 -64 -44 -48 -72 -18 108 -18 110 68 -50 -46 -128 -78 50 -64 22 88 64 68 -84 -86 22 -88 10 -72 -122 32 10 24 -118 -22 -4 44 -58 20 -90 8 26 32 -42 -74 88 8 68 54 24 -36 -8 38 8 -62 40 -76 14 -40 -68 42 38 -6 -62 66 -90 -106 -20 -82 2 -106 54 -72 122 -112 -12 -92 -106 10 42 -64 -78 -40 -18 -56 -112 0 -96 -90 6 -56 14 6 -118 -42 -60 56 18 62 -76 -44 0 -14 -4 38 -72 112 -108 68 -92 -28 14 -78 0 -6 -48 -54 60 88 -24 -126 94 126 82 -18 -80 -18 34 48 22 -118 -50 -100 8 24 126 16 36 74 -82 -58 -26 16 -42 -54 78 -26 -46 92 56 -26 44 -80 124 -6 -118 70 -30 64 -48 -6 68 20 -98 -84 -68 -98 -42 2 -22 -84 40 4 -12 -94 -28 48 -40 -26 24 -42 44 -14 -78 6 -70 106 -90 -48 70 -48 -48 -54 -34 -68 -92 118 -86 12 -74 -30 -36 48 22 -64 -128 4 -32 38 -82 124 -100 42 126 -96 -14 68 -92 8 -20 38 8 -88 -40 68 -74 4 48 -70 110 14 -92 50 -8 -52 4 -26 -28 -78 -80 -14 112 -102 18 -92 -12 -28 -12 -80 -82 -104 -20 -46 -96 -92 38 -22 -68 -2 2 -48 6 78 84 -62 2 8 124 64 -34 -36 -28 20 -32 6 -48 98 -56 24 66 122 70 -52 26 38 -118 -94 -78 126 -30 -16 -70 -94 42 94 -94 -78 -6 112 126 -50 28 -84 -78 -34 12 -20 -22 -98 22 96 -56 34 36 0 -68 24 -78 -70 -108 48 -116 -30 20 4 -96 124 -38 66 -16 120 70 -52 -96 116 -52 -28 -92 114 -26 -28 -28 60 44 -66 -32 -36 -86 10 48 -10 56 40 24 -32 126 24 126 58 -82 -66 -50 38 -62 26 -36 36 18 68 -114 -82 48 82 4 72 -84 18 -52 40 24 -50 -44 12 -26 -44 -82 -24 -64 -42 -86 -70 -42 -96 92 -88 -42 12 -128 -46 -56 -84 68 28 -70 -8 48 38 -72 28 -22 100 -122 -36 -8 -100 -74 -70 -126 56 -34 56 0 -32 112 82 112 -6 124 -110 -126 112 -36 -88 -20 68 -40 -44 22 -70 -42 68 18 -48 -18 -112 -100 108 -80 2 50 -20 20 -44 4 126 16 -34 4 122 -32 -80 6 -116 -68 -30 70 32 -90 -10 2 88 78 -76 -34 96 46 -52 70 18 36 -126 62 -18 28 -42 -94 -80 18 32 64 -46 -122 22 -4 -78 -48 36 98 16 16 -104 -40 44 122 -38 -88 -68 124 -26 -100 -20 74 16 46 58 -86 18 -48 -46 0 -64 -68 18 112 -6 30 -82 -118 -20 -4 -92 120 4 42 38 114 38 -76 -46 -92 -80 26 10 -76 -42 -52 68 -90 96 2 -74 38 -68 -88 50 -32 -12 -50 28 -16 90 40 -40 16 16 -66 -42 120 122 18 94 14 -62 -22 46 -128 -64 -18 -16 38 -110 60 -106 32 44 -58 -16 72 -42 -22 62 12 -10 66 78 -84 88 12 48 46 62 34 -102 2 -18 66 52 -12 -2 122 126 -84 -50 -6 110 -46 22 120 -82 106 -98 -108 -16 
-58 -14 -46 98 80 -18 18 64 -6 -120 -84 80 66 -2 -28 -54 -16 -80 -108 -74 -116 122 -84 -118 -44 -42 -90 -26 -40 -64 18 -64 -48 -88 0 -16 -78 60 -128 -82 8 -24 18 56 -12 -62 26 102 -26 -30 0 -44 -84 12 -74 24 -4 -72 2 -36 -52 -58 102 34 46 74 -20 66 66 -126 12 86 -40 -74 -94 2 48 -56 -84 -62 78 -6 0 118 120 -46 4 -64 10 -90 -110 108 72 -74 -54 34 -72 126 118 84 4 -96 -48 -72 114 -122 -26 -2 -16 32 16 86 108 74 -100 36 110 -50 26 -52 52 40 -64 12 40 -30 -80 0 38 -40 -8 52 -66 -26 70 44 -78 18 46 -10 -22 -116 -86 -88 -48 -82 42 -82 -78 58 110 36 -58 -70 -42 76 102 -80 52 -84 60 -84 -70 -70 110 26 -10 -44 -76 -90 34 -90 72 -30 46 -68 -40 -88 -84 -16 -16 -4 -32 92 66 2 -50 16 -82 40 22 24 -8 -14 -14 -70 -34 -6 -98 -14 90 -90 56 -14 -40 -116 -38 -102 116 16 120 -88 -18 2 72 92 66 -82 -76 -128 14 -30 32 -46 -54 0 -6 -12 -14 -4 -86 94 -118 2 118 -8 32 -50 66 -10 26 32 -62 38 122 -82 -28 -108 -82 -36 8 -64 -48 -10 6 22 2 -72 -122 -20 -50 -2 -52 12 -4 0 -56 -44 -46 -72 54 -44 -40 12 -24 74 -20 52 -74 -38 124 40 -30 -14 -40 -72 -34 28 -96 -48 0 52 -2 -86 18 30 -34 120 26 -32 36 -30 44 -50 -68 28 -38 -66 -66 20 2 12 62 90 -4 8 28 -24 -16 8 -114 -74 32 -14 42 -20 -76 -52 54 -14 -46 -30 -116 22 -78 14 34 62 24 -64 -18 -24 -108 6 10 32 80 54 -96 -50 -38 116 90 16 24 -116 14 -24 -6 6 -8 22 -80 24 -32 72 -116 26 4 18 44 -62 -74 -32 -40 42 -22 52 74 -24 90 -52 -18 -52 48 -28 -100 -98 8 44 -124 16 -30 -16 -48 104 104 -54 4 -40 -42 -8 94 -8 62 -14 -2 -128 28 106 74 -52 -56 -52 -36 32 -54 82 24 22 -82 -64 64 -54 16 -104 -14 22 8 -4 20 98 100 -10 -52 10 46 -90 -62 48 -116 -52 42 10 -44 54 22 -2 -74 -120 -68 -46 -74 -82 6 -12 -90 -14 20 6 -56 -94 56 -4 120 22 114 -22 104 -48 16 -22 -42 44 -56 -104 -64 -72 122 -62 -76 54 -76 52 -64 -2 -56 78 -82 -22 -54 -78 -54 108 -52 -16 28 -20 68 28 -62 -24 86 -22 16 -76 -6 -58 14 10 126 24 -18 -78 2 18 68 -22 -50 -36 -42 -66 18 -62 2 -32 26 -30 -16 -50 -94 -86 38 -32 -40 -10 -24 96 -30 -50 30 94 -72 68 -14 80 20 -16 -26 -66 -48 6 -4 100 40 -80 -78 -24 -48 -56 90 -104 64 -32 86 -32 18 108 -88 18 -8 -56 -18 -60 -76 -66 70 -6 60 -84 -80 38 124 -36 -50 24 20 56 -42 -22 74 0 -32 78 54 -72 40 -104 -28 48 76 118 -106 -26 18 -58 -24 -116 -24 20 34 70 22 56 -68 10 112 78 114 32 58 -90 -10 -38 -58 -36 -44 8 -22 -64 26 -2 -16 -74 50 -68 40 60 -92 60 4 38 114 -20 50 8 58 -14 -18 -66 -40 -20 30 -10 -54 -18 -70 -20 56 38 70 -88 -56 -32 -18 -28 -68 36 42 64 -38 64 -102 -26 -64 -10 -26 -14 -102 -126 76 8 38 -38 -52 32 -30 -44 -8 -36 -88 -14 -4 -54 -106 -94 -64 -114 -22 46 -16 98 0 -4 0 -6 -28 -46 58 30 74 -58 84 -80 -38 -18 -118 -90 26 -70 -46 -88 -26 -48 24 80 -6 -60 -96 -26 12 -32 -20 -46 52 26 -44 54 74 -58 -42 -38 -102 -54 -6 -112 -50 -16 60 -16 -12 -50 120 26 38 -34 28 28 -22 26 -96 -72 56 -80 -6 -42 -76 -106 -60 -92 -126 -116 -106 36 38 -48 126 44 -58 98 -88 -34 8 116 -32 -8 54 -40 8 0 -10 32 -64 -34 -58 -68 -36 70 -98 82 54 52 -76 -44 -24 -80 90 6 10 -82 -60 74 -16 60 -12 -36 -54 -52 20 -58 82 -60 12 -60 -42 -56 54 48 -62 -58 114 -2 42 -46 -20 92 -8 -40 -102 -74 -50 -36 18 58 -128 40 -76 -92 0 -58 -18 36 -74 -20 18 -98 6 -60 -80 88 -66 -56 -16 -36 58 -8 -28 -36 -10 -72 24 -34 4 -98 -48 76 -92 -54 116 28 104 52 -42 -48 -66 40 -16 4 -44 -38 -10 -8 -22 -72 -30 14 -52 114 0 -14 88 46 -42 -10 2 96 48 -60 -18 96 28 -8 -60 4 -24 54 
-8 -126 64 -18 108 -52 68 24 104 -64 -126 -128 -22 -2 -118 -62 30 -4 32 -16 4 -104 78 -122 44 -6 -8 -42 -70 16 -4 -54 -104 -2 118 -128 -58 48 76 38 -48 120 -72 -10 0 -58 100 86 -30 76 50 -104 -102 -122 -24 -124 0 36 -106 122 22 -4 26 48 12 56 -82 16 -50 36 70 54 32 48 -2 -64 44 90 -76 -66 -90 34 16 6 12 -84 36 -114 -74 84 58 -24 62 122 2 -14 -96 -78 52 120 -2 8 -70 2 100 44 -8 -68 -54 78 -22 42 40 30 50 14 0 -126 48 12 22 36 48 -56 50 86 -118 28 -36 -18 -114 -4 -66 20 2 2 30 60 36 80 86 -98 108 -88 -28 28 -122 -60 -18 98 28 34 -6 30 -90 -24 18 26 -122 48 -36 10 -80 8 -58 114 -32 -36 30 -126 24 40 -128 24 -38 -86 34 84 -22 96 20 34 60 0 -32 -80 -14 -98 120 36 -126 4 -2 56 -10 -14 -64 -6 4 0 30 126 58 -2 -24 40 -90 -126 0 54 12 -86 -100 34 -76 58 14 68 4 -2 -26 -44 88 8 -20 4 122 56 0 84 4 90 64 28 -14 54 -14 -128 -126 18 24 -30 -126 -42 -22 18 42 48 -26 12 -122 80 -92 92 50 -122 -74 16 30 -32 -80 -100 32 14 -62 34 118 -94 -124 72 20 -120 50 26 -40 10 34 20 42 -6 -24 -36 44 -128 10 -40 -86 42 72 -8 106 82 42 116 56 66 18 -6 -100 -50 44 -36 -84 6 -72 -14 40 -82 50 -20 8 16 -66 12 -28 84 66 -26 64 98 -12 86 12 -126 10 -12 -90 36 90 12 -58 -4 110 -112 16 18 30 -80 -28 52 -30 -106 86 30 -66 -96 38 -2 -86 110 -120 -34 42 46 -8 -8 -112 -12 -14 -2 -70 -10 -124 -50 -88 108 78 52 -20 -126 -100 -72 -62 58 8 16 88 40 62 4 -14 12 58 22 76 -112 10 16 86 80 2 88 -30 114 12 -126 52 -116 44 46 -2 80 -4 -4 28 -96 22 20 52 -98 116 112 72 -6 -38 38 100 -88 4 36 10 -82 92 34 -6 64 20 -82 16 0 -16 -40 26 -22 -80 -30 62 26 28 34 10 -86 -48 122 -16 20 24 -46 -10 76 -90 32 58 -6 -14 -124 -80 26 -40 30 4 -2 -110 -64 -34 -34 -64 80 -122 -52 32 96 42 -92 60 32 -38 54 -126 2 58 -46 -126 114 -66 30 -124 -20 12 -114 54 12 -32 8 24 92 104 46 -18 -28 -126 -128 14 -98 4 -122 -104 4 52 -42 -124 -56 74 78 68 -44 -36 18 36 -94 -76 -126 -48 -120 -52 -58 -72 76 60 -2 -46 -14 -20 52 -102 -26 32 66 -66 -64 -14 6 -44 50 120 86 -6 38 -12 -64 4 -88 126 -14 -16 84 28 -86 -36 26 32 -56 2 10 -116 -118 54 -18 -98 56 8 54 32 120 -66 -2 22 -14 12 110 84 94 70 -98 -38 -10 -36 -82 42 38 -12 44 4 36 -2 -66 66 38 56 84 -20 -126 46 6 50 -38 70 126 -62 12 4 -14 -36 34 -64 -88 56 -28 -112 40 34 58 26 -26 20 -18 -118 58 38 -6 80 28 36 -24 -42 14 60 72 -70 54 36 -116 0 30 -124 14 86 -112 22 90 -68 8 12 -28 22 84 84 68 10 10 32 -46 -18 42 58 24 -10 68 -4 -24 120 12 -72 122 -100 18 86 36 -8 -94 -6 10 -10 46 10 30 60 40 120 -22 -50 -108 -24 68 -128 -22 98 42 -126 52 -2 60 -2 8 24 -4 -36 -80 50 -2 70 -82 -24 -18 56 -124 50 -6 -64 74 -80 108 -30 82 8 -106 14 72 74 -16 -106 0 62 -98 56 -86 10 60 20 30 50 -36 -36 50 76 118 -12 -78 -64 70 84 -52 30 38 -18 38 -122 62 16 -72 -28 126 -114 62 80 -36 -16 -22 -90 50 6 10 -54 60 48 -76 -52 48 -22 12 -62 -70 -14 52 30 -94 80 22 -14 -104 4 40 44 38 18 -42 -126 -28 8 10 74 70 -34 -20 -126 -12 24 38 -70 -74 2 94 -34 14 76 2 40 28 90 60 -78 -62 4 -32 -126 -48 -114 76 40 70 6 88 -122 -22 -48 92 8 -24 -38 116 -102 -112 30 -122 -80 -124 104 32 68 -38 -70 42 -106 44 -50 -118 -64 -20 126 -18 -4 2 -32 86 8 -64 86 -92 78 54 62 -98 26 76 -28 -82 90 -12 50 -124 -86 -102 38 -74 -10 -38 -92 -48 -96 -52 14 -8 20 -18 82 50 26 -26 18 -74 -126 -94 -40 -76 64 -42 126 118 -50 -94 16 -20 -110 28 -28 -50 
-30 -36 40 26 72 -72 -18 24 30 -60 40 -46 -88 -16 -44 -100 -10 -38 -18 -26 -68 -122 -22 42 50 56 -54 46 -28 -30 -108 -18 52 104 62 -22 68 72 42 -52 -46 4 -120 24 -48 76 98 80 -50 98 0 -64 28 -24 36 -72 8 0 -28 88 108 -6 30 -22 -8 46 -72 -54 -110 118 -58 -24 62 8 124 50 100 -90 10 -64 -76 -100 48 -104 -6 4 78 -48 -78 30 -12 20 50 58 -34 -104 -30 -80 -40 2 48 -14 126 22 -76 -48 126 82 -26 -116 -8 -76 -14 4 50 56 -72 -4 -62 26 -42 20 -24 82 14 -90 62 -52 -76 -18 -28 -32 70 84 52 38 50 96 -86 -126 62 -80 -126 -44 116 12 -16 -92 22 -102 44 -80 82 2 0 -124 -122 0 -100 -22 34 90 -2 -34 -66 -34 88 -82 -118 -66 70 86 24 -52 48 20 -72 -18 -28 90 -56 6 -88 0 6 -32 22 -56 32 -2 24 6 -18 28 -106 72 -98 -22 -12 126 0 -6 -50 2 16 -18 10 4 12 -74 76 56 -42 -40 -106 70 -36 56 -44 22 112 96 -64 -50 32 80 -94 -76 -46 -76 -10 -50 20 -64 -86 -34 14 -26 -44 24 -6 -42 12 124 -80 8 22 6 -14 24 -12 22 -38 -6 -60 72 14 -8 68 -72 -26 70 -118 2 24 -96 50 -34 14 -32 -96 -10 -12 114 -8 58 -124 -82 -38 50 -26 42 -4 0 46 -4 -14 68 -68 -24 -4 -42 -86 -22 -42 -122 106 -92 -82 76 -34 78 -128 84 -100 -28 40 -6 -70 64 18 -90 -88 -70 62 -64 -118 -58 2 126 100 18 16 96 -86 58 -16 20 -48 4 12 16 24 -26 -6 -94 48 6 20 118 100 -14 70 -78 -50 110 100 -68 -18 72 14 -20 16 -38 -8 -76 66 8 44 -88 2 -102 -14 -72 -54 2 92 -50 10 52 0 10 -8 -112 50 30 66 -64 104 -94 60 -8 48 -24 -72 -64 2 0 -60 84 -124 90 88 68 72 98 -40 -76 -38 116 28 50 -52 -48 -28 -18 54 -70 20 -62 62 40 -82 -16 -124 -52 106 122 50 -12 -38 22 110 -56 -56 30 -56 -74 74 -90 -74 -58 108 -42 58 60 32 -6 -26 -14 -40 -68 -126 -36 -126 -70 40 -78 124 96 -20 48 6 12 -62 -12 56 -22 -112 -68 -44 -6 62 54 -102 -18 -62 116 102 72 -44 -28 14 -76 6 38 20 100 -94 -14 -46 12 -44 22 -16 -16 -2 -36 44 16 -72 -82 -32 62 72 -12 -44 18 -94 14 24 58 -26 28 88 102 -62 50 -20 -36 -72 -70 -40 -16 -64 -50 54 -36 52 42 0 26 64 -20 88 -60 -86 -46 -48 56 102 18 14 -54 -2 -112 124 -66 26 -2 -8 12 0 60 -2 28 0 60 -68 26 20 -22 66 -18 16 26 -22 -12 26 -76 -80 68 92 8 18 -28 -66 -96 -8 -46 32 -126 -66 -24 48 -82 122 -38 -10 52 62 66 -34 -28 -90 -60 18 84 -34 -94 90 74 108 -56 60 36 -82 70 6 26 24 26 68 64 -14 -30 48 48 30 14 -56 -56 -88 126 -64 54 -124 118 -78 -48 -26 -26 6 94 36 -60 -8 18 -6 -4 -54 -66 -68 32 -72 56 6 34 -66 124 46 114 112 -8 60 -34 42 18 -34 -40 -92 126 -30 24 -48 -120 102 -116 24 -6 -36 -12 44 72 -18 36 -62 80 54 84 -20 88 -18 -18 -100 -90 -62 -80 34 90 -84 -44 -28 -58 74 -26 42 4 60 -36 -22 84 -98 -30 20 44 -62 -58 -4 -76 -88 102 58 30 -92 44 24 22 68 92 -48 -28 10 40 2 94 48 -50 -58 -14 -38 18 52 72 -6 -32 14 48 20 -28 -70 70 88 2 108 -16 -118 -32 34 8 58 -14 -56 -50 -52 38 -32 48 -86 -108 122 2 30 -110 18 104 28 16 14 -126 -66 32 -122 110 -48 2 50 -12 -44 38 62 26 38 -50 -28 -46 -126 94 8 -122 -8 -46 46 84 -44 -16 76 58 22 46 76 -52 70 42 16 48 32 -126 2 62 -8 -96 66 40 34 6 46 -6 64 -82 40 80 -82 -50 -48 -32 76 40 -36 -60 -56 -72 -10 90 -32 14 -120 -16 46 -38 -18 110 -126 -16 0 -66 -38 -10 94 4 -10 -46 12 -94 -12 -108 92 112 92 -48 -8 66 -30 -2 -84 42 -4 0 24 22 -20 -50 -96 46 -46 -116 -14 72 -48 72 -38 -48 -24 46 -102 -80 18 -124 -60 10 -118 -72 106 -76 78 -14 -40 -54 -60 -16 96 -4 -18 -16 -54 64 60 -96 -32 14 -72 8 32 -84 -20 62 108 50 -30 24 94 -96 56 -114 42 -106 
-46 18 70 -72 4 92 -18 -34 24 12 10 42 -126 6 84 6 -66 56 -30 22 -128 22 -30 -64 -84 88 8 42 -94 22 50 70 80 10 -16 48 62 -96 96 -10 74 38 70 30 -2 80 26 0 -8 48 34 -50 4 -70 62 -40 -86 48 44 -124 -2 -22 -26 -54 -52 24 24 52 -12 -104 -26 34 66 106 68 -8 -2 -26 48 24 -86 -16 18 -16 16 102 66 8 38 -8 50 -90 -28 -42 -4 14 8 -2 -44 2 -20 58 36 -62 52 -18 -16 16 -40 78 -32 -22 -2 78 24 -80 -16 -6 50 -2 -34 -82 14 62 -48 -4 10 -98 60 30 40 -10 -96 24 -126 -2 -10 -56 -12 64 -124 -100 78 16 -24 24 52 -2 2 10 -90 64 64 64 52 20 -62 -44 18 42 70 -56 -56 30 62 14 -42 62 38 -8 6 0 -6 26 78 6 -8 -34 -12 -52 0 -34 -46 -56 -18 44 -38 40 -46 -10 -70 40 -34 -58 -22 70 52 44 -116 -72 -2 -18 -86 18 -126 -10 48 0 24 -54 -128 -4 -28 -58 10 -18 -86 34 -30 58 -112 94 2 -26 46 -44 12 70 10 -66 -24 -6 28 0 -12 -82 16 56 -26 -22 -46 78 2 -40 -18 -2 -34 -64 -70 6 -42 -46 4 -76 -12 -72 -60 40 -32 60 -74 18 -6 -60 12 -68 10 72 34 56 -12 16 -18 -68 36 0 46 -102 -2 42 -38 -16 126 76 14 60 24 4 94 16 38 -68 -44 -46 42 26 -40 -12 98 30 -14 0 28 -48 116 66 -14 -8 -64 22 -60 42 28 18 4 50 -14 -48 -68 -38 -86 -14 -108 -6 -20 -74 -8 -102 -6 -48 54 -24 -8 4 2 -40 -22 -86 112 26 22 36 64 -44 -28 32 -116 -12 28 -8 -68 -48 -72 -52 44 -6 6 28 -56 -40 32 50 -62 116 -6 -72 -32 -42 -62 22 -28 98 60 -24 -32 -46 56 20 -52 -16 -72 -14 16 -58 72 -44 -70 -6 -54 -48 30 -60 18 -88 20 2 56 -6 26 -76 -104 -48 -58 -60 -34 82 -12 -10 -54 20 10 22 -42 58 86 18 16 -60 -38 -74 -36 -52 -68 -64 -126 -16 -94 62 -26 32 8 -34 16 -46 50 -24 -46 -14 -30 6 104 20 72 -126 82 -4 -42 -42 16 -38 46 80 52 24 56 50 46 -24 34 -26 6 2 -4 102 20 48 20 -64 -52 -72 -40 30 -4 86 -78 22 -6 -40 -84 48 -82 36 6 -58 -20 40 -48 10 -48 -14 -12 -50 30 -90 68 -44 -80 10 44 -46 22 -98 42 100 14 -62 -120 102 -54 16 14 52 76 0 -4 12 -20 22 -70 -8 30 48 80 -64 60 -16 52 -56 -28 12 42 -48 -8 14 26 -62 -100 -24 68 -22 52 -8 114 -116 -108 -126 84 -38 42 -32 8 -54 -50 -30 0 -4 72 18 -8 -64 -74 -62 26 -12 -12 34 -96 -8 48 -6 12 12 96 -22 2 -8 -68 -94 14 -92 6 -48 -14 28 -10 68 -44 -16 -2 -60 -54 -60 -26 -22 -84 20 -72 24 -38 10 24 26 -12 -62 22 2 -26 -54 -58 20 -124 36 38 -70 -94 86 -122 -122 -24 -58 -96 -128 -4 10 10 -20 -18 38 -54 20 -6 6 -50 -56 -120 -40 -98 -26 48 -16 -48 -24 14 -92 -98 -28 10 -36 100 -48 58 -82 -52 58 -60 -46 34 -32 -40 -52 -66 44 12 -20 -118 -88 -34 -124 20 52 14 -50 -64 58 106 38 12 -18 38 -20 -80 56 -26 -42 38 -44 36 20 -124 0 66 -8 -68 64 -16 -46 -34 -84 -34 -70 -64 -102 -78 -72 -80 -60 76 56 -42 -2 -6 34 -74 54 -40 -38 -52 -90 96 6 88 4 36 -12 -32 -18 -76 38 30 -48 18 -12 -96 50 -26 68 88 26 2 26 -26 38 48 36 -36 4 54 114 62 4 -102 68 -124 -116 -72 -68 -46 -122 -8 82 -2 -78 30 -62 32 24 16 -84 80 -4 -26 -114 -4 -34 54 -86 -14 -94 26 80 -2 40 -68 -84 -94 -68 6 -64 84 -46 20 -52 54 -30 -10 -58 46 28 76 24 -40 12 42 2 -30 20 -54 -74 -20 -12 -64 6 52 26 26 -82 18 72 -108 32 10 4 -58 82 60 -16 88 -78 68 12 -62 -58 108 -42 36 58 -92 -38 12 -34 114 -42 22 78 6 52 -14 -84 -102 18 -24 -66 50 56 56 70 62 12 10 -22 -6 32 -14 -20 34 126 -60 30 -22 -28 -46 98 38 -50 54 -32 18 60 -72 -76 20 58 12 96 -96 28 38 -24 -40 10 -64 -34 -42 52 -24 0 74 8 -32 74 -56 -24 38 42 10 -46 36 32 -54 -12 -104 -86 12 -30 -52 -22 
-102 -112 -56 -48 16 -48 20 -6 42 12 60 -104 -60 4 32 124 0 -60 -58 -104 -120 -124 -82 -58 106 -78 86 -124 -22 -22 -126 -56 -62 -126 72 -38 -76 -52 -62 4 -34 -14 -62 44 -14 -6 70 126 64 54 -94 8 -12 126 -90 -22 124 2 -100 40 -126 20 18 8 122 -90 14 -28 -6 -58 -22 12 -56 74 -54 -20 -32 -118 -18 44 24 88 20 6 -48 28 -2 34 126 104 -92 -6 -64 108 -16 14 -54 -92 -10 84 -106 38 -14 34 36 12 54 -68 -4 44 12 -74 70 -74 32 126 -52 42 -30 -52 -24 20 -20 -58 -20 -84 12 30 34 -22 -36 104 -8 -8 88 -14 18 26 84 22 -50 -20 -106 16 28 -18 -44 -26 38 26 0 -86 126 122 -84 42 104 16 110 -50 -8 60 2 24 24 4 0 4 -8 38 64 92 -60 52 22 92 82 40 60 -16 -50 10 28 -68 12 -28 2 -96 74 -40 -28 66 -26 24 114 -48 -36 -8 -4 62 32 54 -86 0 -72 60 -16 78 -20 52 -126 -96 -24 -30 22 46 -120 -2 -4 -30 2 6 60 -14 20 58 -26 24 2 74 44 -100 -18 -60 36 12 -34 -112 50 6 2 -4 -50 56 114 -26 -74 -8 66 -94 62 -42 58 -22 10 -8 70 -68 74 4 92 -12 8 -56 4 26 108 -96 -94 122 112 60 -46 68 -6 60 -108 -122 -38 76 -36 30 98 104 -4 -68 -100 40 -2 -58 120 -12 72 72 -68 4 -26 22 -2 112 44 36 38 -28 46 -74 -108 -8 20 78 0 78 -72 6 8 46 80 -36 -72 124 40 32 42 30 8 -40 18 -2 48 -58 -118 -2 -52 66 -14 110 -26 86 -68 -122 20 54 -50 -70 54 24 -24 38 8 -58 -68 36 -54 -68 38 -78 88 68 74 40 104 34 32 -98 -106 60 46 -104 -34 74 -34 56 42 22 6 8 74 -128 -12 44 14 38 38 16 126 -30 120 2 36 38 -84 -68 32 126 -20 -44 -12 10 -98 -76 60 64 40 4 58 -8 34 -18 36 30 14 -60 46 58 126 58 68 4 -8 26 88 38 24 -4 -124 92 -124 -82 102 -6 -2 -56 24 112 -116 -58 42 28 -56 -70 4 -88 52 -62 -50 68 126 -6 0 -68 18 126 76 22 -48 -34 -114 -44 -6 -120 -34 78 -30 58 54 -122 58 0 -10 16 50 -14 8 -58 0 6 -118 -100 -10 -58 14 -58 -90 96 102 -62 -4 -50 104 94 -18 -48 10 -58 -24 -60 72 64 28 52 28 -52 34 -100 12 -50 -114 52 88 4 70 48 82 20 86 -76 46 22 12 -10 -8 88 -90 48 -26 114 -2 18 50 -6 -8 80 -78 34 -16 -10 -96 110 -64 -58 0 126 -28 10 -60 -70 92 70 24 96 126 -82 110 -8 -68 -24 98 48 -74 60 6 -68 42 48 -16 10 -96 124 58 -100 -50 -8 26 68 -100 -30 8 -42 -32 94 84 -8 12 6 18 -40 72 60 6 -10 -6 2 -36 52 -106 68 102 -28 82 4 -86 88 -96 -126 -92 62 84 -14 -66 64 -124 30 94 46 -24 -34 4 -52 64 4 46 -88 -74 86 -70 96 -58 36 94 -48 -48 98 -38 30 10 -92 34 -22 126 -8 6 -26 -92 -124 -18 78 10 -94 -106 52 -12 -44 16 72 34 -78 0 -44 58 -40 42 42 4 90 60 58 36 -82 84 16 48 -84 -18 28 -68 -16 98 80 -14 -70 80 -80 -8 54 -16 30 16 24 44 94 4 -112 28 34 0 80 50 62 2 -56 -54 -90 -6 42 10 -14 4 -72 -60 12 40 112 -46 -74 58 -84 62 -14 -80 80 124 -24 48 54 -58 -56 -26 -10 82 12 2 4 -58 -46 -48 -80 -48 80 18 -10 118 -38 90 58 -4 104 -18 38 10 118 -32 62 -30 -112 -52 8 -2 -106 -28 28 16 32 -48 68 12 -34 42 110 -10 6 -106 -86 34 -96 -102 72 -40 -26 -68 44 -34 38 -124 -32 -32 14 26 14 -4 -24 70 90 -4 92 32 34 -52 34 108 -10 126 -82 -22 0 66 48 26 36 -2 52 60 -2 -38 124 76 -8 16 -2 -120 -20 54 56 -72 -64 14 114 -124 100 64 -46 -46 68 -98 -4 -22 -56 80 26 -14 116 -40 14 36 24 -38 96 -38 -34 24 -2 -70 -90 -22 4 4 -108 36 -52 10 -42 -68 122 -14 124 46 -46 -34 -116 -112 0 82 8 92 -56 -48 -50 76 -32 -16 96 -4 -36 -30 -44 -24 66 -8 34 18 116 76 -20 -80 -124 120 124 -26 34 -12 -74 110 124 14 38 44 -36 -16 30 -90 24 102 4 -6 48 50 62 
0 6 -82 -64 -68 -14 60 32 -62 -86 -32 -104 -24 10 -90 -28 4 12 -46 -8 70 10 62 -76 62 6 48 10 -56 -66 -40 84 -94 -26 -76 20 -34 30 84 -82 -22 -112 -28 76 70 54 8 -124 -60 -58 -42 -120 -76 -76 86 122 126 32 -104 -122 -6 -60 0 -14 -24 50 -16 62 -86 118 -16 -20 54 14 8 -68 -100 -88 -48 -42 -88 -76 -50 32 62 80 -104 38 -58 -4 -40 -38 -44 26 44 -30 6 -24 -38 -20 60 -28 -52 -124 -60 6 66 -52 -26 -4 -44 -38 -32 44 -114 6 74 8 -64 124 122 -40 -50 -58 54 -36 -58 -120 -74 -62 -76 -84 96 -100 10 -122 4 -64 -122 -8 -76 -58 100 -54 84 -112 124 -36 2 -86 64 -18 64 -72 -100 -64 50 -86 120 -34 94 96 -70 56 -50 -24 -70 14 72 22 -32 84 108 18 42 14 52 -24 -4 122 -88 14 -102 -50 88 24 106 -8 22 -42 -110 30 -12 -124 88 -106 -124 -58 -6 -82 64 -62 10 42 26 -58 -112 -52 -38 46 80 96 -62 -122 124 -96 -128 8 44 20 44 32 66 -24 -56 32 -62 -32 -106 124 -124 -22 36 -104 18 62 -124 -82 -74 114 34 122 -76 80 64 8 -118 26 14 16 26 -84 -92 -58 44 -94 -92 -28 62 60 -126 118 -40 62 -10 -68 60 -32 -96 -30 2 -110 -64 20 34 96 74 80 62 -10 -74 -12 -52 -94 -70 58 -32 -84 22 -14 -78 94 -120 -102 0 -114 -126 122 70 42 -118 30 -126 90 2 -20 -64 -36 -100 -126 18 -50 104 72 -74 22 -54 46 90 -98 114 -50 -86 -34 96 -32 -24 -10 -90 -16 -54 -38 -46 -6 48 62 -44 2 -58 34 70 50 92 46 -62 -58 -32 80 8 32 -102 -22 26 -96 -80 -124 -46 -58 120 -56 90 -20 -90 58 14 80 -70 100 -84 -20 22 46 70 -44 18 -90 -60 -20 42 84 -2 -30 12 76 0 -34 -124 -28 92 -96 -76 -72 -26 -124 -74 46 84 -16 -88 64 -66 32 2 -68 -122 30 110 64 96 -18 96 -24 -102 64 -66 -38 -84 18 -80 -98 -46 98 -48 -126 6 -120 116 -46 -34 52 -24 48 8 -8 -84 -126 38 -34 -126 124 66 -50 -14 -78 40 -64 44 -20 28 28 -62 -20 -22 -46 40 -64 56 -22 -44 -34 -106 34 0 4 -122 124 -22 -54 -84 -128 80 28 -32 18 126 46 -84 96 8 -18 -110 -44 -42 82 -4 46 38 26 -124 -24 -96 -100 -14 6 -80 -78 -126 104 -126 96 6 -60 120 -40 -124 18 60 -6 22 -94 -50 2 -38 126 30 -2 68 -4 -126 4 -94 36 -42 -80 -48 -60 44 -126 106 74 24 -98 -28 -10 -20 -64 58 -94 84 -12 -56 14 24 70 80 -30 -52 -128 -120 -38 102 -74 -116 126 -102 50 -40 -76 -120 -88 -24 112 -52 32 -74 -76 16 74 -54 -58 -18 114 -62 -104 -20 -62 -4 -100 -122 -62 -60 -34 -110 64 32 94 90 -84 -54 92 48 -108 28 24 104 -124 56 -102 -126 52 76 -14 44 -114 -80 -40 -108 -14 -68 -74 -122 30 -56 -36 92 -20 126 -50 -82 4 36 12 94 62 78 36 -70 -32 -82 -46 -30 -44 -74 -50 -78 40 66 -72 48 -40 24 -86 76 82 52 -72 124 76 94 2 14 -56 -76 -18 -102 -40 -90 14 120 -60 54 -124 -24 -34 118 -126 22 -124 6 80 6 62 2 -68 -6 34 90 98 -86 -20 -112 66 -44 -122 22 -104 -104 46 -122 -24 22 70 62 -78 -126 -54 48 -32 -32 92 -10 126 -40 -82 112 -14 6 -62 36 -76 10 24 106 22 -86 32 28 40 38 34 -114 14 -120 -86 110 10 120 -28 -32 -110 22 -14 24 10 42 14 -104 8 -56 56 54 2 -4 -6 102 -92 58 -36 64 38 -14 58 -30 30 2 18 18 -76 -4 -42 -120 -110 54 -52 6 30 -16 70 -68 6 6 30 -4 -94 44 -44 2 14 -44 -40 -14 -10 78 82 -72 -122 -18 -70 36 -22 96 90 18 -76 -36 -52 -82 -128 28 -70 90 -100 114 4 -56 74 10 -8 -124 -52 114 40 -82 -10 54 10 -78 0 -84 10 -12 -84 112 104 -82 -46 120 126 -44 -44 -24 28 38 110 82 -18 -38 70 -126 28 28 -124 -64 -128 44 -110 -34 50 -120 2 20 -126 50 -52 38 22 -104 34 -68 24 58 -74 -8 -84 126 -18 6 22 -96 102 20 22 -66 -44 -120 126 36 80 -66 112 74 4 -26 -6 16 96 -90 30 -40 -90 0 -124 -78 16 126 44 30 12 -72 -6 94 126 -118 -118 34 88 126 -110 -76 100 6 36 -52 -4 -68 94 
-98 -48 46 48 40 -62 -62 -16 -124 -20 22 -96 -68 -28 124 102 38 -92 -34 -72 -128 -72 -60 -74 -88 -12 16 -16 -116 -44 -52 -18 -64 -96 86 -90 22 -76 -56 -14 -50 -10 -24 -40 -88 120 -12 -88 74 76 32 68 42 18 -40 24 30 -20 -2 92 -60 -38 4 22 68 36 108 -56 -80 -36 -24 -62 16 -124 -74 96 24 8 92 66 62 -50 36 -40 88 -18 -84 38 88 6 74 -98 -98 -4 44 74 46 34 -64 -10 42 -20 -4 64 -34 68 -82 110 96 22 -32 -86 -16 -10 46 -62 -4 14 -82 30 14 -82 14 2 -50 -8 38 -68 56 48 -92 -2 -28 92 -38 56 50 -102 -38 28 -14 58 -12 74 -22 -46 -60 -52 -78 22 34 -94 -32 -76 -20 112 -108 84 58 -80 -86 2 32 -74 -56 -76 100 78 -34 16 -12 -42 -6 74 -58 96 24 -16 -26 -46 -38 76 18 -108 30 4 20 46 28 -32 32 -88 -86 22 -38 -82 -32 -22 24 -6 -6 14 -64 20 -56 20 116 84 -70 74 -32 -90 84 86 6 -74 108 30 -118 -24 22 78 16 -14 64 -36 8 -72 26 58 70 -64 8 -4 -88 -44 14 -116 -74 38 -28 -4 124 -104 6 58 -40 -6 -100 82 -126 6 82 -82 -42 80 100 76 -62 -10 6 -122 44 36 66 -20 32 -84 -26 -36 -64 -48 30 -76 58 -64 10 -36 -8 8 92 22 -38 28 56 28 80 74 -108 -42 -2 -62 122 62 0 -28 46 32 22 60 -18 -20 -52 -44 -92 -20 6 -4 124 26 64 -52 -16 -62 6 28 -14 -42 -4 -20 -6 10 54 -20 -40 20 112 28 -6 20 -40 -28 74 -52 -24 64 -34 -84 -96 -52 -52 40 68 -42 110 -68 38 -124 16 -28 122 -124 -22 -86 -60 42 100 4 52 76 36 122 60 52 84 -6 -88 68 48 108 -48 -64 -26 60 -96 -22 -26 -44 -112 -12 -110 10 -96 30 70 104 60 42 -60 -94 -26 -62 74 -12 46 78 -4 26 -24 -14 -48 60 -34 -26 -38 66 -2 -22 -32 -22 -4 46 50 38 26 -56 18 -118 58 8 64 74 -86 96 -124 84 -60 50 38 28 -8 -126 -68 -18 38 110 30 10 50 -46 -44 22 70 6 52 -96 -32 104 12 -100 38 8 -28 60 -50 -96 46 36 60 -22 42 -24 22 -28 2 -26 62 -6 96 102 -54 30 -14 -20 26 -50 18 -20 -12 -72 2 -64 36 -58 94 34 -40 -86 76 80 12 92 -58 -120 4 -72 -42 -42 -10 -26 20 122 -110 82 -16 -66 -32 -44 52 52 88 -50 -30 -28 -82 -50 -12 32 42 80 68 16 -126 32 -126 42 22 64 -18 12 -60 38 -46 -34 -18 -72 -44 -4 -20 52 -98 -52 72 42 -96 -6 -40 -16 -34 72 38 -126 44 -44 38 -32 -52 50 58 76 22 -76 -14 -52 -56 42 -58 86 22 -28 22 -100 -54 -32 70 10 30 62 100 -74 -14 -36 58 60 -60 -22 50 -46 78 -76 48 26 38 28 -54 -52 -58 -56 44 -14 122 -14 40 -34 6 36 -50 78 46 40 122 26 62 -84 -84 -54 36 -124 106 -14 -8 -98 -8 -50 24 -40 68 -12 -10 -2 -62 -30 78 78 -74 40 -8 -32 32 -94 -50 -126 -20 -24 44 -48 60 98 38 42 10 -62 -4 62 10 48 -58 18 -12 -122 38 126 4 42 -74 34 18 -30 -106 -56 -2 -48 62 -46 46 18 -36 0 -20 54 72 -14 -36 44 2 66 8 -20 -24 20 38 62 -54 -18 64 82 -52 34 48 -16 -74 28 2 8 34 -4 -70 -18 -52 4 -14 32 -36 94 40 -22 -64 -88 48 30 122 -72 14 -12 12 -30 58 56 -16 18 26 64 66 -14 -106 74 -56 30 36 22 28 -2 -36 -38 -18 62 12 -60 -36 -60 -30 50 -106 -72 28 -40 -102 -116 6 22 82 84 10 -52 52 76 -54 -44 60 -16 -76 -32 52 -60 -22 -66 76 -88 62 64 14 100 -68 18 -98 122 64 34 106 6 -68 -14 22 60 66 44 124 60 -8 100 -60 -20 112 50 -4 72 20 2 76 36 20 -118 50 58 -46 -116 64 -18 -120 74 36 -58 -2 -14 80 0 -26 62 -46 -52 -86 -24 50 -52 -86 -8 -14 66 84 -2 -14 48 -6 120 10 120 -2 -68 52 82 -84 -26 52 -46 20 -32 38 -2 -20 -36 -48 -14 32 2 78 88 2 58 -26 -18 2 -2 -24 4 18 -10 96 34 -80 -90 38 -92 0 -58 -6 -14 46 -66 126 -50 -12 -56 -100 -78 70 64 -12 12 48 -98 -12 58 112 -40 -118 -42 34 32 -66 -42 6 -74 -22 -22 104 52 
-128 66 -62 -66 12 -120 -22 -90 -12 80 16 -54 38 24 2 -12 -118 -124 126 -128 20 -68 68 -30 58 -6 80 -126 12 -102 18 20 24 -88 16 34 80 82 -42 -68 -10 -10 -48 70 -66 -80 94 -70 42 -60 -8 -60 28 16 80 34 -78 114 -72 -104 66 -62 66 -2 -114 -126 92 -122 -60 -64 6 8 120 28 -108 56 28 -54 20 84 -24 80 -36 -92 -10 -24 -88 -84 52 72 82 -44 14 -30 -96 -52 50 -36 34 -24 -48 60 -96 -36 106 2 86 6 -14 14 -8 92 -14 66 -16 64 -112 -60 -48 70 82 74 -80 -16 -56 -66 -90 0 -34 -82 68 -64 8 -86 14 -32 -88 -54 -102 -80 58 -4 58 76 -28 -44 -48 46 76 -62 -102 -92 -72 -10 -60 12 82 -6 84 50 -64 64 52 96 -60 -80 -34 56 -2 -48 -96 70 -40 14 6 -18 46 82 -58 28 -68 -76 -90 86 -64 -64 86 -38 78 -30 -60 76 34 -2 -18 -74 62 -42 -28 -6 2 48 88 44 96 78 10 0 -118 -58 78 -60 58 -16 60 50 62 -30 82 -104 -66 -88 -54 24 -50 -72 74 -104 -50 -28 -46 16 94 -76 62 110 40 60 -10 -2 -92 82 96 -4 -86 -28 72 36 84 -40 48 -32 126 68 38 -8 40 94 4 40 56 -54 80 34 30 -28 60 -66 -74 -42 -36 34 -12 16 42 -46 8 70 -92 -66 -52 -64 72 -52 -74 34 -14 -12 28 -82 84 -26 4 -38 74 10 -66 -128 -90 44 -30 72 -128 92 -64 -50 -50 104 56 -44 -22 4 52 -50 -42 32 -50 -66 -24 -4 -30 48 -58 -70 -78 -40 70 -26 -84 126 82 0 42 -28 76 -106 -84 26 2 36 -74 16 -64 66 12 -120 -44 -42 114 44 -46 28 -48 62 -60 -12 -12 54 50 78 -50 -98 126 28 -4 8 70 106 -38 -18 -76 50 -10 -76 20 14 58 -108 4 -38 86 -98 -48 -22 36 -10 -12 12 72 36 70 -48 -80 88 -70 -14 -68 -4 -32 98 -16 -88 -40 -4 60 -46 -52 8 -24 16 -84 -60 -74 -30 -84 -68 -82 86 -70 -12 -28 108 78 2 96 46 18 12 12 -94 20 6 84 -48 -90 -8 -58 10 52 -74 42 46 -12 74 -42 74 -44 74 -62 2 66 56 84 -58 -24 26 22 40 -32 -32 -64 -8 -102 28 4 60 -84 -68 -12 76 74 22 -28 -80 -76 -86 -24 76 -60 68 -54 -62 70 24 108 -74 90 -44 -14 20 -60 -32 92 2 -2 18 98 -52 -38 -58 -58 -78 -52 62 2 62 -100 -6 -56 12 -102 -24 -50 -52 -30 -78 -84 -84 -38 -66 70 6 8 -2 -44 -26 56 54 26 64 -34 24 52 -90 80 80 88 -32 -74 68 -128 -76 8 -40 -56 -64 20 -48 -28 4 -60 80 -4 -28 -112 62 -16 -16 20 -74 -76 32 -108 -30 72 22 88 -88 -60 -30 34 -54 -14 24 68 84 38 78 -12 92 -38 48 -116 -50 -54 54 -28 -88 68 84 -76 -12 -50 -102 36 48 98 -56 10 -34 24 -26 -42 -10 70 24 -42 -58 62 -6 -24 -66 30 -34 70 110 -18 -68 -98 84 -88 -64 10 14 88 36 -12 14 -24 20 54 -28 -72 -58 4 -64 68 -20 -20 64 82 70 -30 78 88 36 -88 10 72 94 -64 -14 -6 26 42 -24 -60 34 -72 -70 62 70 70 -76 -74 -32 8 82 -68 -26 70 -56 116 70 44 2 -28 0 -28 -66 80 -2 -56 58 8 -58 -10 78 20 36 86 58 80 60 34 -12 66 -26 48 -54 100 -84 -128 -38 54 -14 -58 126 22 16 -28 -76 -44 -78 -6 -72 78 -34 -58 -44 16 78 -26 -18 -16 -72 40 76 72 -42 40 66 72 -80 118 76 -58 -10 -74 78 -28 54 16 40 -26 66 6 26 4 46 92 42 54 98 82 88 74 70 66 42 -26 -100 42 96 -126 36 12 74 52 0 -66 92 -6 80 -52 -40 2 126 -8 26 -82 60 52 60 76 70 -38 38 -4 -20 -72 -88 -36 -2 16 74 8 12 16 -8 4 -62 -52 22 -28 -72 -80 -72 -2 110 -64 -76 8 10 -78 64 10 -8 -16 66 -74 126 -66 40 26 96 -8 -62 -58 0 84 -54 -20 22 -10 8 -54 -40 54 78 28 -40 50 -14 -10 2 -34 82 2 0 48 2 84 10 26 66 48 58 -30 -52 18 -78 90 -46 -64 -30 56 -72 90 -36 -12 -18 16 -14 22 -44 -6 -44 76 -20 -40 -68 -64 -68 58 -86 40 114 -38 2 82 -52 -10 76 -12 -56 -20 -10 -16 -70 -108 70 0 -98 -6 -70 2 6 -66 -104 -32 -68 -32 -78 -60 -56 
-88 -80 60 94 -78 -16 32 -66 22 -4 -6 16 -72 -6 82 30 76 -78 -48 2 82 76 -58 -12 0 -18 -58 30 -20 -52 -104 -48 18 -72 -6 -30 -22 -20 -90 -2 -46 -28 50 -40 -34 70 6 36 30 104 18 74 -28 -20 -38 12 -6 -40 -82 -32 46 -10 84 -46 -26 90 -24 26 -20 72 12 18 -18 -94 -80 -100 44 -36 -54 8 92 124 -8 98 26 -8 -10 62 122 38 16 62 118 76 48 94 -58 -42 -34 -90 -50 -72 58 6 126 8 -6 -10 64 -14 72 -30 100 -80 2 -26 -36 24 -94 42 -46 64 -4 -16 14 -36 18 -44 126 36 4 -114 62 6 -102 -32 2 -2 12 -34 -116 58 14 -82 112 -20 -10 38 -80 -60 82 2 -34 -62 44 78 -6 -26 70 -50 -100 -20 -2 -26 -54 -54 -10 -120 -10 106 24 -36 -128 34 -8 76 20 -38 6 -126 8 -38 -18 -44 -54 66 -58 14 8 86 110 108 -34 -96 -34 22 6 -48 48 8 -24 -12 -74 -22 -36 -10 126 74 62 50 2 -88 12 -40 -66 -68 -4 18 -22 40 34 -38 20 22 -36 -58 74 -22 -74 -64 44 -12 38 26 52 -62 -88 6 -12 26 -12 -76 -66 -54 -94 44 32 -38 -74 0 -42 54 -20 -72 -44 102 -20 -6 106 -114 -32 -84 36 -20 4 -54 24 -96 36 -36 -66 -54 30 38 -12 -92 70 78 110 126 4 2 -110 -90 86 -20 -102 10 -52 -46 4 -28 -14 54 -68 82 46 -90 116 16 -16 106 -70 38 -78 -28 8 74 -22 60 26 10 -14 -10 116 50 -38 -22 46 66 54 22 -4 -124 -64 58 -26 76 -94 100 -90 -34 -8 -14 -68 46 -44 -58 -58 28 -76 40 -96 -40 48 -10 46 -8 16 44 -14 102 56 -50 -14 -42 42 -2 -72 -52 4 76 78 -122 26 -46 24 -60 -90 52 -112 -58 -44 38 92 42 28 -74 8 -50 -84 66 -46 106 68 -88 62 14 -10 18 36 -30 36 -98 52 42 -92 70 -42 112 16 54 16 118 -28 74 -86 -16 52 -20 4 -96 46 -72 116 -68 12 -42 74 -72 56 50 -52 -2 -62 100 -44 114 12 46 -40 22 -22 -46 80 -48 -58 82 -24 -32 -78 -28 122 -46 100 40 14 34 -80 -104 -12 50 -94 62 -32 -24 -60 24 58 34 -34 32 -2 -38 -14 -32 22 -16 86 -10 -36 -2 -46 46 52 -76 46 -108 -36 -38 -12 70 -68 -70 54 -26 -82 82 50 -24 54 -26 -64 14 26 -16 -68 0 -40 -46 70 -14 -18 90 24 -90 -56 -46 60 -122 -42 -22 -52 14 118 14 -82 -8 22 96 0 56 -60 80 -52 18 16 -60 6 50 -44 30 124 52 -18 6 56 -32 10 38 -68 -4 -86 2 44 -106 -20 62 -44 90 120 -4 14 -58 -20 -36 -90 34 -22 -60 32 -48 68 -58 -64 -44 -68 -64 0 -126 -18 68 -50 -72 48 -26 22 -46 -34 -122 -50 -42 -50 -26 4 -58 54 -62 54 42 40 -32 16 104 -28 -68 70 -92 22 -26 66 16 12 -74 -34 52 2 20 78 28 -4 -24 104 -36 42 -32 -30 18 16 80 -32 -58 -28 -90 -32 -56 38 -110 96 106 -46 -18 -10 72 -52 -42 -64 10 -96 -34 0 38 -74 -100 84 -66 96 -118 8 2 114 32 -24 -10 -62 66 -16 -16 -8 -30 28 30 36 44 -90 -106 86 -102 30 88 48 -32 30 -2 56 62 -60 -48 38 126 -50 8 12 16 -2 -50 -54 -38 22 54 -26 -110 -66 -110 126 50 -4 44 22 -36 66 40 -8 -16 -58 -30 48 -22 -12 44 120 28 -76 124 -28 78 78 -44 -126 36 102 10 -6 -94 6 58 -52 28 -26 -62 -92 -22 28 64 -14 -28 -48 32 -24 56 4 96 -8 -42 2 62 124 -76 116 -12 80 -46 80 24 -40 36 -54 44 66 28 8 4 -8 50 40 12 22 -30 4 86 -94 -6 26 16 20 -18 -40 -30 24 -54 36 -8 14 56 -2 -26 -4 6 78 -62 -122 -36 108 34 -14 34 -44 -16 -18 30 -6 28 40 50 -126 80 -74 -60 46 60 -82 8 -48 -18 36 -28 16 -44 -56 26 -4 -70 -50 -90 22 32 -68 28 -2 -56 -14 14 58 -82 -48 -50 -44 32 16 -22 -36 126 -36 -18 0 -16 54 76 60 -10 -48 -124 0 -66 108 54 40 -58 86 -26 102 -76 102 -62 -10 84 30 74 22 68 -10 -20 -38 12 -82 -108 112 68 -32 -80 88 -12 6 12 -18 -10 -12 -54 46 -54 24 -68 -22 -126 0 -20 28 12 -62 -118 -78 14 -4 -80 -36 -28 48 -28 12 -42 34 -42 -108 -40 54 -44 
-88 -44 4 10 -8 102 -32 118 -124 -48 20 58 4 -8 -64 46 -50 -88 -52 -58 -126 -52 -78 -56 48 -82 4 -16 56 -122 76 56 48 -68 -54 18 -96 -122 74 -24 78 62 26 100 10 6 -128 66 -26 32 94 -26 -76 -38 -24 56 54 72 -86 -54 -56 64 4 -20 50 -126 28 -42 72 20 64 36 -12 -14 64 -54 -124 -66 12 38 -34 -40 32 -36 26 48 102 68 -14 -92 42 -8 -14 8 18 52 26 48 22 42 12 -128 46 -4 -86 64 110 -126 -20 64 -30 12 8 -42 26 -10 -16 8 36 -38 26 -20 98 50 -4 74 24 26 12 120 -58 58 -60 -116 -28 12 62 40 10 82 64 -14 18 -88 -42 -64 4 -78 -90 14 -40 -4 72 56 -100 90 -28 18 54 -20 -22 -110 32 -46 76 52 -44 -126 66 40 10 -16 74 56 40 34 -10 -52 98 122 118 64 94 34 106 94 26 -108 86 -30 -44 6 28 6 -50 18 -42 -56 -10 -124 90 26 30 14 16 -48 -80 -34 10 -10 12 -56 126 16 50 72 124 -44 34 -80 -64 20 -84 -10 40 -120 -90 106 -68 82 8 42 -28 -26 -20 34 -18 14 -48 48 -68 -34 14 8 66 -4 -54 -28 -16 54 -26 64 -54 -42 78 -16 58 -64 84 -104 44 50 4 60 8 72 42 -24 -50 56 30 18 -6 -86 -70 60 34 36 -70 72 16 122 12 -10 60 108 -108 26 54 50 104 -114 76 38 88 36 0 6 -54 56 82 30 34 -88 16 36 20 -100 92 -120 -4 18 2 80 54 58 68 -94 0 56 50 -18 38 -28 -38 32 -80 10 -58 22 122 -124 10 24 -12 -20 -98 -6 122 -76 108 16 18 -2 -26 20 4 44 -6 -86 -22 -4 6 64 12 -40 16 -4 18 96 78 106 -78 26 -12 -14 -70 60 36 52 126 84 34 70 -20 -22 -56 124 -88 4 46 -28 -22 -22 124 118 96 44 -8 34 -102 -70 -62 -18 -12 12 84 92 -2 -32 -58 -26 -26 62 76 -72 60 -62 30 -16 16 84 58 68 8 64 72 -18 56 -16 -88 -4 -14 88 62 46 64 -126 124 -20 78 -36 6 -52 -124 -2 -100 18 26 -48 40 96 34 16 -14 74 72 18 -6 -98 10 86 20 -12 -66 -52 -36 -58 12 106 46 52 50 12 34 6 58 44 -24 98 -100 34 62 28 -32 -78 -24 -82 -12 8 96 -80 -96 -24 44 32 -64 -32 16 -2 14 36 -18 -88 100 -26 -2 18 48 72 -12 -24 40 28 -100 -106 -28 56 14 28 76 52 14 -56 -44 -8 26 36 22 -18 96 28 2 18 122 18 52 12 -26 66 40 20 88 -10 -42 114 -50 118 14 10 -128 114 114 -14 -18 -46 -60 2 80 50 24 0 -44 114 -18 46 112 84 88 78 122 -50 76 -2 30 32 10 48 54 122 86 98 50 -24 -94 -64 10 12 50 -58 14 -24 24 6 -106 -32 92 -14 -14 36 64 -102 44 -10 -126 54 36 -24 18 44 -124 -14 68 -52 -88 -46 -86 -30 -38 26 96 106 -28 6 -66 28 8 6 24 10 -42 -4 58 92 -30 38 72 74 106 -62 30 -36 -2 78 -12 -6 24 -14 120 -100 -114 32 20 8 18 -102 -4 -110 -12 4 38 10 52 70 98 -60 82 -84 -16 42 52 -114 -20 62 74 44 -26 -118 58 60 108 -112 -12 52 68 -92 -86 70 -32 92 76 66 16 48 -36 52 86 58 -82 -82 76 -118 -72 -12 -126 58 0 -18 -6 6 56 4 -96 -126 76 2 8 80 -92 -126 -40 52 36 24 66 -18 -26 -22 6 68 10 -92 42 52 56 -6 -34 -34 40 -20 76 6 -42 44 -114 38 96 44 122 10 -6 -38 28 -20 46 10 -6 92 68 78 -50 6 32 68 32 -66 0 -32 -24 48 20 46 50 -62 26 74 -6 2 62 0 -80 -54 38 106 52 -22 -2 -118 2 74 18 -24 -122 16 66 4 26 -128 12 116 66 30 86 30 -14 -24 -30 72 12 118 124 -98 26 40 -22 26 -24 -2 0 -46 26 -120 28 88 94 -18 38 80 38 -12 68 -58 44 -14 22 14 -80 0 -66 -32 34 -22 -96 -52 46 20 -6 -74 104 60 36 -126 66 -112 20 -66 4 -46 -112 -30 32 114 -4 120 -126 -26 -64 124 84 24 14 -116 -18 56 34 -40 0 -90 -40 52 -2 74 16 -22 -36 18 64 22 50 92 12 54 -56 -18 -16 26 -28 -16 -46 -26 -76 38 -22 -12 10 28 -70 48 106 -10 98 32 -60 14 20 -2 10 18 72 -26 86 32 -48 10 50 64 
