-20 42 2 -128 34 32 -22 8 -86 -14 80 110 112 4 12 126 0 8 104 74 32 8 28 -128 -6 22 -76 -66 126 126 98 -128 32 72 0 120 120 6 70 -2 -14 -38 -100 -74 86 120 42 -128 -94 -12 -14 -34 -74 12 126 16 -2 68 62 -128 38 -58 114 70 74 14 34 16 124 -22 116 126 6 66 -128 4 96 -12 16 16 90 38 -58 -98 42 126 126 -64 6 -2 -6 -12 4 72 -34 36 96 10 -46 -26 82 32 -14 124 76 -126 -18 24 -128 24 -48 40 -128 -24 64 24 -24 -62 52 18 -12 -128 64 110 -128 4 18 28 10 -22 32 2 -128 24 34 86 -128 -4 -6 14 -84 6 -10 -22 12 -64 18 36 6 -18 2 72 -114 126 46 34 -60 12 -52 -30 42 -16 -128 12 14 62 -22 10 6 -12 88 -50 -2 26 -44 96 -64 0 60 -128 -28 -26 126 -52 -22 14 126 -34 -20 16 10 -34 54 -22 24 28 98 -6 -90 42 126 -6 122 0 -92 -22 -14 -14 -34 42 76 -56 -14 -10 -8 8 24 74 -66 -48 42 14 38 4 -30 126 110 -64 68 26 -66 0 -126 32 74 104 -88 42 40 64 74 32 86 70 -26 46 40 36 106 -96 -98 -126 -16 -36 -12 26 -42 96 34 126 60 42 -52 -80 48 122 -2 36 4 -12 8 -12 -24 56 126 10 6 -88 124 126 46 42 -74 -108 -2 10 -114 -24 -128 2 -34 42 -82 -20 88 -16 110 -10 46 76 122 -22 -20 -32 18 16 2 62 120 -22 -128 20 -62 -58 -68 28 38 -42 52 126 26 124 8 16 18 50 -68 -8 22 80 -4 18 -10 18 -2 -128 -126 -16 124 98 -128 126 12 46 12 0 -126 -16 124 -12 -32 2 44 -126 38 -4 30 -34 -128 2 -20 -36 40 -18 100 122 -10 34 -28 74 90 -26 -40 -126 44 40 -58 44 18 -28 -46 42 -2 70 -90 -70 126 84 -18 -24 8 8 126 -6 44 68 118 -40 -68 -124 -128 126 -28 112 126 -44 126 -22 -18 -12 12 -128 50 -22 -2 -64 14 -128 -2 6 34 -126 2 20 104 -126 -126 -36 100 60 50 104 26 -18 4 -18 18 -90 120 68 -28 -30 24 50 70 18 0 20 20 24 42 -90 84 -126 100 12 52 -12 14 4 8 30 24 0 -22 6 8 116 34 -128 -28 -50 -102 -10 24 76 72 22 14 -22 104 2 22 -78 -52 -28 -10 124 -2 -106 -124 -56 -26 -92 -66 -54 34 24 34 46 -6 4 -70 -18 72 58 -62 20 22 22 52 -32 
-30 50 -8 124 100 -34 44 -126 28 -128 126 -40 -126 58 -20 -18 32 -126 28 -28 -6 -84 -126 84 -18 -6 90 -126 -52 -124 20 -18 94 44 -26 -24 -66 126 124 -102 -8 -108 114 124 16 126 -58 0 28 20 38 -8 -92 -128 -8 -126 50 44 126 34 16 -94 -14 -116 80 66 44 20 -90 14 68 48 68 -128 -44 -128 112 108 30 22 122 114 -122 38 -76 -126 120 8 -24 22 56 -56 12 14 -54 -126 -6 124 6 -124 -66 -6 -126 36 98 44 -36 -126 10 110 8 -62 54 124 -124 -74 -10 -100 10 -70 -128 18 -46 2 64 -126 -126 -106 0 -126 -126 -54 58 38 4 122 52 -82 42 66 -44 -122 -96 124 -108 -124 124 -56 -126 84 60 -36 -46 10 -16 -12 -54 -126 -110 -66 -18 126 -56 126 -110 66 -52 126 118 -2 114 -92 16 -114 -126 -18 -110 -20 -8 16 34 68 -64 0 86 126 -124 -110 122 66 126 -114 82 16 90 32 -120 126 -22 64 126 106 -98 40 -118 40 -8 4 24 118 -52 -94 4 126 0 -128 70 126 24 126 0 -124 94 -40 -10 36 -126 -40 76 116 94 126 -30 124 -118 -100 -4 34 -106 60 -50 -60 -14 -30 -46 42 -44 -118 -4 2 -18 32 -28 34 4 -46 40 126 -4 126 126 -30 92 12 94 -2 -124 18 4 -60 24 -12 -48 -126 -58 86 22 -76 30 44 -126 2 -10 102 -68 122 -10 -30 54 -20 -6 38 -122 60 -128 100 -22 -126 62 114 18 -126 -8 -36 70 -126 24 70 124 -124 28 82 32 76 84 -64 -30 114 124 -114 16 -66 126 6 -92 48 8 -126 -126 -38 0 46 8 12 42 90 30 126 -24 48 56 34 -12 6 -88 82 -4 -34 -40 66 -124 38 48 74 -72 52 84 -34 -90 58 94 20 -26 20 32 12 126 126 4 -126 -8 -70 -110 -38 -34 -120 -26 36 -126 28 -86 52 -98 18 126 92 42 -12 -124 4 70 -38 -46 52 28 120 -80 4 124 126 10 126 66 -80 -96 -126 26 120 -122 -120 -44 86 -124 -30 -126 -6 126 54 120 54 108 32 -92 20 0 -62 -24 -106 64 -46 -2 18 124 122 124 114 28 58 -6 6 -120 112 -126 -8 78 16 66 124 0 126 124 54 -60 24 -28 -124 -18 -120 -126 -124 -124 126 -36 90 120 36 30 16 70 -98 54 -2 -8 0 28 22 126 20 126 -122 -26 8 100 -2 18 66 22 -128 76 34 120 32 -96 -56 22 -30 124 -2 126 -124 -20 38 -126 0 -2 70 102 -28 126 56 36 16 
-14 -126 74 22 -78 -74 28 12 64 -64 100 -6 122 -20 12 -14 14 -118 10 44 88 48 -126 94 22 -14 -94 126 28 102 -126 -78 -28 -30 120 -22 10 -126 -126 -16 32 -16 -58 -12 2 -4 -114 18 -36 94 16 -30 48 122 12 -128 -108 0 -54 38 -126 -116 8 126 86 -112 48 22 26 78 20 -126 56 -126 -4 -26 -90 126 22 72 -36 -124 126 82 28 -100 -12 76 86 6 54 -30 -110 -50 58 -126 -28 -32 -10 64 -8 24 126 32 22 12 108 126 -20 -8 28 -114 44 -128 126 124 32 -16 30 -118 -114 -14 64 24 12 46 -90 -122 14 104 -98 -76 50 -84 54 -82 62 -124 -38 126 -40 -68 -48 24 -42 -28 -98 10 124 -82 -18 -100 64 -16 80 -44 2 -126 18 126 38 -126 -30 124 124 124 -126 -128 -102 96 56 24 -2 4 -44 124 -50 -90 96 48 -18 -102 32 -6 10 120 -36 50 -74 96 -48 -124 -12 10 -54 34 -4 20 -124 74 -60 86 -34 56 -50 58 24 -124 16 68 -14 54 -8 22 -4 126 74 -24 -12 -94 24 -120 126 12 8 -76 -64 -74 42 -62 -30 126 -72 -126 126 20 74 -14 -50 -18 126 -76 12 -2 -46 126 126 126 74 122 -18 28 22 -22 2 86 -30 -30 -12 -126 -48 12 -2 -12 106 18 -8 26 28 56 -126 126 -82 114 20 126 -100 126 -126 12 -64 6 -20 -124 0 -2 40 -68 -26 24 -16 -6 -56 14 58 -50 42 -128 68 -96 50 92 30 -48 -124 56 -36 52 -34 -126 2 112 26 88 14 50 22 -60 -68 -12 -2 -28 -126 -70 -58 -126 8 54 126 -88 -12 10 -104 10 92 0 30 124 28 26 -38 -34 -12 0 10 -26 -44 -2 -18 34 14 16 -40 96 126 36 66 12 -60 24 -48 -18 38 88 16 76 26 126 -16 -78 84 126 -36 -14 -32 74 -116 -122 -64 -126 -76 50 124 -14 26 48 42 -50 62 46 90 10 100 94 48 12 -46 16 -34 70 0 -2 24 0 -64 -92 58 116 126 96 -42 68 -118 -126 -88 -54 126 72 -122 -22 -106 26 -126 24 0 -52 88 126 6 42 32 2 -126 124 36 -44 54 60 -42 28 12 56 -124 20 88 -48 12 -24 8 62 16 28 -98 -14 60 66 -128 120 126 30 78 -124 -102 2 -102 -100 122 -30 -124 -128 26 -24 42 36 -114 62 -122 -6 122 -6 -34 -116 -80 -42 26 -28 116 64 124 34 -46 -20 -52 6 -16 -20 -126 -126 16 50 16 -128 -4 -12 78 -2 -42 -32 114 -124 114 -126 
26 22 -78 36 6 -44 82 -14 84 122 -116 4 -122 92 0 -94 36 -108 -16 42 30 70 84 8 76 28 78 -126 18 124 92 -122 20 -22 110 34 -4 -124 126 -58 -28 22 70 -126 14 -28 -12 -30 52 126 42 54 62 126 -32 -42 22 112 -120 70 76 -26 10 36 -128 -126 20 12 -86 0 46 -20 -76 -24 34 74 54 -100 -50 34 58 -124 86 18 -122 -118 -14 24 -32 38 -34 -96 -28 0 -30 -18 -16 120 6 64 -10 126 -122 76 -78 72 118 -112 0 -24 92 126 60 -24 48 -2 96 -90 96 54 16 -12 88 16 120 -40 48 -120 -32 -4 -126 34 48 86 20 76 14 -34 88 -96 4 -62 -126 -4 126 -40 -126 -14 66 -70 24 -118 -6 26 -54 -108 -48 -48 106 124 44 -122 22 48 -126 20 -28 124 76 -26 -12 -10 -126 126 56 -108 -44 40 52 -12 -16 120 -120 -38 50 -126 -102 76 88 18 -124 -52 70 4 8 -2 -126 -118 40 -118 92 64 14 20 -20 -6 20 76 26 -14 -8 -30 -24 -12 -8 12 58 -44 -40 42 2 114 126 -124 -38 -22 86 -122 28 76 -12 38 28 126 -24 -6 78 -24 124 66 88 124 -2 -6 0 122 -96 4 40 46 -72 -24 -6 12 16 6 34 -12 -8 -126 -12 122 -66 38 114 2 126 68 124 -24 108 -50 -4 40 126 -18 -24 74 90 -22 -66 126 40 26 -124 124 -30 20 52 -20 74 50 126 82 122 -126 -46 -124 32 -98 48 122 -28 126 58 94 66 64 -26 110 26 24 88 -10 34 -112 60 -6 70 106 -54 -36 126 30 12 -6 2 22 -88 -122 8 -114 2 -2 -108 16 108 66 126 24 28 -44 0 58 -94 118 26 124 24 48 -52 -52 44 -2 -28 -122 0 -30 104 122 74 126 124 56 70 76 104 72 -4 -4 70 122 -94 -2 36 96 60 -28 46 -18 -74 6 -126 114 -2 34 44 -26 -108 14 -4 64 70 34 118 64 -80 -32 -30 -32 50 -126 -8 32 -60 120 24 -126 -70 126 2 34 124 86 126 -38 -122 20 14 42 56 6 -116 30 -16 -8 40 -124 56 -14 -122 -62 -24 -32 48 48 -42 48 2 24 126 -86 -42 -14 122 8 4 -28 8 -122 -126 -4 -68 34 -26 -124 -2 2 114 -112 -112 -126 88 126 -114 -92 -98 -118 126 46 6 -34 84 10 -44 14 -122 6 -48 -122 -10 -126 -128 76 28 40 -122 -2 -50 56 -8 94 16 122 -50 -74 -60 -122 -124 -16 2 -100 -40 2 -126 -42 122 30 108 -126 -20 116 
34 4 18 50 8 -10 -26 66 -62 -12 68 34 36 -18 -14 124 36 4 16 -14 -52 50 -48 -38 40 -4 76 10 -84 -78 32 68 24 -98 -70 -24 -12 -70 18 16 -4 -32 -88 -120 10 -22 -4 -56 32 -126 60 6 -126 62 -12 -22 -36 -38 -16 26 40 52 14 30 -14 -2 -8 -12 -16 6 100 62 18 -18 50 26 -54 2 16 -12 74 74 -2 88 14 40 -48 -48 -4 -26 -128 -2 -10 -38 -32 0 92 60 6 -20 60 96 -4 -26 96 -12 -126 -14 -24 -82 44 26 76 22 -18 -26 -20 -72 -126 12 -34 -78 56 62 10 122 -74 44 -30 64 -4 -6 -100 48 -6 108 28 -12 -10 -14 -50 -12 -40 -56 34 38 -48 -4 12 -10 86 26 18 -12 -6 -28 -90 54 6 -18 2 -52 -124 -88 22 22 60 -16 -50 -126 72 -2 36 -18 -10 -6 18 74 12 0 18 -10 124 18 16 -90 6 -20 -44 0 32 -56 0 14 -40 24 -72 -54 -6 -126 -116 20 16 14 14 -20 6 -18 10 -24 24 20 -12 -114 28 28 88 -100 42 -2 -10 -42 -32 -26 -34 -36 30 24 34 12 -30 -18 -54 40 -10 58 -16 -8 0 -6 0 68 -4 -18 -12 10 -16 -10 62 -12 -8 0 32 -20 8 -10 6 8 -10 -104 12 126 -36 -24 56 102 72 -10 54 -80 -28 -6 -62 -8 122 -56 16 -36 -24 -50 104 122 -28 8 32 20 -70 20 34 62 -72 -14 -36 34 10 -18 -12 -6 -82 -36 -70 114 26 -46 34 -8 -20 -54 -94 54 6 -10 -4 24 -24 62 42 -54 -52 -34 -72 0 16 46 -36 18 -28 28 4 32 -10 -42 36 -6 8 0 -56 -20 -62 -52 122 44 -12 -46 -40 -2 -28 -62 -14 40 -26 -28 22 16 32 -82 -20 52 126 -16 -126 72 116 -48 24 24 78 -24 28 24 4 -80 -26 -54 34 -6 -72 70 18 -10 -14 102 -120 6 4 28 54 32 6 8 -26 4 -38 18 -64 90 28 -8 24 126 18 120 74 2 18 -34 -70 -14 -80 -108 -16 -72 44 44 -58 60 32 10 18 56 16 -80 50 24 -84 10 2 12 38 -128 -64 -90 2 -28 -124 0 -20 -36 126 38 -52 60 52 8 76 110 -12 -82 0 8 14 -68 -12 -72 30 -78 44 -52 -8 -6 18 0 100 -44 0 -8 -14 54 0 4 0 -20 6 28 26 78 -12 -18 -12 -126 6 -94 -30 52 90 24 22 -112 34 -50 -58 -22 2 -126 32 -24 -8 -22 44 -36 -16 -10 126 24 112 10 -106 24 72 -74 -26 -8 
98 2 -36 72 116 64 -46 -128 62 126 -8 24 -12 2 -14 50 -94 -52 118 -62 -128 38 -42 -46 30 -78 -34 -16 -40 -10 0 74 22 -128 -126 36 48 -6 -16 -16 42 -22 -126 20 18 38 28 122 -52 -102 20 -78 6 4 126 -32 4 -124 116 -114 54 -128 70 50 -124 -128 108 116 124 -36 -8 -58 96 -24 20 82 20 -18 44 14 -44 -128 -26 126 90 2 48 124 124 40 -30 -80 4 34 66 34 68 12 -80 -4 126 -2 6 66 -64 12 -54 52 -116 4 126 28 28 22 -16 124 110 56 10 -72 26 44 48 -12 -60 34 76 28 -32 -30 -34 -112 -70 -68 64 64 32 -98 28 126 4 78 48 114 -128 -128 -20 100 8 -18 4 30 10 -94 -104 -126 72 16 -2 -34 44 -16 -28 -42 -56 64 -70 -14 38 18 126 -124 -108 -18 -14 -6 68 14 28 -128 126 -6 -18 20 26 -82 82 -122 126 70 -52 -126 -24 4 -40 126 34 -54 -36 22 20 120 -76 20 126 -76 8 48 -32 42 -122 52 82 10 -20 40 46 -8 80 126 34 -12 -32 10 -128 -20 -20 -12 40 122 126 44 -32 -74 48 126 96 -128 50 14 -28 4 -72 88 -94 -62 16 -4 -14 -78 -128 -128 -16 6 -22 -64 -62 38 -58 -10 -128 16 -28 -98 -20 78 82 -94 44 -34 66 104 126 78 126 54 18 -128 102 -104 12 -116 6 -28 8 -128 126 90 -62 126 124 -66 126 -86 -24 -58 108 44 28 40 -102 -26 -126 90 56 44 48 -126 -126 34 -58 126 14 -106 38 126 -60 -108 -18 34 96 114 -22 -114 104 28 -64 14 58 8 -44 -20 126 122 52 -84 42 48 122 -104 -92 -124 20 -38 -2 22 -92 -54 114 -28 -38 14 -8 -44 -6 66 26 14 126 -22 94 -46 30 72 76 -64 62 24 20 126 0 66 90 126 124 -80 2 126 4 26 124 -20 52 40 -14 10 -90 126 -14 -14 -42 126 22 -104 8 22 126 -116 34 40 -128 -100 118 -40 44 124 8 -80 -124 6 -56 -52 -32 -34 -36 126 42 -58 20 -102 8 -6 -10 46 -34 36 -2 126 16 92 -14 -124 2 26 28 -8 126 -110 42 -82 36 -14 -12 -8 -44 6 -68 -12 18 90 20 44 72 86 -126 82 72 124 -120 2 2 28 -34 110 12 -116 96 108 -20 84 8 16 88 -36 74 -128 -80 -2 50 54 122 -128 -76 -72 -126 -60 10 30 -4 116 -54 -10 0 52 122 46 26 10 -128 126 126 54 -126 -40 102 72 -128 -52 -44 -66 -70 50 
36 16 -66 -62 -126 -52 -70 10 32 -8 -38 74 12 6 16 98 22 36 -70 12 0 80 26 -84 -126 20 30 -2 126 -48 -28 50 46 -32 -14 6 -24 -44 -120 94 -8 -122 -82 -14 -124 36 -78 -50 -2 -18 -12 38 12 -22 40 42 18 -12 60 110 94 36 0 -46 -30 30 64 -16 -30 -42 26 -50 30 -60 -6 76 62 44 -22 14 -36 24 -38 -22 -16 0 2 -16 76 -16 -46 30 12 24 -52 24 -46 -108 -22 -16 28 -16 6 -20 -126 30 -60 46 -28 122 -36 -4 126 -38 88 -110 -26 10 26 -82 42 -52 26 14 30 -98 76 -64 34 126 44 -16 -106 -6 -80 -46 -122 72 10 30 0 -44 12 -34 -20 46 -124 0 -28 -60 14 44 14 14 28 -18 -78 -8 -28 16 -20 -128 -42 -28 -24 -122 46 -122 42 68 -64 34 40 -42 24 26 18 76 -66 -108 0 56 126 -6 -120 14 86 6 -80 48 -84 -8 106 -16 -12 0 -22 22 -92 -26 -44 -118 0 -124 58 30 -18 -88 -10 -26 10 -24 -2 -30 12 10 4 -46 68 -32 -50 46 124 -48 -20 30 -18 14 -6 -48 -14 44 -82 32 -26 58 60 -46 -8 -6 30 30 40 8 64 52 76 -106 18 -12 -16 -26 -44 2 0 0 -20 42 6 124 80 -24 4 24 -124 -74 -18 -12 -74 -88 14 20 -20 116 -114 -50 52 -84 -34 4 2 14 -18 22 -128 -32 28 -30 2 26 42 20 -80 36 52 -16 30 38 102 -16 6 -28 98 -30 -4 -18 -2 60 54 82 -50 -14 -2 16 -94 6 58 32 -60 -8 -4 28 126 60 -102 22 26 -20 -24 50 -12 -24 -34 2 34 28 -104 108 -54 34 -40 6 8 34 -80 16 -86 52 20 -12 -6 118 -16 46 -76 10 0 -14 46 -28 44 -16 -46 40 -44 88 -20 -126 -10 36 -16 20 80 38 -18 46 22 36 126 16 -24 -30 -18 90 2 36 28 60 -12 -30 0 2 -126 54 -44 -126 70 60 70 24 14 -22 -16 8 90 -16 -52 10 38 -2 -8 -64 -84 86 84 48 58 -34 -38 86 74 -32 -96 -46 22 -86 -126 122 -4 -20 42 44 2 16 -80 -26 14 -58 -12 22 -54 -68 14 -4 -88 -52 18 -28 -2 4 -66 -110 12 4 -22 18 66 36 72 -6 124 20 18 -98 6 34 -104 2 -58 56 42 60 -46 -126 36 22 26 4 78 -50 -14 -66 -50 -20 -14 -28 22 -4 -80 22 38 -12 -2 10 -16 16 6 -26 -80 -14 88 84 124 -8 -32 30 -44 -62 88 106 -34 46 
18 -84 -76 -22 38 -4 126 124 122 -126 -98 -66 -126 16 -2 -14 32 126 32 -48 122 -100 74 126 70 -104 -36 126 86 -64 82 -126 -124 -106 -2 -84 126 -128 118 -16 24 108 38 -64 -76 -80 -124 12 24 126 78 -122 14 126 -34 118 -112 34 -84 124 -88 -84 -10 22 -76 126 124 64 -126 28 126 -28 -126 -94 30 126 108 88 10 -78 -56 -34 -62 126 -20 0 -80 122 -2 40 32 -118 -90 -8 -30 126 -122 124 -6 124 -56 -126 -126 100 112 106 122 -128 60 98 -82 -44 80 -62 76 126 100 2 18 50 -128 -68 -128 -42 72 -124 126 76 -20 -126 -84 -112 126 114 66 44 124 -122 88 -60 70 88 -90 -42 82 124 -96 -122 126 -20 22 -88 -38 -44 34 -66 34 -126 -126 34 50 126 -94 -124 48 118 -126 -124 -20 -124 118 124 26 116 124 40 -126 36 -22 120 14 104 -58 28 60 126 -128 -4 70 108 -82 -126 104 0 90 -8 -64 -98 -90 22 124 126 -50 94 -118 126 18 -126 36 -128 52 126 -14 -128 -4 -12 106 6 16 126 76 -122 126 126 -32 -80 -126 -50 -4 -94 126 -126 -88 -126 90 -120 78 -22 -86 126 -124 -26 -50 -40 16 80 126 -96 122 124 -28 112 -102 -12 0 84 50 124 0 -84 -126 26 124 30 -34 124 124 32 76 -46 -18 36 -126 -124 -96 -8 32 -34 8 70 30 -30 52 -60 -128 -118 -18 -4 -114 -52 86 -40 -86 114 -126 30 -98 -90 126 -126 -10 124 -44 124 26 62 -38 122 -32 -126 4 -114 64 92 76 -74 74 -36 16 -128 -6 -82 52 -80 124 -110 -122 120 126 6 0 126 -104 22 -126 126 108 -106 20 92 20 -106 -22 26 -12 -106 6 -128 30 116 118 14 72 126 56 8 86 18 56 -126 6 40 14 124 -92 -64 -2 68 -12 -106 120 104 -52 -106 46 116 80 -106 98 -124 -124 114 50 10 62 38 126 -108 122 30 16 -78 66 76 106 48 -78 22 -124 -22 -50 64 58 -62 -128 -34 106 -62 -76 -126 -88 124 126 102 -126 -6 -126 108 16 34 86 72 -124 20 56 -122 86 -124 42 88 34 68 120 126 -100 62 86 126 -40 -8 -66 70 -128 46 -20 -12 20 126 -12 126 -126 112 -128 78 -74 -126 -8 18 -22 90 -64 -122 -32 8 122 -122 0 82 124 124 126 44 126 44 -116 120 -128 6 44 126 12 -50 -126 -76 66 -20 32 -128 78 126 52 124 -26 -22 -20 -56 -128 -128 126 104 -108 76 -44 50 -66 -52 126 -80 6 100 72 -2 
-34 -32 58 80 90 -60 16 -28 2 -50 -10 10 -14 44 -8 38 24 22 22 -46 -128 -78 90 -14 8 -112 -2 60 -74 -12 -22 10 -22 -128 -70 98 82 46 14 -38 28 124 42 30 36 36 0 22 -30 -14 -40 -128 38 10 82 -26 -34 32 74 -30 80 -128 -82 -34 -128 84 54 8 -84 10 52 -62 -8 18 110 -28 -18 6 126 56 -14 -126 -58 76 114 -2 -4 54 -40 -54 70 -50 -12 96 20 42 -82 12 36 126 90 -2 -36 4 -10 -42 -100 -28 68 -90 50 -10 42 26 14 -128 -126 -90 -46 126 24 -42 -80 124 -128 -22 22 22 -128 -44 -34 -66 24 -78 46 126 40 86 52 -128 -34 -20 -112 -86 126 -128 -56 -108 8 -8 -46 38 -84 -18 -92 -128 -18 -116 10 -20 -86 -24 -8 -26 -80 38 -12 -126 -48 -10 126 24 -128 -32 -54 36 -76 -32 4 92 30 -116 -78 126 14 -8 46 -120 126 48 -128 58 -8 4 122 -126 -40 74 50 -50 -44 -10 32 -38 -104 126 -18 126 66 -28 88 -30 2 -38 0 40 66 0 14 -56 12 16 18 -38 -126 74 -10 -34 102 126 68 -44 6 -20 -18 -24 68 -126 18 20 26 -30 86 10 4 -34 22 122 -84 -38 -128 -128 64 -24 42 36 -50 0 6 16 -128 112 28 34 -6 118 6 68 124 18 62 44 124 -126 24 -36 -60 -128 -74 -24 126 -112 42 -34 -2 118 -30 126 -24 102 126 78 126 -48 8 124 44 48 -6 -88 -8 106 -128 126 -40 -68 -120 -64 -128 126 86 126 36 60 32 124 6 -126 32 -34 38 -42 -48 -24 2 6 126 -128 -68 8 52 -128 24 14 -12 -24 -40 0 -98 -128 -102 56 -2 -8 8 46 90 44 12 28 14 -4 -62 42 -30 -4 -44 -126 106 52 -46 -120 48 126 -38 50 -10 38 8 72 -100 126 20 -76 62 8 -30 98 114 54 104 -126 -2 32 26 14 -128 40 126 -38 0 126 -4 78 20 -18 124 12 4 -10 -26 16 -8 92 -28 -124 -30 -128 108 34 -120 122 -40 10 14 -118 14 56 28 32 -20 2 -108 -32 22 -58 68 -120 114 72 120 -128 28 -64 -14 -102 64 -68 14 94 -26 14 -86 122 70 -128 -92 -52 8 -72 -122 106 126 -18 126 -54 -6 -58 126 0 -72 36 -122 92 -66 -128 -32 -50 -20 84 38 102 -52 -8 28 -128 22 -86 38 30 44 -128 -112 -62 -128 32 -28 -8 56 -40 -106 -126 -46 36 62 96 36 -4 -128 60 -126 30 -12 -22 -126 -38 30 54 18 36 16 -84 
-88 -48 -32 92 -54 66 -10 126 -76 6 -44 126 -10 -124 2 80 90 8 -76 46 124 -22 6 126 74 -32 16 4 90 110 -32 -126 20 126 100 -6 -120 22 24 -124 -30 -98 -122 66 -22 60 -24 16 -6 126 36 -106 -88 40 -128 60 -62 14 26 -126 8 26 -20 0 -32 -4 126 102 -112 -46 84 8 48 -34 -28 -10 44 -34 74 -40 -26 -94 -48 -64 -92 -14 84 -128 -30 -54 126 -96 -20 -78 74 42 30 126 -24 -124 0 -22 14 -24 10 126 126 66 -128 126 -126 -2 42 -26 -46 -90 78 -126 48 -70 2 -126 -2 -50 54 -26 38 -30 28 -106 -6 -104 -38 36 60 18 126 -106 46 74 -50 46 126 -112 -14 126 -68 -6 -4 22 -84 -12 126 34 94 -6 44 -36 -124 -70 -128 76 124 64 -10 -28 -126 -42 10 34 -114 -128 126 42 -48 -62 58 -12 -14 126 -62 -78 -124 6 10 6 64 -126 -124 -32 -80 -44 -58 -40 -128 -12 22 30 48 -12 18 126 -104 -126 120 16 -40 -126 52 114 22 -128 -10 46 -14 -10 122 16 -92 -126 22 -92 -2 20 -128 92 8 -20 -40 78 110 52 -72 -2 20 -128 36 50 76 -8 50 -112 -44 126 76 -44 -34 96 -126 116 78 112 -32 -126 -4 -78 -48 28 -12 -32 8 -96 76 -128 102 -124 36 120 -110 -92 2 18 -78 20 -76 -8 -80 -124 90 -30 -56 42 -40 -38 -24 104 -14 126 -126 -86 20 -102 -58 -46 -70 -68 98 -68 -56 46 -2 20 -8 -22 -18 72 24 -126 126 -86 126 22 -6 126 -122 -126 126 -68 0 0 -118 40 54 -84 86 -50 42 -66 42 -32 0 -92 -6 4 46 108 88 -40 -126 74 -38 96 -2 -18 -44 -50 -66 -12 -112 -124 16 -40 48 126 -22 102 -118 126 36 26 120 -84 -24 126 -122 -28 126 -44 2 -128 -128 80 -82 126 -120 2 10 -128 0 -14 -126 104 78 -126 40 -114 -62 126 -46 -18 98 4 -34 2 -126 -72 86 24 -90 98 -126 -62 0 24 20 -16 126 -32 -128 14 100 124 -26 -70 26 22 8 -124 6 -56 32 -12 16 -100 -22 -92 126 12 8 -118 -110 122 -26 -14 102 -16 124 122 -82 -126 44 26 -14 -42 -84 116 -102 60 0 -126 4 124 -94 106 -110 66 -60 -18 32 -66 8 52 124 -52 -40 126 -42 -34 -46 26 -124 50 126 -52 92 -40 -20 14 18 -106 -46 -44 -74 78 -114 72 -42 80 24 -126 34 -124 -40 14 42 50 -118 -82 80 6 -32 -16 40 -6 -34 -62 -128 -20 68 -50 -122 26 
54 36 -14 -76 -2 -122 24 24 8 18 -86 -2 78 -76 2 -124 40 10 72 -16 24 -88 -58 126 60 20 -96 24 66 -78 -50 -90 12 -118 -16 30 88 -128 -6 34 0 -6 -12 108 18 74 38 -38 -22 -126 62 46 124 18 -8 20 -26 42 72 26 8 -2 -20 2 -32 -86 -4 14 44 14 72 0 0 -30 8 -6 -74 32 -4 38 -126 124 -6 -18 40 -118 50 18 38 -24 126 6 2 0 -70 4 -20 -80 -30 50 32 2 -46 -6 50 50 104 -92 14 -76 -92 -6 -116 10 8 -16 48 4 0 -10 44 -46 -124 -8 4 78 50 80 -58 -12 -126 -80 -104 0 34 -86 28 46 -26 -6 -126 46 120 -34 16 18 2 -18 20 -12 114 -70 -20 -18 -48 -60 116 -2 -70 8 16 8 66 32 34 8 -42 14 -36 -124 -46 2 -6 42 88 28 26 -32 -20 38 -58 -26 124 32 -72 -10 -42 56 -72 42 14 -78 32 -12 8 26 -10 -20 -14 -78 16 -10 64 -20 -72 10 -34 12 -16 -30 38 -30 -6 -4 4 -28 20 18 86 2 -12 0 16 -82 56 40 66 -24 -26 106 -14 -14 60 -30 0 -24 -6 24 44 -10 -54 -50 14 48 -80 26 -16 4 8 48 16 10 14 8 -14 -38 -40 84 48 44 -84 -56 38 -6 -42 22 -34 8 8 -26 10 22 28 -10 70 -26 -2 70 24 -4 44 28 0 10 -28 -20 120 10 -80 -56 -46 -14 -48 -122 -30 20 -56 24 40 16 -52 -102 -2 -40 10 -128 66 -58 -26 28 30 -48 -32 28 -8 42 -24 -4 16 92 -98 46 40 -42 36 8 -44 2 -52 8 10 -64 -2 -4 34 44 -76 14 -124 -32 -90 56 10 -56 40 -86 -34 2 -76 20 -4 -20 26 -78 36 20 12 -8 38 -10 -88 46 52 104 64 -12 -90 28 16 34 2 -70 -56 -50 -6 -70 64 -16 -32 42 -114 42 -66 -22 16 16 -12 -12 -26 16 12 90 -4 -36 30 10 -54 -14 2 126 14 30 10 56 6 30 2 -14 -14 74 -50 42 -64 18 -92 18 -10 -96 14 -8 -28 -126 -4 -36 22 -16 36 22 18 -126 10 -126 -34 -86 24 2 6 30 90 -38 12 -66 -28 -6 94 -104 6 -62 -2 -48 24 10 42 126 28 34 -8 -8 4 -8 2 -12 -34 58 -16 12 14 -36 -36 82 106 -62 8 14 14 50 -44 -12 24 116 10 22 18 -126 22 22 18 52 -34 6 -128 6 -54 -112 20 66 -78 -26 20 48 -12 12 -10 16 -122 -12 -52 14 -120 -126 -8 14 
12 82 60 10 -22 -40 88 -122 114 120 126 -74 -128 32 -4 8 30 126 18 -102 102 -76 38 58 122 34 122 126 126 -52 -118 -52 -126 -48 62 -46 0 -44 -60 -98 12 80 126 -10 -24 -124 -126 32 14 126 100 76 -78 -126 -44 80 -72 -20 -108 104 -114 90 12 28 40 -126 124 44 -76 38 74 68 120 -82 -2 -126 126 -34 24 -126 16 50 22 104 32 -110 -124 90 30 16 -38 -76 24 -24 -72 126 -108 124 -2 0 6 -46 82 92 78 68 -44 126 44 40 -78 -82 60 -124 126 -100 34 -38 -106 96 126 -46 -128 -120 102 -102 126 54 68 126 78 -44 104 126 -30 -66 94 -90 26 -104 26 28 -48 -20 -128 126 -54 -120 -126 126 -34 -126 -8 -4 -48 -32 2 -128 14 -114 10 126 -82 32 -126 116 -68 -126 110 126 88 2 32 -126 -114 -34 -74 -122 46 124 8 -124 34 32 -82 -60 -126 -80 -58 28 14 4 -126 20 62 4 6 18 22 -80 -124 98 -26 108 -94 74 0 -110 34 24 28 116 0 126 -8 -90 100 94 44 122 36 118 -96 -128 -54 -10 50 126 -14 64 88 -128 -6 -128 124 -28 76 -40 -128 -128 56 14 -120 -20 126 120 120 68 122 98 -46 24 -30 -40 30 54 58 12 -8 88 124 124 -116 82 74 106 118 26 122 56 -126 122 -128 78 -22 50 16 -32 18 86 -128 -16 48 2 -124 58 0 26 8 122 62 -126 -18 50 30 34 -56 114 118 126 14 126 -10 -112 104 126 -126 66 86 -128 -8 -74 -6 122 102 24 -12 10 -126 126 8 -92 -62 -82 16 -118 -30 38 -112 -128 24 74 -108 -6 124 126 120 80 4 54 76 -56 -4 54 -40 -112 -42 -104 18 76 126 2 62 108 -128 -52 52 10 -68 80 10 -18 -8 80 -120 -122 -80 0 0 -126 86 76 -38 -100 32 126 -120 -98 -34 -124 -126 88 110 10 -124 -6 124 -124 -72 10 6 -50 126 36 52 96 -22 -10 -126 84 28 120 16 -120 -114 126 72 -86 -84 76 -50 98 -126 -128 -126 -22 124 126 126 52 -124 100 -118 26 14 -104 24 122 38 58 24 -44 108 -126 -32 108 26 126 18 74 126 50 -124 12 122 6 -12 -76 -6 24 -128 58 -108 28 -12 -10 26 96 -84 -86 -30 -128 -6 -112 30 -94 -22 116 -102 -124 60 2 120 60 -84 104 -128 -2 -128 64 28 74 106 -12 42 -46 -52 72 90 86 24 126 -60 -88 -78 -56 -128 -126 -126 -48 -36 -104 -36 32 -88 -104 120 -12 50 122 84 126 
14 -22 -126 -126 60 4 -6 126 32 -126 98 -16 -126 48 -2 -50 -20 -50 -12 -64 -38 126 112 -72 -34 -24 -4 -122 122 -62 -92 -32 126 -114 122 82 74 60 56 -116 -34 56 -108 124 -34 -114 64 -12 28 -62 -28 124 28 126 88 -38 56 122 124 -98 24 -90 -16 56 8 124 8 6 -32 -6 -78 -6 -60 -72 24 122 -128 -126 -56 102 102 -28 98 -116 66 118 -120 -78 -18 36 126 52 66 -12 32 62 -100 80 24 18 18 -66 -126 18 -38 22 6 -80 48 96 -100 126 4 -8 0 114 2 -34 12 -124 -42 20 -120 -88 -12 -120 -124 12 -64 -126 -128 56 24 76 8 84 -38 -10 58 56 2 92 10 -124 -10 -126 -128 22 -48 -128 10 -32 -4 12 8 -126 74 -118 -64 -72 -40 126 44 68 -124 -18 48 -120 -126 126 4 52 -56 -44 -78 -64 58 -14 36 -72 18 -118 -56 -32 82 126 -12 -2 -48 124 60 -8 126 -4 -4 -38 -120 56 100 -122 -122 -14 40 -10 -2 50 -28 54 -12 36 -12 2 8 122 8 0 -4 124 16 -94 -88 -126 64 -126 16 4 14 16 -26 18 6 8 48 120 -80 54 8 46 20 40 88 20 42 -8 80 34 122 80 -110 26 -8 -24 -58 28 12 126 20 66 22 -64 -126 84 126 56 62 12 -18 -54 -20 -74 14 -22 62 -62 -108 76 -26 38 54 -82 -126 -120 -40 -52 -126 -126 16 86 14 -54 -12 -44 118 0 126 98 0 82 -50 124 -18 52 80 -128 38 -124 118 20 -50 126 94 -126 -66 -108 36 -56 114 -102 126 126 -30 -38 -20 -36 -20 -34 40 -118 -112 -78 -34 -60 18 -16 72 52 -4 76 -128 -12 -14 -30 16 -70 -124 38 44 -54 8 14 126 -14 -44 -26 -34 2 12 20 112 94 2 -126 -88 -20 8 90 -112 -128 0 -46 -22 -126 -46 38 90 10 126 64 126 80 34 -46 122 60 -70 4 -126 90 122 -4 20 40 82 -24 58 -22 104 -20 122 -46 -46 32 -44 -32 -78 126 -68 -60 48 4 18 70 -28 110 -32 10 -120 -58 -16 78 -88 -70 -92 -16 -108 16 -40 124 -38 -26 120 122 48 50 16 -70 64 10 -12 70 -44 -48 -72 20 -70 -18 -14 126 -6 126 -20 -14 24 32 0 126 20 114 120 -118 -76 -126 82 44 -42 108 20 -18 -124 -90 6 18 14 -38 24 -38 -94 8 -18 -54 32 -108 120 4 -56 8 -26 -84 96 -8 98 -66 52 122 40 -126 96 34 64 -116 52 -42 -38 -50 126 -18 4 68 126 -122 -28 -2 
-90 26 -38 -26 -16 126 -34 -40 -36 44 10 -4 -126 -42 -6 124 -30 96 -14 -6 -22 -98 76 126 -30 8 -58 12 14 -78 -126 0 80 -2 -16 -6 12 42 -26 86 -10 42 18 124 66 -34 36 -126 20 -92 -20 -18 14 10 -70 -6 12 -34 8 32 -62 32 -8 -6 -4 2 -48 -30 -50 44 106 -102 -86 88 -36 -10 -40 -4 -36 -18 28 6 -18 -62 -92 52 34 -36 0 10 -54 -38 -50 -48 92 -6 36 -106 -14 10 -38 38 -8 -18 6 36 56 -20 -30 66 -6 -20 -26 20 50 -98 52 -22 -14 46 22 -64 -120 24 -114 126 -20 4 -42 70 32 -62 -48 26 -72 50 118 34 -6 -28 14 0 6 -34 26 -38 -76 -16 -66 12 -32 -86 36 4 32 102 -50 -86 -14 -60 16 122 -124 42 -40 -62 0 -76 -8 74 -32 -2 20 -16 4 -54 -48 54 36 -92 10 52 -88 -32 40 -56 62 28 -16 52 -58 -28 -82 -6 -64 -28 -22 -102 -18 62 -74 -102 -10 54 -26 -8 -4 0 18 -68 16 -6 10 -10 6 76 28 64 -66 16 -76 12 -62 48 -48 18 -20 -40 -26 88 0 24 34 2 -26 10 20 14 -28 36 -104 122 124 26 -106 38 -120 16 -42 -60 12 84 126 -64 2 -10 -48 -62 4 44 -68 -126 10 126 76 120 70 -70 24 50 -2 26 0 -16 -98 -4 -104 100 4 -2 -36 -40 26 30 10 -14 -56 -2 -38 14 38 62 -28 0 80 26 -14 -46 18 -76 34 -42 -78 20 -18 -18 66 -4 14 -52 -66 18 4 50 -50 58 0 -12 60 22 60 8 -18 20 40 0 32 -62 -12 8 6 8 -96 8 6 -48 -80 -62 -24 -40 0 -72 2 -126 -20 -4 56 8 -12 -124 -26 -12 40 -58 -18 -20 -126 -20 -34 32 -72 -44 -14 72 100 -30 -36 -86 0 -44 52 26 -34 -32 -30 4 -48 -8 -106 -34 -28 -22 -110 98 30 -126 68 26 44 -8 88 -36 116 62 -14 102 34 -24 0 -82 0 52 -126 -10 16 86 122 20 -56 -6 -66 -44 -4 32 -126 12 -38 40 4 28 -4 -62 -52 18 -46 -78 -52 112 -100 -88 20 -54 -34 -108 112 44 -34 -120 -126 -70 12 -126 12 22 -50 -124 98 18 -6 -24 -46 34 94 -78 26 -6 -20 54 46 -120 66 16 72 122 60 -6 86 58 -72 -10 38 -28 -12 -118 32 -16 -96 12 -6 32 6 60 -96 52 58 92 -68 78 -8 62 30 48 108 -30 -42 30 4 -32 -38 -48 6 -68 -34 36 -74 16 -6 -34 -12 52 92 -30 
-6 34 0 -16 44 116 -86 6 -6 16 18 64 28 -84 12 44 26 6 26 4 74 -40 -44 126 50 -4 18 0 76 -50 -2 -124 24 36 -6 6 -28 -52 -18 -2 24 -14 4 -32 10 -2 -66 -56 2 96 -32 -24 -118 -56 2 0 8 -2 -26 -80 -24 -18 2 30 -8 -70 72 -46 -92 2 -56 22 -30 38 -32 -18 -28 -46 -42 2 -68 -66 10 -6 32 28 14 -58 -28 56 126 82 -8 8 -122 -2 -10 -54 30 2 44 -10 -66 52 104 -86 -46 -4 2 -58 -44 -22 -90 6 -2 2 2 -10 -68 -2 -32 -24 62 -32 -20 -30 -20 50 -12 -18 -10 -52 -46 -58 14 56 -10 -30 0 20 54 -54 -12 -52 -34 24 -44 52 -28 -20 10 62 14 -40 -4 82 -18 -8 -30 -30 -28 -28 -52 8 -10 14 -72 -26 -10 -10 -68 56 22 -28 10 -6 18 6 2 -72 40 -82 -128 4 22 40 -66 -24 -16 2 28 -40 -52 4 -8 10 14 8 14 -34 -16 -126 48 -34 62 14 -4 4 4 52 -6 -14 -14 10 8 22 -16 -24 42 -20 -22 10 58 50 -20 42 0 -52 -44 22 56 -12 42 -16 14 -6 -48 16 -6 -14 -38 26 16 -24 -2 0 46 2 44 46 -58 68 20 -2 -22 -12 6 -28 12 -66 -2 44 -120 -36 44 -34 4 -48 24 -44 -8 -12 -18 46 -124 54 -28 36 -22 2 -36 54 -36 -14 28 -10 -124 -40 -100 -18 4 -60 52 -90 -98 6 -28 10 70 4 38 -28 24 16 26 -12 -70 -122 36 14 -2 8 -2 36 -32 62 126 -4 12 16 60 -66 -24 -34 76 12 20 36 -82 28 -6 6 16 -34 -12 -126 12 2 -24 -36 -126 -78 8 62 -18 -30 16 84 -92 -6 8 -14 -16 74 -24 6 14 -36 48 26 104 2 42 122 -4 -30 18 10 6 4 48 104 -24 72 -22 -44 30 -44 60 -44 8 -48 12 -84 46 26 126 0 -26 16 -32 10 46 44 -92 -114 -12 16 -14 104 12 -58 -88 -118 -22 -2 122 -24 -38 22 78 14 28 12 -8 20 10 126 -6 46 -20 -6 26 -6 -86 -76 124 -14 16 60 -36 -4 6 32 56 -30 -72 -48 -56 -20 -10 14 2 18 104 -82 -18 -18 2 -38 -28 122 -50 -122 -62 -22 18 0 50 -4 4 -28 8 106 8 -4 -48 -86 -34 68 -2 38 36 -28 62 -20 66 20 -38 -2 24 -26 -16 -76 68 -14 12 -14 56 126 30 44 -14 90 -42 2 0 -16 -34 -4 -10 8 126 -16 -84 -2 -36 70 -98 28 -2 0 
-28 -4 -46 -108 44 0 -28 -34 -32 -52 -30 14 44 26 6 90 -38 -34 54 90 -10 -126 -36 12 -114 -46 116 -126 -124 126 -124 80 98 -4 -124 94 -126 126 60 -72 6 -62 -126 104 16 4 -2 80 -10 34 -16 -124 -120 16 36 90 58 0 112 -116 126 38 -2 -108 84 -128 -12 -54 8 -22 -22 -50 64 32 -2 114 54 -50 -64 -122 126 124 -80 16 116 122 -102 -22 -34 -8 126 74 8 -26 76 42 26 62 4 24 -14 -126 -126 -102 -120 -118 -110 -122 -62 18 34 -22 124 84 -76 -120 60 -126 36 -124 -124 10 46 22 -16 -24 126 126 4 -52 102 48 -64 62 54 124 -60 -50 14 74 16 82 -50 48 126 122 -78 72 -48 -30 -48 12 -6 66 2 14 -52 -124 30 90 14 -120 -100 126 122 -26 30 72 -120 126 -106 -10 -26 116 126 46 -4 84 42 8 46 8 -40 -30 16 126 76 2 -124 -112 -126 -4 -86 16 8 -62 94 -128 26 118 120 -72 -16 54 74 -18 0 -36 10 120 -18 -30 -4 -34 4 -30 -88 -6 -20 -44 -48 -126 -46 -30 0 6 -126 -78 -36 66 34 -78 18 -48 -2 36 14 22 -122 -24 -118 -126 -114 22 116 122 -126 -68 -58 10 -2 -44 12 18 -18 6 -22 88 6 -86 114 30 -128 -32 126 -104 120 -84 -32 52 -72 -122 18 124 -64 -60 -122 86 122 44 -126 26 -92 -62 44 58 -84 -4 8 -118 -30 -44 126 54 92 4 52 -26 -122 78 38 124 68 0 58 -54 8 -62 -12 124 -6 126 28 -48 -34 122 44 124 74 120 52 18 114 -38 -124 78 44 -106 84 -78 14 46 52 8 114 -58 -62 50 -104 28 -74 74 2 -76 12 -8 6 -120 8 -46 -40 74 -92 -28 -124 -56 -22 32 -10 90 -126 -120 -30 -36 -56 8 62 -100 0 -122 -4 124 -76 -20 6 -126 -60 68 -124 112 10 -34 92 6 92 64 -30 6 36 -8 48 -28 -112 -8 -56 106 72 -32 18 -126 -24 -114 -80 96 -6 -128 -88 -32 56 126 32 -62 -58 126 -124 -42 16 -32 112 -8 6 -48 -82 26 24 124 -126 126 -22 -22 -50 86 44 -70 12 -36 34 -76 12 4 -16 -110 78 -14 120 126 92 122 -8 124 -112 -8 40 -122 52 124 -66 126 -124 88 -74 -126 -8 -28 66 68 -124 82 88 122 -102 -2 -24 26 20 -30 -70 -14 -28 -110 68 30 -122 12 38 -56 120 -122 126 -74 74 -38 122 -126 -20 -72 -32 18 -14 -80 -124 48 -126 36 114 92 -26 14 -124 124 -10 50 
-30 -120 -102 34 88 -10 26 20 -122 4 122 74 20 34 -6 12 -4 84 100 -46 0 126 124 -80 52 -62 2 -124 -20 -86 -32 114 64 36 -80 8 -8 -44 126 -8 -2 -52 -28 72 -12 -36 -128 -38 -100 62 38 84 -60 72 42 126 88 -14 70 -56 -70 -50 -18 -126 80 66 -30 84 10 -14 -116 116 -78 82 56 -126 -22 -126 -60 -68 -48 94 -64 -36 10 -48 42 -4 36 -20 -128 76 102 4 -10 46 -8 -120 16 4 -12 118 126 -34 94 -22 -26 -8 2 -6 20 116 -22 126 -126 -52 -12 16 30 -126 100 32 -4 -58 30 -34 24 8 -40 58 -126 -8 -70 -126 120 -12 -70 -82 -22 12 64 -24 -12 -122 24 114 -128 -8 -2 -54 6 -26 -12 72 0 36 -68 -126 20 -122 102 26 18 -10 -22 -38 -2 -104 -94 -126 -126 -108 -4 126 -116 -82 -2 -122 124 -14 0 -14 20 22 28 -30 56 -86 -32 -66 -92 -8 30 2 -4 8 32 126 126 58 72 -12 48 -54 88 -28 10 -14 2 64 -12 -108 8 -40 2 -126 -72 42 6 -122 52 126 108 126 -66 -16 40 88 54 80 44 108 90 14 -126 -28 8 -12 -120 116 124 -20 -72 -14 -30 -70 122 114 -20 -14 -2 30 6 122 -12 -6 14 74 -6 88 -70 20 -8 -78 -74 -60 -74 -40 50 -44 70 50 24 120 -78 80 110 -38 -108 -2 -124 0 -98 -126 120 -124 -56 -4 76 -54 -74 -58 -12 38 -122 76 -2 46 -32 -110 -36 -88 48 -56 -76 -88 -94 -46 -14 124 -100 -126 50 64 126 48 108 -70 -126 -2 -24 38 54 0 -38 124 -8 122 12 26 -8 -34 -96 -16 -116 -66 26 116 -116 0 62 -26 8 -14 8 -44 62 64 10 -16 6 -16 -40 -112 124 -82 -42 28 -62 122 -34 -2 -2 48 22 70 40 126 -2 -6 16 -20 -64 54 -12 -12 -46 -64 32 -126 30 -34 -70 2 -10 -26 -4 -10 -6 0 54 -24 -34 114 -4 12 -20 8 -54 20 24 -36 -88 -16 -28 102 -42 50 122 124 -16 -6 -8 22 38 60 -124 -16 104 26 122 -44 14 -6 -38 30 -64 96 -6 -20 0 30 -68 4 90 -22 10 -62 -20 -16 94 10 -36 -16 0 48 40 -16 -10 60 126 -44 46 -16 58 6 -124 118 126 -104 70 30 6 62 126 -8 -122 -26 126 68 -92 42 -64 4 -18 -4 -66 0 90 -36 72 14 116 40 -30 -18 -88 12 124 -72 -20 -44 -52 -14 -38 -18 108 -14 120 -126 62 64 36 -6 -60 2 2 -4 -32 26 -48 -118 
58 -6 -2 20 16 -30 -38 -24 -82 2 -56 50 -54 14 -10 124 -66 -6 -32 10 -86 -30 12 82 -116 52 -16 -18 0 42 -32 28 16 -98 -8 -14 94 -42 20 -8 10 44 10 -118 -116 8 -14 12 30 -126 -18 -6 -108 -10 90 4 26 8 10 -10 70 -16 0 4 6 36 -50 66 34 -4 48 -42 2 -18 16 2 104 -20 64 10 -126 -70 12 70 -42 -126 -100 -16 0 88 78 18 -24 52 126 22 116 12 18 -6 62 24 46 -120 64 -120 -22 58 -90 -120 50 -8 -72 -28 0 0 -44 32 116 8 20 -124 -10 42 -128 20 -110 -18 -20 26 -8 80 -114 -18 36 8 -8 -4 36 48 -86 -126 6 -50 -8 -8 -48 -126 10 -8 8 66 38 -30 12 -124 -126 -26 -2 38 -2 -24 -126 -58 -2 -16 66 30 10 -82 98 24 10 -64 -86 62 16 66 32 -60 14 46 -22 48 -58 22 112 -14 -6 8 96 74 -104 -2 -16 -18 -20 118 20 -126 -56 36 -98 0 -2 4 14 60 16 26 34 -8 -4 -66 -18 -14 12 34 12 -28 26 -24 2 -16 -16 -12 126 -10 18 126 38 14 58 -2 32 30 -20 70 20 -10 18 126 32 -110 -108 -38 116 2 0 -124 78 -26 -54 28 20 18 -42 90 -20 -66 108 122 -18 -74 34 -100 -126 20 -46 -92 -8 42 -50 48 104 22 44 -68 32 46 -8 80 -6 -2 -32 -34 50 28 -42 58 -52 56 -24 38 6 -32 -72 20 -50 -12 -38 84 -36 -24 12 6 -84 -126 -22 28 -106 -20 8 -6 28 -24 0 -48 -26 48 -8 14 48 18 118 16 36 50 -30 -26 -12 30 -24 -4 -14 -24 -92 56 -78 -40 -126 102 16 -66 94 34 54 -6 -116 -74 -2 -12 -18 -48 -30 36 -34 -28 126 12 -20 -6 28 -94 -126 82 40 6 -8 -38 6 -10 -4 -128 106 -110 -110 6 20 24 14 66 12 -62 12 -44 126 40 4 6 4 -66 -38 4 -122 32 -20 20 98 2 -94 124 26 -124 34 -52 98 -18 -54 46 -48 -126 124 16 -30 -30 20 -126 26 38 62 -56 -28 -24 -92 -106 -30 -20 -44 -124 30 -110 -2 42 48 14 30 -120 -14 2 114 124 4 10 124 36 70 -46 2 -32 6 -90 -18 -120 6 30 24 -10 40 -14 -34 -10 6 -78 14 4 -10 62 52 74 -86 -14 56 42 30 -42 -54 28 -6 124 88 24 42 -66 58 38 24 -24 26 -126 -124 -28 -12 -6 -2 -34 24 -40 40 -16 -24 -20 -30 26 -122 38 -14 -62 -90 -12 -34 0 
-122 -16 -122 36 -16 68 2 124 -96 26 116 94 122 30 10 -24 -26 -126 -12 -6 -38 44 -14 -50 74 14 -44 -120 90 -126 -124 64 112 72 -6 10 -38 -96 120 54 -16 -46 -82 86 88 -128 -126 14 -90 -84 0 126 10 -126 64 -126 126 -46 -124 -48 124 -64 -10 -126 32 126 -54 56 70 -34 -126 72 -124 126 66 -98 -114 120 -42 -126 -126 -126 -122 -80 122 66 -116 -54 10 18 -36 120 58 46 124 126 48 64 2 -56 4 -4 126 -46 -36 -14 -14 120 -52 -66 4 86 -54 118 -124 24 -44 108 -116 126 126 82 -126 88 -84 -126 -126 124 52 -78 120 62 -22 -128 10 16 -40 -34 -10 -126 -16 126 50 -124 -116 -126 -112 74 -58 122 18 116 36 -28 14 -10 -6 126 -28 -106 66 -114 122 126 126 -40 -22 22 -128 20 -90 -86 2 126 36 78 8 124 122 14 -6 -42 -70 22 -78 86 0 126 44 -108 66 -126 -106 -14 -80 -24 126 -94 -118 124 2 -110 -16 -68 112 -76 -6 36 -10 126 -42 -126 -12 126 0 -52 -98 126 -40 -124 -30 -30 126 -124 64 10 18 122 38 52 -78 -72 70 126 100 122 -56 -44 -40 122 -126 -98 18 12 -30 38 124 -94 -104 -80 52 -26 102 36 -20 -126 -46 124 -4 126 -124 -106 102 28 -126 -96 114 -50 -78 -4 124 60 86 -94 26 -12 -74 -124 24 -78 -86 -10 -44 112 102 -122 2 16 126 34 14 -46 6 -4 -86 34 44 124 -50 -126 -8 -82 50 112 -114 124 114 -10 -30 126 6 108 -32 -54 -18 -126 -54 -128 -112 28 -40 114 126 32 -68 122 6 24 74 -104 0 -14 22 -10 -116 -40 -56 126 30 -14 8 66 -6 -58 124 56 116 14 40 -46 122 -26 -24 -96 -102 -92 -28 24 -20 124 -26 -20 122 -24 106 24 -126 126 14 120 -62 -126 34 56 -78 -126 -126 100 126 -122 44 -58 -128 -58 30 -122 -92 50 126 -10 -22 -14 -60 28 -82 -122 74 -8 32 -76 20 36 -40 -98 100 -76 -104 -72 112 -34 56 -94 126 126 124 12 126 -32 126 -6 -126 -8 -84 -2 -68 96 -30 28 -22 -16 -14 124 -104 -54 22 24 -4 -56 -100 -60 -126 44 96 -36 -14 84 -20 124 26 126 -40 -62 124 22 22 10 -82 -126 126 106 126 126 -106 50 -106 14 -128 -126 -24 126 -114 10 -86 -2 84 -72 -98 8 -122 -24 -72 120 114 -46 -62 -2 -24 -124 -124 -72 -80 -56 -18 -38 44 118 114 -88 100 -2 8 20 114 2 40 126 -84 6 -104 -60 -92 -126 
-38 78 124 126 6 68 80 76 -64 -26 122 -110 -68 18 2 -42 -12 -46 68 8 62 -106 126 -58 -46 4 -18 106 -126 126 -110 -28 -78 50 -46 38 -60 126 -12 60 2 46 -82 -44 88 -82 44 30 6 36 -38 -120 -100 14 26 16 -34 -40 94 -10 -74 -108 -20 18 96 -40 -8 50 94 -8 -92 -26 -80 84 -4 126 -50 -60 -68 -88 124 16 8 -124 -66 124 122 44 54 -92 126 -122 -20 0 52 22 -114 92 -12 -82 34 86 64 -66 -118 -14 -126 124 -42 30 2 -68 126 -22 32 118 34 -8 10 80 124 30 52 126 30 -96 -122 -50 -40 56 4 4 14 8 52 -52 -24 -24 10 28 -34 122 -124 78 126 122 -110 52 -40 0 42 122 12 -6 22 52 -48 122 124 -100 -36 4 -82 12 -62 22 -116 56 -4 54 -42 -52 -48 -46 -2 46 -98 -2 -16 -26 2 8 -70 -6 -32 -116 0 -60 76 36 -60 -78 -2 6 24 12 36 2 6 126 72 -58 72 96 40 14 8 -42 10 32 38 -14 -6 124 8 16 -94 16 12 114 22 -124 -12 -52 102 54 -6 6 -56 -114 66 0 -16 30 72 -86 28 -46 -64 -18 126 52 50 24 14 -60 -112 46 -84 -82 -38 -22 44 -96 -4 10 0 22 8 126 -104 84 -128 -32 122 -98 42 16 -50 122 -22 -38 -72 -114 -16 92 14 -60 48 -6 28 80 -4 -20 -100 -42 26 -40 -32 18 -18 -52 72 20 -60 -24 34 66 -118 30 22 122 2 114 10 22 28 36 94 22 -6 -36 -6 38 22 116 -112 -86 82 -108 76 50 74 -82 -126 -10 -68 40 -96 126 -10 4 20 2 52 -76 2 -20 126 -24 -20 20 4 0 -126 20 -4 60 122 -52 96 22 -46 24 116 -52 42 -22 26 -64 118 -52 38 78 56 -118 58 38 -12 -2 106 -12 -42 68 -64 -12 -36 -20 -122 126 -76 124 42 18 -64 -62 70 -42 -44 24 8 -18 -128 42 -30 -32 34 40 -70 -126 12 -10 -80 8 48 14 -74 -20 4 16 58 42 28 -20 108 -64 -86 -42 -32 -34 -42 -40 116 46 -78 22 -126 -128 20 -58 -30 56 -84 -122 18 -40 70 -40 -54 -68 0 -40 40 -4 -92 -6 -32 -124 2 -22 44 -62 48 -30 112 2 4 -8 -126 90 80 10 -94 -78 -66 -16 -18 4 -102 126 -118 18 6 38 30 42 24 -2 -50 -126 84 70 -74 42 -32 -20 64 124 -16 -92 74 -32 -46 122 28 -92 -78 70 126 58 -116 2 -126 -36 26 24 38 36 -64 -106 20 -106 
48 44 12 -94 50 -90 -80 -22 -124 20 44 -50 0 28 -2 68 22 6 -10 -28 8 -8 64 -102 46 6 90 -36 -12 26 40 118 16 30 38 2 -102 -10 -4 -56 12 -40 -32 62 10 18 -20 0 2 -128 4 -10 -126 26 36 30 6 28 -34 -6 16 2 -8 10 6 -2 6 30 2 -32 -20 16 -22 20 32 34 -8 -30 78 -22 84 -28 24 80 26 -8 -62 -16 44 20 -12 -26 14 -36 -60 10 106 -92 22 -64 4 -90 -24 -106 88 -10 -126 -12 -32 78 -36 68 -90 12 28 -26 -16 32 -38 8 -6 -12 8 30 72 4 118 -10 26 -10 -128 58 -74 -8 -38 34 8 -14 -56 -16 -38 40 -98 12 6 32 -24 -12 10 14 32 -18 -46 -34 20 110 -122 40 -72 -36 14 40 -36 32 -28 38 104 -52 26 92 64 -28 102 0 82 30 -34 16 22 94 -40 10 124 34 16 82 6 -32 -24 52 16 20 2 -24 0 34 34 -54 34 -90 -8 -20 68 16 42 -20 14 14 30 64 32 16 -32 18 -4 -30 -44 -10 10 32 32 20 4 4 -22 40 -126 -10 90 -92 30 30 -8 -10 52 -24 116 18 -58 30 8 -126 22 -42 -54 26 -114 24 24 -82 -4 82 18 28 8 32 -14 -44 14 -8 -22 -128 -50 14 -54 -22 68 0 -60 -74 -2 10 -8 -26 126 -4 28 -26 102 -60 -72 -70 16 -10 4 32 66 -126 54 -62 -126 2 42 -62 -20 -26 24 6 -38 12 4 16 -118 58 -8 -54 -8 -126 10 -40 -12 28 -16 40 2 -72 24 52 6 -4 -40 -70 -26 10 -116 22 -48 -34 -88 -4 0 -62 -20 10 -4 2 -106 26 74 88 -126 0 8 118 -10 -16 118 -18 94 8 20 -22 0 -18 8 0 20 -46 -116 8 -80 -36 8 -50 -72 44 2 14 4 -58 64 90 -46 86 92 90 106 -4 2 0 10 26 18 -56 74 104 20 0 8 0 20 22 98 12 -82 102 -26 -8 -8 52 -104 -126 -36 78 52 -18 -74 24 52 -62 24 -88 -118 -26 70 -20 32 68 -6 -24 -10 -50 8 86 -68 -54 -78 -16 -18 -128 50 112 16 38 -82 24 78 -58 52 0 54 42 2 -28 -76 -84 0 -12 10 -10 -22 4 2 70 24 102 40 12 -10 -24 34 12 54 14 -18 0 -4 6 -2 -90 -98 44 28 34 58 20 -110 30 -20 -74 50 60 -26 14 20 20 26 -56 -14 4 120 -30 6 -42 12 18 10 -14 -12 -2 -8 12 18 38 -68 8 30 -6 -2 -74 -30 -8 
-48 -24 8 20 36 48 48 -48 28 126 114 -2 -42 110 -16 -58 24 54 44 -44 -42 44 -124 -28 82 -20 -56 28 -14 -30 20 -44 10 -70 66 -54 120 -30 -14 20 -20 126 74 2 74 -12 54 0 -2 -114 -34 -126 70 6 60 26 38 118 56 32 46 -34 24 -26 -126 -46 34 38 104 -28 -50 22 68 64 50 48 -34 26 122 16 -128 -116 -30 -8 6 -50 -74 -46 6 26 -50 -30 26 -86 18 -46 -74 -84 44 94 36 -12 -20 54 50 -20 12 36 12 -22 54 -32 12 12 -12 -42 96 4 64 42 -8 58 26 -32 34 24 24 24 -22 -82 92 46 -32 -22 -8 124 -26 -124 66 126 22 30 -98 50 114 30 24 36 74 -110 34 38 -48 -18 88 -124 52 64 30 -122 32 38 30 -6 -28 32 120 -14 -78 -96 70 22 -128 24 22 50 -20 -66 -42 -14 22 -16 30 -38 12 -46 12 34 68 96 -56 -70 -36 30 -2 -16 -10 -60 2 -126 -50 -44 -12 -22 46 44 -14 54 2 -122 40 -12 -34 122 26 6 -56 14 -20 34 -30 -126 54 48 8 -82 104 4 14 118 26 -24 -32 -54 20 50 74 68 94 20 16 -10 26 0 36 20 100 -24 -12 14 -52 -112 -20 56 32 -124 -18 52 -4 106 -78 -38 -80 -60 36 100 -40 -14 126 -16 40 24 80 -126 -64 -20 34 26 -102 -6 126 104 20 -8 10 126 -54 122 -12 60 58 64 12 60 52 2 -36 -8 50 116 -40 -34 -56 126 -18 26 -124 122 -56 98 6 78 46 66 -12 56 -26 24 -60 26 -54 -20 -68 4 70 12 58 -40 0 0 -32 -126 52 -22 16 -24 -32 -50 30 8 -20 -36 2 122 80 -68 18 122 94 8 -40 -12 -8 14 -22 -124 -52 12 -40 -34 -18 -60 -10 -84 -30 66 72 -84 -8 -46 2 126 -12 -30 24 -54 -22 80 70 -34 -4 -66 -126 26 120 82 -96 50 -128 8 16 64 4 16 -20 -74 -78 -44 12 46 20 120 -36 -6 -20 100 20 -126 14 -40 -44 82 -30 -8 -24 34 48 84 -26 -48 2 -32 -4 0 66 -38 110 38 -26 0 -80 -126 40 112 -18 -60 -60 106 20 68 -20 60 10 0 118 12 36 18 -2 -34 70 32 28 28 40 -128 -30 28 124 -128 -2 68 78 -36 -6 -80 -64 56 -22 6 20 2 -54 0 -54 -26 118 12 0 88 20 -128 -114 44 -84 -66 -10 32 84 -30 -76 -46 24 -30 -26 48 -50 68 46 14 114 74 -122 60 -40 42 0 30 8 20 -26 -20 
18 14 56 64 30 34 90 -30 -30 18 -26 -44 -42 122 -6 -22 -6 2 -34 -86 60 64 64 12 -4 -122 -112 122 -108 26 -8 122 -12 34 2 -4 46 120 -126 18 10 -48 2 -18 -46 92 -6 -60 74 8 -70 -76 -120 -32 40 -68 -2 44 6 -40 -16 -64 6 -34 -4 52 48 -126 -20 16 -122 -104 -122 -92 106 12 -44 84 -100 36 -2 -16 -58 -116 26 88 -42 -104 62 -10 126 36 -58 -64 -24 126 -80 2 12 8 -28 -124 -32 22 -36 -40 -126 66 -14 44 -20 -48 -40 68 -94 -52 28 26 22 94 8 4 -124 -74 112 -8 -126 6 70 68 -88 -38 -26 28 -26 -64 58 122 -24 100 -38 -54 -86 58 100 -108 90 38 -68 -64 -28 -20 112 -46 32 -12 48 -40 -98 74 30 -40 -2 -16 -52 8 -28 126 -4 14 -126 -10 6 -98 -32 52 52 18 34 18 32 -12 30 10 -2 54 -110 16 92 -26 -30 32 70 12 92 -2 -60 120 -68 68 12 -10 -14 -8 32 18 -6 56 -28 -120 2 10 14 -56 10 50 -12 -40 12 -22 -2 12 -124 -64 -30 -66 70 -44 -56 -68 -4 -112 -24 2 74 -104 -50 -22 -124 104 -66 -84 -86 40 -76 -106 -112 100 -66 0 -4 48 4 104 20 4 58 112 18 -46 -2 -20 -52 -4 -108 92 28 40 36 -16 28 6 -12 -18 -126 -56 -46 82 20 70 64 6 -42 -54 90 90 -120 52 -12 -96 -108 -12 22 -6 -56 -112 26 -26 4 102 34 -126 58 120 14 -106 -18 -24 74 0 72 60 32 -50 -52 20 -26 126 -6 92 -52 94 -30 -38 36 -2 -64 8 92 18 -10 -30 28 -10 28 56 50 122 -48 -44 -124 -68 0 52 48 -122 -50 -50 -68 100 -126 44 -34 90 40 -80 -10 40 -14 -92 -30 -48 48 124 -72 -92 -126 2 8 -122 -60 110 8 46 22 -36 62 -2 74 -98 10 16 4 -2 -36 62 -78 36 68 8 12 -16 84 -12 -24 -64 -6 10 88 -10 88 86 -80 -34 2 -58 10 -46 64 -2 34 58 -126 -30 126 -6 22 -10 -122 34 -72 -86 -82 10 2 -124 -32 -66 -62 -24 16 62 -62 -40 32 -48 -80 -116 34 -28 -82 54 110 0 -4 40 -10 36 4 72 88 20 -34 -36 16 -78 118 -126 -32 -20 -114 -50 -104 68 4 -30 -106 58 -36 -68 12 -70 44 16 -62 24 36 -12 -12 80 -12 -46 -66 24 48 -54 54 -20 -120 -4 -36 -52 -66 -24 38 -38 -56 126 -62 72 6 0 -24 30 -42 20 32 -44 100 -102 94 -38 
56 -40 -2 122 30 -12 42 -24 -30 -124 -122 12 -126 -10 10 106 16 -126 20 -86 -30 -18 40 -50 22 8 -64 122 -70 74 -56 104 -126 -64 -22 -24 32 126 126 116 14 4 -50 104 26 120 -32 -26 62 -90 2 -88 -124 124 80 2 -82 100 18 -46 -120 10 -4 -126 106 -126 4 -116 16 -6 22 -24 -120 -126 -6 -124 -124 126 88 -126 8 40 -56 -16 -122 -126 -126 -2 -22 40 -122 -10 118 50 -10 -68 -28 126 12 60 -28 126 -112 -24 2 34 -124 0 -70 48 60 120 58 90 -112 126 -6 80 34 -122 -110 -28 -126 -38 24 126 -124 -74 -126 118 -70 -20 24 106 32 -16 20 92 10 74 -30 -48 12 122 14 -68 -124 -6 120 126 2 -30 26 28 -6 -80 4 -124 108 26 78 66 -84 112 126 16 -12 -126 -122 -38 74 0 -18 126 -30 98 -10 -124 36 24 -6 110 96 10 -116 -42 20 -46 -126 126 -28 62 -122 0 -32 64 -126 -78 -120 -118 -124 -38 -24 -20 -30 14 6 -44 6 -122 -12 -128 -8 124 12 90 10 -100 -86 -110 0 -6 116 38 2 -64 60 -126 -20 -58 -38 -126 -28 -78 0 2 34 -34 124 84 124 2 44 -58 -126 -128 -48 116 4 8 4 22 122 78 -10 124 32 126 -12 -122 114 12 -120 34 36 -62 58 -2 -12 40 122 -120 12 64 30 84 -110 -124 124 34 -124 -2 18 -82 126 30 -8 -2 114 -60 -2 126 -56 0 -126 124 -28 108 -52 52 52 -54 -74 -124 -74 -120 -52 -2 -44 -86 52 -78 40 -32 52 38 56 -32 126 122 -20 24 6 40 -4 26 -12 -2 -122 122 0 20 -36 12 58 -20 -8 126 -58 4 80 -24 0 16 -78 -126 28 -86 58 26 116 12 48 32 118 96 28 48 -24 -102 112 6 50 -28 124 4 98 122 6 114 28 -50 -8 10 -32 20 -120 8 -30 16 -62 22 -14 -42 -8 -34 114 0 12 0 -6 0 -60 -10 56 46 -82 -36 104 88 30 18 58 18 10 112 -12 52 54 60 -8 16 76 -124 8 -72 126 26 126 24 -124 -52 -128 -12 -4 20 -54 114 20 -112 -26 72 -128 -124 122 -126 4 -18 -124 -20 -34 -82 -4 0 -12 -18 34 -44 10 2 78 -18 -34 14 14 -74 114 124 18 -110 126 -126 -22 0 -128 -8 -122 86 -114 126 60 -52 -30 118 -82 -4 -126 22 126 126 -58 2 30 18 52 -26 -122 -120 -124 36 42 -10 -4 -48 4 96 -92 -38 -74 126 2 -90 -30 4 -118 86 60 -6 126 -44 92 -10 
12 66 8 12 72 -22 8 -30 26 -50 78 -32 -16 -24 4 -40 -8 18 -14 -38 64 44 36 24 -18 76 -30 26 -34 20 -90 -58 58 -8 4 34 -32 4 -80 -100 -8 -26 44 38 -82 20 4 -8 18 -36 -36 -26 -126 -4 8 -38 36 -48 -64 34 -22 -54 -2 126 34 40 -56 -2 -18 -12 -76 68 6 56 38 -42 112 60 -70 -120 6 -20 126 -6 44 10 32 -22 -52 -36 126 -6 -60 70 -14 -18 10 -62 12 -22 -2 2 86 16 -10 60 22 0 126 -2 -8 28 -24 122 -116 74 -38 -64 52 -122 -118 -128 -126 -50 -128 68 4 -24 32 -14 -24 8 -30 -66 -60 -68 -2 -68 -12 122 -76 88 -16 42 -42 10 -42 6 32 -12 -60 -8 4 -24 4 0 -26 -12 -8 116 74 126 -62 -126 -68 -108 -8 -50 32 0 -52 74 -2 66 42 60 2 -118 -104 70 -6 -70 -118 -46 54 -48 118 -36 8 -10 20 30 -14 6 -18 -22 -64 116 116 -36 102 -126 -24 -62 2 50 18 -50 -6 20 14 124 -2 -4 -2 -14 80 -12 98 -56 -76 -8 0 18 -12 -60 -8 48 -38 -32 -70 -56 -66 -16 -16 24 -24 -20 -32 -78 -10 36 60 40 62 116 2 36 -104 28 10 22 32 84 16 -16 -82 24 -16 56 -18 -82 20 24 58 -86 -24 74 -56 -30 -40 50 -64 -6 -54 10 -24 -20 -96 -56 -30 0 58 -128 -32 -58 22 -54 -72 -54 -18 -100 -70 -12 26 44 8 58 6 -16 24 26 38 -44 30 52 -40 36 18 22 -26 -126 -10 -42 -16 -48 54 -48 -12 2 36 -14 8 36 -18 58 24 30 -8 74 -6 18 -68 -12 -66 30 -42 -126 4 24 -46 -88 10 24 -28 62 52 2 -42 14 -102 -122 16 -44 -76 58 -2 20 -102 -6 38 -8 42 26 -8 64 0 6 0 74 34 -46 -42 -2 -66 -50 -14 -64 -6 -24 -42 8 -28 88 -50 58 -58 -108 -24 -22 -104 -64 38 68 34 16 2 16 -16 28 -12 24 48 30 122 98 -10 -6 -48 -4 -34 8 -26 66 88 -14 12 -72 70 -4 10 -64 124 0 -6 -26 86 18 78 -46 22 54 -38 -62 12 -18 -10 12 -56 -50 58 0 64 -6 -62 16 26 -36 6 -6 22 36 42 38 -50 22 -16 70 32 44 40 -90 22 52 -124 -88 -22 0 0 -24 124 114 -10 -104 -112 -6 16 6 -22 28 124 -58 -30 16 86 12 -70 -16 72 10 118 52 -24 -28 12 -44 -126 -18 86 40 90 -118 -16 18 4 -124 44 12 -38 14 26 2 
36 74 -94 -28 118 124 126 -128 -104 126 36 -18 -40 -128 -24 124 -24 -16 76 118 100 -80 -62 126 36 36 32 -78 76 -8 -20 48 -4 96 126 124 -50 -78 24 -80 0 -38 -54 72 -20 -30 16 -12 40 -24 22 -128 -122 -32 16 6 -10 -20 -18 -90 -74 10 12 46 -122 -128 76 -96 -10 -60 112 60 -16 46 54 26 46 -50 -128 -34 16 -88 28 -128 60 14 -10 -128 106 -124 -128 126 30 112 122 -20 -108 -120 48 -62 -40 100 -52 -26 80 -66 30 4 80 0 10 66 36 4 -22 -124 -12 -88 82 80 -82 -126 70 -64 -50 -6 -68 -38 94 -6 -40 -112 -128 -28 -28 -10 -56 54 118 38 -128 -40 -126 -72 -126 -84 32 -124 16 -2 60 -68 26 -126 74 -62 -74 46 -2 78 84 62 -126 44 -28 20 102 96 -126 -4 -128 78 -50 60 20 66 94 20 20 -128 16 -126 -16 -84 4 0 -76 -72 -28 -68 126 36 -24 -22 14 -92 32 -28 16 52 24 126 -20 -70 82 126 -44 -66 30 24 -40 -30 6 24 38 2 126 10 50 -112 48 126 12 38 126 126 70 -34 -126 -38 102 -10 26 -20 16 -124 -14 30 -6 22 -86 -30 16 126 18 -14 50 -10 52 126 -18 126 -12 -14 -110 -6 34 -2 -10 -64 -126 44 -106 50 -76 42 42 -116 126 0 6 46 -64 126 -128 98 -26 126 -22 126 42 100 50 -114 24 -126 -10 38 -126 126 -128 -92 44 -6 10 -108 16 -58 22 -66 70 64 126 126 12 -52 -96 -128 80 -84 -20 -26 8 38 16 18 -22 126 48 64 -106 100 -32 -102 48 34 74 126 54 70 14 36 8 -64 -64 124 126 56 -128 70 -44 -26 -34 -128 8 -78 8 88 -124 -12 -128 0 4 120 -2 -52 -14 4 -110 -4 -28 -128 -118 126 84 22 -124 -6 -2 -28 48 16 -126 22 -126 20 76 -36 -4 -44 -124 -126 -126 -92 -14 20 124 -66 32 6 -4 -126 68 92 -126 124 -10 54 -18 -64 126 60 -124 100 -50 60 118 -32 -28 8 54 56 66 -48 16 68 14 126 -78 44 -20 -126 -70 40 0 -128 -48 114 66 56 -126 124 24 -18 -24 44 -108 124 8 -126 78 54 -16 -42 -114 -128 -30 16 -18 -36 -32 46 68 30 104 2 20 108 -128 -82 60 -58 126 90 22 126 54 -48 16 -32 -76 14 20 24 -80 52 42 -38 20 6 126 64 126 -122 -124 -26 30 16 6 -2 110 122 98 -4 80 -96 124 2 -58 4 6 -28 -42 -78 -32 82 -128 30 -4 62 126 18 
-36 26 -58 62 60 44 -124 -56 0 -58 34 -58 24 102 0 114 -6 38 -120 -86 -126 -92 -124 34 -56 74 -30 16 34 4 22 26 6 124 -102 70 -30 -52 56 82 10 -74 22 -30 54 12 -8 -126 -40 -2 -38 -110 -44 -4 -30 -16 100 -36 -54 -108 14 -90 12 -20 42 58 6 -48 -86 18 124 38 100 -4 -106 24 -58 126 -120 126 22 34 0 2 -118 42 20 -44 -112 -24 126 -14 -10 98 -42 -40 24 -46 -36 -100 20 72 92 20 32 -62 80 20 -24 -58 -44 -26 -20 122 -80 -14 28 40 -24 -20 94 -28 110 -116 -48 -72 0 -76 124 44 -100 -20 70 90 16 32 -10 -124 8 -16 92 -34 -18 -20 60 -16 -44 -120 -12 -122 -22 68 16 -86 94 92 -30 -72 -78 126 8 32 -90 30 -126 26 124 -34 -58 -44 38 68 72 26 -36 84 -48 92 -8 -42 64 126 -128 28 66 4 12 12 -38 46 -32 -10 20 -6 32 34 2 -46 -116 60 48 14 -48 -24 -36 -16 -4 124 4 -122 -20 20 -6 -24 0 -8 92 -116 -102 -32 -16 -30 -30 -22 -124 36 14 0 124 -62 14 52 -52 14 -122 -30 -14 118 -122 6 -124 -38 -8 -12 -2 26 -20 -76 -50 92 -122 116 16 -90 -36 -126 0 -126 2 -122 -80 66 -26 -74 14 -14 -8 -28 -42 46 -124 -84 -86 24 42 10 112 -94 -38 46 48 -20 -28 -14 -30 -14 -16 -64 -94 14 -50 74 -102 -56 -102 -100 -92 126 80 64 -44 12 -18 -20 36 2 -68 -76 36 86 16 -56 -92 66 46 58 -36 -64 -34 -82 -98 -106 -124 -54 -52 -58 0 100 -120 70 28 -114 -126 -12 66 50 -100 46 124 -16 -24 14 -8 20 70 -116 22 -24 -128 -10 -126 -24 -2 -18 -118 84 -64 76 -50 -16 -120 126 -28 -122 -30 106 72 34 0 -124 -120 2 -22 48 84 72 28 -126 50 86 50 -116 6 18 8 76 -128 -42 104 2 -8 -62 40 -78 10 -28 -124 24 -44 -46 42 42 14 0 -78 -4 -2 -122 -38 -72 -6 -60 64 -32 -66 -22 -16 -72 -14 -62 22 -92 42 -6 8 -118 64 54 -60 -22 4 12 88 -64 -38 -4 -106 14 44 -6 40 -20 -94 -18 -36 2 74 -16 8 26 28 -4 -114 -56 -122 0 20 -54 4 -6 10 -34 126 -40 74 18 24 102 124 52 44 -84 -36 126 124 122 -64 30 -16 18 20 -104 -16 10 36 34 58 124 4 -44 64 106 54 48 122 26 -126 -8 -20 -30 -80 22 64 12 -114 -36 -68 10 14 62 -16 -18 
20 -26 52 -94 46 0 124 -110 126 -128 -40 -128 90 16 -10 108 94 -112 120 -114 126 -24 -52 126 126 -42 126 122 104 -38 -106 -90 -84 10 -68 -126 84 -126 -94 -128 22 114 126 -40 84 -120 -106 26 -10 126 98 50 -120 -128 -56 102 -126 70 110 124 -120 -74 10 4 -74 68 126 36 -126 100 126 -34 -118 -126 -30 -128 126 124 -22 60 -128 -116 50 126 -124 66 20 126 126 -28 78 110 -50 -56 42 -126 -126 126 -72 116 -126 126 -96 126 126 126 126 -128 126 -48 -108 126 124 -46 68 126 120 124 26 -128 -126 -126 -18 -128 126 -126 -128 -118 24 58 -92 -110 126 -128 60 -126 126 -118 126 108 126 -8 -84 46 -128 -128 -84 -126 20 -100 -58 -16 -52 -34 126 -80 38 -126 -116 -104 112 30 -128 -128 -128 126 -128 -46 126 -104 126 98 26 54 -122 -6 -128 110 100 126 4 -4 -124 42 52 -84 -126 58 2 126 -20 126 -126 20 126 0 86 -114 -118 102 -118 126 -98 126 -128 126 24 -128 100 -128 88 -2 30 46 -10 -94 126 122 -40 -48 78 -38 60 56 -62 -126 102 -128 126 -30 126 126 -128 -128 -92 -126 126 12 -90 -6 -108 -78 -118 -32 -8 62 -68 -22 126 126 -112 126 -80 -32 32 6 126 -124 10 -126 126 12 12 72 -100 114 -36 104 126 80 18 -126 -128 -28 -126 60 -24 46 -124 126 -128 -62 126 64 -128 126 -76 -54 -128 126 126 -124 -36 100 -128 68 -128 -128 126 -128 -58 116 -118 -126 104 44 -128 126 -128 -128 10 -72 64 126 96 -128 126 86 118 -44 80 -126 18 -128 122 -126 -126 -128 126 -126 -22 124 -128 8 126 126 126 -4 -12 126 42 -128 -16 76 -122 -70 -34 -128 30 126 -124 58 126 126 10 -102 126 14 -100 -98 78 26 -72 126 116 -124 -8 32 -30 12 126 126 -98 -128 126 -126 -122 -128 102 -54 -128 126 -106 80 48 74 126 -126 -60 16 -64 -72 126 126 126 44 -128 -32 -92 14 -2 -106 74 64 -128 -72 126 -64 -80 126 -128 126 114 116 -116 -48 126 126 68 126 72 40 -124 -14 38 -128 126 -128 126 76 78 -114 124 126 -128 12 118 126 -22 32 -104 92 -126 104 30 -126 68 126 -8 -34 -126 126 -128 114 -80 6 -30 24 10 -122 62 126 14 -52 -126 -104 -128 126 94 56 126 -72 126 34 -128 126 -16 2 126 -14 -112 -18 56 -104 126 -112 -126 126 84 126 -24 126 -96 -126 -126 -44 -126 126 -74 -112 54 4 -30 28 -18 -126 126 50 -96 10 126 -126 
-14 6 80 -20 74 126 -2 126 -68 72 -48 -14 50 14 6 100 34 0 102 -46 -128 68 -96 -98 16 -94 36 -28 -44 126 26 18 28 -128 -128 98 110 -8 -30 44 8 126 122 -50 20 100 42 80 -34 48 -22 -128 96 -30 44 -48 40 126 38 114 88 126 -68 -12 58 -6 42 -42 52 44 56 6 -56 80 78 -122 26 -58 126 28 72 -128 -30 88 120 -34 -70 -34 126 -84 68 100 44 124 -42 -34 -120 -88 44 126 92 50 22 8 -56 -18 50 36 22 -124 126 -44 -60 -4 26 64 -128 2 -14 126 2 -10 120 124 -126 -6 -26 2 -126 12 -124 -110 -48 30 -20 82 28 82 -18 -92 88 -56 40 -128 -58 124 118 -50 -30 10 -2 96 40 -60 -86 -128 -28 -18 -80 -70 -86 -62 42 24 -28 70 18 -128 -28 -104 126 -120 -128 -22 -32 46 -8 12 22 72 -46 -116 -128 54 -52 78 40 -48 88 46 -50 36 -60 10 30 -124 -58 -10 -22 -26 24 -80 -68 -48 -46 90 -74 -126 10 -40 -48 -44 12 -60 2 38 28 -42 20 116 -6 -126 22 14 -128 98 -48 -16 110 124 54 48 20 -54 -20 124 -14 84 0 44 14 44 84 78 100 -4 -2 56 -60 -106 -128 -128 48 -116 -88 -128 -62 -84 26 0 126 6 40 -18 -16 124 -82 42 126 16 -34 20 126 -126 -34 -2 -42 -54 126 -42 126 -18 -12 8 68 46 66 126 68 124 126 -16 -84 -126 14 -126 -14 88 -30 126 62 26 -128 -68 -2 40 -114 -32 -128 124 74 126 -10 -124 -44 126 34 -128 -6 -82 48 96 84 -68 104 4 126 -128 88 30 108 -128 -60 28 -40 -52 -128 -22 -126 -128 -126 14 -2 14 -44 -18 -118 122 -10 -4 -98 -12 14 8 26 -48 0 126 122 -8 -58 -126 50 76 110 30 -76 12 -8 124 -128 -126 102 -84 126 2 -38 126 30 -24 126 -128 6 4 22 20 -110 124 -128 -20 40 126 -120 58 -28 -4 124 -8 -62 -108 -8 104 -38 82 6 -2 48 -128 26 -124 -128 76 36 -58 2 -24 -46 -102 80 22 10 -64 66 -30 10 -24 30 -126 126 96 122 -128 -22 -52 50 110 -10 -120 48 106 32 -22 36 88 120 -126 -72 -40 -12 40 126 126 12 -72 4 -128 24 -128 -110 50 -14 -50 -32 126 -22 -128 -16 96 64 32 56 22 -8 6 -58 -128 -14 -34 54 -66 -8 -98 -126 -108 -126 70 58 -62 30 -106 -128 -128 -26 20 124 -128 -46 -14 126 48 -128 10 -128 124 126 -38 -60 104 42 -124 -2 64 
-60 106 -28 -26 16 20 -48 -124 32 48 -124 62 122 2 -14 -118 -40 -126 -28 68 -48 126 -94 -48 126 24 -30 -124 2 40 124 -54 56 2 -126 26 46 -126 78 22 -6 -76 -120 120 -74 -24 -94 40 -56 -8 74 -126 94 -108 24 -124 84 -10 126 -64 126 -122 -6 50 -2 -126 -40 -6 88 -64 -66 18 126 70 38 -128 -52 116 -28 122 -124 126 126 24 88 48 -96 -60 -16 34 -128 50 108 72 -60 68 48 126 12 -50 -40 -42 126 -100 -120 -20 126 126 -14 -68 -48 -122 -64 -122 92 -100 -4 38 6 -26 -124 100 -124 96 -36 88 124 -124 60 126 -124 -52 -24 36 50 -10 -26 -60 -46 -124 34 -124 0 -106 110 126 -124 74 70 -126 18 126 -80 -68 -24 110 -40 40 56 -38 24 124 66 -84 -92 -18 12 22 -50 126 -102 8 14 122 124 72 24 -62 120 -32 -22 -16 86 -36 -86 -44 -26 -30 126 -60 -110 84 124 0 -94 56 124 -122 48 -10 -128 16 50 -50 -6 -16 -28 6 4 126 -6 -34 0 -114 10 -74 -28 34 -74 -118 14 58 124 -18 72 46 -32 -14 -14 -82 -34 -102 6 126 82 126 -50 -50 102 -114 -124 -12 -100 42 100 -80 126 48 -114 -56 14 -32 50 8 -12 -10 -48 -128 -4 -90 126 74 126 -10 -120 -84 20 -82 -52 74 -126 126 2 126 90 -118 42 12 84 -48 -128 42 -22 -8 122 120 -12 8 -46 48 -82 64 32 28 126 126 74 -128 -98 76 2 -116 10 26 -42 -126 -106 -38 -52 -126 20 126 -32 -122 -8 6 100 88 -120 -26 -108 20 100 62 -98 -64 12 58 -92 -126 -14 38 34 -8 -118 -86 -46 58 18 -30 -46 12 2 -4 -32 118 46 -74 -60 -64 70 -8 -54 -48 -126 48 -16 -26 -18 38 -126 -12 46 -16 -114 12 -104 -126 12 -82 -54 126 -8 16 -70 126 22 58 126 100 84 -50 -124 -22 52 -6 -88 58 -8 0 -32 24 18 -54 -78 -124 112 40 -124 -72 -12 -84 52 8 40 -124 -12 108 98 124 34 30 112 126 -122 72 124 12 124 26 90 -30 64 -20 -128 106 -8 -120 -12 64 -54 8 126 90 126 126 36 -50 -14 -110 126 6 -44 -12 28 24 22 126 -6 120 126 -20 22 -36 -34 30 -128 -106 -126 76 62 -54 -34 126 -124 124 122 38 122 -126 -20 -122 -50 32 86 -14 -126 14 96 -112 94 -40 122 -16 -14 50 -128 124 -102 -44 -124 -84 -4 -32 106 -28 -62 -126 20 126 -118 12 48 -14 -122 88 -8 34 126 106 -26 126 
60 62 14 16 126 -76 -124 -38 24 -104 -76 -32 0 -114 -2 126 2 60 106 26 -126 -76 32 82 -68 -124 32 -124 -58 -20 -4 46 -74 -34 -98 48 -38 -126 -14 16 -8 58 -8 -44 124 -18 -14 -120 -108 -124 126 104 -66 10 16 -10 -20 38 -126 -66 -122 -6 18 126 -18 -2 -76 -6 -20 34 102 -52 -36 -76 110 -14 88 -4 28 -56 100 -46 -50 -8 126 50 -18 -34 2 -72 -122 10 -106 12 -52 16 -2 -2 16 -36 -116 102 -10 30 -8 126 -98 -116 102 -112 14 62 8 -90 -46 66 -32 -62 -50 -32 -8 -126 82 -78 54 20 50 -26 -66 50 -120 22 -126 -60 -126 -126 -108 124 -128 6 -10 -106 -56 -100 88 -84 -28 -126 6 -42 16 -64 -70 -44 -38 68 -126 -6 116 10 28 -56 -74 -124 8 126 124 -52 -58 32 -42 -82 -20 54 -106 -122 48 46 0 -112 48 -60 -126 -50 54 -124 26 0 32 -52 -104 -16 50 20 -100 -2 16 34 -46 -14 -42 58 -64 -72 -50 124 -26 -64 -8 -16 -14 78 -12 -52 8 -52 56 -36 126 -52 96 -24 12 -114 -110 -72 -12 -62 74 -58 2 -6 120 -96 2 80 -88 -110 -122 -40 -122 -74 -124 -62 -66 -22 -114 -8 -78 -54 84 -80 -32 126 2 10 -122 -36 6 4 6 122 28 42 20 36 -14 -128 -80 88 24 -108 -28 -56 10 28 -114 126 -56 40 -18 44 -4 32 62 38 10 -16 -120 24 -96 -126 40 -20 0 -22 -46 10 68 -8 -6 26 -46 4 -40 -126 110 -88 -10 4 -124 -34 -38 90 102 -126 -48 -18 66 -22 -2 -30 -124 -16 -18 50 20 -36 -116 -34 10 60 126 44 -88 -38 -46 14 -124 22 96 78 -2 -96 72 36 -70 -30 -52 124 0 -58 -116 60 -88 84 18 8 88 -36 -52 8 70 -44 108 22 -34 -8 2 112 -122 -52 -66 -14 126 14 -40 40 -28 -34 -14 -64 126 -2 40 -22 46 -122 36 -4 2 12 46 -32 20 -18 16 108 24 56 6 52 -120 -10 80 -36 22 64 124 -126 -24 -40 80 -20 50 112 100 60 56 -44 -110 -124 104 72 -92 -60 -24 -92 -124 -52 -44 0 76 114 -52 -18 -6 -126 -54 84 124 32 -28 -32 52 88 -124 22 -6 126 -22 24 -126 -80 -80 20 98 -64 -26 40 -42 24 110 -124 -4 6 12 62 34 0 2 18 -30 72 68 -74 -38 0 -24 -10 120 72 20 -42 90 -28 -24 -42 -66 2 -80 126 -124 110 28 18 112 84 -62 -70 -26 8 -30 -6 20 124 -62 80 -44 20 126 -24 
12 124 -80 20 -58 0 -74 0 44 -24 10 -68 -24 26 -10 12 -26 62 -126 -66 -8 32 -2 40 -22 52 2 126 -8 0 42 -50 -42 -42 40 42 56 -48 86 70 -2 52 126 -38 30 -14 24 -14 48 -114 -72 34 -4 126 68 -128 -128 -30 -58 42 -124 -52 6 12 28 -64 -10 120 20 -40 114 -126 54 30 18 38 12 126 66 -126 -36 78 32 16 28 24 -6 -64 -66 86 118 -48 46 -52 -14 -90 76 74 -16 -22 54 -30 122 -52 -48 -82 -20 34 12 -42 -18 6 -20 8 106 -28 -18 -6 -2 16 20 -122 -110 -6 -26 -28 -64 12 46 -50 40 -8 -48 126 -68 -28 -12 32 -96 -88 82 12 34 22 72 4 -12 26 -128 -34 -2 70 20 22 8 6 76 -46 -70 -96 -128 -80 -114 20 -128 72 112 -20 40 -2 110 104 -28 48 18 118 4 -78 -42 -34 -12 50 124 -38 12 -84 90 32 -12 2 -46 52 -16 -6 -80 6 22 -16 -124 12 44 116 -18 12 -20 -74 -12 -42 2 -16 -24 -66 20 66 10 126 -12 -56 -78 -22 -126 -56 0 -16 -20 72 -24 -62 126 64 -126 126 -14 48 -18 80 4 12 66 118 -20 54 58 36 -4 96 24 -108 44 30 16 34 4 -72 10 -2 -86 -48 32 50 -30 10 -12 86 -44 40 -10 0 16 -24 80 126 40 4 -26 38 56 -2 -128 124 -20 2 -28 72 -8 6 108 66 -32 2 6 70 -54 6 26 52 116 -64 14 -126 74 -72 -26 -60 34 -14 34 -36 -32 36 14 50 54 114 -100 10 -18 -8 -22 -14 24 28 42 40 38 52 32 18 -6 -24 2 88 -112 12 -18 26 -116 -84 126 -8 -30 32 0 -62 -46 34 44 -12 40 -36 122 -2 -104 88 126 12 -68 -64 -8 -126 18 110 14 -88 -12 126 -8 -96 0 -30 -92 6 124 -48 36 8 2 -124 90 -68 38 -58 24 34 36 32 54 -62 6 -8 -76 88 30 32 36 -90 -100 4 -12 -32 -26 -4 10 58 -120 -80 14 46 126 94 52 -38 2 122 -118 22 -128 4 88 -78 124 126 120 -48 38 44 16 -14 34 18 -14 18 -126 98 0 -28 -54 58 24 -26 32 -4 -104 -4 52 24 2 -106 -10 6 26 10 -62 -126 -102 -12 -128 -62 42 88 -58 -120 26 66 50 4 120 102 126 46 -30 124 38 -4 -12 100 2 8 -124 -18 -60 54 14 -18 -68 4 -28 16 114 42 36 -22 -126 10 34 -20 20 72 -32 -106 10 -126 -26 44 -20 -116 48 74 26 14 -114 -128 
-38 12 -12 106 44 -32 110 60 126 -90 -128 -126 126 -4 -12 20 38 126 80 -86 126 -120 126 122 32 16 -50 -128 -42 -96 -116 -58 -128 46 114 -44 18 -124 -128 -126 32 12 126 10 54 80 102 58 -114 126 64 124 -24 126 -78 40 -40 14 110 98 -88 -126 6 0 10 126 124 -2 -120 40 124 -68 -128 6 -26 -120 -128 -126 -38 126 -126 -126 -128 126 18 72 -96 126 42 40 50 70 -10 -40 46 -116 -114 68 -8 92 -36 126 -126 126 46 78 116 -126 104 -58 64 28 98 8 -6 126 66 -18 28 -104 -36 -92 64 -114 112 -128 -128 30 96 -126 -92 -60 126 126 -4 -128 126 -46 60 124 48 -40 -122 -60 -124 -122 118 -120 -124 -128 72 18 4 -20 66 -32 30 126 -64 28 -20 124 -80 -128 -124 76 -120 10 104 12 108 88 -12 -60 112 -126 -88 126 4 112 2 -94 -54 6 -84 -126 -104 28 50 62 12 122 -84 6 126 10 114 68 104 108 120 126 -60 122 -106 126 10 -124 54 -126 30 118 -12 -82 0 126 104 -128 50 -2 124 20 -126 126 -70 -52 100 -128 114 12 126 -126 -38 126 -128 -124 100 -22 -124 -126 126 -124 -108 -40 4 -40 -124 -10 126 118 -56 92 -18 -72 40 40 124 100 8 -8 -128 32 34 52 -12 30 126 56 126 20 84 -30 -124 -72 -30 -10 -14 -82 -74 76 -74 -80 40 44 -30 -124 -6 12 -112 16 112 -80 -58 82 126 12 -124 -126 112 86 -28 -126 -40 38 122 126 -10 126 -88 -114 40 -126 -12 122 70 -18 116 -128 -126 -78 30 -78 122 -92 110 -44 -114 126 126 34 -14 98 -118 22 126 126 126 -128 18 84 30 -34 -20 82 34 -84 16 -128 34 72 -60 52 106 126 52 -128 122 52 0 94 8 52 -86 124 30 -122 54 124 -32 -122 126 -16 22 -112 106 -22 -122 -48 112 32 -124 122 -36 30 84 110 126 -64 -28 8 -14 -82 6 28 104 52 -104 10 -88 -94 8 20 38 -56 -126 52 74 -128 -124 -124 -122 124 126 -58 -128 -66 -126 116 126 86 -14 30 126 18 56 -124 68 -126 44 28 90 -16 -126 -114 126 76 80 124 -126 88 -34 46 -2 40 -66 -78 36 126 -4 -116 126 126 -120 52 -80 -126 126 -126 124 -126 -68 -120 6 -120 126 -126 -128 28 -76 -10 116 72 126 54 -92 126 -122 0 126 -42 -94 -8 96 -4 102 -46 -122 124 124 106 -126 106 -86 -126 -74 -46 4 126 -24 -124 38 -56 126 20 116 -52 126 4 -126 -70 108 126 
-12 72 -78 -32 -6 -32 -74 -124 -114 -120 126 126 98 -44 18 -88 -2 -128 14 70 -128 -126 124 -106 -128 4 50 122 -116 -126 -128 88 -104 26 120 94 -126 -128 -126 32 -16 -12 -124 78 -46 84 -38 6 -8 -118 18 -28 56 26 106 124 12 -16 40 -78 -60 -4 4 48 86 -126 -66 -56 76 -26 -126 -60 -50 124 80 -104 126 -126 28 124 126 -128 14 -122 94 124 -92 -112 -90 4 -128 -126 28 108 -50 118 120 -32 22 -112 86 -124 -128 -110 82 -66 -114 126 -120 32 68 124 -98 -58 2 122 -22 -28 -30 -118 28 126 126 94 -20 -22 126 52 84 -126 126 70 -108 126 42 80 -76 -122 -36 -34 -22 126 -14 126 108 126 -112 120 -36 -126 60 106 2 114 -18 86 -86 126 -104 18 -22 126 126 -126 -58 -76 120 -112 -12 -128 -124 -66 0 106 42 0 120 -86 -60 -66 -4 26 126 -18 108 -126 80 126 -68 -122 -72 -26 -128 -14 -108 -20 -126 -80 120 -86 102 -126 78 -108 124 -74 -2 78 -68 -128 -56 -78 -14 -126 12 122 -124 -32 16 126 -10 114 34 126 0 94 -48 126 60 122 -100 -126 100 -126 124 80 -70 36 -124 126 126 66 -14 30 -72 -38 -58 122 -122 -104 -4 -52 42 6 -32 -70 -90 -126 -6 126 100 -68 -88 18 -18 6 64 -112 -46 -116 -126 54 122 126 118 42 50 16 54 -104 126 6 -80 68 -126 126 38 -52 126 116 50 86 8 -96 116 -44 106 -124 -88 126 30 -126 70 126 -58 126 -122 -68 118 -76 -36 120 -50 -126 -70 10 -74 126 126 102 -36 80 94 88 -66 30 56 126 108 98 18 -64 86 -46 -126 -46 -114 120 -12 -46 -24 80 8 -64 -38 98 40 -124 50 -60 84 -8 -112 -122 120 -104 -58 -36 -110 -58 -14 -42 -56 -116 -108 36 126 84 14 42 -120 126 106 118 -48 -124 126 126 80 -8 98 -126 -108 -36 -122 -68 -128 62 124 -6 28 -2 2 -88 -28 -4 118 40 114 32 14 86 -90 -114 118 -128 -124 -126 8 -60 106 -94 124 64 -126 54 126 -26 124 -18 -128 -76 44 6 -58 124 -126 124 -66 -112 20 18 -50 126 -88 -92 -52 -104 -70 -4 106 -26 -114 -70 -4 104 40 126 4 -80 124 -90 118 -22 116 -32 126 96 -124 -128 -82 -126 56 -2 -124 -124 -124 -120 -126 -104 -80 -62 -126 14 8 -88 124 16 124 122 64 -126 58 64 -124 32 126 -124 124 -116 122 -54 58 112 54 122 -18 126 -36 68 -6 -92 -76 -46 126 88 -122 16 -64 -2 -92 126 
26 -124 6 -10 28 0 -12 58 -30 88 -6 8 -42 -30 8 -38 -32 46 -26 -32 56 -104 94 -42 24 18 -42 -122 10 -18 -82 52 82 18 58 -38 -18 -8 2 26 -18 12 62 -10 -40 -92 -126 -12 -8 -108 2 74 -12 -124 126 -120 50 -16 -82 10 126 -52 -16 -84 -26 120 -2 16 0 -10 -114 64 16 -126 20 46 66 44 42 34 -6 -24 110 -50 -26 -8 -58 -14 -42 -4 -96 -2 -126 40 18 56 -16 -28 -6 26 -30 122 -110 -48 -2 -12 14 22 20 -42 -32 -54 2 126 -126 -126 -26 120 -22 -122 110 -56 96 -30 -60 10 -10 12 -44 12 54 -4 -40 34 56 62 -62 -64 32 24 -46 -20 -38 -14 -16 4 -6 76 -14 116 -32 84 24 26 18 -78 -2 -26 68 70 126 -86 -28 106 -124 -110 -4 -124 126 40 4 -28 16 -20 124 34 -6 36 126 68 -26 -40 -28 -6 -26 126 126 30 -10 34 12 30 12 -16 -34 16 -14 -46 48 64 26 -34 -34 -38 50 -76 4 -24 4 -104 -18 -58 6 -50 6 -74 -106 10 -6 44 -126 -18 110 -6 32 -4 -22 -74 14 -14 -106 -116 -14 126 -92 -44 -28 -26 16 -34 20 -58 -22 36 -4 -126 -36 122 40 0 16 26 96 126 -14 120 -122 102 -2 94 -122 56 -82 -16 -118 -6 -40 -4 -6 24 84 -106 18 -126 -76 -88 -126 -126 40 -12 126 -2 -128 -126 26 -94 -4 -2 -52 12 26 86 -110 4 -50 -78 78 -124 -20 -56 10 -4 44 40 100 -66 116 -24 12 120 40 -26 -14 26 -86 8 4 -76 -50 -48 -36 0 -50 -8 24 126 38 -84 -24 -114 14 4 -44 4 2 -32 -80 68 34 -14 4 18 -6 -40 -44 -110 -56 124 -6 46 -106 -26 52 48 -104 22 60 12 -14 -32 62 6 -20 38 82 22 124 -16 -6 70 6 -40 48 -18 2 42 -42 12 -44 -44 26 -12 92 -22 -18 -38 2 88 -50 8 114 2 18 122 -10 -100 -42 -14 6 22 12 50 48 -18 -6 -80 -16 54 24 64 -18 -60 -22 124 -98 -12 -106 -16 -14 -14 -126 24 126 -12 -22 28 2 114 30 -24 -38 8 124 124 104 8 -8 0 8 -6 36 44 68 18 86 -14 44 -14 2 -16 122 -46 -8 -2 -16 68 126 -16 22 -120 124 44 8 -66 126 6 58 2 -126 -22 -64 90 -50 -28 78 -70 6 -10 40 102 124 64 62 -26 -16 -36 20 -42 118 -10 -44 -34 86 38 8 -56 -44 -70 80 124 124 -40 40 -42 8 -120 54 -4 -44 -38 116 38 
-4 -46 -42 0 58 34 122 34 126 62 34 -126 66 6 -10 66 66 -126 86 -128 126 14 -24 126 108 -18 4 6 30 6 -128 -66 22 -26 44 -116 96 126 8 -84 20 102 46 70 66 -80 90 34 -30 126 64 126 -56 -64 -68 8 -44 64 92 126 -126 -72 -22 0 -126 16 126 54 -124 36 126 44 -126 -54 -42 -128 -94 122 -44 126 38 -122 116 126 4 28 24 124 36 8 -4 30 0 -10 70 126 -128 -24 -42 50 -90 -2 0 126 104 126 42 -126 106 96 32 126 116 46 18 124 92 42 38 -112 -38 -58 -126 -128 120 -128 -128 120 58 -34 126 -76 126 -128 20 -126 126 -36 118 126 96 -42 -28 -128 -128 -128 -124 -128 108 -128 -28 88 -70 -18 56 -126 74 -124 -54 74 90 -128 -122 126 126 124 -128 124 -128 44 126 108 0 8 -128 48 -118 -58 88 118 16 -26 -116 -40 -34 -126 -126 102 70 84 30 -52 44 12 126 -16 -124 -78 -126 -114 -54 126 -92 126 -126 126 30 -126 98 -126 82 -74 10 44 -12 -126 122 -26 -48 -122 70 56 8 -96 -48 -44 -14 -124 126 74 126 30 -106 -128 -124 -126 102 24 -124 -128 -124 74 -124 -74 90 -122 -114 -86 126 126 -54 126 -46 0 38 42 72 -124 6 -68 22 70 -30 22 -82 108 -22 102 126 32 -126 92 -126 72 -124 126 -4 -104 38 122 -120 -98 100 38 26 -2 -46 4 -110 -102 126 -104 -128 92 -128 -48 -128 -126 126 -128 -56 62 -116 -128 114 -116 -128 126 -28 -128 -6 -56 -4 126 112 -128 124 -126 80 126 62 -126 84 -122 116 -122 -86 82 126 126 -8 80 -124 22 -128 126 126 -126 12 108 96 -98 -22 108 -126 -126 -4 -2 40 126 -126 54 126 126 -76 -92 122 68 -28 50 4 10 38 126 108 -126 -126 24 -30 -126 126 -24 -92 -124 114 -40 36 -124 120 -126 -126 124 -126 -50 -126 -18 126 -126 -124 28 -40 -32 90 74 118 -22 -126 16 122 120 0 44 102 -24 -126 -52 126 -20 -126 126 -126 124 -122 -128 126 -42 126 122 112 100 90 70 126 6 16 -126 126 -8 126 -18 72 12 126 -126 -114 114 106 126 -30 46 46 84 116 120 78 -112 70 -120 -16 126 -42 126 -104 116 -124 102 -128 56 126 80 20 126 -30 -56 -68 -84 -126 -16 110 42 124 -26 126 14 -120 126 96 -10 126 44 -52 -20 126 -124 126 -110 -124 -68 116 126 54 126 -52 0 -94 -56 108 126 -126 22 -18 10 -110 88 -82 -80 126 4 -24 -72 94 126 
48 -8 -88 0 -14 42 -126 -72 -50 -90 2 -110 30 68 6 96 48 -2 -6 36 56 -40 -58 126 -12 -18 14 -2 28 4 4 124 -18 82 82 18 -126 18 -30 14 10 -30 126 -84 -2 -14 -6 122 -46 -128 20 94 -128 -30 30 -16 -38 -28 -38 106 14 16 -24 16 -72 -56 82 20 -78 20 44 -38 -4 -2 -102 -70 -30 -2 60 28 -6 74 14 -4 -42 -40 -94 -128 -110 -42 126 -26 -16 64 -86 18 44 90 -34 -40 -24 74 8 8 -78 2 -58 -18 34 -80 -54 -16 -58 26 2 4 50 22 -42 18 -60 -128 52 -52 114 -78 -84 20 14 6 -38 -72 -126 -26 -26 -40 -102 56 -14 34 -12 2 -118 90 26 -22 2 -124 -30 24 -76 -72 34 -60 -36 -44 54 -42 -6 -8 4 -2 68 -4 56 -54 28 -16 54 22 -126 114 -102 38 -38 24 -10 10 2 -58 20 26 -128 -22 -4 -22 38 -94 -12 120 -94 32 -18 -10 -40 -36 -2 48 0 -40 6 126 26 30 14 -46 -4 -22 2 8 -20 -36 18 -22 4 18 -22 74 18 64 28 -48 2 -40 -126 36 -28 -16 40 -6 18 6 -76 4 -40 -42 -52 -116 -20 -34 12 -32 4 102 -20 20 -22 -36 -124 90 -28 54 16 70 -86 -68 40 -42 -16 -52 -68 -46 78 -16 -2 -50 92 14 -32 -14 22 -10 -48 -126 -80 24 18 36 -24 86 -122 106 24 26 42 -36 -64 44 70 -10 -106 -46 -52 -32 -60 72 -126 -12 20 -56 16 22 98 -88 32 32 120 -126 -8 -32 -104 -46 50 -4 10 42 -32 -10 -18 -44 -58 14 -58 8 -24 -6 68 44 48 6 0 -102 -14 -30 10 124 36 52 -126 -40 -128 24 4 -124 64 6 -68 -38 -128 14 -30 12 -46 -32 0 -4 -32 -14 66 -48 4 72 -22 -32 18 52 -58 -68 10 18 0 -86 36 -12 100 16 -8 54 26 -6 126 -126 -78 2 40 -6 98 38 -92 6 20 -50 32 -6 -20 106 8 14 -42 6 -52 -54 -114 -24 -38 -18 -48 -12 26 38 80 -32 36 26 -50 44 18 -108 -20 2 -34 68 24 -100 46 -126 40 40 -74 -34 100 -8 -8 2 4 52 -124 112 42 38 -32 -44 -40 -20 -26 -38 50 -10 4 4 -24 126 -44 52 22 -54 -56 4 -36 -10 0 -32 -12 78 4 74 -20 48 22 50 46 26 126 -8 -14 -6 -44 16 44 -14 2 -92 76 -2 98 52 -4 -68 20 48 68 -74 0 -106 10 -94 -10 58 -50 38 -42 -14 26 2 -36 -54 -90 50 -126 -8 -20 20 
34 -44 -38 -30 -50 -22 -76 24 -88 2 -42 18 -56 82 0 126 -6 28 16 -14 -30 48 74 -92 -84 24 126 -16 -58 16 -8 114 36 -116 2 -84 118 2 12 -28 -12 76 -10 76 -4 14 58 -128 -2 -126 -20 -18 -128 -4 68 -20 38 16 0 102 82 12 14 -18 34 -8 -78 32 60 6 46 14 -24 12 -56 -16 -32 -10 18 -6 124 -20 6 54 -42 -60 -58 -48 -16 68 -110 -28 -4 -4 -12 -32 124 -26 10 100 -8 -126 12 -122 -80 -48 -126 -2 -76 -124 52 -36 -20 22 -66 -34 6 26 114 -6 26 -126 -4 122 34 -104 -38 -14 78 34 0 64 -128 -28 -18 -92 -126 22 28 -54 -66 96 -36 4 6 -26 22 22 -16 38 26 -22 -34 -14 32 -10 -128 44 66 -26 -18 66 -126 42 -8 84 38 -26 -8 90 118 26 108 84 -6 -18 -80 -12 24 94 4 -8 104 58 -32 0 124 -38 -4 96 -16 126 82 -2 -108 40 -42 -34 54 -122 -118 118 -26 26 122 -16 -6 -72 -26 -66 -4 18 16 14 -8 70 38 -36 14 40 36 -56 -4 60 -12 -42 -126 -10 62 20 14 30 -4 -2 -12 40 2 34 -4 30 42 126 10 46 116 24 -124 28 70 50 -18 26 14 -84 14 32 -52 -126 2 92 -68 124 -124 -54 56 -80 68 86 -106 -28 0 4 -36 -82 86 2 26 22 -70 -20 30 26 -36 26 -46 24 -62 -122 20 -12 -122 84 -46 -24 56 -8 38 -14 -40 -2 -14 6 110 -62 20 10 30 56 -44 -14 -126 0 -8 36 8 -64 -44 -14 88 -104 -26 -32 34 50 72 36 44 -24 0 70 -4 -32 -42 -4 -12 78 -82 -12 126 -2 -124 124 -8 44 16 -66 64 -6 -120 30 -10 8 4 -52 -10 2 0 -18 126 8 -8 36 -12 -126 -126 84 -36 38 40 -42 18 2 54 -90 112 120 70 -84 -24 30 20 30 -4 38 120 -54 44 -28 20 12 -54 -76 -68 0 32 96 64 2 -34 -128 20 -126 -14 24 82 -24 120 -14 -26 -46 -70 -126 -96 40 84 64 12 -66 -28 46 -14 -62 -12 -36 -70 -112 -122 -18 106 -128 -52 -94 -44 36 -34 -16 -70 -128 -8 -4 -98 -116 16 38 60 122 -2 -106 0 6 14 -36 -40 -128 46 14 -8 -18 -36 10 -66 -2 122 -110 42 20 16 36 80 -24 -14 -24 6 22 34 116 -110 -12 8 -126 0 14 26 80 64 -108 -36 -126 6 -126 124 120 -6 -26 22 -8 52 2 -18 -8 8 -22 36 4 22 -18 -8 22 -22 -28 12 -18 
-58 36 -56 -68 -124 14 -22 70 -8 6 76 4 -42 14 0 50 -22 -64 -104 92 -26 42 70 -14 -52 28 10 -126 -12 8 -26 126 -62 10 10 -10 18 16 114 102 8 42 10 12 -48 40 -30 -16 -112 -22 -78 48 26 120 -30 126 72 -26 28 70 108 -62 -6 -102 -20 -20 42 64 -10 0 -6 122 -32 126 -28 -36 6 -126 -26 38 -14 -56 -96 54 18 16 16 -36 10 -8 -46 -12 70 8 -48 -126 30 -2 2 -30 6 2 -102 2 -20 -114 38 94 -116 14 -52 -6 -56 -38 0 -8 4 40 12 -22 92 -100 20 -42 12 26 24 26 -4 126 48 4 -8 -48 -120 12 8 2 -98 -46 64 26 4 10 34 -20 -86 46 -128 -16 -26 -24 26 62 -8 -20 28 24 -34 -10 -122 -14 -2 -100 120 -78 72 -44 4 -16 78 116 -10 124 42 -72 -16 10 -12 -22 -10 18 42 12 46 64 18 -34 6 18 54 54 -10 -10 -12 8 4 12 98 42 44 58 30 -22 -30 -64 6 -30 6 20 -10 -88 -2 -32 4 -54 -26 60 -100 -38 36 -48 90 20 -6 4 28 76 70 30 -120 28 114 -128 -66 124 12 50 -96 -8 -84 -74 -106 -16 -28 124 2 122 12 24 -12 32 -14 -116 4 14 10 58 2 -96 58 86 94 56 26 -38 -48 48 -6 -2 -6 -82 -8 20 -98 -126 118 16 120 114 20 46 -12 122 22 36 68 -2 -66 -74 -14 4 -12 4 -48 52 116 78 -94 0 48 -46 -34 14 74 -56 60 -82 0 72 16 -18 50 -68 10 36 60 -36 -62 58 22 -26 28 10 -14 -54 -6 -2 84 76 -8 -10 -126 -34 124 -28 -78 74 12 14 10 -94 6 12 -24 24 -78 -54 18 -94 74 86 -14 52 -124 -58 -124 6 78 114 24 34 -14 -4 -8 120 22 100 -8 -2 -84 -6 106 -2 26 -20 -48 -98 -58 -4 94 -30 -46 -56 4 24 122 56 22 -2 -128 26 -12 58 40 -34 -6 -14 -38 -66 -34 -32 32 32 -104 30 -4 46 122 44 90 -54 -24 -40 28 -2 92 -46 -86 -4 76 126 -90 -12 10 -6 6 -42 38 6 -18 14 124 -42 14 -40 -56 -14 16 26 44 6 -2 2 -12 12 16 90 10 26 74 6 -2 -60 -54 -40 126 -34 14 -30 -22 -52 66 48 -80 -44 108 30 70 56 12 -120 4 34 124 22 10 2 -18 -38 -122 -54 18 42 -44 8 -4 -10 74 30 48 -60 -4 38 12 4 10 -128 40 0 -42 126 -12 -12 34 6 -32 34 28 -36 -126 112 
116 40 26 16 4 20 -68 -4 58 -18 72 34 -4 64 0 60 2 92 -114 0 -12 -36 16 90 126 -32 -6 -12 54 26 126 28 6 6 -18 -26 32 -46 -120 60 -2 28 14 24 -116 -62 48 -72 -112 18 -122 30 0 60 -98 126 100 -24 58 18 120 -34 -16 -78 -42 20 -34 -4 68 10 44 -52 20 -92 -100 56 126 70 54 -100 -14 16 -126 80 -72 38 32 22 -82 -18 126 74 0 6 -12 16 -10 -96 4 14 66 -2 -2 18 6 -64 64 4 104 -32 -4 -24 -2 -126 126 -38 28 -32 2 -42 26 -54 -52 40 48 4 -38 -66 62 58 10 -30 -74 -4 50 -18 20 -94 2 -6 28 -46 -38 -56 66 90 30 60 -62 -38 86 26 -10 -8 16 48 10 -38 -120 -50 -12 6 -86 0 14 -60 -56 120 -120 30 90 122 10 -126 60 48 -64 -20 106 -26 10 -34 6 32 18 66 108 -26 -40 30 -36 54 124 -10 36 -26 -48 24 -62 -14 18 54 -78 30 -88 22 -2 -68 18 124 0 24 -4 -16 0 46 72 -58 -94 -12 -26 -24 -74 44 -2 -10 -14 12 -46 8 -58 -28 -18 0 114 16 82 26 -36 -24 64 -10 126 42 -44 60 -6 -116 8 8 16 2 -26 -118 -4 -30 18 -8 6 34 -16 -52 28 -52 32 -60 10 88 26 -6 -122 124 16 6 -126 -114 -42 -100 -68 76 -30 24 126 124 116 -120 14 -20 -34 0 8 24 32 36 -122 84 102 -20 -24 12 -26 -36 10 -50 -124 -8 -4 0 -26 68 -40 -122 -24 -66 -126 24 -34 -84 34 -38 40 -48 -126 18 6 -118 42 46 22 -124 0 38 -124 0 34 10 -12 88 22 -4 -44 -72 2 34 58 80 126 -12 30 -10 18 -70 126 -42 -2 -24 54 46 6 12 26 54 12 50 2 -24 -76 124 -14 -126 -44 -80 68 12 20 -30 -28 -54 -42 98 -32 36 56 124 -28 58 46 42 -46 0 -126 10 22 -38 -16 -60 38 18 18 4 36 6 46 6 60 -64 14 14 -94 12 -36 28 30 108 -2 -2 -126 -50 98 -24 -104 112 -24 -26 6 64 44 -70 68 -4 6 10 24 -48 -10 -22 -14 -46 0 -2 -120 54 -110 0 -78 -28 78 -26 -2 -30 -60 34 52 -52 -108 -36 -52 126 34 -52 46 52 68 -22 -88 24 2 -56 -86 0 6 124 54 -66 78 10 84 6 -18 70 24 -22 70 84 36 -52 -8 54 2 -26 52 90 70 -16 18 -4 44 10 106 -82 -120 122 -42 -24 -64 40 2 -2 -12 28 20 -12 
32 126 -110 -40 82 -38 32 -46 -84 -2 -50 90 -24 -26 4 20 16 -128 -52 26 6 -6 -30 -72 126 106 54 -44 -42 34 -24 18 -56 68 -106 16 38 48 -46 98 0 44 -82 18 -124 -42 -108 38 -126 -40 -30 100 32 66 -48 126 62 18 16 26 -24 120 -10 122 50 90 -84 -2 50 12 -80 122 28 -4 32 -22 -124 -4 -40 124 -26 102 66 -50 -38 8 -28 44 6 14 -58 20 8 24 -126 -84 -32 32 0 -32 18 -86 -100 0 -58 -24 0 126 126 -30 -4 54 12 -126 100 -122 -18 -122 32 126 48 62 126 112 18 -90 -68 -128 -24 -22 -74 0 -44 -98 124 36 0 -48 -32 -124 14 -34 46 8 4 22 -94 108 -60 22 32 16 30 48 24 -22 66 126 26 4 -44 -62 120 42 126 -126 0 -126 74 -44 -66 -74 44 118 -50 -40 -2 -122 -126 36 28 -46 78 -28 -94 -124 90 124 -32 12 -4 -38 82 -4 -28 -36 42 118 104 54 -20 -94 -2 -118 70 -6 -16 42 -34 -38 -26 -110 12 30 -12 -118 -68 -8 -116 68 12 42 126 -108 72 -124 20 -90 -18 20 -52 24 -4 94 48 34 60 -20 126 -16 126 -20 -8 22 48 -72 0 122 -38 -48 58 28 -116 126 -12 30 96 52 14 -104 32 94 -46 -88 118 -82 -6 6 8 32 126 -60 28 -32 -14 20 74 -42 -14 -50 -14 -48 116 8 126 124 -6 -106 126 68 10 26 36 -14 -76 -62 50 -126 -40 102 -26 -80 50 78 -120 -124 68 -22 34 -72 -116 122 14 -32 -74 78 32 12 120 94 30 26 -126 88 -16 -122 28 4 126 44 -16 -42 -12 20 -24 -72 -14 120 -92 -34 54 46 -4 -78 12 -36 126 34 -18 -110 -124 -126 46 -122 124 -30 -16 -4 10 30 -74 -22 -8 56 -44 -94 74 124 6 32 -16 -16 18 68 -58 -98 100 96 80 32 12 -26 32 36 16 120 8 126 56 2 -126 16 -30 24 6 22 -6 14 -126 66 22 -36 -44 -100 124 -50 -68 -58 48 -48 36 -24 -44 -124 -110 -40 56 6 110 28 -74 80 -60 -22 -24 82 -90 60 -38 4 36 50 -124 126 32 -6 -76 2 50 -8 -18 24 42 10 18 10 -2 126 -10 -86 26 -84 46 72 0 106 46 -126 -104 54 124 16 -96 -22 -126 -6 98 32 -80 -56 108 126 -16 114 32 -62 30 -10 -126 -60 0 -2 100 12 -28 -18 122 26 32 0 42 -72 42 48 -10 6 54 -88 -126 46 68 -126 -58 -44 82 -126 34 10 -28 48 -108 62 
4 114 96 50 -22 -40 26 124 -74 -6 -126 58 126 -28 -8 54 10 86 -42 98 38 126 -58 -6 -82 -16 98 110 -20 58 -26 110 118 26 58 -48 76 -68 -128 46 6 -76 -38 124 -52 124 -12 40 28 -22 32 -84 -70 126 -34 -34 -46 34 -106 -58 -4 36 4 48 -126 -20 -54 80 -108 18 -50 -10 100 -88 6 48 114 126 18 120 104 -4 -32 8 -14 -106 -126 32 -2 -8 12 -110 28 6 80 -114 112 -126 6 10 -36 -32 -122 -6 18 44 -92 8 -34 104 -24 60 -36 -40 50 120 30 80 -104 118 122 40 126 102 -70 -124 68 122 120 126 -82 26 -10 126 -36 -118 20 -8 -32 -122 -68 -122 122 94 126 124 -60 42 -18 -48 -46 -126 64 52 56 16 -18 102 -122 40 56 -126 54 122 80 40 -82 -28 126 122 22 36 16 -128 -128 62 -6 8 0 42 32 124 90 -10 -104 -126 -12 54 60 74 -16 126 18 -14 -14 -38 30 96 -98 -12 -128 -58 8 -20 58 0 4 -22 -16 64 12 36 12 -70 -6 2 -56 126 66 62 28 -8 -68 -70 110 10 -122 120 -84 2 28 126 72 122 60 -16 22 94 94 16 94 -120 -38 8 126 -94 124 50 48 -44 24 20 -20 -62 0 -126 -4 -10 2 -126 -126 30 90 16 4 46 70 -8 -60 -16 14 -120 40 -118 2 106 -42 98 84 -22 80 -50 6 -102 -104 -124 44 -80 86 -76 -54 -18 110 -14 -128 32 -6 122 46 -40 16 -12 -6 106 6 -48 76 -4 -6 126 22 -38 -48 -76 2 124 16 -120 -100 -38 -8 -74 60 34 -116 74 -26 110 50 -86 -2 52 6 -6 4 -42 -36 2 -30 12 14 -20 14 2 -88 38 22 -128 -4 -12 -74 -28 -24 -66 46 -114 -50 42 48 -126 -126 50 14 74 -10 14 -12 126 -22 -74 22 -96 98 -44 -54 126 -16 -30 -126 -108 -70 56 102 -70 120 -122 38 6 82 -2 -28 -48 122 14 -42 126 -40 20 126 -126 42 -82 -42 34 34 -10 -120 -60 20 124 36 -50 16 -34 74 26 -126 6 -128 -18 -112 2 126 -38 24 82 -92 14 38 -8 26 92 -34 -126 126 66 30 20 -4 32 -118 -6 4 -30 126 -48 16 -64 2 -54 -34 -48 68 72 -60 -8 22 -124 -60 126 -128 -120 -80 -74 -90 28 4 -126 -126 -100 38 38 18 -6 -38 -38 -124 8 -26 -116 30 -76 -100 0 -96 16 -16 -124 8 0 -116 -2 -104 -12 66 118 -10 38 126 118 -10 10 112 -24 78 -52 92 -28 -126 116 38 -94 
-14 4 -28 -100 4 0 -96 -34 6 42 88 52 46 10 2 86 -48 56 58 -2 -78 126 -4 70 -46 0 104 22 -26 50 58 -6 56 -8 26 54 124 -40 -40 -18 12 -112 58 -128 -70 -64 72 -2 2 -126 -10 -8 -26 -20 -16 12 24 -10 32 -28 80 -2 -18 -32 68 38 22 8 46 16 -8 -18 10 56 -82 -14 16 0 -30 26 -112 -28 38 4 32 -110 0 54 -28 26 -86 0 12 30 -124 48 118 38 -46 -30 -42 -2 -12 -82 -48 16 94 12 -100 -82 -88 24 -68 -28 40 -46 0 -12 -98 2 -38 8 24 -56 -128 4 -90 12 16 -32 -12 -24 -122 -8 30 -46 -32 -24 22 -4 14 -128 -82 20 -26 -40 30 -122 34 -4 -126 68 12 66 2 96 -54 -116 118 34 -16 -72 -122 -116 8 -18 24 -4 8 -2 -120 -8 -34 66 -108 -8 58 2 2 -44 6 -2 -50 -16 10 4 10 46 -10 -26 24 72 36 -10 0 -18 28 22 -36 -82 -20 -108 -54 70 -82 26 -20 -30 4 18 10 44 8 -126 0 -6 2 8 -12 22 26 20 -10 -124 -68 -12 -12 14 66 -62 18 2 72 4 48 34 -38 58 54 -16 86 -68 -2 6 -60 26 114 66 -18 -126 52 -14 46 -12 10 8 -2 116 16 76 48 -124 -50 -26 -12 -44 -32 -30 -10 -100 0 10 18 24 88 -2 -20 -16 32 -36 -92 86 12 -2 8 48 -14 10 -126 -64 -34 58 50 28 6 -40 -8 10 -78 -14 -12 -10 104 46 16 46 0 -126 126 -42 6 -12 -56 48 2 76 -66 40 32 -52 30 -4 -8 -36 -60 28 64 -16 54 -26 4 40 16 8 4 38 -18 -30 -114 -2 -128 92 4 60 84 26 46 16 124 -22 18 14 28 -32 12 28 -26 40 126 -28 -126 -16 124 -72 -22 62 -4 -26 2 22 52 84 -32 -24 32 32 -126 8 -26 -48 2 122 -84 -54 104 -8 124 102 -46 16 40 -96 -52 -14 -54 -82 52 -8 8 126 -118 124 -44 -126 60 0 8 54 -20 -80 -26 -118 82 -52 -62 -16 -20 -58 -2 14 18 -108 -30 -52 8 -38 42 -42 -122 -128 -16 4 -26 76 -128 -32 52 -126 126 0 80 124 6 -2 80 124 -16 -112 2 0 -56 -76 -30 -54 56 6 -24 6 -38 68 -16 40 72 90 10 14 -54 22 42 -108 48 16 22 -14 -8 8 72 -30 48 120 28 58 14 70 12 18 14 -30 26 -122 -8 -126 34 -128 -24 14 46 -14 -4 16 36 -12 126 -4 126 42 -2 44 -28 -126 24 2 
6 6 -74 -24 26 -8 -102 -68 -122 -6 -12 -102 -42 4 -8 -54 60 -2 46 2 -6 36 -8 -28 -124 0 72 38 110 -38 -32 -126 -26 64 78 76 50 -62 4 34 -6 -62 6 20 -36 0 -20 -78 10 124 6 -18 126 -34 2 -8 -26 -58 -40 -126 18 90 -4 28 -30 42 38 26 52 18 -80 -30 0 14 2 26 -38 12 -40 -20 -38 -36 -2 10 -64 -96 -82 44 22 16 126 50 28 4 114 24 22 64 -6 18 -6 36 44 -68 126 -24 -10 -28 -16 -6 -68 12 -120 -2 4 -96 -2 0 90 -100 -8 -124 20 24 -126 -66 -98 -60 24 -34 10 -12 38 -16 -10 -34 88 10 26 -10 -4 -10 -44 96 -56 30 14 100 -30 44 -10 -110 16 0 20 36 -14 -26 6 8 -40 56 -34 24 16 4 -40 -24 8 72 -122 -32 12 88 -56 -58 -24 60 -64 -98 16 34 -122 -18 -10 -116 68 -16 -72 -14 126 58 -48 -2 28 -20 12 -44 -8 -30 16 -122 20 126 -68 4 8 30 2 -94 -4 -6 16 60 -10 -54 -124 24 18 6 -6 -20 10 -112 42 20 -108 70 -16 4 64 -4 -66 -40 -60 16 -14 -2 34 -80 32 24 6 -2 24 8 -68 -46 8 -26 36 -14 4 -18 12 18 14 22 24 -62 126 22 -110 -40 16 -50 -80 -40 -14 70 -40 -42 -20 -14 -124 -22 6 -42 -2 2 90 24 2 -22 12 -122 16 -66 -52 -42 -88 -22 -118 6 2 -52 96 2 -114 18 -8 -74 -40 28 -2 48 -36 26 94 122 -16 -38 6 -12 -2 -48 120 10 0 2 -8 -58 78 -80 -34 0 48 118 36 -4 -8 0 -30 14 0 -126 -32 -8 -10 -46 -94 -56 -8 -14 82 -48 -92 -66 -68 16 -6 34 -36 50 56 48 24 8 -8 -10 -4 42 50 118 -20 4 -14 -2 24 -6 44 -106 -6 -20 0 18 -16 6 42 18 -42 16 -52 -28 124 -52 -26 0 -18 -22 28 -20 124 20 -76 -126 4 10 26 -68 -56 20 -8 -72 74 14 126 -32 -16 66 -32 -30 22 2 -28 22 -58 -112 -16 -80 8 -124 -16 -20 10 40 124 98 4 -58 14 36 -16 62 -30 -20 -52 -90 -40 -38 -2 46 -14 36 98 -60 8 122 0 -68 102 0 26 -30 -8 32 18 60 -124 42 -28 -48 22 -26 -8 70 12 -60 8 -46 70 2 -66 28 -22 -2 30 -16 48 72 -12 -4 54 124 32 -30 -24 -64 -48 -22 24 -12 -16 32 12 30 26 -32 -40 24 -34 -14 118 -12 -30 -14 -76 6 66 58 -18 6 
12 -124 2 32 -124 10 -58 -8 4 -68 82 -126 32 -38 -2 -50 24 -70 -126 68 32 -48 6 42 -114 104 8 -46 86 26 -28 54 24 -2 -2 52 -26 -18 124 94 -6 8 -12 -16 -66 2 -86 34 126 8 -80 32 -14 104 -98 -10 -40 -34 -4 88 126 -92 0 -32 -18 20 -34 106 10 -18 -28 108 40 -14 10 -6 28 -122 12 -52 54 30 -118 -12 -18 -26 40 -20 -40 -34 76 24 -46 -2 -18 -40 30 18 -8 -24 46 82 -4 36 -2 -124 74 0 -122 18 44 -62 -48 64 6 12 -36 122 26 6 66 -90 -66 46 -12 -110 2 14 14 82 -66 -40 30 -90 42 20 18 6 -42 -14 -38 2 68 38 46 -4 -122 60 -4 14 10 28 -12 -4 -28 -4 -10 -50 -48 -48 86 18 -18 2 122 92 16 -2 -58 18 12 122 52 -78 -36 -124 6 -40 122 60 0 -18 74 0 -78 16 94 62 -2 8 -16 20 24 0 2 -22 -20 22 -42 -4 6 -34 0 20 -26 -18 0 -24 -28 -54 30 -76 20 76 -6 -126 28 -68 -128 -62 -128 -26 126 0 12 126 -2 72 -80 -22 -78 -6 70 -36 64 6 -48 44 92 -100 66 0 16 -2 22 44 38 -36 -22 110 10 38 -106 10 -2 -16 20 20 4 -4 -58 -40 30 -54 108 30 -26 24 18 8 -20 30 40 -26 42 -124 -42 -106 -72 50 108 -26 -128 -24 -32 8 -20 -4 -58 110 88 116 -90 10 -80 -2 108 50 52 72 10 -64 -6 46 126 12 26 70 -26 80 84 -6 40 -84 -126 74 16 -46 68 -50 0 38 14 -52 -14 126 32 68 70 48 0 -36 86 -10 4 18 -66 124 24 -12 28 22 0 -18 -20 -14 -126 30 -78 -22 38 126 -32 -24 70 12 -32 -6 84 -128 26 30 -4 -30 34 26 -30 -40 0 8 -22 -30 66 -34 12 8 -38 64 106 52 -20 -8 24 24 14 14 62 86 20 4 62 16 0 32 44 -80 46 -34 -2 44 6 -10 26 32 126 -22 -48 -6 -124 14 80 -14 -22 18 -30 -36 -10 -66 -4 2 -16 100 -64 4 2 22 6 8 6 108 -24 -8 -78 22 -50 -44 -6 38 64 -22 12 32 -48 -50 54 10 20 70 14 -88 126 48 -92 -10 -122 -10 126 -64 6 102 -18 -36 -18 14 -124 -4 64 -24 38 -66 -76 6 0 -102 116 -20 -10 -6 10 -18 20 -46 38 -22 8 28 -44 0 -50 22 -72 -32 62 34 -36 -18 -38 -92 46 20 38 90 -14 8 26 124 24 20 -24 -10 -50 94 
-6 8 -26 -48 2 10 -88 54 52 18 72 78 56 6 4 32 -52 -4 -82 24 48 124 -56 94 -48 -30 92 -64 126 8 -60 40 108 126 -42 18 -122 -12 -76 84 -10 -116 54 -24 -126 0 26 -26 -4 -128 30 28 -122 24 -4 2 -32 52 112 46 -44 -2 10 -28 60 92 -14 -66 -42 -30 64 -6 -34 -42 -48 -6 -96 2 -70 46 -8 -126 14 48 -118 12 8 -74 -38 -46 30 -36 -2 -118 24 -52 120 -128 -4 -126 -6 34 -28 -6 78 -14 -16 4 66 26 -126 44 26 -10 28 -16 -52 -52 94 -8 -10 56 64 -114 -22 12 124 -84 18 -52 -40 26 -40 34 -84 126 28 64 -96 -62 2 16 -96 -62 -14 -36 8 -12 14 40 -22 -122 -8 10 -8 126 -4 -46 -6 -84 -10 -36 -58 -24 10 -110 124 -34 -14 48 -52 16 54 120 36 14 -114 -58 0 -90 -24 28 78 18 -24 94 0 20 -24 12 88 -84 110 -16 -52 -50 112 54 30 120 54 70 -36 -10 -26 -42 22 122 -10 -48 -38 -60 12 14 10 36 106 12 -76 30 -64 -2 26 -126 -58 98 -72 -28 82 -124 -108 62 10 -2 30 6 26 4 42 18 94 -126 -14 14 -122 -72 -28 36 -104 -92 48 124 48 -64 0 10 70 -62 -12 44 86 -66 -48 6 54 -126 116 -34 -126 -12 -26 -32 -46 12 94 -46 -50 80 118 -28 -68 -4 -58 38 32 -32 -88 -126 -20 -126 -126 92 -64 4 -76 -76 12 52 -16 78 42 124 126 112 22 -96 -20 16 126 -56 66 8 102 106 -64 10 -34 -4 8 22 84 -18 88 90 -126 4 68 112 -58 6 -10 -38 44 -28 -62 18 -98 16 -8 6 -98 28 0 68 -110 -118 -12 -44 14 -124 -14 -34 8 -6 8 -50 -70 34 -126 42 48 -30 -120 -116 -116 32 -28 10 -18 -66 -126 -14 76 86 42 -12 116 -126 -86 30 -96 6 -64 -52 -44 -66 -44 -124 38 -14 -10 -124 4 -48 10 126 -118 42 -114 32 -46 -60 110 18 0 -16 40 -94 -92 6 -40 -26 86 -38 46 28 24 -40 -6 10 -2 98 -60 18 -80 100 2 -32 -32 -70 34 126 44 42 -108 14 24 -30 -22 -6 94 92 -126 -12 -120 8 -30 54 -2 -124 -56 44 4 38 58 18 100 -86 -56 8 -40 46 60 -62 -48 -30 22 16 -90 32 -6 0 -52 38 126 4 116 22 -6 -96 -46 0 12 60 42 -74 -10 112 -32 -52 126 92 38 8 82 40 42 -8 -60 -12 -60 -48 40 10 -28 2 92 -46 -10 46 -12 -60 
2 46 -14 112 52 18 -22 36 -126 -18 120 108 86 4 -4 122 46 -30 108 52 -30 -16 24 -128 64 -24 68 24 -30 126 44 -126 -94 14 68 126 28 60 60 -34 -22 118 -122 -32 54 88 54 -128 -88 -80 34 18 -116 12 126 -30 24 46 2 -126 64 2 40 38 28 72 2 6 124 26 14 20 18 68 -126 -12 34 -50 -40 0 0 106 -48 -70 26 -124 52 -40 2 -22 -46 -38 -6 50 -8 30 80 -14 2 48 70 58 54 126 50 -126 -128 -8 -126 -126 98 -16 104 -16 34 -34 -8 110 66 4 40 -128 66 32 118 24 34 18 -30 0 -46 22 -128 38 108 -6 -128 -2 -34 -12 -36 16 -126 14 0 22 18 36 56 22 6 38 -56 20 38 -16 -114 42 0 0 76 -8 -84 22 -14 24 36 26 -12 28 70 -30 -40 -10 0 124 -108 32 20 -128 78 10 126 -122 14 62 126 -24 -14 14 -14 28 -34 -50 58 -70 32 24 -62 70 54 -126 126 -122 54 -56 0 22 -16 0 118 -60 -40 70 22 -26 -20 76 8 14 28 -28 -60 56 -36 126 124 34 112 34 0 -14 -126 56 18 74 -58 -30 16 34 34 84 78 72 88 26 -34 12 126 -128 -30 -128 -44 10 8 -66 -112 106 -22 122 52 116 -128 -104 68 90 -56 98 -100 -44 -8 20 8 78 126 -10 30 -126 16 126 -8 98 -60 -120 -20 34 -72 60 -128 -10 12 40 8 -64 90 124 60 14 106 16 44 -68 -96 4 -22 -10 12 74 -112 26 -126 -6 -54 -40 -126 124 24 -14 72 84 -22 122 -24 56 124 50 -124 4 48 40 -16 -16 96 112 -28 -128 -110 46 126 -28 -128 126 -4 -12 38 16 -124 2 126 -44 0 -84 -4 -124 -26 2 40 -66 -86 -10 20 -94 10 -10 72 124 -18 18 6 22 12 -60 24 -128 86 52 36 60 -26 0 -14 28 -18 118 126 -46 126 88 6 -24 -52 26 6 26 -116 -120 112 -76 -30 -124 -126 50 -106 76 126 -22 126 -18 -68 -32 116 -128 28 10 34 -36 -30 -128 4 -20 38 -110 16 50 40 -128 -126 26 -12 -52 -2 10 0 -8 34 2 88 -126 34 40 48 56 0 -16 126 -124 60 2 -12 -4 52 -118 64 -126 110 -24 0 4 -38 -20 74 58 -8 68 18 66 -20 112 -20 92 -124 -66 -72 4 110 98 42 10 28 -40 112 -12 10 -108 -24 -74 34 94 10 -128 -64 6 4 68 -12 -58 26 18 -6 60 12 6 -124 -50 0 36 -126 56 -124 -32 -18 12 
22 -4 -2 26 -10 -34 -52 126 6 44 32 2 10 76 30 90 38 -12 126 30 -128 -94 -8 60 -22 -18 38 -16 76 36 -46 24 -10 -128 36 -12 116 24 -56 124 8 126 -2 18 -2 28 92 26 20 44 66 -72 74 -52 -114 -16 28 126 -38 4 -72 -50 -36 -50 -128 -128 80 -82 2 14 22 114 -24 20 88 -128 -44 -54 -36 -22 20 -128 4 86 126 6 -48 84 126 -34 52 124 70 32 -24 -50 -94 4 6 126 -126 -16 94 -28 -50 24 -78 8 -66 24 126 50 -16 48 -114 -128 -114 2 2 -128 -54 -36 -12 126 -94 -26 -18 8 -82 -16 10 62 -34 24 -76 -84 -68 42 -118 -116 -18 -38 126 -126 -72 126 -18 -40 58 -78 -10 44 124 8 -20 -128 -10 -10 -64 -122 32 -2 -18 -68 100 -72 -122 -128 84 -8 120 -126 -128 22 -6 78 -116 54 -34 12 -126 -88 -126 34 -60 -40 -100 16 126 -86 -128 20 26 10 -124 -118 -56 -54 -16 -46 -50 122 -34 -24 32 -128 -76 -122 -14 58 -58 -56 56 -38 -54 4 38 62 50 74 48 -8 -8 -72 -126 110 20 -20 106 126 90 -10 90 -48 30 126 -58 -10 -36 16 18 118 56 58 104 70 12 -46 -52 20 -128 -128 -64 -44 -26 -34 78 16 -4 8 92 40 -8 -54 18 126 -18 2 120 -42 -48 -90 126 -128 24 86 14 122 126 24 -126 52 -78 124 -12 58 -10 124 82 124 122 6 56 -116 -34 126 -34 14 30 48 124 -14 -126 36 54 6 2 -54 -128 -128 -2 -76 -10 -40 66 122 20 -128 -16 28 -38 124 2 -92 80 58 -126 -120 92 2 12 -128 -126 0 32 -14 4 -14 124 -20 -128 56 -8 124 68 66 -126 124 -10 30 -82 8 114 38 14 40 8 126 124 8 -2 -124 124 126 114 -116 -124 8 26 126 -126 124 110 -14 -80 24 36 102 42 -42 -12 -124 88 8 62 50 -128 58 -128 -40 80 126 -28 -34 -20 -20 124 124 20 48 56 126 -22 42 104 20 -2 8 20 -66 -86 70 98 -30 -26 28 -14 -88 60 -22 -34 -34 120 6 16 -20 48 -126 108 124 114 -128 -50 112 16 126 88 -124 50 -76 30 -36 -44 -22 52 -126 34 20 -38 86 126 108 -100 -42 0 -126 78 126 126 22 -8 58 -126 58 26 -126 126 -122 -40 -80 -12 -98 16 36 -62 -126 50 86 -76 -38 -14 -120 126 -38 -128 126 78 -60 48 72 -120 -48 -20 -20 -36 -72 -42 16 -20 -86 -20 -36 -124 30 -38 -88 -8 -16 50 -26 -16 50 
32 2 -84 100 28 24 56 88 72 -30 -68 -6 20 30 4 -60 -2 124 -68 116 18 84 -36 44 -14 -126 -114 120 88 -126 -96 -66 -84 12 68 50 68 -124 108 -50 -6 -18 28 -116 116 6 74 34 30 126 46 64 50 -128 -46 2 -30 38 -108 -36 -46 -32 16 126 -70 92 74 -96 -34 0 48 18 126 -50 54 -40 124 76 -116 -8 12 -96 34 -38 44 -120 124 18 -6 -28 124 -126 -114 -114 66 84 -26 -122 0 84 10 126 124 102 38 26 64 -78 0 84 6 106 -6 -66 78 126 32 -64 2 -26 -122 -38 26 -22 -20 70 126 120 24 -126 -48 84 42 -40 -18 126 -16 126 2 120 8 32 14 126 94 -6 -124 -56 -74 -50 48 -108 -44 -10 50 -124 90 126 124 -126 -36 -124 4 -50 126 -8 -24 -110 -118 -48 -2 124 -52 -18 32 -22 -40 -124 -68 -24 -2 -126 -114 34 -126 -8 -58 96 -76 -10 -36 126 -66 8 -42 2 -124 -122 -8 -110 -16 126 66 42 22 -22 8 -8 26 -22 56 92 -22 124 -10 -84 38 -38 -16 126 -28 -34 62 70 16 -8 44 -126 -42 -20 70 126 -8 6 -122 80 96 0 70 -126 126 -122 -6 34 4 -126 -126 58 -4 6 8 50 -48 0 14 -90 36 64 2 126 -12 74 118 -84 114 54 34 18 -30 -4 82 -126 -64 32 -40 -40 42 126 -118 6 -14 -14 8 12 -90 126 -8 80 -94 8 -52 18 126 -50 -82 -70 -32 -122 -92 -124 14 60 54 122 74 126 -64 18 22 4 -10 -22 -4 -30 84 20 -8 4 14 -120 52 -12 -128 -20 -20 44 48 88 -78 28 6 20 -24 14 30 64 72 -126 -26 50 -58 4 4 6 -84 -4 -56 -110 -16 64 124 -32 -2 20 -32 -48 -4 0 2 -100 -54 -18 52 46 118 -10 -124 0 -8 -34 -4 76 126 -64 20 124 -128 -90 -52 124 -12 -44 32 -34 36 32 -88 100 -68 16 -58 16 -66 16 -6 124 54 -54 122 -4 2 -46 -38 24 -96 -48 60 -102 116 -126 -6 36 -112 -56 56 -30 -86 -22 -128 -2 116 32 122 24 86 8 -6 2 38 54 26 -48 124 126 18 -118 -58 10 -102 -18 -62 64 26 14 112 40 -10 -104 4 -66 124 74 -30 -64 -2 126 -120 -124 -24 -22 42 124 -12 38 112 -126 -50 98 56 46 44 -60 26 46 -92 10 66 4 -122 22 72 80 -88 -38 -24 6 -20 8 -124 26 -38 -16 108 -86 16 -4 -124 -78 114 6 24 -36 0 -14 -62 -48 58 36 -126 122 -52 104 
-16 4 -82 -88 30 24 -106 -16 126 -10 26 -100 -40 26 4 102 80 -28 -18 6 -8 32 -22 124 -82 24 6 4 -126 126 12 -56 34 -56 -18 76 64 -6 -14 -2 32 80 -56 24 -42 -16 -2 -72 22 -126 16 60 -118 6 -30 -2 12 28 -24 -124 30 48 8 20 -6 -62 -14 -44 -126 46 -28 -12 6 -6 -126 -26 0 28 98 -34 -26 86 4 16 10 18 64 -6 32 -36 126 -12 12 56 80 22 66 -8 14 20 -10 18 -34 -86 -124 -26 -82 -22 126 -36 78 -8 -2 28 -54 -64 10 6 100 60 24 6 8 -10 124 -8 28 -24 12 -26 -14 -14 -126 -14 10 72 -124 -26 12 -36 36 6 18 -32 -20 20 -62 -10 -10 10 34 -46 40 30 -30 -50 28 -16 2 -46 -36 0 -124 32 -22 -2 -70 -90 -2 -20 122 -24 8 78 -14 48 10 26 16 -124 -22 18 -128 4 4 18 124 28 -36 -8 -68 -2 18 2 16 -20 -46 -26 6 14 10 -128 -12 -46 120 -36 -18 -122 2 4 52 -52 -10 16 -6 -18 124 20 -84 54 10 36 -8 30 86 102 38 6 -118 24 -40 -14 -80 -8 54 28 28 -28 14 10 -48 -26 6 -12 0 22 -4 22 52 -90 62 94 30 46 -70 0 -108 -16 -2 94 -60 56 46 2 -122 -64 -38 4 58 52 4 6 14 -60 -126 2 22 46 -82 126 -74 40 12 -20 -30 52 -124 -66 -124 72 112 0 50 86 -4 -34 -8 18 -44 4 -4 -18 4 -52 -14 46 12 88 -44 20 6 66 34 34 -52 100 -126 24 -28 66 12 -60 -38 -6 54 4 -20 -60 16 -2 -10 -28 20 -26 12 110 34 -14 -24 -52 -128 32 4 -50 12 -16 54 80 -128 -30 6 -12 -12 -40 -16 -20 -6 64 8 -22 52 34 6 -58 30 -96 -44 62 4 42 24 -62 42 -22 -48 -24 -18 48 64 -56 46 106 38 38 -6 12 124 10 -14 8 24 0 -128 14 90 74 24 -30 28 4 -46 14 6 26 48 124 -28 -20 -26 2 68 -116 -26 -20 10 -16 -24 2 -10 -46 -30 -28 32 -104 74 -124 -126 112 32 -26 -40 -20 26 6 26 -6 -10 126 4 56 26 16 -10 0 12 10 24 -8 -2 -12 12 -110 52 -126 4 4 -2 64 -10 10 14 -4 -50 84 -10 -14 -20 -98 58 -110 -122 2 62 30 0 -54 -36 10 -12 78 42 12 -62 44 0 -8 -28 16 4 -16 -114 -12 0 4 -2 -6 -14 -38 -68 26 96 -14 -52 24 26 32 -100 8 -46 4 -20 8 
-34 22 16 -28 -24 108 -52 36 6 -10 -14 -24 -4 30 2 -96 -108 4 20 -20 -28 126 -94 60 58 -2 -40 36 -4 -82 -42 70 -18 126 32 -30 -24 12 56 -70 -10 -116 26 -86 -10 -18 14 74 0 28 68 6 20 10 90 -4 82 -50 -30 -12 -2 -46 20 -38 -126 60 14 48 16 -38 30 -38 76 -6 50 36 34 -22 -82 16 -12 28 -6 114 -36 -12 72 88 4 2 -24 -4 -10 -6 -26 8 -12 -24 12 -96 24 -78 46 -20 -52 0 34 112 0 -12 -128 38 -38 2 28 -60 -20 -4 8 -2 54 50 32 -32 16 8 16 -16 54 12 98 -38 16 14 12 22 66 -10 -52 58 34 -16 -128 4 2 -14 -8 -46 18 26 -96 -54 66 52 36 88 36 28 86 108 2 -82 46 -4 -10 24 110 -38 10 18 -32 -32 -128 -26 -26 -44 40 22 -28 -24 0 50 -44 -16 28 18 36 104 -36 -18 18 6 -4 -12 -20 -28 26 -28 2 14 -22 124 -34 22 12 -18 -20 126 -8 -24 38 6 16 2 20 -18 36 -12 10 -50 0 -80 -4 32 -26 -12 4 98 32 -104 72 -12 20 0 0 100 -92 -72 -84 -74 18 -54 22 -84 -34 -2 100 -6 -40 50 54 -128 -14 -28 -52 -34 -4 36 16 -32 66 -126 86 -58 -24 -28 6 -126 -124 -10 8 -20 -46 106 126 12 20 -2 46 -66 52 124 10 6 50 -30 -26 -82 -20 -126 -86 92 -106 102 -40 40 96 18 10 -82 4 18 -58 -34 -38 50 30 -122 124 -20 -88 -14 86 22 0 -34 -26 6 32 84 76 66 24 24 -84 14 92 32 -44 -2 4 16 8 -38 80 28 18 -10 -4 72 -92 -14 -6 124 -86 46 -56 -118 -14 80 72 -2 -42 -26 -14 -112 22 -58 -126 -14 16 126 16 -78 -126 68 -26 20 -4 -50 2 0 -40 42 36 -28 46 62 -44 -18 80 -30 -108 22 -86 -16 -78 82 -44 6 10 -12 66 -16 -52 64 18 16 -20 70 4 -128 106 -110 -80 -4 6 -126 2 -24 -100 -24 12 18 -18 88 -84 0 32 30 42 -58 -12 -8 -44 -66 -56 -68 -124 92 -116 126 22 2 18 -4 70 -98 -124 64 54 -38 -22 4 -122 126 34 12 -8 96 -60 4 -10 76 20 -128 -16 -26 70 -22 -20 -26 20 68 -16 24 -14 24 2 -30 64 -2 22 36 14 -20 24 -4 -2 28 32 -126 52 -4 30 -16 -6 80 -20 -84 88 -102 8 -22 -8 16 28 44 -40 0 -34 -8 52 16 110 28 16 -58 68 116 -62 20 
-30 4 -86 -124 92 44 0 78 -80 -56 58 -38 72 42 20 116 -48 -124 34 -12 -2 -128 -52 24 108 26 -74 104 122 24 -126 118 -122 -32 -58 -8 126 126 -102 -94 0 52 126 124 -38 -128 54 24 122 124 -10 64 -124 126 26 -72 -6 78 -88 8 48 -78 -4 32 -116 124 122 10 -44 28 52 -78 124 72 0 -76 44 126 -118 -124 -128 -116 6 114 4 122 126 44 24 28 -128 122 84 -6 -24 -122 10 54 -16 52 24 -44 118 68 66 40 -112 -126 48 -30 -46 118 64 118 -122 36 68 -112 24 66 -124 14 -124 -122 108 104 82 80 -76 -124 -120 -42 78 126 28 126 38 -98 46 96 98 12 -102 -32 52 -126 126 -26 56 38 114 -18 -42 14 -2 -96 8 126 -114 -18 58 110 -48 124 -128 40 78 -86 122 126 -126 2 -10 126 -26 66 -46 -126 44 10 26 60 26 -12 -126 -120 -58 -36 108 -110 124 -126 126 18 30 -6 126 -128 -112 124 -126 126 -64 20 -24 42 10 -38 30 82 -14 -116 -10 126 0 40 36 -28 4 -126 -46 -128 -80 126 -112 -14 124 108 118 -108 58 124 -14 32 90 -78 22 50 -126 -2 126 -24 10 -10 50 16 126 2 54 40 -12 8 72 40 -12 -2 26 126 -24 126 124 -52 -124 4 56 -116 -122 10 -20 90 -88 82 -74 110 56 -126 -32 -60 50 52 -22 -30 40 26 -122 -122 -4 22 110 -100 70 -80 -128 -50 -128 62 -108 -92 110 -126 8 -38 20 24 80 124 -16 -6 78 -8 -34 -40 -42 114 4 20 70 -126 -48 124 8 -8 -42 22 44 -54 -44 56 -82 10 12 60 4 -4 10 102 112 126 -8 68 24 -30 -4 12 -118 56 -60 -126 -38 92 -28 24 56 52 -124 22 50 -4 28 -126 -124 -52 -14 -2 -48 10 104 -126 -4 -122 22 -128 -72 -20 58 -124 -126 -60 68 -122 10 -36 122 68 124 34 36 -64 76 4 108 -14 -22 26 64 108 -42 -36 54 126 -20 120 10 -40 -80 12 -46 38 -42 -120 26 12 -126 126 -56 -18 122 68 126 88 -122 14 -124 -8 -50 -28 -86 -24 26 20 62 122 124 8 126 66 -30 58 -120 10 80 112 122 4 -108 124 -32 -98 -2 124 100 74 -78 -42 0 -20 -24 -126 126 -108 82 -126 82 -38 -38 -84 126 84 -126 126 12 -6 2 4 -54 84 -126 2 -124 -112 -10 -18 110 -26 120 -60 -110 54 -34 38 -118 108 -6 -122 -6 -10 -44 126 126 126 102 -10 74 22 126 92 36 40 -124 -48 8 -128 
-6 18 -118 120 0 -32 6 110 56 8 4 16 -16 -70 -8 -102 -88 14 72 -42 28 78 -46 88 -58 -14 -36 0 -122 126 -26 -98 54 28 -70 92 -30 20 4 -26 -18 -66 -34 -42 32 -68 14 -10 32 -78 32 -6 108 2 -26 -18 -10 -70 -26 60 -48 28 2 12 -24 -52 -34 36 46 -6 118 42 -6 -6 -26 16 50 2 42 -2 -16 84 18 14 26 64 -40 0 4 -8 120 -10 -8 4 122 -2 24 -20 -6 -52 -12 -6 -38 2 94 -14 120 -4 -10 124 -14 -6 126 -8 -16 -16 14 -48 50 -30 -36 -12 -12 58 -124 6 6 18 -44 28 -4 -10 -44 8 -8 -74 -76 -68 -6 18 -84 -44 -126 -18 46 34 2 -16 6 -12 -84 -128 44 104 -22 58 18 -8 -76 48 4 -26 -16 14 2 76 26 -2 -6 8 -4 2 24 8 -48 30 -80 0 -2 -4 8 -62 126 -32 8 18 62 -62 -50 10 -26 76 -48 6 4 12 36 28 28 6 16 60 54 -18 -94 50 2 98 2 4 -10 8 -16 -12 4 4 -50 14 56 42 14 10 -14 -6 8 -8 12 14 -22 -16 -44 -8 40 -26 4 46 12 -28 -54 0 16 12 2 -4 24 2 -24 -8 44 44 -50 32 2 12 -12 -38 28 32 -2 116 0 16 26 -30 -18 -36 -6 -16 -54 -108 10 24 -8 26 124 4 -16 -42 34 10 8 20 48 12 -16 12 -68 20 -104 -88 -46 -14 -100 -32 20 -64 8 -20 -26 -2 12 -70 48 -18 -8 22 -2 68 -44 -12 2 -62 -38 18 2 70 118 -34 2 -2 -6 4 -22 -28 -76 8 -24 -36 2 -38 0 -36 8 10 6 -32 -98 -46 -70 56 -66 68 14 -18 -22 -36 -74 -96 4 44 -20 -4 60 4 12 6 52 -16 -94 -6 -2 -16 46 10 -14 10 -18 -40 -6 20 -6 -60 -32 34 2 2 12 16 -10 22 -64 32 -48 0 -120 -20 42 28 4 0 0 -50 -124 2 18 -46 -56 -14 -48 -120 44 16 40 -70 -10 -20 4 22 28 38 2 28 74 -16 -12 28 6 -82 0 -26 -10 -58 18 -2 -126 14 120 -30 -108 124 32 32 0 -46 28 28 20 44 -22 44 62 106 -28 10 -126 58 2 -28 0 -44 38 28 14 90 46 4 16 -50 28 -38 22 2 8 -8 0 -56 42 60 -26 90 -18 -18 -64 -32 -38 54 2 -12 10 -40 12 30 -50 120 44 -24 -4 -4 -28 -6 126 22 20 -16 26 -8 8 14 44 2 12 22 -56 8 -14 -8 16 -6 -70 -48 48 12 
10 80 22 50 78 70 44 -80 32 22 -126 -40 126 60 10 -62 98 -126 42 -122 14 120 -102 -40 -26 18 124 126 -108 126 -86 -6 -58 4 122 4 -78 -126 -22 -78 -14 -82 116 18 62 106 -52 6 34 112 46 -104 -60 -126 34 -126 -88 124 -122 -68 -74 24 -8 -102 -120 38 24 -16 -18 18 -8 14 120 96 -6 122 70 120 -64 -56 -56 122 -126 -78 12 -124 -124 0 -30 46 124 -60 18 18 30 0 20 -78 0 -30 16 -66 -74 8 2 10 22 126 -62 2 26 -40 -26 94 -126 -116 34 12 2 126 -128 -12 124 -102 16 22 122 -16 -42 124 126 10 40 28 0 44 12 70 70 -126 -12 122 98 4 108 -126 122 -2 -124 126 -12 -88 -42 -6 -26 122 -34 126 -96 126 28 -126 -30 6 -64 86 -6 126 114 -124 -10 -34 -118 126 124 40 -40 124 -98 -22 0 -102 -40 8 14 -126 -48 32 126 78 118 112 -126 2 44 -6 -52 -124 -120 -68 124 -48 -32 16 16 8 -6 30 -16 0 -34 -110 14 -126 0 -76 16 -102 -12 126 34 -124 -112 124 -62 -64 -124 -12 72 -2 8 126 88 100 80 -74 100 98 118 -78 -124 124 -18 -12 -36 58 -128 -124 24 24 -30 8 8 18 24 90 10 -128 -2 -122 62 -12 -124 16 124 -26 68 8 22 -24 -74 124 0 -42 -58 98 -36 -106 86 -40 -106 -76 52 100 18 -42 28 -120 -10 26 8 20 -124 -46 -126 90 -30 126 -48 96 -38 -128 -4 2 -18 110 122 6 28 -126 0 122 -76 100 24 -82 -14 -54 -122 -126 10 -58 32 12 -68 38 24 -124 -108 52 -30 -50 -14 8 -100 36 54 126 -116 -12 -16 -82 10 -82 120 -6 76 126 60 2 -128 20 74 10 26 32 2 -2 -24 -126 -124 -118 -62 86 32 46 -128 122 2 120 76 -126 -96 -30 -36 120 18 74 -2 -126 4 0 12 -12 60 24 -36 6 -2 -6 54 0 120 16 66 24 58 8 -124 -48 -36 -122 -6 126 -48 -126 12 122 -108 120 38 26 126 -122 108 -24 124 -32 -92 112 42 -18 -96 16 -52 -18 -26 -124 2 34 84 -124 10 -126 -50 68 34 -10 -34 76 126 -122 -128 22 58 -108 -48 -122 2 -108 -88 0 20 14 34 -30 28 -58 -102 126 -12 126 46 -120 -24 126 126 -80 122 -122 90 52 40 78 -70 -18 -78 16 -126 98 -62 24 -124 6 24 8 76 52 -124 4 -4 28 -46 -124 -48 -122 124 124 -2 86 -48 28 48 -24 116 98 66 40 -22 118 -32 -12 
